{"input_size": 784, "layers": [{"type": "Dense", "input_size": 784, "output_size": 128, "weights": [[-0.003571232729004483, -0.002881645072550162, 0.028537112162980802, 0.011232943616652452, 0.02416584444256591, 0.015084863282288728, -0.08666346770715323, -0.06323976830096398, -0.07106212005919366, -0.006466318216813457, 0.0939583537028528, 0.018753270732093597, -0.009312155082107284, 0.019509780014400836, -0.05018795834465517, -0.06114333190132716, 0.026555074626827622, -0.038919390139928456, 0.003880187668884847, -0.030281528794565814, -0.04212959652902209, -0.05206238630647621, 0.015616641021211337, -0.06246615698699857, -0.08491159351984189, -0.012789870856368589, 0.07288564885584688, 0.008410237503000332, 0.02454957034873674, 0.03693932965425493, -0.017469853959975315, 0.012366874678631798, 0.016994958011363293, -0.08349556899245507, 0.01691713359142345, -0.07925953194699695, -0.03183155226940289, 0.06825068086840619, -0.13537744205205868, 0.05539823207197804, -0.02098539341783192, 0.012525539160891927, -0.12081099062836541, -0.04264791154476266, 0.02342607128402894, -0.007150531935875787, -0.02031425813771401, 0.048906583538242815, -0.1313184853162728, 0.10586641592093596, -0.06436547565255497, -0.07076392078984546, 0.0027539239635527408, 0.058177787492444004, 0.011790640401130125, 0.03761252469049415, -0.03409366933810419, -0.04323444584162245, 0.030641999745564193, 0.02928964214835977, 0.021847378394275148, 0.05325239505457841, -0.01577563260368295, -0.11992801792142305, -0.019078867336263985, -0.005764282441373549, -0.09225803755167129, -0.027479683602329566, -0.07277379733271462, 0.0002970052700055772, 0.02041465956307423, 0.00723906849545469, 0.05113824630663948, -0.06035859251444641, -0.01740310043316655, 0.008015429119406807, -0.01716930091755046, 0.04581831285237991, 0.03633309195502926, 0.017693875003987992, -0.05672637558133719, -0.06369554953011826, 0.04369430235272009, -0.024780142059078282, 0.03351413905005888, 0.00029597326153917475, 0.04235864478040528, -0.004819916903342198, 0.02433930934602693, -0.03733566823567982, -0.04287474500173589, 0.012372391539097194, -0.09649245316981685, 0.035679491897521266, -0.036776387165321146, -0.04725312030397035, -0.025276231941016705, -0.01756365700912594, -0.03567321981151145, 0.014198060144489232, 0.017443524390139763, 0.04192514813121602, 0.0872927096113036, -0.005223415164851345, -0.11440334367366585, 0.08541881541785852, -0.03721529242789878, 0.10928002172374987, 0.05669098841009801, 0.03759354918943754, 0.035943601156764246, 0.12021853282224611, 0.10508701013360187, -0.05863849803933679, -0.037317042693458556, 0.00043702453897421633, 0.0021954170144684315, -0.11852510156759472, -0.05609715195011722, 0.05951990523190833, 0.04561532103937477, -0.01337008244842896, -0.012285732738567774, -0.011789304042312525, 0.0710893899694318, 0.006022163310912108, -0.08351600736202582, 0.033937156631335834, 0.02395392185268638, -0.029677634592829707, -0.03217758799993016, 0.005711593885440437, 0.019497037650840123, -0.08916404259928766, -0.08882850451714287, 0.0025017928508389974, 0.07988698347788463, -0.045903930690336055, -0.028927097187080482, -0.18600247290443506, 0.02551187199633144, 0.048709818656324, -0.01785670245437225, -0.05680340624279026, -0.07413038470164628, 0.07739430436640249, -0.02444020772953206, 0.043900827999926346, -0.05150986118329715, -0.055160853515082514, 0.007920331079777963, -0.03705704401289176, 0.006134549793522533, 0.043352969449050933, 0.0012639034233902925, -0.02531262114754985, -0.02314634956360648, -0.04274330467806215, 0.015228340202079, 0.027457264641718566, 0.03789661905258808, 0.0775676791755537, 0.038289470020090643, 0.07410392814553178, 0.02905220785970369, 0.014691119828136782, -0.056346686540823115, -0.023868671164003034, 0.05112082318242398, -0.05470201855994014, 0.028328717386984087, -0.05788510682564353, -0.03813371216272714, -0.0266133939935755, 0.023169817613471554, -0.0599238281249577, -0.10713572496564026, 0.003915713500462605, -0.07806708660239686, -0.014380137868042583, 0.07092909600520665, -0.1202095967028312, 0.026538861917097274, -0.0370254538444662, -0.06306103854289771, 0.06991566652969797, 0.012976628845972256, 0.019051223727692263, -0.03704057146113349, 0.11471398363442166, 0.07826443373561294, -0.024941544892240857, 0.015873078711550914, -0.1214464345207787, 0.06318715907711496, 0.06165303895982077, -0.04509778212182955, -0.005347609546246433, -0.011583381245284942, 0.009657490347004636, 0.06475856903686787, 0.0196504392664868, -0.07636662423286951, -0.06820721203883905, 0.041555902507963864, 0.05538472993099967, -0.03976808730460163, 0.03002862763247919, -0.06270626042331882, -0.052798195234633326, 0.0627955216887033, -0.015021344476316707, 0.034681399528192464, 0.012774791923712671, -0.06041890656311928, 0.0032982062503051665, -0.011927960965671029, 0.042902819142700714, 0.01454515461250981, -0.08675249560423552, -0.014378713152540962, 0.006946072579128466, 0.02226447419507215, 0.046910779101345175, 0.02321178440450854, 0.01937921223746569, -0.06923863883837623, 0.04173788793349104, 0.0458594097091846, -0.03783704170713827, -0.0299938203572945, -0.02806136994654563, -0.04790117458035645, -0.029728623800014734, 0.005406144840134725, -0.008530393691357696, -0.09829941167849943, 0.0399164114564963, 0.016528502099852384, 0.06558174848526394, -0.013891971417469225, 0.044437058608066654, 0.03758294339167248, -0.06518567030537747, -0.025035117189661973, 0.00873576961354202, 0.08232391032693202, 0.12268686230098955, -0.07023314813983997, -0.05736110044593427, 0.030784897940994923, 0.004998376851542555, -0.0030226622527304964, 0.04182550954654439, -0.03843054501285268, -0.04606145424155804, -0.05459025908227768, 0.028200096172363093, -0.038139529384779415, -0.06719494071171382, -0.05119864854692997, -0.05222215140257648, -0.014199796882374738, 0.01627489913292885, -0.04431702881847986, -0.09065322314592011, 0.015269158786909749, 0.011235431229842668, -0.031872060791312336, -0.0521265722241544, 0.01737528401263959, -0.048007879122778305, -0.03192992330392031, -0.08354100214764948, -0.017254676276650442, 0.017802686444799962, 0.04223912029635495, -0.07595458957105819, -0.011070602536657015, -0.0367656354942376, -0.0033198739021650216, -0.04035180562189943, 0.0017323680355653323, -0.11945257063787039, 0.035234442680244664, -0.03038060531746402, 0.020639133200275696, -0.08636307308925574, -0.10585115555759318, 0.026954505770271454, -0.05775881085617359, 0.024557629680053348, 0.00736390034305517, -0.06496252995720349, -0.04170747415899448, -0.009403191527551194, 0.04106198459996186, -0.02363744073614214, -0.028452887708661063, 0.02312530227265561, -0.03543621564847703, 0.038926696593586774, 0.02461215831939063, 0.03193719365943031, -0.10998627473000921, 0.029663260813630347, 0.004483710362635134, 0.014404172316520636, 0.11493561305757523, -0.010964443081981511, 0.0408030030449332, -0.04802241461790332, 0.0511917751493956, -0.05468262692889612, -0.03239526620275527, -0.06789962002231335, -0.017679038210808417, -0.08101765245742291, -0.007130414409337564, 0.025786766679145468, -0.08217798368056017, -0.033667076416072673, -0.029807241159634887, -0.02815912662756223, -0.03046952078089377, 0.06790684559412676, 0.011793342906389602, 0.05527625031678351, 0.08987778444645932, -0.012573632020243641, 0.05111026983910385, 0.009319142443895026, -0.025923723656544065, 0.03668989911390791, -0.05506734746359703, 0.06458320313203568, 0.0036598376233703002, -0.06882527656926647, 0.011493728496181138, 0.029749702165208634, -0.05409693069207975, 0.1094193371169234, -0.001693658082628764, 0.02630623505340959, 0.02995332648747684, -0.026961096484319817, -0.07524733190473647, -0.0454390075791375, 0.011951792622194328, -0.025930134677851834, -0.010353834222772801, -0.030557651795313247, -0.027018070569983843, 0.012469794931975272, 0.017356912447187938, 0.042391823195720206, -0.009110723934983562, 0.028469510525001313, 0.005964644537759497, 0.00563209456903121, -0.03991203765144411, -0.019247287041523807, 0.11516206431242514, -0.03984976137285733, -0.038605063621541355, -0.05052260930590681, 0.0009532023126285562, 0.0028271119791536507, -0.004009210893778416, -0.010149388875270282, 0.034481720395957836, 0.05146674313558418, 0.05841074418166995, 0.038797052627087096, 0.06223916888840602, 0.061335387792987896, -0.00030564590889996213, 0.07819779385775752, -0.06288368078473502, 0.014309201281940865, -0.077784407106789, 0.08760258963597184, -0.005264826517359571, -0.03100449402796227, -0.03258819285388357, 0.04819351113888821, 0.010337243017739563, 0.019447736173147906, 0.04909678009610751, 0.08153922781414372, -0.026059084388245786, -0.01768804486579986, 0.010521060408333631, 0.02644528405157408, -0.0625794907761626, 0.008525854499245485, 0.0005666390065235035, 0.058295784946025435, 0.019729311070313112, -0.001663131753768295, 0.01908520965503694, -0.04576290236704189, 0.018813611192383388, 0.026231650788509434, -0.11319314739019173, 0.009304156927624294, 0.025531612486040144, -0.050101232742598804, -0.021169847771706635, 0.020212852944573895, -0.03939400636121839, -0.014045152390970357, 0.012810807140080687, -0.02479093024027554, -0.046662419842021075, 0.08346357531339249, 0.07834288214805438, 0.06814118504720339, 0.06550265095232441, -0.022094975812199887, 0.04081146809349646, -0.02288374285625972, -0.025996994237104276, 0.04631911474533942, 0.06286168458875094, 0.006580878085724864, 0.04543003562189162, -0.04255220726122044, -0.04834361041754747, -0.07406521653629582, -0.01620303174416635, -0.005576876034062371, 0.0012585435225050696, -0.016383753918832747, -0.033728572180223765, 0.02801284890027179, -0.17937709645410055, -0.06471949214798613, 0.05650414034856187, 0.025488767321028203, -0.05625967145573545, 0.042506027131691014, -0.016206839575165527, -0.01948330782499207, 0.09108761007217793, -0.03598909031522092, 0.02324090911713769, 0.03495530218332423, -0.0062384937830561, -0.0656610978957541, -0.03273082851853067, 0.02015946126778194, -0.06366909827632826, 0.026798993084196438, -0.061131405783744534, 0.010408488420864956, 0.007448389565933224, 0.00515337325543078, -0.018855927875385346, -0.008930165340175001, -0.025057619306382128, -0.022020842890587713, -0.10793343967923244, 0.022273754362318876, -0.01564461615587559, -0.05599436748857145, 0.03413123606637322, -0.04691230617380036, 0.010829750644585375, 0.036823846093384974, -0.01735865308624522, 0.08228381754204338, 0.035541020224171584, -0.00040085706578414556, -0.04684688458651052, 0.06329894232094364, -0.0939815230318341, 0.0006938457590899592, -0.018576480416029367, -0.038458371123838916, 0.05916921900299301, -0.0030385750414268164, 0.09559478244540177, 0.10253576512802882, 0.04386381667347449, 0.00037336844198438096, 0.0435288479577925, -0.027611996637462142, 0.0261657943918941, -0.0674716252254524, 0.017060795919296975, -0.04960395133477877, 0.011356144703129652, -0.06776955445600714, 0.06680776979430887, -0.029917089085557264, 0.061679327555213374, 0.04625261850917774, 0.016578385120890313, -0.07023829531886983, -0.013799259451743935, -0.016929169237810092, -0.07540877598717254, -0.02723571570615205, -0.048203694876485306, -0.00552515081085704, -0.008197878957609801, -0.04795907765430774, -0.05178367407626963, 0.06094154280208816, -0.0072446538963845735, 0.0002178661850946671, -0.004979928553063339, -0.03638962495791808, 0.01795535069243341, -0.023941551895426696, -0.012891703208898004, 0.07727517986006155, 0.006304158598427689, 0.03705972335446045, 0.05850974628283655, 0.08542511421070147, 0.026346819818957187, -0.11125280428998643, 0.015667619204375795, 0.0034756737759922543, -0.005969357215217978, -0.03462862886383105, 0.10204648877386881, 0.0008022914339518345, 0.004206341722146141, -0.0772627953849848, -0.04054883495798567, 0.00686169778536811, -0.0342274208195238, -0.048846953526473655, -0.12406351281821662, -0.03992819156310845, 0.08994649488844796, -0.030051665518773554, 0.02983524112148958, -0.05558218489097587, 0.0039117337965582305, -0.007869401407950616, -0.025095960473067457, 0.006599916993284548, 0.05714490864363056, -0.015378519446918452, -0.00933227926278222, -0.0028351709184282273, 0.06902231752513788, -0.020953902325260693, -0.1231714501066256, 0.106594498103581, 0.043272799705314204, -0.020999730250089704, 0.055232628743318815, 0.05112893537912592, 0.08909511341744097, -0.006752711403481277, 0.025145244169086846, -0.042124748482408846, -0.0023774387578467436, -0.0019558838002412078, 2.3023691153271482e-05, 0.0042059076217631506, 0.0406208206970253, 4.008378341527816e-05, -0.04489864164380758, 0.1217129663239442, 0.027332016293844248, 0.07018890360100062, 0.01553629126611137, -0.028958356529330573, 0.029264482862377376, -0.0769718734485386, -0.0017857918557680913, 0.027972264840177622, 0.053753037554190884, 0.02745941757804419, -0.07168999177426887, -0.024927199365194098, -0.026452861372029225, -0.014839013093251877, 0.042741076385132325, -0.10356808739402795, 0.04433249273473372, -0.0019680901801133687, -0.07363879769609175, 0.042569100823339555, -0.06523772985420506, 0.022292443535875013, 0.021513504809178158, -0.03810732283460662, 0.009207917127205981, -0.04509118940671454, -0.03479816993109956, 0.0121467442406857, 0.016725453392963007, -0.0031208815933089964, 0.05028905772975523, -0.018824711022446816, 0.009460089533348334, -0.1125025163680182, -0.0039162706664747785, 0.015760183481033432, 0.05742629913964993, 0.04172102357194846, -0.016183895081888514, -0.007113296594491335, 0.014025691813603913, 0.013982327077911154, -0.06318417841294015, -0.023433432993836045, -0.016256650256945473, 0.03533122593795649, -0.018609842284934897, 0.025947430045733834, -0.07829218570092997, -0.042353089891272094, -0.0062121093351112005, 0.09616856254315174, -0.03497959948898102, -0.004515833337588822, 0.033322945478266634, -0.04827779086220332, 0.015107664238063126, 0.0776303771152073, -0.07269748720968866, -0.005031719273070591, 0.024466895445636096, 0.0005471324604871816, -0.04617653610104493, 0.016337146900837502, 0.03304051343439586, 0.0667658785782843, 0.04596107038130621, -0.06779331323871342, 0.07143261977488746, -0.040891186740661216, -0.006623993041665986, 0.04301123196880265, -0.033932718520475504, -0.06812869408315178, -0.019206160018406398, 0.008440309487681904, 0.03270755168222119, 0.004174771139934966, -0.08182606653707056, 0.008862207484208288, -0.009684107163128345, 0.03786077782641718, -0.06564158219067177, 0.07593074834250543, 0.03226957206606734, -0.030887320547593265, 0.005310567844198851, -0.0027748720251572385, -0.05262947041837506, 0.003215013682103777, 0.06738637182840213, -0.040490619938105134, 0.002224542540569148, -0.0017965629548756339, 0.0055048939218722785, -0.0049486512138808775, -0.022124219595815706, -0.012128951641943454, 0.03250692529873908, -0.01157966011628348, 0.01761903432237848, 0.08197216251543388, 0.0706309786008225, 0.05436963104960526, -0.06485850009977319, 0.008346052687194518, -0.02275376056525855, 0.034944533427364165, 0.05044047490607397, -0.05391401630034297, -0.02829623531004569, -0.08318464763549645, 0.052641477265657495, -0.028733141966941815, 0.028574902187402402, 0.04529107766059369, -0.04692527625379648, 0.03007864111133565, 0.006828194349894979, 0.045150911716091445, -0.032631109853184306, 0.056990323062498356, 0.08777504968182769, -0.011487585600730443, -0.07895776858067861, 0.012078854339830823, -0.048157923330403904, -0.04167307125222644, 0.01634840795331293, -0.011377598678934795, 0.091518472544605, -0.022296892490455064, 0.13610055825960574, -0.03338856589163679, 0.028739237867272078, -0.03658545362238031, 0.07679381221136997, -0.012763312595774212, -0.018185551256280536, -0.03784947689030197, 0.008650869611621972, -0.059581610664880026, 0.021301857150280358, -0.09874484934426013, 0.06080823227236882, -0.01260446736249531, 0.042118089911598315, 0.025504331166744016, 0.07414484424488889, 0.051655560197259164, 0.08020495254115456, -0.022044945472243723, 0.08635606433661568, -0.015224318938501414, 0.0384292867129757, 0.005546569448819291, 0.01830545925196287, -0.049399587867742095, -0.0590348310689497, 0.022414828464313575, -0.08926548822866542, -0.03721075202316082, -0.044848960151431284, 0.027321854550609346, 0.06005595991688043, -0.0512858762323574, -0.010551345118528854, -0.007352288263630756, 0.004228506780567551, 0.1080707445045412, 0.009784031006604918, 0.03582261976559033, -0.11371193508336078, -0.03173050757108396, 0.03345357545578914, -0.02965482872915776, 0.039742964211283725, 0.019551987220963202, 0.014369182204216825, 0.05730010834856939, -0.02552581284617332, -0.05180467096050986, 0.05199346283420936, -0.026802720187081852, -0.017902516567588005, -0.03603231867616355, -0.11439924042521699, -0.08213692758781467, 0.008840580132351256, -0.07437419687605464, 0.022682750348042104, 0.028454643838965826, -0.04830245959655486, 0.015891362908055075, 0.04166111026703396, 0.13129284588766812, -0.022113422980907016, -0.021296432623102254, -0.022346959146649026, -0.03138138263162327, -0.02021257493108064, 0.003086572889750651, 0.013952314451553316, -0.028381978133992816, 0.0012334069744106713, 0.05058586945641541, -0.0034279494542402513, 0.02178013239048776, -0.07196924072667076, -0.03335579709681137, -0.03450895810885836, 0.06454018554668943, 0.0547634357942622, 0.02924625613911078], [-0.022220069434972192, -0.0010750473558684677, -0.04545417156900259, 0.004742102002677851, 0.01940399643547664, -0.0022566007681004657, 0.03028163166494383, 0.1162937232384401, -0.014075075520951887, 0.1001380458480127, 0.07743822881673265, -0.004775231329153282, -0.02892274676048598, 0.006657057879914306, 0.09768601847059337, 0.020099287441336693, -0.023686211711761777, 0.12162428264349488, -0.11181314622287135, 0.08655003023605903, 0.04757545227598991, -0.03983095541844115, 0.11736185278769512, 0.01975279666558608, -0.007165574809520307, -0.061424901269039746, -0.05030355614918798, 0.01811991331120889, -0.1096330483031378, 0.07446320095945619, -0.021333038592280987, 0.01780671354388229, -0.0009708176843565108, -0.007073440821827642, -0.010242410474802129, 0.12210092452082401, 0.030347389541285227, -0.022957967573088614, -0.023037842959458252, 0.04385070720358427, -0.04289736658813505, 0.008298185812189655, -0.09514915246005859, -0.036817101793702595, 0.045013156806550644, 0.05857457607806641, 0.019287439987312287, -0.04918292063091363, -0.0076710877620181995, 0.09020962791539892, -0.020768838594614782, 0.07224648196555201, 0.029748134954112066, 0.05513817438886102, -0.0016824298728031562, -0.08962252989768277, 0.04194267484582391, 0.06310029232226866, 0.009095438456944351, 0.01977848452650352, 0.0017250111276661516, 0.03259350109711917, 0.010505103207489737, -0.05373077146838009, -0.05081589320544789, 0.05605413000760946, -0.011860482488676572, -0.03132988786994038, -0.028324987245724482, 0.0010545787410439224, 0.03720494102259818, -0.01661679339586324, 0.03287967365787602, -0.0695513129949546, 0.05819586919839671, 0.006789967437165465, 0.035103300285908204, -0.034750141502929245, 0.09631268552097723, 0.05651390313770767, 0.016839219623403984, 0.03084849713030999, -0.06644287422701668, -0.09774046728709085, 0.0316137794684105, -0.07751691859196826, -0.020546779678771172, 0.05377290900200175, 0.06420197604946522, -0.04411242502171074, 0.047280985803319915, -0.0015978201103425062, -0.013899067719248407, -0.007372589601417519, 0.013477934147697485, -0.07952196680093902, -0.1238403965072122, 0.022896005233654086, -0.08702470963619967, -0.028211086797856704, 0.02289568974421666, -0.00211316316798847, 0.01055905909073289, -0.016757912224439588, 0.02864896176041369, 0.04227194582331408, 0.05679591817000427, 0.030209879821411826, 0.046118539500933094, -0.02800430412863925, -0.034534598261827094, -0.05395888376650191, -0.10321661371514912, 0.0251361295315818, -0.012269425175034758, 0.012083801160110671, -0.06655474994382783, -0.040958220561426124, 0.03866714771047585, -0.019677940799294535, -0.023270607380796508, 0.03138385884627556, -0.02484794847047086, -0.01637851814659746, -0.027844151470659138, -0.019431142220789864, -0.04101149104566867, -0.04259842312986071, -0.022287783767418377, -0.04524489007211954, -0.03008326904404341, -0.01770688529125195, 0.011875809843483716, 0.08083501272782805, -0.042419830021293375, 0.022293648897247786, -0.0899687828887476, 0.0033565784561287552, 0.11140272433664569, 0.10834466512381428, 0.028444345491403813, 0.013621211150331866, -0.019198905056891737, 0.03165467124175028, 0.1404671577429317, -0.10654599550659472, 0.03791750640460574, 0.00023082325622961325, 0.013242948543560212, -0.05559493433955853, 0.004998565902448228, -0.03282374807134145, -0.022957130832009592, -0.06154094201107266, -0.0309678360366876, -0.014120472088173325, -0.019068705952194707, 0.045227162116391204, -0.021055509002110288, -0.002480357632879824, -0.04094326355820501, 0.03639399367310239, 0.03931895873043715, 0.006644629108331121, 0.00971377122172297, -0.03412428321615627, 0.043153404740659776, 0.010401911757583138, -0.06994603683894104, -0.013889542290977866, -0.02486961743018399, 0.014510826607826101, -0.047091120995658466, 0.0008080000848880728, -0.022364472811351375, 0.01498609564725647, -0.03675611743358408, -0.06563042336818, 0.008966364676915358, -0.062231333991235066, -0.009826153424858783, -0.03134626266328042, 0.030340646804990185, 0.09303592744818065, -0.02499465768286919, -0.026288804983237397, -0.0840987643721596, 0.05223109202757462, -0.01803093428462899, -0.03781324427608757, -0.04583494754942753, 0.06025836407597545, -0.00022474282288164222, 0.09414130646228927, 0.005600201582597593, -0.04096695933822759, -0.041325381762301966, -0.015396661740851062, 0.016308136771765718, 0.043017100785758725, 0.02966898878189562, -0.014879374415919869, 0.005100037343543531, -0.048600087155823014, 0.028811055243109382, -0.0623680951440693, -0.10316473775131146, -0.05208652964690351, 0.1182698481468141, 0.14100896185653844, -0.07844671131687131, 0.009460971346810508, -0.03123098516155002, -0.002042086423837632, -0.009687516735558097, -0.0006220410088291024, 0.0012806233577083183, 0.028615891739224728, -0.028390748818363756, 0.06777996539369685, 0.0877159453543264, -0.007671864659057659, 0.014235137802876722, 0.06411256295891204, 0.03483928828276074, 0.018413746505370043, -0.021165527005224245, -0.04248105642180864, -0.044603687519091786, 0.006622943505420757, -0.11075361935305247, 0.036825166588207704, -0.04729175733495189, -0.055427665747467526, -0.05426341368860749, -0.03587913963387697, 0.06909952024852606, 0.05638420125589922, -0.013416620273048649, -0.014061478169419857, -0.008012085799871631, -0.02178808746895952, -0.13965061287425795, -0.10177991473978713, 0.04334512817647159, 0.05640374256182138, -0.008984591342666708, -0.03790017041429424, 0.003602452379953729, -0.013854559326616361, 0.023406362433554023, -0.1338449968311599, 0.010147783180364906, -0.0004951259097495322, 0.03838899035204398, 0.01188286718524254, 0.021238205046844254, 0.00964930802885333, -0.01530000416164279, -0.05760980779319821, -0.03417161295842515, -0.043541364764898505, 0.09944510984691037, -0.0006646030291426968, 0.00899491566001107, -0.07221977085700801, -0.0794191874932863, 0.02683259015727201, -0.04873389866545777, -0.09878672735208735, -0.025450707278212473, 0.04078473504658514, 0.1013094875826699, -0.013909880408631097, -0.006651329611857056, 0.05106630759589874, 0.03215726841929101, 0.017153652423568155, 0.06358431580024329, -0.0842285495961117, -0.004453818578373738, 0.034238841925090434, 0.040602067574027755, 0.089463894869476, 0.06478038829010328, 0.006867592372721477, 0.07051766957978817, 0.08957971554546805, -0.02046988542809682, 0.030585022220612556, 0.016195247058118416, 0.005097229290292315, -0.020770756010558965, 0.03069547423787098, 0.01163398375859566, 0.019518301295875333, 0.018783230367126827, -0.050823758327805044, 0.023354866946884153, -0.10530627284738099, -0.004664319789059513, -0.052174493264004314, -0.03502994654422453, 0.09006223196401755, 0.007175367303167374, 0.03303645548125487, 0.036450842195334066, 0.05204198867183097, -0.04414001841718735, 0.04858206259776341, 0.054838052329739186, -0.02493942406719593, -0.06643841644110923, -0.12169105785453588, 0.10135649679700819, -0.0027542329662722984, 0.07207393912967043, 0.046797286459999025, -0.03459355127799058, -0.11608802900038488, -0.01751610195039795, -0.03217896518337975, -0.013850494442660408, 0.0015585660802503887, 0.04088674026543701, -0.0031369457915157877, -0.05706779075672714, -0.022244265776657866, -0.016325462579813342, -0.01998394216119628, -0.019338060307600706, 0.009976769516614813, -0.018903879875857003, 0.02413787205709733, 0.09597588880684099, 0.002285895035721914, 0.01105644892223635, 0.02677291693789274, 0.14915813829885213, -0.01087477253158429, -0.015981378993511246, -0.028334385640886053, 0.10166829546555803, -0.08068398702079406, -0.055367316775451085, 0.09276924513616397, 0.035495357560964544, -0.10535576515547847, 0.02563123700290976, -0.053927616999859956, -0.014279412446694754, -0.005073979040789075, -0.0031318585298865252, -0.03159376586705264, 0.039692965825665484, 0.07261407803057082, 0.02755700363270219, -0.047175906381580805, -0.06460148732376882, -0.04550938307178608, 0.022314775367841128, -0.07735085446716343, -0.04940092978256991, -0.02482069800086442, 0.019415131620593825, 0.08485465108856441, -0.00250597208627503, 0.05758946078992127, -0.0013649008084541492, -0.03709530965384525, -0.06528178962637173, -0.03593936570708153, -0.010565046641072297, 0.04557137716935823, 0.022368917601865823, -0.040624426708207, -0.0026644855309683854, 0.014862241118761001, -0.013787392666774945, -0.0006103853602513159, -0.03642105565823074, 0.03990833900689742, 0.03232310244446984, 0.004963482740178834, -0.02542919265240522, -0.046190735634870445, -0.11837062779399625, 0.07450473231848793, 0.046884540373801235, -0.05035668073225336, 0.04434739605750067, -0.011108806719817583, -0.07354673383049434, -0.011553338428403542, 0.009198707868509128, 0.0008800592683873815, -0.05021629583486778, 0.025553105840049765, 0.08149644292050034, -0.04884661617663778, -0.09358328594882308, -0.03157742498272883, -0.0338914752781647, 0.049610480130832815, -0.09133827760698118, -0.019978248624189468, 0.05517821650521449, -0.04626733893214778, 0.020490902544253592, 0.09632494830566503, 0.012769135605214617, -0.013037453888191195, 0.04407343332119684, -0.004198833251012209, -0.000908025784224443, 0.010597837855533525, 0.053300981695648605, -0.002641540065768058, 0.026025398875146336, -0.018762544955418813, 0.05948657901061124, -0.007486263464654124, 0.006761311360923098, 0.026678131163323994, 0.004174951986865836, -0.016979197258144323, -0.013681483553546911, 0.06801047017666619, 0.08698303631257587, 0.05728610288926332, -0.005906005954255852, -0.005240137028263688, 0.011417632650840061, 0.00823791285512771, 0.03575991081200448, -0.018870771343224717, -0.016852990120564838, 0.06061797421186763, 0.0006715780274753247, -0.13465623239759267, 0.027318160478992357, 0.05565559789417526, -0.06251586899563798, -0.006257398874233373, 0.058339114446284486, 0.07023717741518858, -0.033245361661190194, -0.03453772414873593, 0.039813167094272135, -0.021740099788332627, -0.05876922009748082, 0.08563473743040895, 0.02234883695896121, -0.00420133525882875, -0.07591000474486248, -0.03132567162322912, -0.014891622001352712, 0.030698544722608863, -0.026972625463696515, -0.032563952083051455, -0.0006752014631726926, 0.018631560153775355, -0.05175211820858748, -0.013103129553195189, -0.023816264600804993, -0.017919206606892557, 0.012474286089663694, -0.009167262077367825, 0.08972026470834178, 0.008251777931614435, 0.06369638822804305, -0.0713715330978861, -0.012566532615556037, -0.08173484373024655, 0.018531858189205917, -0.06364215859121505, -0.03948173978134351, 0.05623162816349894, -0.04288158435525285, -0.027171803466945355, -0.000793568470436953, 0.039010233745778826, 0.05274172289105569, -0.0881725405897603, 0.054274841417648136, 0.007732374187048967, -0.04542864917864248, -0.01672539862703887, -0.016566562276794386, 0.03020445821791862, 0.025992766492502574, -0.04571148362012285, 0.026167976184360977, -0.06218806310407499, -0.07398893377315521, -0.0650775059857597, 0.035161797673464376, -0.04118383334518458, -0.02279655555860307, 0.0179435120277382, -0.024424302012787783, 0.032325971026530086, -0.057864410237879596, 0.006699096575914761, 0.0012770434142108267, -0.02412687482480195, 0.043617190280228056, 0.0027440675080648335, 0.018967149211788586, -0.01917117028416756, 0.09011301955681895, 0.06773296242721619, 0.08010999459669234, 0.00599486310237876, -0.06783261063245555, -0.08626627388569434, 0.0365984715858028, 0.09443969526045055, -0.08862562194017042, 0.05096181272582479, 0.008640638845300138, 0.035979985518667205, 0.006791999737718607, 0.012010925254866267, -0.03469070732912196, -0.0290848871724633, -0.02899117851622509, 0.008224958074951598, -0.016799721535738513, -0.016522267610588646, 0.03464512735020424, 0.08132988894133325, -0.002085911511388467, 0.01839047751358991, 0.00974775118941194, 0.014877867475126802, 0.026203593788716874, -0.06487602694051935, 0.04902446566854312, -0.08503786834571507, 0.07940505196652528, 0.01288784538004589, -0.11647092396637383, -0.07858098290696283, -0.02561177585679182, -0.020498370279677464, -0.04569050413126024, -0.10257434524293556, 0.06885210515789414, 0.00967710537268288, 0.00014956099811304339, -0.058926607715462063, 0.04110436323932186, 0.00801056981616959, -0.030299419262322005, 0.049433974923085114, -0.10114043465109368, -0.03683427613909142, -0.001244095409987394, -0.007326794468259009, 0.04219593948656803, 0.0007256448615785652, -0.0675849476484805, -0.11497794829853336, 0.04809794735963674, -0.10646801418561147, -0.0024170337486199046, 0.015393684024076905, -0.0521710318409624, 0.003962074740005885, 0.01736711533959349, -0.004903805185233099, -0.02060641323839161, -0.008410648479813354, -0.001283581475754656, 0.03402461995484103, -0.043809329506108385, -0.02620713970644227, -0.11414627111651104, 0.04555958072331464, 0.0987290353117305, 0.044991319461964496, -0.006173862125467038, -0.033751770935838, -0.05141279466398892, 0.09320645972424708, 0.006528170307477668, 0.02629343907794434, 0.07095196143516941, -0.03040363526380093, -0.027611106473398445, 0.014359796191360857, -0.02062950787304633, 0.0028576366712079206, 0.02545916184911687, 0.038948515219650315, -0.059633499057680874, -0.037627322801709766, -0.021235909006598764, 0.006472309403523014, -0.04490903888392276, -0.04947658562493231, 0.014727309958046867, 0.03676355455068794, 0.06623305579411541, 0.03025331739132572, -0.028485113000497653, 0.06743740702879344, -0.040744617899551056, 0.011543824596919352, 0.03181006982012961, 0.04953321191842308, -0.04397887329430065, -0.03588233603510156, -0.08094623787041708, -0.003565686391580546, 0.07687657853317953, 0.018829877980607954, -0.01436206095220615, 0.00454892961503472, -0.028291434164317144, -0.002276664701538492, -0.06652613479025543, 0.05164478154932269, 0.026170487826372754, -0.07474389274090054, -0.0794814986264753, -0.04100405284044983, -0.07394948409098205, -0.06153841268633525, 0.0439103911143089, 0.015000925439734246, 0.028822982497976025, 0.005574254136929432, -0.06790291934352381, -0.007732006920396327, 0.016726768869112698, 0.03527146996754964, -0.05032193060717184, -0.05959515409994002, 0.019562820336279783, -0.02131989677103558, -0.07610884625878149, 0.056947727940089524, -0.005275645310066736, -0.034332809703606144, -0.11979444236061043, -0.075353368157162, -0.024194519959004145, -0.04954024434274553, 0.054820412412619854, 0.008359285934213806, -0.07581833015469601, 0.06911318459525151, 0.04782873636708532, -0.08114118764842175, -0.0304426889868132, 0.036459078508726234, -0.02603413735957104, -0.07705670704894503, 0.009254215505256921, 0.03225328230145454, 0.06700959578284767, 0.024365228880385677, -0.10100605891504677, 0.0047995195640639894, -0.015182300135539908, -0.03909242537498426, -0.11393676643063261, 0.007965214107827613, 0.01656770831052419, 0.014160295594818953, 0.03913819275346481, 0.049227179349434005, 0.026393700111197415, 0.08748667371656534, 0.04362829850288028, -0.057249014822716195, 0.10587092361278445, 0.08592741670975741, 0.058076074801567346, 0.04890255497676455, -0.04531716786487842, -0.004395920650464191, 0.1317767441199848, -0.056444838600296025, -0.02010408275118337, -0.015073419821330813, -0.03691673637922979, 0.03914829338746982, -0.013005861640069479, -0.031251204642328737, 0.0164525861179992, 0.02054181833073943, 0.01732246173292123, -0.06737503258548039, -0.05745117969730721, -0.04725999853528585, 0.042575565689542676, -0.09102624845243772, 0.04991701344369603, 0.01789604071504903, 0.038579200384383214, 0.14296317395001107, 0.05695794027606512, -0.04440845575308341, 0.008222254329587418, -0.05683956292391292, -0.0006629034232992964, 0.011357917663246406, 0.03383228975913607, 0.022958907823123702, 0.027613397797300883, -0.02335648569948792, 0.012370375763660003, 0.07868819972465804, -0.1825562460970744, 0.020508227659359553, -0.006050035898517199, -0.007332805319651829, -0.07038695300485746, -0.05825823832093547, 0.02586225372286823, -0.0609960586435922, 0.040787934915073154, -0.027335734020485256, 0.024222010495178213, -0.034583568502877804, 0.007578066786684436, 0.034028211630553556, 0.008400254939125147, 0.00805818560031059, 0.03237342481755436, -0.018286098858825792, 0.047270169245368705, -0.06886530878254371, -0.00976741347953858, 0.11622356390168738, -0.03237430837331071, -0.03540632736319485, 0.007876309929045852, -0.021731087619340013, 0.09365846628760827, -0.04210719331891739, 0.028294897264431042, 0.08593351973527326, -0.09717854292973795, -0.017735136336718103, -0.02360014477542246, -0.012107928434739625, -0.004185112133695108, -0.049205945190758806, 0.05083479317037824, 0.06824725085574061, 0.09275037560466508, -0.016950686279261714, 0.03795675259044733, -0.011959508235426814, 0.010004648859175602, 0.07319793102654734, 0.03643604357659029, -0.09145618273013303, 0.025717514969832544, -0.02873005102843215, -0.030376281962584763, 0.01920386231720976, -0.04786851522381505, 0.005329896071290074, 0.09893462843670014, -0.04490897327421953, 0.04959787953157621, 0.005169160023292244, -0.007446861675554431, -0.026174653186122346, -0.011007709315140318, -0.0029831870719888337, 0.022485297664341496, 0.010912650094662505, -0.0004691811091311783, -0.07610233795191412, 0.010467862717653442, 0.051927613783198184, 0.05708547904375241, 0.005403623122092281], [0.10818284985102851, -0.013660805282119418, 0.07091285898408002, -0.056671830263107424, -0.0494934317503903, 0.014965951631211371, -0.07068673670809038, -0.03887431778627739, 0.016861118586253037, -0.003237506588317439, 0.025457679692991158, -0.06252786071453005, -0.03665341461997524, -0.062492392792855185, 0.03510873525755817, 0.08735005496760474, 0.0920645223397828, -0.020138855586099926, -0.016997236217490993, 0.02284957836121041, 0.03454371349434749, 0.05555909010551591, 0.023816194295753927, 0.03208704400822458, 0.005061899634203905, -0.03515970325570879, -0.014902185922581806, -0.02080482646230662, 0.006598775184925054, 0.009137775776331842, -0.026535123309989365, -0.03077524456992187, -0.03033486276582041, 0.031153037321324278, -0.020495970122993475, -0.023548877940290876, -0.0330230085056321, -0.034724248422850296, 0.03996287994656413, 0.061903717805771655, -0.025233465170960003, 0.07078074675948476, 0.09804919176852363, 0.018602409391935963, 0.05097737460084085, -0.030106679873333164, 0.05792110646583026, 0.054370813305284545, -0.0021853110784463233, -0.034808444875112095, -0.027718352761811647, 0.03497936511769942, -0.052688372109533234, -0.035604072371414976, 0.07062048814232251, 0.08314640089848416, 0.025777783905397852, -0.09981108953428973, -0.031019373983386223, 0.01049749752844239, 0.060633240187590316, -0.0745298229740167, 0.010170570819423876, 0.057512501055079726, 0.04912668384300591, 0.04547680051501542, 0.015889734701713124, -0.05848542159547631, 0.019365654712524643, -0.028462888944470643, -0.03884452360232052, 0.04145439699510152, 0.06329158147871736, -0.05930421861401654, -0.012701652918350018, -0.06384008065209548, 0.031322600277826206, -0.01263812082847474, 0.07322222081858921, -0.005499065891462614, -0.024125343165681615, 0.0036752402086754478, 0.03131620475457461, 0.02424882706092484, -0.027806842047242, -0.05146638091062576, 0.03957414929588139, -0.02751835389674067, -0.11804670576549077, 0.00940859836162015, -0.016071214433119464, -0.011587468240664655, -0.02536213092545916, 0.04343206498622773, 0.0628775715682154, -0.051927380137445606, -0.05863840673411094, 0.04740170700381778, -0.04763932755532656, -0.0768419011583141, -0.04403155486973557, -0.016836777382041465, 0.027471821902426034, -0.06294588733072636, -0.0779991327940185, 0.05217109290336047, 0.029988289311738043, 0.07364394646905867, -0.05990315101782783, -0.14593668535423518, -0.047453995285313785, -0.07501225461076813, -0.03418254860929572, -0.04197822054084929, -0.023116466851640035, -0.05540704846961019, 0.009921910100874384, 0.08752457808326823, -0.04654282815779593, 0.011376944866588046, 0.03072454969526249, -0.023391298518736118, -0.04263423682646589, -0.01600950918024263, -0.007910871706120797, 0.016521100248113117, 0.02672455804226388, 0.007709021714472706, 0.050800487959812506, -0.036982137172071515, -0.0006618850810223946, 0.02024815281438609, -0.014054658841458902, 0.06032413331945794, 0.04895073271951874, 0.030390063108777635, 0.05575674261379279, -0.03906219647566403, 0.010422802363532714, -0.021311374134542888, -0.00383077386868879, -0.019213708723388637, -0.03231894101697314, -0.07789970142346765, -0.017089534290744984, 0.038276543893341675, 0.030910709798885598, 0.009553126663809542, 0.015579431309494834, -0.026631975454548165, 0.02411695745428076, -0.018933631343847263, -0.04840283292291541, 0.06735071312196461, 0.06078321660027319, 0.02448991123714677, -0.05489645609484345, 0.047931095704645106, -0.0039660876424910535, -0.0396999200146861, -0.03144139293680586, 0.014701181607693745, -0.04331984295701677, 0.021460407643821865, 0.01437338162495951, 0.015489094008066093, -0.017872773592377725, 0.0030413310255840167, -0.0031501156774347886, 0.14626163747302087, -0.0024096863693108326, -0.03362622343565463, -0.05218610347185579, -0.09364719468450884, 0.07194584024085363, 0.0053446922851083, -0.016415488306753715, -0.055418130233754005, 0.03163915181869311, 0.03512387067481896, -0.050484711737931794, 0.03957533306873848, -0.0513238264294795, -0.005906654858775928, 0.07152250831795523, 0.05113324154487854, 0.008483887254580836, 0.02462136991157375, 0.09488217768303113, -0.01500558003208966, 0.06859730529223461, 0.033971092698674384, 0.05980516993814096, -0.037740715499320336, -0.044353142310446826, 0.07634669641194353, 0.04772302600890856, 0.006021442300691813, -0.03555504823498561, -0.03914508228498079, -0.1128424281584829, 0.02734055555163357, -0.009780712479234123, -0.005569130442118036, 0.03551295275292058, 0.06231684220004385, -0.029003689503732204, 0.04426197380192375, -0.029660415235857822, -0.040187981407522166, -0.029206716946634934, 0.12209150216640331, 0.002336350759347223, -0.007349953350029611, 0.0051755169294324084, 0.026379819690308847, -0.02859373281064906, 0.03250818939387075, 0.06761418510458334, -0.0594379334881701, 0.014244876025528342, 0.045103630061705126, -0.12213624789178083, 0.025049026691523587, 0.06443817411194695, -0.0575451701663283, -0.06197984567923563, -0.02611590489533424, -0.029541416279935062, 0.030833651387408817, 0.05907895008931214, -0.053192550147721784, -0.02766434764569004, 0.018259199252177873, 0.049260349030661475, -0.009316217706753277, -0.07240474280274369, 0.025483061688070616, 0.044019402031764354, -0.08952156559650092, -0.044720124034377515, -0.018019203594620684, -0.05251379289138611, -0.019773819330587125, -0.11561063395199704, -0.02032217548778044, 0.011403348485744081, -0.04053477715019866, 0.050149347493361925, -0.042470491654351405, 0.059376904683774843, -0.0028556829427968393, 0.04825590871809453, 0.004240897818234091, -0.04907061819550446, 0.0008134263334256437, 0.06095119559312475, -0.0015305416929470147, -0.03094542369397972, 0.07936871109402407, -0.010394573652927772, 0.0005262022187039051, 0.09408001456426204, -0.050778924585875164, -0.030769934020017837, 0.04136120821597892, -0.03737676635371911, 0.0453895231961947, -0.05375002744846041, 0.07952318063585292, 0.04523862510553153, -0.0003004515720831839, 0.056087376432235554, -0.004909545712119197, -0.10738446505630758, -0.0983790367995162, -0.057329066938776714, -0.016314897638542453, 0.0666062887655484, -0.030739925213350987, -0.0425903981201017, 0.008281909300771228, 0.03757441467129554, -0.0008016318651997559, 0.08608366448181187, 0.02481975027903424, 0.1057555626049303, -0.03745406913891369, -0.027859346447585098, 0.1031227340374974, 0.07542626283671773, 0.03630196996606291, -0.044395932145815074, -0.03926508819437148, 0.0834718563854708, -0.020783294170645738, -0.02532078919858839, -0.08291635801060944, -0.002610300222625369, 0.030988862982515165, 0.025608199084790572, 0.047229951924500926, -0.07426367899696616, 0.04718240855323436, -0.03970422367366128, -0.03683190493591569, -0.11127888340959027, 0.13492496178050556, -0.0557457938130341, 0.014046714010552637, -0.005277482414406036, 0.03627547619193452, -0.04857881680105826, 0.04598515265576821, -0.03981953709706073, 0.06879694549286272, -0.011754324128553276, 0.0021066466981844666, 0.00911784495018361, -0.015008432127685574, -0.007739328355992764, 0.0693807465123984, -0.054924209077335244, 0.008319400085720765, -0.05710161941344522, -0.09672677770270348, -0.0044498243096609495, -0.04549949185141826, 0.009134462485526523, 0.05072765100817339, 0.03353296506551263, 0.021465807663944812, 0.051180939648301706, -0.025280416870780704, 0.0733112883632434, -0.011199398376137435, 0.04493162411311241, 0.0670680002835994, -0.05933589277116987, 0.006181229708923327, 0.0692345562382916, -0.011257205304908252, 0.023381886569630483, -0.044665366642845754, -0.05290107544267911, -0.04268494133758018, 0.027977961189600928, 0.04164815846618622, -0.0050590577821035786, -0.031158750670026072, 0.02672852058919985, 0.03630992724141767, -0.03726507222932173, -0.12281541503540432, -0.0027538225484590602, -0.035746291388179224, 0.009716946687007896, -0.023696414777009896, 0.0063525698762588135, 0.022019260972048694, 0.07149566312493559, 0.002631637192428997, -0.1021293970035194, -0.12228208315452578, 0.04149414954419349, 0.0018961418516665986, -0.059635660551184265, 0.09166457052502375, 0.02350700864202025, -0.00791443060909201, 0.08094001733716025, -0.01155317548212515, 0.03012607174032763, -0.035703439537512205, -0.02166211081120559, -0.007051198722371134, 0.10561659252663262, -0.02697842568109651, -0.010109513482670323, 0.0026049555849616927, -0.032839236936604455, 0.03135195114185438, 0.04885444501115988, 0.04686341237219145, 0.06492158396580948, -0.009891390076059894, -0.08887391723361038, 0.0005635252726353505, -0.0041930781701037855, 0.07484614824139894, -0.02906908193659896, -0.05881003710497023, -0.005532061535980757, -0.01077565812132641, 0.0042795646501358805, -0.01684334868007298, 0.12541065853717706, -0.0027956156156112564, -0.011726121220424155, 0.010061399069332257, 0.002170023598653897, -0.08237749413212749, -0.12935763948303486, -0.03904152757941999, 0.04227157499103823, -0.034632863342419884, 0.014286662299365083, 0.015649781839104378, -0.022798444154963824, 0.043856407096982825, -0.023338794823725886, -0.04604811065497074, 0.06336303131531237, -0.002078707178695088, 0.012921383616697858, -0.015232666969820608, 0.09027429363794881, -0.0027030925044835567, 0.05604327535676936, 0.012221936842006134, 0.05194881725451886, 0.014773225223961095, 0.06120786888616582, -0.041919347645171405, -0.07843462669011425, -0.0005933022440709753, 0.07695776917035094, -0.08000881220538562, -0.09661030228328381, 0.08924499010345976, -0.08896117793572227, -0.014098133766294402, 0.031075060648870893, 0.05074663089036522, -0.071582961144322, -0.023788896666285846, -0.01713576298539291, -0.03227735809674415, 0.033642502188077184, -0.00905727305922152, -0.012658545882798381, -0.012711665451924177, 0.05955126877047988, 0.0012198476023546074, 0.022305285566248622, -0.07874620007716185, -0.07886655020077345, -0.05871226285143692, -0.09169079119633224, -0.003952462831485723, -0.01446958700713869, -0.08015304536402519, -0.053459910832892595, -0.006645874639951976, 0.05232200534112944, 0.06369640363805137, 0.02906243620079746, -0.0196424577695831, -0.02477212187786732, 0.01185618928227943, -0.1139868661601023, 0.06981590784886475, -0.0630567181786816, -0.03453487748581763, -0.03780523659627132, 0.015157643178711733, 0.06288122651111216, -0.04649353740751241, -0.02975334400024961, -0.0373059132549007, 0.011138157598356966, 0.034454581378706946, -0.045776096416202665, 0.00027714671204052244, -0.039759826862824595, 0.008891218335021149, 0.03398168294413283, -0.017216618476953948, 0.054245331060081295, 0.00023452661892191923, -0.026253946353386515, 0.009751528093677016, 0.01615256767883401, -0.014395337243207837, 0.045285530615921686, 0.043162187930167226, -0.03542761248442037, -0.059650675043982665, 0.031079349175448107, 0.037255624432028206, 0.0070876987375618344, -0.0762875062656412, -0.013157296487102439, 0.08914343515098366, 0.05998598891903465, 0.017169114284610276, 0.015566845858169056, 0.09006129543110565, -0.015079081119252597, 0.0031817490742017136, 0.02264643928505833, 0.02651218524247909, -0.008601673974664626, -0.048538810760971406, 0.013135510509399729, 0.04259491270946094, -0.025871085862861253, 0.07331360917724114, 0.007931737127220884, 0.0021559909709782613, 0.10471565180526657, -0.06702118376984238, 0.02676712253110887, 0.04551010598440654, -0.0140040366948486, 0.04759816821410882, 0.026893976999481668, -0.0824149207013874, 0.018138031013731723, -0.07430523919438442, -0.03268880162675498, 0.007792399244635518, -0.015774531028344266, 0.05248766410992, -0.05472592838937889, 0.011166984909813571, 0.00425141829265352, -0.13366406970663264, 0.052874286844124554, 0.04380855702396545, 0.018488642058344534, -0.11244952250563683, 0.027849603790249217, 0.044114547749206486, -0.0014746928069323771, -0.08646735546235591, -0.04708902725229329, -0.0513947777139904, 0.036201953251931575, 0.05621365542090925, -0.020241481918016765, 0.06142457809957723, -0.005546777811517338, 0.021527406309282272, 0.01216167266109713, 0.0361875945552676, -0.0033278025090149508, -0.0011036854839453218, -0.08774262971929012, -0.048997654730133906, 0.011334464680930988, -0.0080273833147263, 0.012956447223192256, -0.03272238238236479, -0.01456340329814372, -0.06989472423823008, -0.01680185057847235, -0.0049110985648545226, -0.018945375629476263, 0.021800564838324737, -0.06341561102061732, 0.03774023259498015, -0.0008089240613239847, 0.0010471790856635078, 0.013738764236469587, -0.08841479431715987, -0.010014272669208697, 0.051860138308622704, -0.006553426312543382, 0.01759745384509738, 0.05337195131809767, 0.023664190217434926, -0.029597635246531185, -0.04587753305925495, -0.017805238714550004, 0.03211713438573447, 0.011144915633254414, -0.03127779462104864, -0.035448925906517305, 0.03980460777937975, 0.0345554865585052, -0.019359570298013096, -0.031268737323040155, -0.02200997746496306, 0.04692506373134975, -0.060534095124892544, 0.0019158322780531342, 0.00862581309251264, 0.006760866515174064, -0.08300822405603735, 0.03727053699051009, -0.03114252080438561, -0.015689042547757125, -0.05529088009153804, 0.05675747537131148, 0.10487872322268185, 0.037912303583176224, 0.002387584335882325, 0.03866001806495945, 0.008675738368076112, -0.012686911052947896, 0.000790084634758154, -0.006186089594825876, 0.10602301501148229, 0.012054551654438347, -0.017449156784106388, 0.07532650456972265, 0.07234102856577151, 0.005181389355237452, 0.02901931539176221, -0.05548154501427985, -0.06424006573696088, 0.03487054483350233, -0.034552517315927136, 0.010509555559308891, -0.006299764745928279, -0.002628148254070323, -0.006333478539216306, -0.024827448173661174, 0.062206685331969845, 0.0007274183866797171, 0.008541045671212874, -0.058673466354729004, -0.04636661344444847, -0.04439914338506619, -0.05061273871118015, 0.03232790772419247, -0.02413797402526459, -0.009421377246283917, -0.03339439443382837, 0.021371401509185563, -0.04450016337300702, -0.08700549369861806, 0.05946094106933563, 0.0023826965476327843, 0.06305302066579432, 0.09532638441673252, 0.0326311276870162, 0.04225185744637215, 0.02411059913393513, -0.019805326596487375, -0.012882123870972652, -0.03931593064128358, -0.05757630746518873, 0.055085392867498605, -0.02146336223542694, -0.027501537679974594, -0.007638247421787588, 0.02829346017255323, -0.04373756160034956, 0.013214792370095327, 0.05600795249609578, 0.002182752846027537, -0.010872800574005767, 0.01535111468752255, 0.036827253367455313, 0.03890709327747358, -0.058128515317356175, -0.022293069942639843, 0.04017041741126157, -0.042931693601070985, 0.0412236143554193, 0.14454577996419984, -0.0010181355030425378, -0.0580807740613997, -0.04646635860865391, -0.0025016154668035737, -0.03822678229176985, 0.04748522831041138, 0.030717570834681338, -0.056106921806158415, -0.06279743588200809, 0.02386885758332125, -0.00602457910334995, -0.06592299045050543, 0.0018093003685255168, 0.03395686461658533, 0.0016212307713834293, -0.04255326303439589, 0.019803012795680256, -0.02397776691892314, 0.09646672894508966, 0.11230779463795221, -0.01786743858635554, 0.04265683287943604, -0.08608783160693212, -0.022404340626434597, -0.0031411817708351876, -0.06729818520670311, -0.024540315353825056, 0.01266275460731824, 0.06309245701605132, -0.09459089865245697, 0.13773069441386418, 0.00428584830934057, -0.06821782876267482, 0.015061417170814497, 0.12655050249575503, -0.005697218237619835, -0.005946568852030553, -0.040630581566610015, -0.011583452863045015, 0.012305924963171146, -0.01735805063325655, 0.010807750386714797, -0.009755181124665847, 0.08679264414779127, 0.05312374990072698, 0.06915580031408246, 0.025060927141843027, -0.06309566810530844, 0.07851406257356211, 0.01897099139129885, 0.05985391237543593, -0.045087529347739325, -0.017480161678037925, -0.015778362269061076, -0.022494297843285813, 0.017174955451322905, 0.07068283714103864, 0.011554099137812319, -0.09621149331316636, -0.02703334421390158, 9.460294416591062e-05, 0.04755165975331598, -0.030209639462119693, 0.009274787512889038, 0.0745036999531444, 0.04747453453726173, 0.05900146325420076, 0.020905836640410288, -0.06364341071041106, -0.10318312260010415, -0.04843941079607346, -0.014250315314156532, 0.0022613647490554493, 0.03737158065458903, 0.004023464778386617, -0.0003780287611366946, 0.03965128951912694, -0.10190340046495588, 0.016034806997283962, -0.0438812538408857, 0.07687209209355596, 0.14198437803835362, 0.013638410783474072, -0.01446916710698635, 0.025930684384011863, -0.032142519533926, 0.0029071428155879393, -0.04369658443694482, -0.06124396874851573, 0.004419761756800151, -0.00048690489437707796, -0.014304974904596859, -0.027311871607280915, 0.000892599924913037, 0.04576226068324189, 0.05535993997597337, -0.06996601372688577, -0.06124775780534384, 0.05680792556376352, -0.004759815761173718, 0.054227003238733064, 0.08502035938067269, -0.05231835426710698, -0.03370615931406311, -0.029443920158308958, 0.07294813555110194, 0.07564860405877842, -0.03482143776313129, -0.016685662743655464, 0.015669550245501065, -0.009724535451468936, -0.030839954903953602, -0.03186165805882199, 0.053248210468119984, -0.006163242560735793, 0.03579183861199724, -0.0707256074186142, 0.04093109524323929, -0.002803113610008902, 0.0028415149145445025, 0.055130931022555806], [0.05384577375937793, 0.005191210066613969, 0.000990444695572111, 0.02485362551732532, 0.07671695070649133, 0.014185992210318792, 0.02942735009141645, 0.061199417395917555, 0.034006968835513164, 0.010868836846597407, 0.02113046526333045, -0.015356088175689233, -0.03687872707455947, 0.08722662469735284, -0.07263919969997805, -0.032833578027063014, -0.020561802938401107, -0.04988561718069906, -0.006079824463313546, 0.013794142407958104, 0.0816589976632734, 0.05039088258234516, -0.11635929159407156, 0.02160880048265662, -0.047513247328140544, 0.03826179884650653, 0.0067746127779971695, 0.023739198365014768, -0.0012349122277919987, 0.08342794456967469, 0.005763384858518196, 0.03214256249587403, -0.004339507608961061, 0.06568051514384628, 0.08815360561490836, 0.01322538526779966, -0.05050923349026889, -0.03357433758492811, -0.02082970048985929, -0.008583746388873074, -0.03780263394158725, -0.022291266230395738, 0.029319057769944104, 0.0928258085526287, 0.03953646983607098, 0.014577713002324784, -0.011856679146826157, 0.0013980755361765753, -0.016914553063655288, 0.020412443252536015, -0.06045207131848133, 0.035775473011765056, -0.009726862840538655, 0.11463169502920002, 0.00021656651745068038, -0.03294778325561812, -0.06443608800383482, 0.04505636686840183, -0.030977648654770255, 0.02020192825216789, 0.01891598998266108, 0.08744957958228343, 0.021136595828218325, -0.02805963022768397, 0.05073672577244536, -0.03839153372157076, 0.10982902859942734, 0.04033075293199447, 0.030009370634853403, 0.021200471254975643, 0.015360245846360508, -0.05500871663728493, 0.04730295273107627, 0.01305011308745564, -0.05733432577576228, -0.017858569368658022, 0.03014198730983432, 0.03278425610464059, -0.059466372426067206, -0.038212635820120314, 0.06316022324868005, 0.029843728976755152, 0.07740346793197861, -0.025398647151496933, -0.03333030009910533, -0.017051699760216248, 0.08879285679875563, 0.035984867349615875, -0.08424074956920952, -0.07772953674194122, -0.007034655153646424, -0.016306677837422706, 0.055318583413377545, -0.016252443290883784, 0.10080740081230857, 0.06420176579236743, -0.008752725108588103, 0.014051949596823241, 0.07659185637743803, 0.01135922151616507, 0.0781345067252228, -0.013444341649435804, 0.055387350146261866, -0.06287237028063968, -0.0018963301629181353, -0.01808871173511627, 0.03573997718835354, -0.0368352682121047, 0.06637627257146757, -0.08031558492228028, 0.019079191695213146, 0.0187770841600287, -0.05394470395047243, -0.09450728758613054, -0.011878955274271468, 0.04671243936125534, -0.08432438711695565, 0.04200384486977007, 0.007197352542360572, -0.021156891609376345, -0.046489430421593765, 0.0977901689852899, 0.058025712028592566, -0.000825835168254672, -0.029271767381709477, -0.012706490607900656, -0.07763825915094663, -0.04475767299037191, -0.09897868870826346, 0.010068257540658427, 0.063115364886002, 0.016618812404089345, -0.07750872246064258, -0.02356529635384258, 0.018163141419044324, 0.04759473651192541, 0.04797411966201197, 0.04102184482636567, -0.01668793582523903, 0.10309228741038462, -0.013379382373204338, -0.035007950477786536, -0.02665264788879045, 0.005542191121007539, 0.01962468441641881, -0.07735325330529375, -0.030488854885020823, -0.05420684539943311, 0.004045384795571662, 0.01499916736247492, 0.06837291238901744, 0.005214522562058487, -0.00856011440119308, -0.05921551769248446, -0.01631876496724553, 0.039912066231089664, -0.019039269877374917, -0.023032869829496726, 0.044868498436733455, 0.0010981318897281534, -0.027356234953650797, -0.015041661355874085, 0.015321379961894331, -0.02131293369523154, -0.004498176576228642, -0.008804490489782883, -0.049079011291394796, -0.061482826203742395, -0.005586584026681703, -0.1679530952742812, 0.014980556220232711, -0.04754629519301834, -0.01242158572998995, -0.022786697340877144, 0.030565987007178108, -0.026286408341431297, 0.0892851027540356, -0.0043338736446853305, 0.05807940733196265, -0.029729021688370695, -0.04743064819163516, 0.037302806607939575, 0.06676958442164219, -0.0351492539096066, 0.0056386840205708685, 0.014643353595308934, -0.07206026895907187, 0.017908363396890083, -0.02461291084816061, 0.0794980144648593, -0.021660532825165096, 0.05756821996953379, -0.06178983719066994, -0.07099344728950654, -0.009203171483992793, -0.03627797242028044, -0.012709169717767234, -0.042106609704430836, 0.016595762812005727, -0.007028409053827299, 0.02094771307898303, 0.002565213910982418, -0.03429733644586719, 0.05256545308159472, 0.06659557376673816, -0.012045108693560824, 0.03356373881882922, 0.04725670406746275, -0.027756874111328492, -0.018025733752144908, 0.031018004743906813, 0.0746738687940854, -0.06820874319117481, -0.0017048703396120746, -0.0021186439698909145, -0.036889041784154156, -0.0303546673922071, 0.042593356259792166, -0.01911217493077758, -0.02556031383594149, 0.00045540172324302376, 0.0019150145583912647, -0.01940310251288393, -0.018246848309433288, 0.0681958085902296, 0.06894494595246194, -0.05625435672142679, 0.03680052711161937, -0.0013513811004646071, -0.040912546897537864, -0.03794756338039272, 0.028841094508739704, -0.047091760496544656, 0.06268567051325069, -0.02850767509403246, -0.001215598935261729, -0.04406177440557021, 0.021169322709856882, -0.06544844840561298, -0.034659589921121954, 0.048401970510911996, -0.043578080632651756, 0.06519964325151165, 0.0060570165706970314, 0.06187572495099782, 0.020979930566160557, -0.11514001052199006, 0.056588448048338465, -0.013671148766735159, 0.03850987068476999, 0.07673544134162774, 0.08304639480979438, 0.12809207934765776, 0.04781166522754488, -0.005629584268242258, 0.03857034965941147, -0.0103503363463006, -0.004583678409398564, 0.08270461864001123, 0.1240207670118692, -0.10299649457052738, 0.028570989174256052, -0.02562846029035552, 0.008130230360984899, -0.0011184268800760126, -0.002540798806788951, -0.03390515737992794, -0.023700727025758327, 0.07010968267254351, 0.016921381550094962, -0.04134050663522358, 0.07811961080217289, 0.030017095015539706, 0.012106596457642322, -0.03659462259965482, -0.006004330266355845, 0.03215220174449608, -0.06439680022290448, -0.036897089851460146, 0.0029558111301776014, 0.004442852842175708, -0.026499786993015424, 0.020738738843544324, -0.025577753881924077, 0.06431399921026466, 0.06226776973847853, -0.024110777610946744, 0.12535660087825773, -0.006779908358568405, -0.00988489851965611, 0.013334152060025624, 0.0118692149264231, 0.048262066091597215, -0.007086267015305831, 0.02687302659469655, -0.0214144610616483, -0.009293717598921659, -0.01930591011136936, -0.07318669726331481, 0.08649403026848991, -0.05489932202330953, -0.04168513794442114, 0.008174749995072261, 0.06442319927969953, 0.03525786634375045, -0.0030061380347462066, -0.04792137823961029, -0.05904995837882732, 0.042868745401730524, -0.09837185663197753, -0.0827063579481343, -0.09850576722742471, 0.06261526761551477, -0.016463176007152514, 0.11267364389775557, 0.04215797239506118, 0.04289548650920262, -0.04651770559475636, 0.034357157139401594, 0.057956043593373946, 0.04742702357821678, 0.008998790949477658, 0.01697932406544637, 0.00028403365690932045, -0.07055542007050045, -0.025992230810583224, -0.010053513076490779, -0.07261129504032349, -0.012261648821120432, -0.01740913589711499, 0.02732617829396831, 0.11266543730681552, -0.043327322238067595, 0.005407329876379705, 0.06775404105592858, -0.006134952339552945, -0.02643256478125028, -0.003013753814936336, 0.08543340538906033, -0.0552762325620647, -0.042123086758140825, -0.0718554219502049, 0.053815133125260435, -0.004522855850562025, -0.04182540704737943, 0.03641829530126369, -0.044999334058646645, -0.08663931558560069, 0.07548958778044274, 0.045771378063384556, -0.06638246730663849, -0.03861455963025417, -0.05068578204830499, -0.03816315867174235, -0.09222473547637287, -0.043675363047201037, -0.03740382680497885, -0.037850754448156144, -0.0522885012334974, 0.04612410176974536, 0.09107502799851971, -0.026778899449984864, 0.004309609798939178, -0.08045068335239879, 0.05068321764414036, -0.022077532414490703, 0.033543260302496825, 0.029085294612120238, 0.04660364569202755, -0.050576345606537655, -0.020869589601144812, -0.0718393976737525, 0.07256662013058039, -0.07356533222925107, -0.015056036873956154, -0.09316510907216906, -0.08111938347008621, 0.08182705157030135, -0.07722136425376666, -0.04094655147355602, 0.05565311837960833, 0.06594000545224185, 0.04646296239052651, -0.014111911561892084, 0.08673924705817108, -0.07201549928210019, 0.04973981011009626, -0.11852753604805678, -0.13576677149110314, -0.03269561726856752, 0.10994952828290995, 0.03814229974396908, -0.022510946390769893, -0.026621516859172037, -0.03929346182131347, 0.031160234299679557, -0.0358428831120536, -0.0002621447387554559, 0.0054207303110018305, -0.04046338218019483, 0.07370059647254508, 0.013223526194770926, 0.05082208760505449, -0.062042936910799346, 0.006216121309599328, 0.03246004680913204, 0.015920166052658558, -0.03444481210326703, -0.016023746710223646, 0.03594567427292446, -0.023816855220742086, 0.11194592534210532, 0.08632887736813355, 0.1016225929952146, -0.002756077215074489, -0.03717529989266348, 0.005291398715217591, 0.11519367899754494, 0.026643414599835036, -0.02386616101359157, -0.05146960452164419, -0.09475086757261506, -0.007963180668540966, 0.0017295942747719566, 0.03603359571786538, -0.04364139842717436, 0.018355450396533753, -0.009107092304623175, -0.07644857283131165, -0.027790722822750046, -0.039888595718891896, -0.02327388276487646, -0.09173331343510242, 0.03905337638618689, 0.02744290503606536, 0.05412602666385784, -0.07904816800895972, 0.0740513662698245, 0.00553111637973835, -0.00767327397126117, -0.06372578104747133, 0.07855257185791856, -0.13589677954061277, -0.013982415948169666, 0.00662071360433286, 0.020326410169975367, 0.05089392744462465, -0.041347721113910336, 0.02461396984251238, 0.041783404841214546, -0.045896051546123584, -0.003586553212239706, -0.03321303612938272, -0.0014146781235697611, 0.013264583153761379, -0.013336746733678208, -0.05651647290088158, -0.0037692198976567045, -0.07623119472716612, -0.06153918609588982, 0.07092457161681819, 0.058453975734160106, 0.035732649442269, 0.03688530657742075, 0.0368356747022112, 0.009264301530126098, -0.09892606452593786, 0.016031386247315087, 0.038427663384632396, -0.036167574474068244, -0.06423340733764442, -0.009162718760896424, 0.02730948841838791, 0.004379747102913435, 0.02224001972323632, 0.08174263034039582, 0.019265754834547982, -0.026289686140098238, 0.004152878876885625, 0.013118902832216603, 0.03990825843138102, -0.04880132527400252, 0.11244607403150887, -0.05976479705045141, -0.04164608559908327, -0.016182333078741926, 0.010163019772763507, -0.051986042112458476, -0.014621738388502673, -0.03123908594985814, -0.02988920561220253, 0.07793396464578971, -0.04249426722602594, -0.033107982516420074, -0.02018503483363844, 0.06149331076443242, -0.006358428188624603, 0.006749900832622488, -0.0628127895927128, 0.0035088425896149453, 0.09594100714181626, -0.009235894681257083, 0.0036986665567887113, -0.057429015735857396, 0.06462586429157721, 0.03930099441343997, -0.025716321316996183, 0.01870319200553838, 0.008615482907988735, 0.09775589678366439, 0.011019837097068313, -0.04149352109532283, -0.0848286077506384, -0.08635175685523427, 0.010797800129559812, 0.005889943264681366, -0.036832232949817884, -0.036273773479070695, -0.02248188154246727, -0.05068253895960671, -0.0388271545235914, -0.021944363664584153, 0.0018503614690540348, -0.06389073106163749, -0.04900732975197277, 0.005222557369298962, 0.04701531909113336, -0.010248995303808113, 0.020921424077232943, -0.0901108047885693, 0.03700203349431124, 0.06808746736800735, 0.005557168875776497, -0.02131331707395696, -0.012778918919745289, 0.001684072585026247, 0.005378510028521458, -0.04839531950275817, 0.025877242423344316, -0.04599173256544348, -0.04839526976926206, 0.013415223486935803, -0.05655283756776708, 0.0064722192863619155, 0.04940014451319689, 0.08608642452051884, -0.031193400363844756, -0.01298932885786609, 0.019992990871114148, -0.0813589668457157, -0.038370163089609735, 0.03890142788851617, 0.04501617968287013, -0.01575120072163662, 0.0719858910190816, -0.03066803666106342, 0.03268156029091098, 0.025770735935112397, 0.038490137153530314, 0.006242723390621829, 0.011700487492448307, 0.06243281243429089, -0.032524469090466364, 0.0018766129366183304, -0.006780292034200177, -0.057353562724340765, 0.025187063533286706, 0.11818970115493534, -0.09356508024051292, -0.032522327271105, -0.012327309011741274, -0.057172668165871035, 0.0485868913932868, -0.031004899428825047, 0.011601892007967409, -0.13678888499263156, -0.07702366191354243, 0.035002553005084744, 0.033170461920327875, 0.002252094613865436, -0.06593018008333902, -0.0869659908313245, -0.05930307369146216, 0.05641858278534977, -0.08170851072733214, -0.03713182233440921, -0.05639630429876377, 0.026328008552589106, 0.06337076315939581, -0.0011919427416943174, -0.07911881387967701, -0.002871694382184447, -0.0025199306923244275, -0.06188216599838227, -0.00974412061256638, -0.046173344249047114, -0.08057262216203888, 0.012450812409673929, -0.11260546525995677, 0.0693362230087248, -0.008827393446192997, -0.01711498351884412, 0.04799307618627479, -0.014398785103355509, -1.899440033012676e-05, 0.032610887817771224, -0.06594308555079513, 0.030764074929608403, 0.01005040813846151, -0.0423090760126133, 0.029933657659413204, 0.061701801659668286, -0.001673923705834275, -0.030679041402750542, 0.004852058989516476, -0.02354445140561422, 0.03597714873172084, -0.028063552711937688, 0.0131400990354552, 0.022436844747938545, 0.014717110357648847, 0.016510571849162874, -0.019230809966426614, 0.044703103904063526, 0.022837246467769592, 0.0029776813268063695, 0.0513543479453829, -0.0825150430471353, -0.048971504654195794, -0.014904095200760884, 0.03233582620129741, -0.03804928937044924, -0.03256162521584673, 0.0005566097115921045, 0.008031826575511236, 0.02508166002195822, 0.10332114079472195, 0.06433333895102183, -0.06330136179019291, -0.048023762775152724, 0.022960189364424847, -0.013657454533207002, 0.07729848387389199, -0.0084794945118025, 0.060176997677810574, -0.0916170004209003, 0.06788264127396769, -0.025122284603338395, 0.0022137887884115474, 0.06453829284324135, -0.06989064485722202, -0.00019102928688605926, 0.0221060693831915, 0.015236302334548786, 0.02870710249973106, 0.06355909205453492, 0.029440812537979793, -0.04454424006766831, -0.040267736108859475, -0.008015758277686738, -0.078799824939306, 0.0127733193994447, -0.0515463666992912, 0.08855397563338645, -0.077708193756151, 0.08507823789593626, -0.0350732373489743, 0.05374246545470866, 0.051179841963508145, -0.03956204986070836, 0.038968672669619626, -0.03177774703578186, 0.009051952800903686, -0.02839124360451905, 0.0827981003119555, -0.0040868905051023585, 0.03474089741615797, 0.03201612695282676, 0.05511726522461652, -0.12046164142606015, -0.005253759369304807, -0.06730106288302717, 0.0057118265231826905, -0.01446063122566966, -0.0170875180618035, -0.012665861296530872, 0.0009016234863988249, 0.04220508971568191, -0.03558310592585972, -0.02328901061383592, 0.007162568393359687, 0.11056699469041152, 0.05833382713121471, 0.017015166818237833, -0.04393024300762643, 0.00553354167178548, 0.04110067133734929, 0.03648016951218748, 0.04261247218725216, -0.023064875301884898, -0.028944551233486375, 0.05704280125147373, 0.009607275009460564, -0.03115321884592337, 0.02983003040005969, 0.03427195385700781, 0.05495558993374107, -0.09004098644868563, -0.0493063276841709, 0.012230839793008529, -0.022861670180400518, -0.0905235015729099, 0.02822479463643257, 0.06186765594184204, -0.04510988327336015, 0.01952887515886982, 0.012357567285198778, 0.040494638241126764, -0.1158343361892737, -0.02049512630947918, -0.07145583325141211, 0.09225406522572933, 0.019807192002849743, 0.04635006899911735, -0.02883515237506436, 0.10309985697561276, -0.008220728079094613, 0.00067986424159052, -0.02015201910713572, 0.017886409697972824, -0.037652324342778126, -0.06485319177690578, -0.04609060537013507, 0.024386163397589256, 0.022845961305149206, 0.01508249371936124, 0.06032615170197092, -0.0553365762306106, -0.04210720302486236, -0.04483115611174163, 0.03902534162459644, 0.010009339164012764, -0.03479749428633847, 0.04332209736040554, -0.015259665329420042, 0.027151469499311496, -0.00835191731990694, -0.006410294958801955, 0.017314950390777274, 0.029674687327060207, 0.013699430130954112, -0.06700412794688007, 0.061541150100638986, -0.04618811057841988, 0.023074810839256943, 0.031179570432832347, -0.0001658227843595524, -0.04831444177152554, -0.03331474517306459, -0.06572725804419881, -0.06329205997055647, 0.014536674211761611, 0.07930889000091633, -0.024252463957113835, 0.04687707024519487, 0.03344971793686957, -0.013343080547829147, -0.04129147379874544, -0.07461926115996717, 0.004265177806767612, 0.010273051551712035, 0.0930923873213623, 0.03477629890666754, 0.06255708731225869, -0.033373103615662446, 0.04883204886017158, -0.10696884229314464, -0.10913302240959258, 0.11063185452863605, 0.033896731573500996, 0.011000744129109466, -0.02623361678613433, -0.01993550705767325, 0.026676844360473493], [-0.03190089582229236, -0.0017497147757595621, 0.03261458945498851, -0.04291834084683613, -0.013013875839184215, 0.00943677889849947, 0.10716758990998365, 0.029217468518681008, 0.025399496555789033, -0.013346793312672654, 0.0336948997580215, -0.011239064213682952, -0.03495176275476201, 0.01066748342815063, 0.03980443078086506, -0.022442567931868978, 0.10888755020935716, -0.009795436121701065, 0.013665376902971253, -0.03328664958484438, -0.02302879291744595, -0.021317594518724385, 0.058607588911889906, -0.008653061005040732, -0.040902299501649905, 0.04631615248293948, 0.020247912275407867, 0.018328869913720514, 0.027986716888730792, -0.028638769044586263, -0.005229363907381863, 0.007888739538806986, 0.06600630814886212, -0.06474035568039578, 0.029991762584309384, -0.01810102152562722, 0.017931429989464367, 0.09860248903501315, 0.08041398795204313, 0.017712326688583666, 0.002934608874592173, -0.0005674548421149418, 0.021788176774786536, -0.0664175060755213, -0.04604437647097534, -0.02760313130150206, 0.047515653091239486, -0.04934998834977021, -0.00916371718372587, -0.029747451985686405, 0.05235541204457139, -0.024208805929530522, 0.0652762100828527, -0.035735727422085, 0.03809495955963383, 0.02379836381356898, -0.007571948142017011, -0.09331073632019629, 0.009395645535205754, -0.02827174161521363, 0.0014364094279530986, 0.03225341289296122, 0.07611696773018045, -0.09118136875405447, -0.06623357485337553, 0.006029804736101672, -0.0528552308808304, 0.028185541156029413, 0.023531909237861876, -0.040550054684227343, -0.012607589378035723, 0.06062603519289448, -0.07933219252675705, 0.06560905508569165, 0.007483744769866646, 0.0019750168647900282, -0.037594196096864374, 0.02851717165751971, 0.009546464429004399, -0.05543354762855936, -0.057176354246323384, -0.03771117901540289, 0.13580427425485853, -0.03384721646475891, -0.008636709947655018, 0.017583103653849918, -0.004025452044794177, -0.05277470109764249, -0.014463681026742009, 0.06770348033333676, 0.015037831825700992, -0.06002202596385017, 0.02304672871486813, -8.887982102949912e-06, 0.00989782180363036, -0.050780067409768516, 0.032971852787328365, -0.006379976469547122, -0.00873423266010767, -0.062201792343025294, -0.012699366597845178, 0.0386709061217763, 0.010545742671769569, 0.04462810992079979, 0.0006395013893200157, -0.0053776751849675996, -0.04582055922921478, -0.010432920722008602, 0.014570783572380334, 0.023850358881865086, -0.04832575769276107, -0.020328051411800833, -0.06394703084521229, -0.05365075298582368, -0.010906636149660526, -0.06949721665537036, 0.011476194620154367, -0.061909737016915094, 0.015564338819592616, 0.06428896167958877, 0.025262509639621306, -0.0957784432216133, -0.09538542403425647, 0.03355861286174917, 0.10819377963495533, -0.03483466465581173, -0.03354452661307219, -0.03131686549181378, 0.015982852424823866, -0.10133049291979805, -0.06746952015995818, 0.1117116858891717, -0.07122860987876893, 0.02208201481906576, 0.051782147809174284, -0.0033466255732487226, -0.01380985169836101, -0.025379548679588138, -0.017195020160216616, 0.05905997862173712, -0.058695639522430426, 0.0014795006004173648, 0.01217645006333574, 0.02066220197459187, 0.005493787545327625, -0.028244369968638976, -0.08148910908921121, -0.015490875462138311, 0.07900439965130142, -0.018524611411513563, -0.05944727281477547, -0.051250821940628265, -0.008619875735305534, 0.04601146121006355, 0.06291530959353071, 0.021103235423744687, 0.06916425981077888, 0.03255909399113467, 0.023886972010833864, 0.011124123143155635, 0.0634870272516245, 0.016575243825737877, 0.02740052701522832, 0.06166994388573499, 0.060051476826853314, -0.05491190981133717, 0.08728527454310199, 0.0012091399413154482, 0.09143319877581114, 0.03363386637302639, 0.02198879214411841, 0.02030852539123842, -0.03698294184930758, -0.04444284676502477, -0.0800635372423707, 0.12069406163658092, 0.022078557938561293, 0.03683498792567977, -0.02803738203638634, -0.07023152644555551, -0.09948305654064832, 0.009981352353239095, -0.03820087522653037, 0.04259570139766143, -0.029318381479518294, 0.06835697097710457, -0.0019745939587634312, 0.03261230774818981, -0.020836824211862722, -0.04838064058093633, -0.023656831542843752, -0.08010015576038497, 0.033799581858657654, 0.04124194730265196, -0.04433251594625022, 0.06899187260828715, 0.006558307827269644, 0.020305448027141126, -0.00153780636733777, 0.030959557916672733, 0.07800127928820881, -0.0021914170046380722, 0.001848572887534679, -0.03467294788631887, 0.08521169536699905, -0.05134398311795617, -0.046825925536020635, 0.029116119918502017, -0.0262013195505812, 0.13703529177512855, 0.102235858769793, 0.11718793740540101, 0.0021239301493429915, 0.030130228990769812, 0.029240438336437552, -0.08131146893263694, -0.043069417990603466, 0.00205591515187188, 0.07900461083575158, 0.026704268635073355, 0.024662775770508027, 0.09264307596316415, 0.03818326985359382, -0.005552220828800326, 0.07114270993937752, 0.018486392250849894, 5.144999677551236e-05, 0.033950465246531905, 0.09003864773078302, 0.00456638489960894, 0.027455320016556733, 0.03945011510682153, -0.042972652757143244, -0.03727005525034177, -0.05450927758720384, -0.08842388539710919, 0.04976819436545278, -0.0571832254952405, 0.0884908918523824, -0.049040468876106524, -0.06683000274426672, 0.025930362821347766, -0.04403645980081199, 0.043922238605548704, 0.07586348734898055, -0.02597233524230025, -0.04812377738979192, 0.010578472272171537, -0.06220463582378421, -0.09198172171959242, -0.05409681731591606, 0.054194538465752506, 0.022550342452525258, 0.026432911878804418, 0.06014492924758163, 0.0679016591211195, -0.026975232696288008, -0.043990163071368535, -0.011798720709487452, -0.05544297406463146, -0.07795035584772063, 0.038509823015257495, 0.039562393685984874, -0.02710625240260755, 0.03216343984429064, 0.008127291723609226, -0.0010817511486073282, 0.013053113134378822, -0.025246691499168406, 0.013488963772525493, 0.0723161516574959, 0.023975545780552495, 0.029855375029013292, -0.054987196311860345, -0.0051826836316734015, 0.09865298857809936, -0.0666319149677499, -0.0288296964432927, -0.11443111708436263, -0.04621065856628917, 0.08421498427856011, -0.013791907643084458, -0.046799164160456375, -0.01681228151427714, 0.05546761129788496, -0.009708615395778029, -0.015267245064545144, 0.015934335255860868, -0.10182937510192462, 0.08198571831640471, -0.020067662867768423, 0.08393709656840004, -0.01594738024383115, -0.003617172506831398, -0.016222871742899443, -0.009703529201030929, -0.0028218267257640686, 0.02817811383565966, -0.00402852892358526, 0.030167552231623117, -0.058456859178534146, -0.07188417188931115, 0.053193392674921944, -0.04451879970717952, -0.030507650628986104, -0.02367008724463285, 0.06223101302999436, 0.047167954472487464, -0.04629752733277783, -0.06149943331442207, 0.07984509072293833, -0.08984798326849705, -0.002753412259124712, 0.06605709649088351, -0.024363262176461856, -0.09817777149708691, 0.07023838694421737, 0.03946660543769284, 0.006830293852654779, -0.009408394050476712, 0.0037868765221097185, 0.021101504935647854, 0.04810021416702259, -0.08120985719958175, -0.06676744316060364, 0.05075411061581693, 0.035443358906197577, 0.00877868819290009, 0.030597462048251214, 0.04735362868877086, 0.10186278696698745, 0.039050294471978435, 0.03673733716706089, 0.047196020084288165, -0.06306575048717468, 0.03376083672232381, -0.09316185801855577, 0.02146627085268156, 0.054463802606175206, -0.008766183561301318, 0.04583420641331517, -0.034629252760587884, 0.0026583173403425197, -0.0014759055927821049, 0.05771457583284798, -0.02341487712943934, 0.08634673884391977, -0.05176610014899224, 0.16575244025806987, 0.011840733160180469, -0.05946018675457427, -0.03868991912498253, 0.015717059549074673, -0.0434746061916757, 0.014295609737280158, -0.04625048140908435, 0.002753317801735708, -0.018314654686842204, -0.05324375816550846, 0.06660836867692965, 0.08195406674854351, 0.11353445980634583, -0.020254101737188047, 0.005672243811080771, -0.006669351751727736, -0.022457564919786923, -0.01092150305870994, 0.008382141060158067, -0.06758718289946349, -0.030967043883421006, 0.06180863042223077, -0.01094534360294392, -0.09745977379575742, -0.036646960365432434, -0.053369672895406076, -0.039716098505309806, -0.013354345490426701, -0.027125320611373405, 0.013191042539309073, 0.03857287655672843, 0.04465890501123164, 0.003743759996175342, 0.0533980336124561, -0.0031090745231019913, 0.08019194368177807, 0.016270913058295713, -0.049291305656282904, 0.06251739470665882, -0.05558035785313811, 0.015718173974192146, 0.09908602438327126, -0.01679297424614946, -0.008638519533559567, -0.005135357664707947, 0.0251048595954283, -0.025060440839692097, 0.0972418319450131, 0.056809614877042794, -0.019007593469173828, 0.05399438049668589, -0.01858015225700685, 0.015711979096202203, 0.006578744646787307, -0.03748122463371441, 0.05582003262463335, -0.04667507363445789, -0.01569815501687546, -0.033994621249001385, -0.015768748863412594, 0.0429815286060407, 0.03867979837185087, -0.06981405185495707, -0.03387399346591782, 0.11537733647202107, -0.019460057173372992, -0.0335204083306925, -0.0967839447070759, -0.10053856760085764, 0.04498338243800082, -0.0045394945886175035, 0.08701501703441882, -0.013231412838813999, -0.04744520485832204, 0.043020360901792835, 0.04747711473962039, -0.03950641452710563, -0.05079673753150156, 0.08568187590867328, -0.004884402202273623, 0.04445196941449148, -0.12950500422736813, 0.008518212329452213, -0.029226350280942764, -0.011450485152337021, 0.03732164342409609, 0.011686285767394314, -0.06199577379283429, 0.07061890848028309, -0.07055610659539838, -0.05814684369918962, -0.019890693459179393, 0.0041613524391096186, -0.020281346999686655, -0.021069097058005817, -0.01950845313919308, 0.05666620012272804, 0.025198148545324976, 0.047904242483786885, -0.11691127452111745, -0.018044273627370776, -0.04393821762075729, -0.029776947038842098, -0.022692989262051436, -0.03724950688579672, 0.020283539310852604, -0.03599492813263653, 0.04322341707746751, 0.028730106282130213, -0.07859830362683794, 0.024150385051596685, 0.024577974415264336, -0.04046003419848106, 0.037819182452758913, 0.02642419385209926, -0.06946719515097344, -0.035374700026768575, 0.06899534217023934, 0.04054945394266245, -0.08423683200215568, -0.011755262092992996, 0.01677817813898293, -0.04707073296876882, -0.06195814006647753, 0.005593233314720499, -0.0035808377817821598, -0.03832897372187606, -0.09922876605757051, 0.008771592538404215, -0.025466810756380274, -0.015215784409301237, 0.044449160177455364, -0.019104455731371685, -0.03241986840721237, 0.046044722515978395, 0.0321487536610853, -0.026940702231547698, -0.014352840920990644, 0.02406783351546094, -0.07181481752038946, 0.07688867996279887, -0.008790448026370586, 0.002217735132231358, 0.07425192099223185, 0.04322688848478713, 0.06952090687441959, 0.008167273116474081, 0.043189243224082956, 0.07253191748758933, 0.02014193602017367, -0.03082893120877147, 0.018976479359802716, 0.039482382012636666, 0.08572187173925773, 0.0019834160696334605, 0.004779363114933311, 0.049408559713006964, -0.03143328343110198, -0.013236330703630289, 0.06393332602913822, 0.10104903214734602, 0.0030807806763995483, 0.058778664697656, -0.08810514384276075, 0.0025451124955571595, 0.06893158932643222, -0.03600468317693795, -0.024742229067966845, -0.023165421905091556, -0.038344387129879094, 0.010429352348706173, -0.0472949386637331, -0.0025973018240571153, -0.019865457588381256, 0.06450133352502406, -0.012334036156375983, 0.06493743467627125, 0.044326222919576386, 0.03084419992615724, 0.02375371898099352, 0.06484552057225608, 0.06884906263245162, 0.02790143241355895, -0.09451714332875685, -0.024625256841556874, -0.0684746547769366, 0.07135586934392492, 0.000511691062714027, 0.14936778321797076, -0.06751948921701634, 0.06786239308956578, -0.03283069882492156, -0.0029102528208398795, -0.01871359190818585, 0.01555756355586943, -0.07255752534719505, 0.02459640711788009, -0.07612017369518705, 0.10629918747199588, -0.033522118167263075, 0.041699274918349134, -0.08258996793778278, 0.021533619989200913, -0.007567731622229254, 0.018381087154652077, -0.050088837763469174, -0.11010366097625021, 0.047497750304389956, 0.0215416444923006, -0.013562923186619084, 0.012929871254067953, -0.05015277766217738, 0.05580742345084872, 0.030063199196100218, 0.03352174898039478, -0.03737717688948443, -0.07754575093863128, 0.04622998216975655, -0.0005618596780452431, 0.08534186299728888, -0.01821716974406715, 0.05239759572228557, -0.023087234704505525, 0.025333229855877926, -0.0793802808793891, 0.061905246745207594, -0.035225725384698446, 0.012095776929418456, 0.045415642251180346, 0.002958369365756623, 0.00904380403687981, 0.029956437585344806, -0.07778747902092786, -0.030794041702622076, 0.005593168687443112, -0.10065482673796082, 0.00812867537070207, 0.07280227636944997, -0.016365717650410932, 0.024464751949774044, 0.029148717011116286, -0.09265123532511493, -0.03660835291299709, -0.0376578710218744, -0.12501575369150447, -0.029722614685507583, -0.09266166137939083, -0.06266750518228797, 0.05296965287428602, -0.020171105176366912, -0.0027010801846308113, 0.035907140568468686, 0.018436486016586623, 0.07152563684108541, -0.049946252155519455, -0.00916634721521668, -0.0016924172959915493, 0.004844704003294157, 0.010415172638307997, -0.0010589795326197983, 0.0030972587863227876, -0.05040562859913272, 0.0057583435958844685, -0.1254226851535618, 0.04702750538614673, 0.027006047795247637, 0.05664961392495296, 0.05240588061979331, -0.08377898167695277, 0.06720861590737598, 0.028480955712195978, -0.009855941455815639, -0.0034307183905451697, -0.04789247656251573, 0.027682568124739387, -0.05874214237282577, 0.07768995697510381, -0.02217844983877373, -0.010984581204953046, 0.09233526010900828, 0.04438515349713413, 0.0597553456934203, 0.028498510407683385, 0.03458465200785632, -0.06724802296805361, 0.05019917402419378, -0.07373810577109183, -0.06381706852756672, 0.07423446229626471, 0.029216778286568115, -0.08494090108595459, -0.019600079357043883, 0.05013977627015285, 0.10292466629468852, 0.02303734691068494, 0.016634340095590644, -0.014390108542761182, -0.03026879407410438, 0.07511433563800847, -0.01868742010797033, -0.0658030186754358, 0.07724190964107004, -0.0345206925833236, 0.05043094323774396, 0.020975888977126628, 0.03665329117279092, 0.017150138054692322, 0.016598994651101602, 0.03982915918066235, -0.019014017167414753, 0.013773161324909786, 0.04129524751007741, 0.05677508421467604, 0.07300259496293822, -0.03568793216335182, 0.0013934733503499386, -0.029431120264876046, -0.05303724897301263, 0.029913929856202497, -0.03196337893670301, -0.002019629510245717, 0.034929857173166656, -0.0003666801298953669, 0.019932708631539973, -0.018027583098749498, -0.13142337878710372, -0.00835112773119385, 0.04465436969646458, -0.05110278737763367, 0.02402519681853255, 0.08459704328803157, -0.008170160197933225, 0.07273867395374177, -0.09290650939739672, 0.01476637195171458, 0.03024721507893157, 0.00576688354855108, 0.006331475820219131, -0.08059733485828433, 0.06623266393919572, 0.06594234260235275, 0.010891195595123533, -0.031546954280199616, -0.09920954310236703, 0.02424887811277107, -0.025071188710572186, 0.0730984257539385, 0.08530461627431925, 0.03671337243951103, -0.007666716571807836, 0.05914608604168849, -0.009761332967566734, 0.0021120553723638826, -0.055259608936142686, -0.014833473943066309, 0.01443039805047878, 0.04375501138113774, -0.13325763826452033, -0.05385490790967218, 0.0028062368912204283, -0.005668602206235792, -0.06413813029550135, -0.06302441122333216, 0.054021979111325454, 0.0033510289549744453, -0.0193146261109762, -0.029095383260510362, 0.010585511592001069, 0.05505325228816719, 0.005434998050200468, 0.10107271603947501, 0.041182968487684296, 0.027720901965822067, 0.0030996156550026853, 0.012436908677736365, -0.037395731746785454, 0.11879068065612125, -0.007328319206440421, -0.033080830177500346, -0.018675869849524233, 0.02901052874912517, 0.038343519905049674, 0.016607344994643537, -0.0502569027793693, -0.028399312086144914, -0.04399400812569289, -0.07760972702704784, -0.004661021212505151, 0.0308364193385091, -0.008720940199868226, -0.05388644116691127, -0.05793801125759222, 0.003639088276714728, 0.05774424830579245, 0.05832255301843358, -0.0023679030183205055, 0.013122466453302202, 0.008188232493197348, 0.026037723801784384, -0.004332234330669873, 0.006645821616893984, 0.0016331649327596676, -0.04979201693035213, -0.07528014293807574, 0.05671390925422892, -0.001471318695454084, -0.02918121075611491, -0.05162970026518457, -0.05041874358609646, -0.06460481546653915, 0.011703330006578546, -0.054517589121933004, 0.038547385813605985, -0.013836467256362119, -0.019937712775831458, -0.01965051983224277, 0.022609518726367833, 0.031120178847718512, 0.04756366936840242, -0.03798961469292268, 0.08848204707526507, -0.03688571629013992, -0.004565684968940868, -0.04325065933674152, -0.007941168642231364, -0.012871848605271685, 0.05640214149580586, -0.06883871224971616, -0.0021494759416162204, -0.07453387925290446, -0.0144174928189729, 0.02049809801538813, 0.04748574537666391, 0.021150492294844715, 0.014689742189395472], [-0.08311424002020884, 0.03594757087380536, 0.02539649971546041, -0.0760747251408044, -0.02829009037227902, -0.0065940783845390115, 0.04289285804351054, 0.0769290835614368, -0.04332181919724946, 0.011446933176672927, 0.0497941656238246, 0.1222636571565936, -0.03802890636689129, -0.06915261321116979, -0.021928287218750907, 0.03271635720104095, 0.04364476885465365, 0.08614952563369599, 0.016983597272640306, 0.030451840834556484, 0.059999702424733736, -0.032329275113657525, -0.0043600716992819215, 0.027335474052585195, -0.017867656315576807, -0.055926817503409595, 0.054815022943191204, 0.03024307164038195, 0.0013287109648636478, 0.03067223088050305, -0.06540157514052128, -0.024283582004415636, 0.08862971093916487, 0.11292587513846018, 0.0052271005761278235, 0.0335137372768031, -0.007395369907348442, -0.007108263645946424, 0.12580347567824549, 0.008513466720235051, -0.002185184849323305, -0.023714535892437282, 0.012583849498988053, 0.01311796262885934, -0.005224615859073051, 0.02688904302498252, 0.019832028658271376, 0.022355282410152215, 0.02542056667042519, -0.05276033102843205, 0.010110244007839627, -0.06400814102607279, 0.06603904430369292, 0.019410923122301377, -0.07638984179315249, 0.09806771237353898, -0.020001966473100544, 0.06504858401190858, 0.06328173584162848, -0.019963355577698037, -0.03185432446494641, 0.05578680083082677, 0.03555151495592841, -0.08773648888523175, 0.01122268341978735, 0.05898055867212445, 0.02180893332964957, -0.10973018308508677, -0.03679319635852356, 0.028890829620894242, 0.06409039749360652, -0.04985109451275565, 0.02714681927268179, 0.018448297978133955, 0.004241148402302572, 0.010784998108330241, -0.07828369173117111, 0.007760917532038205, 0.05014856609460144, 0.05889427638382953, -0.00010899692925043841, 0.03673987507568028, -0.001462639535473469, 0.06539511011975475, 0.023511333732439185, 0.05028167490156768, 0.014857954878332387, -0.02695522844117845, 0.00642230767587596, 0.009138743247011685, 0.0612760665078281, -0.06703123194794093, -0.015264081079167715, -0.0663599327323163, 0.0044040831474047104, -0.09621511081554644, -0.10334776685068797, -0.011359570667099668, -0.08030206239161171, -0.01720672526091623, -0.026930215689439263, 0.06630293904822954, 0.07844769457958106, 0.005709507803889786, -0.02581749309492295, 0.048901075216206014, -0.09424165574428166, 0.04723939750723372, -0.07303399794911651, -0.0035044765864016177, 0.14421195179810145, 0.026933820621581322, -0.020579201816655672, -0.01737829050067325, 0.0804323492418155, 0.012802658235390424, 0.04891615228112082, 0.0397075653918427, -0.03328259634139949, 0.024279757603465544, 0.03314795774447749, 0.039444551285274125, 0.018744940485410214, -0.01726011852679921, 0.1185463049192266, 0.027062229004143047, -0.019593391129676816, -0.07719622681029194, -0.08627539289404003, -0.02488844390273441, -0.05155864484937371, -0.001589270882067801, -0.05318548279190843, -0.059469535483011406, 0.06297356553904644, 0.09332422571263842, 0.0883297568862052, -0.03173122285780471, -0.08908206527734226, 0.03875644130644033, 0.07223967471797843, 0.04660978882371885, -0.03941197857156632, 0.026188283619402463, 0.048831407291631906, 0.07993390692418792, -0.055949515843201215, -0.041703065115183124, 0.0032643898620075547, 0.00305767682474138, -0.05249288591063232, -0.07685793028509752, -0.042943284846587555, -0.06591613080782202, 0.05457375739929242, -0.09271398085501359, 0.009596277709703541, -0.03398229977180767, 0.04641940330592558, -0.03513157719315888, -0.088390793502773, 0.013208808586055809, 0.016092940167130938, 0.019454443092534558, 0.08294723928865526, -0.0197522918946538, -0.004062145750558823, -0.029691689051139777, -0.006900792693581377, 0.01688345472838491, 0.06001642256946376, 0.09602384964676992, 0.0057244349649454036, -0.0006073629961436346, -0.035142643456651294, 0.044795806544759044, -0.01616178310456979, -0.02536800111367041, -0.05740294157760846, 0.06887609032633044, -0.062314621842431535, 0.03188660446896959, 0.026133996630849265, 0.08147747266388974, 0.053891405982163326, 0.019032467990733572, -0.004905048168893335, 0.016153434341970526, -0.04532285809873778, 0.08076672729399528, 0.05790171023987882, 0.07736869673982022, 0.000370701718491016, -0.045844931074671975, -0.051381051697283533, 0.0357847191194292, 0.0179697555581831, 0.013057550787590801, -0.1097786903181626, -0.0963428994108929, -0.018365555348963343, -0.08104841430608621, -0.003982245806974139, -0.055224562280504666, -0.02533310561030788, -0.02001469478423687, -0.0106891568633321, 0.00041020644771585976, 0.04332436116958763, 0.06075261255928835, -0.026211174912815487, 0.024633496375003693, -0.012395325777574719, -0.04584435143182479, 0.029215352015603886, -0.027024755953349845, -0.052816395393043336, 0.040421406758558494, 0.005710984075465886, -0.08072911676202929, 0.037900837525424225, -0.08165730848784708, -0.007168810640917468, -0.04209948640775026, 0.041409183456538046, -0.0523107577670385, -0.06907545059676654, 0.01660901641085221, 0.04282563663058717, -0.06168724023800171, -0.013845435266598231, -0.04866266285400289, -0.0022562429250922757, -0.0037065766869080114, -0.022951852560451767, 0.027810233108152654, -0.08745833549856326, 0.009527847411268525, 0.011625124623823679, 0.011783314202334109, -0.11779664874343392, -0.06534720388898423, -0.08593928140388331, -0.05432595944768533, -0.05724741472260061, -0.011398101637596565, -0.00864457953970588, 0.01838589966185781, 0.07080238185764896, -0.037751001200018286, -0.023396248335991757, 0.02790509120617689, -0.03353640263720311, -0.010921002553065913, 0.03151281278577804, -0.002071154290706407, -0.022148133678795912, -0.03534980505155192, 0.05107445325047693, 0.0012592497640856663, -0.04407801582603205, 0.0434497378654985, -0.14171560875620048, 0.0004964190746913632, 0.00038331730042244353, 0.011323396060932616, 0.04309984392507777, 0.05678048261596887, 0.03530009206547824, -0.05710694508290031, 0.028569324009418653, -0.10920091706634334, 0.05732987087421427, -0.08317297301943473, -0.03638553756864072, 0.019012218598641276, 0.010624180843118997, -0.014123765167897623, 0.01574309403895049, -0.05399420515897188, -0.006052547064752466, -0.00782207833571257, 0.03202295030251948, -0.021899704436396838, 0.0604709940566968, 0.051080950023622514, 0.04411595540705701, -0.06406051935348174, 0.025176561096745487, 0.01132194955655937, -0.041004549685610084, -0.020741635076630145, -0.01559194528638824, -0.013057846378480823, -0.035410018490300926, 0.0643796207930042, 0.049802546446334556, 0.0506328376701807, -0.017966375768140676, -0.016105000739595938, 0.03717836275025471, -0.023590041730244544, -0.02035735646038622, 0.06042871252834939, -0.09603579679443999, -0.008176314115981798, -0.05306383740364564, -0.023995800034251325, -0.015663481065715173, -0.012054955789991603, -0.022112357220692103, -0.04480041251316345, -0.09098237510554283, 0.06112000719782092, -0.07808979878917992, 0.06613447029094136, 0.09826815932082276, 0.041375393831290394, -0.10008035913687405, 0.017912188995634938, -0.08537004402354803, 0.024578951149752077, -0.0023140048254829057, -0.047556094535907284, -0.06441728335087114, 0.016764718108507045, -0.016639216318800828, -0.007507961905484556, -0.013120032557755828, -0.061329861486726804, -0.0484141031927772, -0.013968968617641821, 0.04767824609590972, -0.010685674940680734, -0.05244919861408609, 0.0017176858001257528, 0.07407649298367898, 0.021933455847892264, 0.0420651081073465, -0.052372136783042006, -0.011205625589416715, 0.028146659961333465, 0.05898109214310368, -0.015752170398249013, -0.07443187536081311, -0.057456256216633764, 0.08967143455289761, 0.012261626785950892, -0.0015902877054744075, 0.051297993480037024, 0.11886638579041009, -0.0028404490517381868, -0.07219069699473965, -0.07857316995653357, 0.029901659604359677, -0.06279535432887674, -0.05751940494513825, -0.010183267026867275, 0.012157503648602356, 0.007997346814459193, -0.01036581891532106, 0.05059369477254713, -0.05173906080980037, -0.04526112954912189, 0.051569134057414534, -0.013548769268066073, 0.02241725345673112, 0.050326477544316184, -0.04581294172011253, 0.042137532804291694, 0.023927911229363087, 0.027526162737686908, 0.09527311540242703, 0.09626431894283986, -0.031162412074209375, -0.004975614276951804, 0.05594554638228234, -0.038126009798757465, 0.04026809960164195, 0.026216635324133358, 0.08085347492176957, -0.008601285551057875, 0.04027804349568018, -0.04607230992040801, -0.07163014861416983, -0.0206303838119853, 0.015278453401358201, 0.03041415492543889, -0.04533504819711462, -0.014360664591171985, 0.003368759099067412, -0.019128324778755822, -0.08555469681717547, 0.018478717704854025, 0.1539558849975657, -0.054327959856297146, -0.07607441657875805, -0.0050687743146433884, -0.03725519282470793, -0.03830168944058144, 0.046117102591085535, -0.06071220301155462, -0.025331003658288376, -0.021094150489157196, 0.06414329115994166, -0.05348988009693318, 0.01948968144903974, -0.06775960160225569, -0.014307692045742929, 0.020580608686254852, 0.041191784158139344, -0.015370505236104968, 0.029604657905753524, 0.006455146414379345, 0.04093885515338554, -0.04590585163857526, -0.04754256862545979, 0.056050047541420865, 0.08812219159419986, 0.11682426426316034, -0.04525761899738163, 0.035806727940353084, -0.05348748143138653, -0.027992351637485847, 0.02076207711638782, 0.051695477070214345, 0.06244146064529223, 0.011525076740865729, 0.0400438137457372, 0.09124838857945668, -0.05496743672833748, 0.04607731289736483, -0.14352732904153798, 0.004840339345222358, -0.02939358128479241, -0.0076349022537637755, -0.047929800163704885, -0.020407076794145686, 0.007243481699070097, -0.016491449565141626, -0.11399319671713216, -0.07580295117048219, -0.05651499568281678, -0.018141722447563007, 0.003055284288914954, 0.03939286858405399, 0.0027662196100504163, 0.01274735806788412, -0.053008758238838154, 0.0321374669390086, -0.05208103543718308, -0.006061758069465615, 0.05417884754660507, 0.017607274970134014, -0.05128725665310567, 0.07224475669565471, 0.03458419358156327, -0.010408933090438785, 0.07928130342171846, -0.005992063881615417, -0.04016909404539716, 0.05790325729231642, -0.04809694858620874, 0.11841924326905444, -0.013715275922167753, 0.018556266095971982, 0.01378954702205114, -0.0203474792627209, -0.0632704017817929, 0.058916622621965814, -0.036487001445016876, 0.044568776899853266, -0.04148528920927004, -0.07425406418925073, -0.019358604246702125, -0.040248532845272286, -0.02199632771251584, -0.03088150335545007, -0.011889897491618586, -0.004439203808069295, 0.00857686422435907, -0.0027561487881949715, 0.041566034274473494, 0.035881836938130046, 0.019811162622597016, 0.009894196501431734, -0.01946807799150307, 0.015237529043322486, -0.05099319014236651, -0.03140762397312087, -0.01908587075454619, -0.04361810574015857, -0.05207975828649879, -0.031034647282205792, 0.03481693862164392, 0.011613418249083959, -0.01951497998707313, 0.0477875390556554, -0.049577532931332775, -0.045266497167151865, -0.12271829794813106, 0.04314202745941274, 0.004896495696243688, 0.04220240788773143, -0.018719050720771627, -0.007264608701106548, 0.04097090381933952, 0.07684294644738764, -0.02613279656292858, 0.013653667102999412, -0.11383764912319115, 0.001340418840863015, 0.01663718117024651, -0.07741598126046789, -0.025453034229106816, -0.026131889527117765, 0.03448092177321601, -0.009558225032593575, 0.041421644744972, 0.030562674120558526, -0.08446108910521334, -0.02807674245066674, 0.0008766866434304969, -0.04588358521387622, -0.07607634524948736, -0.09413515497735571, -0.0018400008713455945, 0.010768903533858436, 0.022662247966519278, -0.05129861587470049, 0.006611072853145463, 0.010674837188943413, -0.004490815132995317, 0.0024113055033873954, -0.022388244111269398, -0.0943263953708213, 0.013912805578402191, -0.03435805717329122, 0.01089450823257574, 0.0773587930692915, 0.07159755183328154, -0.024959020442639146, -0.026606235826844165, 0.09562364560212935, 0.019708298396689, -0.03783783069260837, 0.0410864150069932, -0.06009078121531775, -0.07310972904885184, -0.008317306443653093, -0.025126647174305506, -0.1267061063196076, 0.03759782304047615, 0.023083632946464143, 0.06692394108832511, -0.04459576146967267, 0.12539703509956146, 0.051738393624362534, 0.06172283076841441, 0.014557176863107396, 0.01693825703654471, 0.004332059585658521, -0.06461847992260407, 0.0688425803065114, -0.02046492379929351, 0.01673742449967718, -0.014258053084694541, -0.05447253482858257, -0.030137911152158046, -0.03006810945360831, -0.0015859585690991384, -0.006522848265646198, 0.04224303309897083, -0.01516311822792363, -0.022253722287604513, 0.012084249986574844, 0.043627857831017566, 0.12416616480887048, -0.060446043747853014, -0.06566896041753746, 0.0703234783823325, 0.06733939865518257, -0.04433563913586006, -0.04264226567696085, -0.035528869363816294, 0.051345312070618064, 0.03683419191146172, 0.017016462292065822, -0.03659718960500033, 0.011702386548579309, -0.017029024348670936, -0.060293320198017676, -0.0457325049334075, 0.0020220480955509814, 0.02085989429384892, -0.011569884233440826, -0.04708844942794477, -0.021447554795687683, -0.011282135516177441, -0.029790539238726314, -0.01434534129441448, 0.029910094336791503, -0.003581538337687921, 0.035679840678757374, 0.026392355415561942, -0.03957304373074232, -0.011682462229948716, 0.10142963322945538, -0.05211164510494391, 0.09794150354869859, 0.027320650733446382, -0.0009571958869396094, -0.053821366385196565, 0.0026377317708560976, -0.03287158207094638, 0.006900348737093863, -0.025690403866697683, -0.021581485460930305, -0.06311392548476398, -0.007997763925953593, 0.03811501647108641, 0.1226118717968051, 0.029726783488814152, 0.03810904176066261, -0.07554686231917185, 0.043193202818365625, -0.012162970782676575, -0.05501908632365411, -0.04036055382322177, 