{"input_size": 784, "layers": [{"type": "Dense", "input_size": 784, "output_size": 128, "weights": [[0.09838385249510224, -0.02035902841915104, -0.06514037788236196, -0.05852441917612912, 0.06591786336015809, -0.017340841096408308, 0.01707743433270446, 0.07173858442343886, 0.04755989133824032, -0.04207333980275639, 0.032719367852816116, 0.05453331722128462, 0.011762574803666444, 0.07779602768363399, -0.05493844382865035, -0.08494224533923034, 0.03345652455627683, -0.01906699015598683, -0.05296519653184504, -0.03938174512906802, 0.016957507377809142, 0.0032908885141975795, -0.003235989258242725, 0.03532638780267442, 0.06860844365916137, -0.02897842548617052, 0.05528663451427692, -0.06438453596077753, 0.03611121207922989, -0.06344378799713185, -0.04063164863412815, -0.04110423345889185, 0.00893902089194571, -0.06435456811089518, 0.0028994300682766297, -0.02206300711985778, 0.0027769636554923435, 0.061216778358904905, 0.05187270207637282, -0.0656523811168389, -0.027357077011161173, -0.017681356827676513, -0.01629580257779739, -0.020271352440767887, 0.025465463220240056, -0.047394206179635856, 0.11757951619830144, -0.07215002327847755, -0.015624301070952602, 0.04187022856010983, -0.044147798958407855, 0.014156904457873784, 0.010838544115844537, -0.010248915139451522, -0.08595330066890618, 0.005520871263737011, -0.11812641686282974, 0.04353673675158628, 0.05523829645229546, 0.045392499164062884, -0.06962763790405406, -0.03676155038276776, 0.08030080749144097, 0.015714851716737886, -0.018003738923077196, -0.01779189409110494, 0.01872282131345441, -0.015249000783363578, -0.05186107728291774, -0.05097937325717345, -0.03638472756269554, 0.0002438505738625978, 0.014883732344211465, 0.003321313511264801, 0.0004938824380847187, -0.05956536695901122, 0.04009185027905845, 0.03456246786317893, -0.06162174742966178, 0.08075206619250763, 0.014819025340612593, -0.037835768661043566, 0.05885450038346475, 0.0995525266148873, -0.021321146883869446, -0.004688201219554798, 0.008574759334024165, 0.05773744924954278, 0.022895994941883265, 0.026738746534125852, -0.01027992129335657, 0.041091188815968197, 0.050898139774843316, 0.09434604503761754, 0.11703381394669217, -0.05976071371891979, -0.06419015327918019, -0.0031943102971864665, -0.08403216497406157, -0.060195713403810774, -0.040146187708433964, -0.05199196973661864, -0.0033751584718369645, 0.016908934868099853, -0.06636581304869464, 0.028274332483087066, -0.03461672676216708, -0.08314228647386843, -0.09345458967828783, -0.02407162770059831, -0.05577093643975124, 0.021586431773971664, 0.005500905401250346, 0.038139032650167555, -0.07455961531053461, 0.02731729848870411, 0.0056690282909911075, 0.04940748143413223, -0.0632148908044109, -0.058976843199899875, -0.03667252738648294, 0.003635963958947543, 0.014204277797786111, -0.01640077521147804, -0.0470694889725052, -0.09957064351705679, -0.09296054751316325, 0.10043552771837033, 0.004590983083103497, -0.028449180229257943, -0.024033548964258578, 0.012861093329318073, 0.016316458231939873, -0.016294818360780935, -0.03549102050215773, 0.04730945376336706, 0.02105366468097557, -0.09187348285945467, -0.03468597009285754, 0.04176689498321278, -0.035279896888659526, 0.10342784569467273, -0.08607732869395271, -0.006405687706249751, -0.005520177197869304, 0.1023242278757881, 0.0605474662993939, -0.06927925870177619, -0.025763052344911306, -0.062008489682734126, -0.034662326116570476, -0.03841676318545134, 0.02699206277875695, 0.00922283981125854, -0.09974912993343417, -0.04203866820085183, -0.008249891421829523, -0.010998790210338066, -0.04348505928098291, -0.012309214198177371, -0.036205561919071746, 0.13254247584287981, 0.023331733713346414, 0.10520168882932332, -0.04398542528805749, 0.09415566591367215, -0.015919880224486038, -0.0240761932956237, 0.004449711573367387, 0.07022347907413772, -0.02989340784867733, 0.04378489813526761, -0.07395677684717497, 0.02963819585712738, -0.04954263445148805, 0.014812884515505383, -0.05567722790059411, 0.02337071227211354, 0.06341185683351748, 0.024228033855285578, -0.005888153302790139, 0.049003655031541235, -0.04283788732455039, -0.01173602340571203, -0.00576746297213816, 0.02880726492995745, -0.0693880835450869, 0.021679729021065772, 0.012603300635433428, -0.021161544359221043, -0.03934714257558721, 0.0797589700157751, 0.05268481109257779, 0.023093825257902177, 0.018951685192875288, 0.0197840896285715, -0.018394794201409194, -0.017232455186196156, 0.03045374081289771, -0.015088986357127134, -0.05910822136737999, -0.026004077861486858, -0.01569908542848822, 0.07295133513686608, -0.011316615061539527, -0.020201497831249943, -0.02588984702773637, -0.037056057821817305, -0.02975706306770647, 0.054317419958057105, 0.05132816776281625, -0.06031683631921125, 0.023855800513343663, 0.011487055517624627, -0.045273745433519, -0.031693689113405185, 0.07208346682427391, 0.0924635725568236, 0.031992694382444085, 0.04590802023821055, 0.028874207085930727, 0.019738293911463478, 0.06004811278123371, 0.14348155438490404, 0.026261741833996263, 0.05720277435948753, -0.06265696464114398, 0.05215056951122219, -0.010100005597220931, -0.07250618467847342, 0.034763323205074935, 0.042068104590269585, 0.01975315173493943, -0.030117735502737743, 0.008642667428065222, -0.0046515730134511525, -0.04202014213262402, 0.001147326968709798, 0.07449435807198176, 0.007060789054864349, -0.04986805728899298, 0.013260064208441476, 0.055085842406673406, 0.043323629003669734, -0.0373665620710135, 0.0534207848696559, 0.02573724144139235, -0.0505922641574644, 0.025102221758358287, -0.029354502973739358, 0.13128376729065852, 0.00794573617541934, 0.005651343811276067, 0.0579674131580482, 0.020965415581374817, -0.0037147038874722174, -0.1270749590668298, 0.02189188973664289, 0.03948906136809949, -0.043850304655766406, -0.007486247826568566, -0.03442670188839477, -0.010402319609745518, 0.05904660872917677, 0.07401642412391547, -0.02844313559598163, 0.019395332954911942, -0.04014218692087799, -0.0430776983595108, -0.005153744865349182, -0.02284550329701515, 0.0019276406869193031, -0.02732745733876935, 0.00657661225425382, 0.022810205843103275, -0.02604717135311053, 0.08738662944283265, 0.10203816787318, 0.03906327048253479, -0.0016351260541171851, -0.008922661524760662, 0.0011345392507787677, 0.005091360205715356, -0.006041609321019792, -0.06909413842285955, 0.05221482499562165, -0.02720584690629676, -0.011924148780424413, 0.01885592467619437, 0.04111402801144637, 0.01773327103754394, -0.01578040462587145, 0.09539714960512917, 0.0881174570482591, -0.04230677701674776, -0.0002765870811883022, -0.00619909632148311, -0.025326633192516962, 0.041157819837179074, 0.00759005651106065, -0.00884344719208745, -0.0946897687244022, -0.020375369410901126, -0.01236730342740433, -0.052722285690773696, 0.009836621516510281, 0.11125284394545247, -0.016397382838435448, -0.053583900858779336, 0.019675306996744787, 0.01177363166302755, 0.024873800035323444, -0.0021559969743234746, -0.03164361228336215, 0.09737200913608716, 0.04426114526857293, -0.07415178049817914, 0.049778968155191256, 0.008209978285609555, -0.053005700299633855, 0.09486163934395048, 0.09110037158308792, -0.019178687838155604, -0.007650880343722165, -0.055380709087000234, 0.15391777835689432, 0.011657294223782056, -0.02913062396592389, 0.019873978843651274, 0.09485063889190608, 0.036038499845204235, 0.04253812795050404, -0.05844311919850151, -0.04922147954107629, 0.051493124535970124, 0.012052612522979953, -0.034871809313723315, -0.02475021488114611, -0.021859445668755053, -0.05055275977207623, 0.023322829194791596, 0.04996264459675424, 0.04786065720627171, -0.02051593741513444, -0.06319981001744959, 0.03330187713361365, 0.01367256254031283, 0.04492863426678549, 0.024535380902883822, -0.050302263253797816, -0.052972996135855904, -0.025733796320147644, 0.051528916819741206, 0.053723371406045606, 0.02408880904496204, -0.08977892960648606, -0.0152890675905681, -0.011229282259196503, -0.04926854278518856, 0.017718338981996234, 0.019850163744567335, -0.012728641525931146, -0.03001971164284283, -0.08054879071260065, 0.05305973041693361, -0.044261574986894175, 0.04647213392743048, -0.03644958972108494, -0.0097743582950671, 0.03671837351982104, -0.0739598008114432, -0.03554199171859249, -0.00943970340220069, -0.06551693027118308, 0.056775088603605264, -0.006165041406350849, 0.009753268943263935, 0.042810225448270345, -0.020962464564876056, -0.03324940040773742, 0.009909763825387689, -0.012623978823881311, 0.01058903906572981, 0.07773239441477313, -0.01756503112713297, 0.03490033790099327, 0.016340406365477917, -0.015829730620196214, -0.021361527761538296, -0.09383062469790564, -0.027917791016180072, -0.014726134095963938, -0.09453138836769971, -0.10679197818499135, 0.08135366399095996, 0.04975916666731781, 0.031601760408229145, -0.025781555712780145, -0.06814533353018508, -0.030642637831930247, -0.01326718148490419, 0.03271814520520694, 0.05043281361598067, -0.00941613358378386, -0.021160678262987075, 0.04536893296179031, -0.01878630727029974, 0.04617775627566212, 0.05484231995226571, 0.010971316059032407, -0.02450862213279349, -0.07584271917273061, -0.04770106157351458, -0.021283329928797536, 0.04111378080502958, 0.03430490984411129, -0.05245962434633191, -0.04868983528315704, -0.11180060144226299, 0.06858075554584556, -0.05864560736517271, -0.04063906191814492, 0.011961600395175749, 0.03587461416636502, -0.03815277985902796, 0.02951300311229093, -0.018312263271801396, 0.030301138174514256, -0.03363330172340733, 0.04087331599935145, -0.052770513077740853, 0.017235702096771742, 0.04609825489461658, -0.09674687453064361, -0.04322950645038251, 0.0012282155148920985, -0.01637684586270373, 0.04832339855954421, 0.0881759988505322, -0.01220713559042735, 0.11819056311774659, -0.06459133820464656, -0.023871935956985505, 0.004089577463238766, 0.009529912053166867, 0.035690337295833374, 0.03178552321589544, -0.1435973506307054, -0.09520334435867737, 0.12141087791498471, -0.10337040333650939, -0.025331187282882327, 0.0260092241647214, -0.006899544087654277, 0.03110835236335098, -0.02696421000647769, -0.006102783595166685, 0.08974512418812275, 0.017385092929105776, -0.0004122459640400334, -0.009135072047975312, -0.023802041774889465, 0.011854586598293, -0.062236149968047744, -0.07620009828816326, -0.0026588763196449833, -0.029919949885664092, 0.06808563009510107, -0.00040989676928501875, -0.06645520799160363, 0.09029751114537472, 0.006958276608074351, -0.026397324261965522, -0.034919966870040973, -0.01888059680990637, 0.019505027195097654, 0.025867633121437566, 0.02610239257846054, -0.05343365655845925, -0.02130310322500381, 0.0035075322930676264, -0.00970938404941128, -0.021183122502098913, -0.08076465517109735, 0.05873870211230487, 0.003803947599226919, -0.0402006805080765, 0.018349529981586756, 0.0506567650088684, -0.0017268941593905566, 0.03340006859200523, 0.013464961279179025, -0.004337305137542675, 0.09606734508548583, 0.008926769780087461, -0.08353584561994233, 0.0190742847113434, -0.008982031989401385, 0.03414017064315727, 0.030054114542283097, -0.03747743332038949, 0.05623239344008565, 0.004015775976487428, -0.04389640132127248, -0.012408635621770706, -0.09608183327187307, -0.10750424786270003, 0.014173872557274226, 0.02919859208988996, 0.014215115745518475, 0.04717758599203176, 0.03909885365246013, 0.040707131168841504, -0.021766229272661926, -0.06402693188194034, -0.03322352392507485, -0.05728846199980547, -0.07304469743977711, 0.0941736713329999, -0.0074664501775684655, 0.09594160172770999, -0.04199314805510453, 0.008135361680914837, 0.018292089543193793, -0.0753362755067626, -0.007244534832176994, -0.015554543449932984, -0.028708199477099038, 0.00724268477332545, -0.03832285634180167, -0.0200590853487242, -0.06778291105805137, 0.01956792600824593, -0.009616216649553764, 0.024939542713669566, -0.018659335085153043, -0.057621905549511784, -0.03763278659362099, 0.023714335126752202, -0.04091688283660208, -0.005255358006647794, 0.008962210295790893, 0.07525318997511204, 0.04704788198660606, -0.09197608808639228, 0.02559112631270235, 0.0040765716737248365, 0.0025305291359563773, 0.02497589446462346, -0.09859904799877307, 0.07721069732988498, -0.026305513283015194, 0.037855938855576615, 0.02010677886653448, 0.02120069039977537, -0.03019253278148144, 0.011566145383835578, -0.003812930756408718, 0.05987057715560166, 0.059668392865726144, 0.04955250239208905, 0.035755284139674395, 0.0187756301996833, -0.00100935458405994, -0.05259941376307699, -0.016436170182195235, -0.007760993032506989, -0.03982517877242411, -0.009490490723405668, -0.04047743872711277, 0.03309105592982753, -0.06803005011185961, 0.021297080730587933, 0.011329313363969291, -0.07298094205524183, -0.08962769629393486, -0.011023735152069116, 0.0015427949271796285, 0.019012500427003014, 0.01173338080532718, 0.0070754081218797815, 0.009323683016907067, -0.026969451353285347, 0.003950652884179396, -0.03348961692219789, -0.035704091160866314, 0.06324526947220427, -0.11158350851910644, 0.022246220769355663, -0.08637161300343972, 0.009228991357325429, -0.06525642859232685, 0.014892184289799758, -0.00757489744094232, 0.030470416065671333, 0.026155567299386007, -0.024774715510403864, -0.014653655813767364, 0.0004581402233864086, -0.031018859075556102, 0.08126501547606872, -0.04396567417100979, 0.030729447656301968, 0.009046470199249158, -0.02960195265760706, -0.17232141011708976, -0.09389935947513789, -0.07699151287249037, -0.02390680612359608, 0.0022887200052194253, -0.03404578461795979, -0.06320718698482883, 0.014192455198586562, 0.032458224259517714, -0.09285362532494265, -0.053940734085729004, 0.03715007222464623, 0.047130647968954886, 0.011079129460670153, -0.0013999344335439423, 0.01789267115366831, 0.0019372687042245478, 0.05662650117315036, 0.006217499793237961, 0.0010163573941065558, 0.14281729708113408, -0.025027388286378884, -0.020322716460162295, -0.05217481610096262, -0.05458422680116587, -0.02680309789396214, 0.005351814478440534, 0.0212675447532886, -0.024549950472523126, 0.06832654128424072, -0.0035419164216432663, -0.008739482513373368, 0.014383280925912253, 0.02875728522112938, 0.04096983490201061, -0.024717760898376368, 0.027374139462167345, 0.0663856274726301, -0.008704163467026274, -0.016500240906394674, 0.10073802461398858, -0.04985569348134301, -0.08007713132605052, -0.030880078783870987, -0.016938492701092933, 0.0020379682082704367, 0.04855718168846564, 0.07860176470244079, 0.04257855520225682, -0.06435826671988236, 0.057776418373059746, -0.07578699379783727, 0.02485905613982361, 0.033853803301163825, 0.011181527363283013, -0.0040635416995109955, 0.007338696979860006, 0.0431713279218833, -0.0010874707489021461, 0.012832849635115093, -0.02731823628022147, 0.006739705053990592, 0.03695811882522647, -0.02850997088334706, -0.06131642413736112, -0.08591264763425875, -0.014634016854327239, -0.06355684404533618, -0.010468047225681157, -0.041445456578122895, -0.008240039336270833, -0.01656535038232494, -0.04930683088898145, 0.023620018559927347, 0.0020325013708819865, 0.026058677043510583, 0.0006009738243061159, -0.0024678303793402643, 0.0011933900104775597, -0.0904400724022713, 0.0030657527070849125, -0.0651204968559034, -0.08938006205748399, -0.06835209091908283, 0.01494891336340758, -0.03292137138984952, 0.025424698820292704, 0.03607994205183645, 0.035109376438334686, 0.055954937383095864, -0.010292568092476567, -0.01661646286787421, 0.016298309382026407, -0.02098812748364824, 0.0031555458498540787, -0.006311103812656081, -0.09276792569722363, -0.024058833000747824, 0.036443117760758606, 0.04213169508278007, 0.01401861398351519, -0.04403635603910904, -0.004586655576376086, 0.010652569787611473, -0.027310574263604524, 0.0010766005842923357, -0.0694604927476899, -0.09282023804615068, -0.08010189905549234, -0.05854964653372186, -0.021309570226907933, -0.08487280975671907, 0.07758600818048485, -0.009890872623900067, 0.09752126102602099, -0.030671805267987066, -0.15556927807353904, -0.0002730796631134515, 0.03801688621413886, 0.03661025306470379, -0.03925308840603589, 0.016446001355716187, 0.013124808164418134, 0.016944661872231523, -0.10235351169069487, 0.05997118607265627, -0.028677436497568085, 0.048361053128247906, -0.007381651452454468, -0.01947993303633043, 0.011860398656641914, -0.0358369909617455, -0.05438878866579463, -0.04035217342090157, -0.044179314348072984, 0.05634743034369922, 0.09850312958605066, -0.035502288491896516, -0.0157793056453692, -0.08830647462523104, -0.0019728859214773334, -0.08825996426631734, -0.042667719964472106, 0.08431742234109227, 0.07642827967973927, -0.020528175074261915, 0.026041146327854058, 0.07311253480412004, -0.07645070910324925, -0.02720710852501653, 0.00777248221024122, 0.015934508377931755, 0.016443548113948433, -0.030101878091598148, -0.05219029549032728, -0.031244456210889112, 0.0151247850333551, -0.0457494556056143, -0.03053828815052288, -0.018846576965063946, -0.001604041597141606, 0.0742271330767785, -0.01278366927073133, 0.04583809587527934, -0.05129627287027874, 0.025227532213958823, -0.008422482128315157, 0.000911942226407829, -0.08011480192436514, 0.023557226973725837, 0.004272071154111567, 0.028375844116486394, 0.03812977769890456, -0.011857779877094549, -0.09836371623392987, 0.04354552711523783, -0.07533113694571793, -0.0001804063102541963, 0.03588266648203054], [0.04973738703262852, 0.08915959655372281, -0.05670981410034794, 0.04293061267676353, 0.04108832696193332, 0.022822590088534284, -0.009027373992835755, 0.15792708609621753, 0.0018894444643216234, -0.011167531123271705, 0.02385549054705226, 0.0010141824840097238, 0.002338211996063329, -0.022252210723416446, -0.04729171774498519, 0.05990299105549712, 0.028585461278313455, 0.007605443105699473, 0.00838011040782591, -0.14166933065480383, 0.07671027463432463, 0.014543033017313085, -0.07952866710810817, -0.06218446369954146, 0.027107562365338216, 0.07284366676050401, -0.0758297001139591, -0.00577881132012757, -0.05858610400816738, -0.021288786792357534, -0.07383070949993133, 0.11352076713552704, 0.09246443614159199, -0.09046611786412366, 0.03822239192397556, 0.018979425243963958, -0.022365913390571295, 0.018715390199133108, -0.01969442793602824, -0.031677920403284376, 0.01255803672414876, -0.01105996938254834, 0.038181841139539555, 0.06331809319370221, 0.07143332872550107, 0.00788804803752339, 0.08719890575851193, -0.04055517461422357, -0.012030569799941208, 0.03922736820409179, 0.031031557457223028, 0.00798328440643368, -0.05966532922536006, -0.029769406893706322, -0.006274126888295769, -0.02811594762267762, -0.035331924023544056, 0.016641279550747793, 0.05880259212900204, -0.021715947380119026, -0.09727990949036906, -0.0018482393557907408, 0.053936993081047595, 0.09420572805625513, 0.0781841359383404, 0.05290315111493306, 0.06647071467668661, -0.019091427763629785, 0.020286501777977476, -0.0755282503379822, 0.06988761901842687, -0.003581570685623158, -0.02250660169022354, -0.06662859601736353, -0.04229974578802783, -0.014960732916365975, 0.01619006675592385, 0.0447738328736577, 0.05672405674044891, -0.008959257639462303, 0.011386910899597893, -0.05430481237674979, 0.0013054861241159987, 0.02132971823121194, -0.01729853280015044, 0.04656122690527023, -0.0555500909708625, 0.0006976223229358698, -0.055337728032176466, 0.07192087324521364, -0.044186754618757075, -0.038907280862181017, -0.022723799480919286, 0.02383708852383223, -0.012567774739793956, -0.018901665439369258, 0.09918344563165725, 0.048950461896009406, 0.05096652035760122, 0.06629723591740445, 0.05341327291185942, 0.04312881463579233, -0.02190677383613889, -0.0039022657347701473, 0.005689188536929399, 0.0901166164006425, -0.003669808866859216, 0.015518081345870712, -0.06128539182809083, -0.005343141827599552, 0.021703263831977654, 0.026909559733732904, 0.026994181168512963, -0.05800544328600531, 0.06709662649788409, -0.03397616427974423, -0.11014384141975692, -0.03205581196217815, -0.013518174691443561, 0.06660274859375738, -0.019388310997549354, -0.028837640573371, -0.06642341584329356, -0.04459752783816024, 0.0697338906570936, -0.014677504004402602, -0.13930569416737287, -0.024378419795243488, -0.0055978110457643206, 0.018459608755927427, 0.05187920651026866, -0.005646200388656506, -0.0380789998983748, 0.050569181454421124, 0.008029327084554826, -0.02138334542362502, 0.04503375578974119, -0.0303400589300416, 0.14206965907242058, 0.03411267349500374, 0.12791708269210275, -0.04808290713763838, 0.016410608710843464, -0.022394946478949573, 0.01095547778423053, 0.02909874512041635, -0.0168766167050263, 0.0396735679254465, -0.030742326349967142, 0.04784680438786913, 0.07982670365962276, 0.07604325471813668, -0.07170072657446387, -0.044950450066452596, -0.03267771417611413, 0.049825484266007594, -0.041047277099670154, 0.046549247983425274, 0.052555673749946345, -0.028530643973750842, -0.031426345164084594, -0.08213672083483885, -0.00302131414667761, -0.042358944943385206, 0.024932758031739864, 0.013152807393652644, -0.013341178623757968, 0.028168189584694848, 0.01749866153552555, 0.09840784958373779, 0.00835788345980818, -0.040479874802359275, 0.023688335444989474, -0.03807623834646785, 0.04047453271678431, -0.011313168056317461, 0.028457210087212883, 0.03645317830200503, 0.052001424397306255, -0.026299114240356226, -0.009952703634784002, -0.049793964717610426, 0.03089832691469376, -0.037731089100871015, -0.06654712141502053, -0.021737743824386403, 0.01887864251343317, 0.012276394073091489, -0.11320954897103157, 0.062064662448068256, 0.005986824503225285, -0.04380379378612382, 0.045918879609964956, 0.04500244632396296, 0.046657028955499925, 0.03167132575492722, -0.10679754108202277, -0.027264517992795112, 0.05759889601592295, 0.04799640841366891, -0.08068656184372641, -0.08846744257356073, -0.034425367588720994, 0.013215585781028374, 0.03835658398600318, 0.04295538946187802, 0.04472489846313788, 0.027894171828374306, -0.05212793884314839, -0.027824937984153746, -0.008207440721261457, -0.040518617247782815, 0.10919722294610915, -0.0006689019873587029, -0.0038436626351095837, -0.00796091277726168, -0.02004201295125467, -0.04460023465942109, 0.0662938713642134, 0.06854324080133052, 0.028756435130696714, -0.006633053722467593, -0.11089649253172433, -0.004555651745045645, 0.037886894194839205, 0.04885856771368397, -0.09889099554147049, 0.015121427978824408, 0.05890749190067827, 0.026271375376716276, -0.007859156520133824, 0.006740785756749663, -0.00918855871179019, -0.02073061777608736, -0.08208321495786389, 0.08839111459679173, -0.012464603487318175, -0.007929288901193668, -0.05867604828371504, 0.06919603389521921, 0.03394916652941061, -0.004132448907636989, -0.03557134853627807, 0.02726777863359932, -0.007696515975579921, 0.059941403178489866, -0.10071953665596789, -0.12894136129794195, -0.005170874497071514, 0.05139463302000405, 0.022401729607861694, 0.009421875204189164, -0.008299237440178802, 0.07086183246876827, -0.006865822592787158, -0.08368682422739228, 0.017342442981805147, -0.05326749013083843, -0.007476542352338245, 0.06600441298187391, 0.09259717841193897, -0.04676016024165906, -0.030387665658473947, -0.007758364894701903, -0.012899230688599305, 0.0024884362976774037, 0.03020496744217764, -0.06678940355332952, 0.07725486263654173, 0.035697255343915504, 0.023737469440347932, -0.013879809589265817, 0.022739785366468375, -0.057414221303147155, 0.010019589168179228, 0.07141784588420162, -0.02235208563289575, 0.017389139795992457, 0.002362626263650938, -0.06141561667320069, -0.0005543198119827721, 0.026419689114286493, -0.053853034721043753, 0.005786410837796073, 0.08616537362878471, -0.03889882191585907, 0.022879676342377125, 0.04007557648082539, 0.09352646305548071, -0.0379788696287855, -0.049395227660692965, 0.033475202850341015, 0.012945805134070301, -0.008772158338367702, -0.024749879915415877, 0.06901081500378635, -0.03253672257702419, 0.07663793744935055, 0.023885294712186103, 0.0016650416822819294, 0.06305791004075549, -0.05999863946232148, 0.03885678624782568, -0.02648991600483794, -0.021392961130151794, 0.06264543134854961, -0.015659059468897788, -0.06706388463724894, -0.024842738867744626, -0.08342857169065686, -0.04578022152335235, 0.018137896845877053, -0.045180233489097055, -0.02324638560866417, -0.0380136143774362, 0.019536995350016607, 0.0015474243973693162, -0.14143459983493656, -0.02330365502941868, 0.009423830880678555, -0.07183721078082517, -0.021985232122456694, -0.05090036476575601, 0.060772335683075863, -0.009342517554168019, -0.06767577152582073, 0.007259355160558754, 0.01041188898468393, 0.00506186738365055, -0.08887343481881385, 0.04189553504570609, 0.05645949964179966, 0.00029575384037754224, 0.07272273623586842, -0.02956803373548065, -0.012898525829567211, 0.012168566617990897, -0.04413094535310498, -0.003552839667568192, -0.04041029309305205, -0.023689651556428583, 0.029640993250690483, -0.04565772512002246, 0.10058660180700359, 0.05278328316420162, -0.07707647498182199, 0.057278201794992684, 0.047316387192881226, -0.019554055907392984, -0.04668661215845947, -0.05530668922838567, -0.02005796875541124, -0.0005566008397511725, -0.051215835899850425, -0.09245502078520113, 0.061003254416958225, 0.08727547074109673, 0.020445301132484456, 0.03279848518975981, -0.0012805133512639394, 0.04850545757304273, -0.007793672543597623, 0.05052128944488314, -0.07394734051917838, -0.021271339383334253, -0.05844497825251806, -0.008673316412989107, -0.06787005458812903, 0.06471069662771294, -0.04618120380956842, 0.010909500452931908, 0.028676190148411704, 0.012274437438504166, 0.006057067829881511, 0.04035502084144402, 0.07717276879954098, -0.04474873107824447, -0.10517082097048912, -0.012617906650465967, -0.032071276396688386, -0.018163379744165282, 0.038517733147517726, 0.0927686404369761, -0.07096479794116115, 0.05202888611068353, 0.07316596961381898, 0.04672508772485375, 0.04224570448133832, -0.0266231330167655, 0.08206721443152831, 0.014938282626532294, -0.12532597916327762, -0.02709934979601582, -0.00280169331075904, 0.06191737211259236, -0.0954554450399475, -0.04922069087624101, 0.027180785162496824, 0.03035183074034438, 0.05998204880281385, -0.04519806116145064, -0.018426686189716577, -0.04767436025914862, 0.01934274108153308, -0.04998101030456331, -0.01225974846081564, 0.03946813195675502, -0.02846496414995224, -0.11038017980434278, -0.12663764326379306, -0.056037135097438726, 0.03644126730378713, -0.0423599370864041, -0.01891633562699209, 0.012047792645092398, -0.0629681569994137, -0.03747609916242327, 0.08710264829469029, -0.01856722597244162, -0.05213453070801733, 0.04387116354408384, -0.025654356335396276, -0.05769335960450715, 0.07190919724890278, -0.0022110085781436384, 0.022348642129015876, 0.05191789010031882, 0.07250678356609495, 0.02338456759411951, 0.04638054948743946, -0.03208545594461047, 0.005181073385895051, 0.02827305610076135, -0.01047151633365826, -0.06541751705940499, 0.022008077029754162, -0.004435266373789992, -0.13181466814626783, 0.031534265115302884, 0.020875108565034897, 0.0718015084376348, -0.05448447066455692, 0.036762790997071894, 0.002142706770302448, 0.013614480868872646, -0.0027740789184828598, 0.0012989881520396663, 0.01389138544033234, 0.033562454090273544, -0.04178981169849692, -0.019223105983563395, -0.010217869060275825, -0.04769631563226766, 0.10803365023844824, 0.07375778211045501, -0.044497318407491944, -0.05520240743955628, 0.044001760556487045, 0.0076663554537919594, 0.0316557408566712, -0.05219141846657476, -0.0427679151808046, 0.13148530891309052, -0.07027737881173429, 0.06413693649583908, -0.08150147981152209, 0.034876330115492626, -0.05325134913548967, 0.10530902462908792, -0.09960950809038564, -0.009834054425889733, 0.030491230542803522, -0.0033834920201799385, 0.08391123001372529, 0.1307129436078155, 0.010450490101015182, 0.013384660990692932, -0.04887237695044774, 0.032347260590332674, 0.08492656878527997, 0.08121727313044375, -0.03883456295027721, 0.08015964308828744, -0.07110784754546365, -0.012064595839856194, 0.06131841267970759, -0.03640390636770317, -0.0038922500316786028, 0.05974773361954437, 0.026335822513118657, -0.02877624780856479, -0.007966343484916115, 0.017167438885913718, -0.018186157395716836, 0.03723115312039469, 0.00019106286882713283, 0.026806501224172392, -0.011574678391335904, 0.0088881390396667, -0.0035458570904735426, -0.03699937645793251, -0.010862318015537472, -0.08185859852412128, 0.08758315651827157, -0.07453967945742837, -0.02444678740695522, -0.00797475852729807, 0.08495390220349809, -0.0006098266423119177, 0.04455635576193173, 0.05103223878440104, 0.06827759215762634, -0.05456521748941173, -0.08753698180750077, -0.012501093000640742, 0.016437601425466374, -0.1302895331875106, -0.06995409614525418, 0.04151465506973325, -0.02298078742498692, -0.09518726744608066, -0.04422478854012617, 0.00878960322775581, -0.022366782263695855, -0.024447307930294482, 0.037634271643460816, -0.08422382766475546, 0.0495979030729395, -0.00765383686749552, 0.10272262809225993, -0.03017435385240736, -0.008691455796251493, -0.05921565567880965, -0.03800996518306996, -0.056399723500139304, 0.06438934256559442, -0.03119047951797583, -0.012144762395751595, 0.0324621018927209, -0.06787596833507867, 0.04988991694799201, -0.0729835031484177, -0.01629993047030594, 0.0556966872586301, -0.013405155147890242, -0.022754014597095605, 0.038595751335168696, -0.0537448399609598, 0.017680488962031594, 0.02562243685982453, 0.031184418635243967, -0.00716605026274202, 0.06956652953431652, 0.04490140017189383, -0.09990371610451121, -0.06014976453353725, -0.031033124817360164, 0.009958035358295769, -0.031633628613874, 0.008963547046380327, -0.033693536788578324, 0.019942735072684535, 0.07841636495139537, 0.09617340373910002, 0.03236065342885339, -0.08521909088111072, -0.028252033134927138, 0.004433485307554385, -0.06859184330640801, 0.025335401675030452, -0.05718123777139517, -0.00637182314248237, -0.02350046087267428, -0.04872635767398628, -0.09528841910969504, 0.028338909569574643, 0.002856421080928853, -0.0264833213636377, 0.06954996436862695, 0.02647640571058839, -0.11530664198381425, 0.04178274652842849, -0.033039284851080736, -0.0347787123242604, 0.01262362672164986, -0.015747334183922393, 0.06767318866126433, 0.014278708304141957, -0.11789839884790947, -0.07725130636746984, -0.09101577002144191, 0.038522753713554014, -0.0780852999187482, 0.01723756373780661, -0.014167876092495733, 0.042865787024744716, -0.05898236558993444, -0.011167812176972073, -0.009363215218133334, 0.06489118646655047, 0.024186000661535173, 0.00015302939403731908, 0.06246218058570642, -0.06032552054450271, 0.007048594212079588, -0.009775752805601013, -0.004084945617237156, -0.011733368521832212, 0.036434250411653976, -0.024738474448944933, -0.01055264907792078, 0.05993022134008914, -0.04009880945746359, 0.0175364393298566, 0.02062788082299932, 0.04647956267710266, -0.014886223309686076, 0.005795605720204079, 0.020583944592394134, -0.040244181115052124, -0.016109351637193882, -0.07559990946593688, 0.050753665362441844, 0.016051172874001488, 0.02652805825290254, 0.07349533553527676, -0.0528914351478719, 0.04327685580250834, 0.019601800839584214, -0.016404458038851634, -0.025823009390871822, -0.09256277657548337, 0.030829537843677687, -0.051550473971510906, -0.040391928924567756, -0.032637184781191854, 0.04369387556286772, 0.01439407379872996, -0.006925788554319508, -0.1079538260503405, -0.03613159046330282, -0.02356619029986666, -0.04881785106897072, -0.034045260968226534, -0.05989916583410864, 0.012449240225681193, -0.013972557228985666, 0.0044753784986194915, 0.008933665751217958, -0.06931900120842875, 0.06294694530167914, 0.12261262603689763, 0.01562679311963704, -0.052657817562931, 0.000260026362856103, 0.003947708096306579, 0.12367252269691917, 0.002466802098622889, 0.04810575444913958, -0.04324483353629752, 0.05642343888058975, 0.018816946254631973, 0.06571578933206569, 0.05457886300629841, 0.02890885122240856, -0.12197920125385493, 0.025711251682016288, 0.00037796373409701553, 0.05642250800803689, -0.0033576891916615127, 0.02557670490106474, 0.0058396059055335165, 0.035832650085454165, -0.01762593481200361, -0.045406960397116336, 0.011857391901080244, -0.12384236799372622, 0.028118031839197786, -0.05812053691625757, 0.030026766603206405, -0.006569695711302684, -0.14334345309836694, -0.037245881547184216, -0.021855287519158904, 0.009886735624990713, 1.5990809897387715e-05, -0.007523062926531646, 0.10030172766927876, -0.07151890268405382, 0.07534614149130757, -0.0863718908351891, 0.03302052854838096, 0.007723912817788785, -0.029219669564647204, -0.07866525599125804, -0.13448592949930593, 0.044494473529570894, -0.03260042394538353, 0.07135611048887602, 0.08929413413082005, -0.013370839226284202, 0.015019197158768052, -0.017272050143719703, -0.02703281917018996, -0.08462815649297672, -0.0337437293649906, 0.0014843182826325529, -0.0515932337009127, -0.005970409606956892, -0.08448510336170985, 0.046145599075608404, -0.023532837910811427, -0.13535685039475914, 0.033016455079208085, 0.016853900836791467, 0.023262451902315125, 0.11760046349457122, -0.021925811896186382, 0.0794046996830028, 0.009367478569423724, -0.01928554354643432, 0.07613549407458083, 0.028305295469768753, -0.02534403431749066, 0.01982478482932536, 0.05692097520244902, -0.025149530825108155, 0.04898049358983682, -0.029801855516891452, 0.015187271812795002, -0.07338771993147415, -0.0365611843060459, -0.0708047528160134, 0.05066134417039342, -0.059101007103557514, 0.03318448741966985, 0.001598924643743254, -0.004185510305681074, 0.000862699994418174, 0.02634154368624794, -0.00041412195460551664, 0.08864459009215342, -0.09256838391578062, -0.1309859778843973, -0.030098057097038736, -0.0015092143382247553, -0.024790018333708398, 0.03130699934055583, 0.07134790248599167, 0.02494022405850113, 0.03537524010579852, -0.06813757972479219, -0.014993945274526023, 0.06287075697477866, -0.02689672755280932, 0.08007893820158427, 0.0192800746225776, 0.006284032191345075, -0.11207058277406515, -0.04112660012650187, -0.06581508310215842, -0.036713082272280165, 0.0031254115922920212, -0.011097232551427558, -0.029665726879787514, -0.03069084788079118, 0.0026487215887970417, 0.007071591146285818, 0.0476971957342627, 0.06448954420454048, 0.04301639327983579, 0.03012337724471772, -0.10330020160940925, -0.05367070369281028, 0.062306647877609714, -0.06259629263204494, -0.009091755865448636, 0.05783885156568878, 0.09219234049072021, -0.04514318166926121, 0.003695197100398171, 0.0043532627657301036, 0.04645505998545499, -0.08509542942625174], [-0.016159305525893602, 0.07678840016883881, 0.06415235867865103, 0.1049769108252203, -0.01998275608210173, 0.021661869132935836, -0.05580530094228817, 0.060745632917179694, 0.02745138537369914, 0.02371002439595862, 0.014946403748780044, 0.02174714955224028, -0.002043560024746307, 0.06428155731282303, -0.06141200874658167, -0.06749123081151258, -0.01459364662003051, -0.0449805701920395, 0.07511382633340212, 0.04184746704559188, 0.018528494927426933, 0.024173467453589562, 0.01811433478903619, 0.021844700224894216, -0.03444764166240642, 0.012108908113843242, -0.08362950077444821, 0.0773036953030861, 0.014949251897541347, -0.0159493560611407, -0.07014581883448849, 0.058529423787049215, -0.04767787527814504, 0.0092809289152888, -0.0700887985456913, 0.0884625816672089, 0.028408705370019, -0.11624252580486344, 0.04663764592507505, -0.07914683508803595, -0.04236362640744256, 0.00317139686723534, -0.0714841919365159, -0.03040482090421236, -0.008810686640192054, 0.0056257273337331215, -0.03387425006160903, 0.03128138903228098, 0.006726719189813091, 0.022653069372827492, 0.06103355431574408, -0.06963288822756163, -0.04485296502805668, 0.0664413426359099, 0.00022235462490843017, -0.017511973261193792, -0.09912963413914085, -0.07931563850081837, -0.039426809426198355, 0.04315307228161278, 0.05662040581879319, 0.04980176809826211, -0.04465246475316355, -0.03577117462211155, 0.11905276759376074, 0.03616933719255577, -0.02627281230482926, 0.13267014136629804, -0.04351308462696152, -0.009695816413526055, -0.07653631755031684, -0.007305086800004154, 0.032642434547834484, -0.005478373398925388, -0.03967455187990648, -0.007732282517041983, -0.010409152083769167, 0.025253659170716303, -0.007252623138485972, 0.013971431307192228, -0.009871847947515881, 0.012791275411965564, 0.029229593303590002, -0.05257551246184079, 0.04829141008769712, 0.07839638729438068, -0.028008994089373546, 0.027274174319404133, 0.024929586391231634, -0.016014061598896435, 0.03433051803687956, 0.06517031216348695, 0.032207061378392944, 0.02244307006872942, 0.013255353115565336, -0.013145656344621278, 0.05365752717791818, 0.021637214862872498, -0.05418024067420856, 0.03265515994567529, -0.03019362400471646, 0.046648446393626496, 0.03430352318575033, 0.06058543344520663, -0.01051132320157075, 0.10299408862051126, -0.04742408754012212, -0.018507207484913666, 0.03244246636604364, 0.040796251697424346, -0.0003044563220130685, -0.03842869444808107, -0.021392217147826798, -0.07685137398919804, 0.04416016649712239, 0.0324192701621676, 0.09473770787665568, -0.0016103601241488157, -0.038740313548115975, -0.031043730982863244, 0.17589695297009356, -0.08802390744237418, -0.004093380874203163, 0.0614883127426381, -0.06704000137094274, 0.011636377667689652, 0.10284533828209902, 0.18269084133893182, -0.03576382852136479, 0.0399072650973836, 0.12560671603059012, -0.054927143229739926, -0.05748217481775243, 0.00512611011720451, 0.06612560962934803, 0.018492277061105407, 0.02404683946789622, -0.014021102629392742, 0.02248511596270406, 0.0037423524697353947, 0.020039503615703565, -0.0053840423460886555, 0.09410898825975182, -0.07592169508751959, 0.022055143226347437, -0.0017549890447639115, 0.05995062147909054, -0.006216497375505116, -0.016834267726839644, -0.008891588732703971, 0.03559849692710996, -0.03491808245321053, 0.007158061497843267, -0.11843593546644048, 0.007892490756037719, -0.06504559417281813, -0.0677770321401293, 0.0668907577799209, -0.11859203445865438, 0.01481306453024415, -0.007687897850755264, 0.06287401751413053, 0.03128865587784646, 0.004564468398034108, -0.0693735826965366, 0.008367577830415548, -0.010516349332771251, 0.08964040594482127, 0.032077314765630104, -0.023089199931648572, -0.029360992556021193, -0.07878110828841847, 0.06448387036917831, -0.033006488406161466, 0.025652605831899444, 0.01424937527317891, -0.03960818788918976, -0.03900409120510838, 0.039718240983125645, -0.0172446958772443, -0.014493459540319708, 0.05249790564280465, 0.031422326166557, -0.006942125808611941, -0.10171044777554139, 0.08367101672474053, 0.11214156987748217, 0.01322129529388094, 0.014366193682335444, 0.10104148264958068, 0.03408927526334483, 0.06426672006615877, -0.06471841591704455, 0.07512976367900123, -0.03724110571062223, -0.04313723404725894, -0.07069105931902794, -0.0748653607484285, -0.10069951155789406, 0.059353806423330185, -0.0017587402727323573, 0.03952119638256091, -0.030519267319530263, 0.019991738634817617, -0.0018938775444257057, -0.054576651029433126, -0.029562612301529283, -0.009826884067761478, -0.0653801694046068, -0.01157499031362151, -0.0729367210381116, 0.05680386640438921, -0.0737919139545142, 0.01780506492181711, -0.13056201630577943, 0.03447117598868891, 0.0431319570812589, -0.056233058099170286, -0.025546912843220342, -0.05809038935122667, -0.025951029542352417, -0.002348060496848383, 0.038450073977278315, 0.01185167053397866, 0.006778527365497916, -0.00567514694644899, -0.039551670639539356, 0.03768049282426548, -0.05955751527646286, 0.039380745590375646, 0.017670421833588645, 0.00423056091451199, -0.023009908674590313, 0.052038556802552524, -0.035916246175855, -0.039930892677634, -0.002227764442161932, -0.03409493823670417, -0.001318703590750216, -0.01338104107986507, -0.00021909432579219517, -0.008655226412660134, -0.025930745276066817, 0.008372857843035568, -0.0071259211859110785, 0.05145464384046308, -0.005690588957637095, 0.0007048309746301735, 0.047439398111218896, 0.10516530280727489, -0.05288851603597691, -0.04434714090088291, 0.04369134354834675, 0.018441220458676865, 0.042049131297716716, 0.02865171033678839, 0.03449573539675368, 0.015273054187512106, 0.0064467622502730705, -0.013259998253437663, -0.03350364641791861, -0.02634275694287299, -0.024648468904633434, -0.017944103207297363, 0.004650562283241627, -0.027968469628711502, -0.025274381187421754, 0.008775104666717097, 0.02912638813525243, -0.15109002249001663, 0.014418183677170626, 0.11268183452236838, -0.020443400889241133, -0.13230447374694143, 0.07767999382015188, 0.07494315488741658, -0.007086398220708328, 0.012095909431620672, -0.0035764363606365468, -0.0857206214586141, 0.04909771608945249, 0.019603227399014243, -0.04645329187414087, 0.0022804160755138104, 0.014700904309605392, -0.07024254701958688, -0.012479550486690657, 0.11421212700567544, -0.014659668520326737, 0.08207810007727309, -0.06609383426337469, -0.016612233494444573, 0.10920990338082177, -0.07227962320934014, 0.04527907794089757, -0.04353567269635173, 0.04601399652183362, 0.11959834970563554, -0.07687842632289456, -0.07027573520908716, -0.04656508764659386, -0.06661240096847505, -0.029252758790389067, 0.02845884812148593, -0.0908103835029782, -0.06314821128558114, 0.06530095111438936, 0.019965161528298143, -0.07895570501299885, -0.01686322571749059, 0.058672245740008705, -0.048282398263462104, -0.0809222148069576, 0.023912625509871232, -0.024473588082938418, -0.02582294083286236, -0.018991897025990516, 0.06086080191577969, 0.048663277717262345, 0.04954380819800312, -0.1027515669577744, 0.04312987428043046, -0.03704925751123447, -0.025294177850112284, 0.11731826574413753, -0.022508563909192265, -0.018960696874346785, 0.0023200217814626748, -0.014543484103139702, -0.018706821752640025, 0.03116055452668612, 0.040631528824126344, -0.05562995538320536, -0.03712091665575849, 0.01948350155566975, -0.038357758766818496, 0.02162752839684256, -0.050541672584048236, -0.07127538271097134, 0.005327836766760037, 0.03777026569352369, -0.04182698873787809, -0.04706484969648231, 0.05987689612770549, 0.05118594718992295, 0.040010339819632465, 0.02256512686060533, -0.012740707463034835, 0.08461608707682125, -0.00889435223424666, 0.012759222150808163, 0.04715973011670373, -0.029054395345013296, 0.05915504514410479, -0.015325649560408505, 0.04802665777474017, 0.008986722117735135, -0.05031070137128803, 0.02045192828152921, 0.003418342839701499, -0.06643129872118413, 0.02085169759415953, -0.004700052519098099, 0.04616734671914605, -0.06176926261551236, 0.05590464587937672, 0.0013704325743788977, -0.003745871795595949, -0.0012373639174314609, 0.01758670446509058, -0.041043447213424476, -0.024145616399701378, -0.06046837824065363, -0.05158559579563028, -0.019573582853621218, 0.03978699647493602, -0.04720233633828432, 0.028099517666387963, 0.026180680031874275, -0.008968999836026026, 0.04827349828945675, -0.03743232602363344, -0.0383074134772705, -0.030102968551675807, 0.052637864903292274, 0.021097795373890366, 0.011731840550712415, -0.024058701919885704, 0.06289716656416877, -0.036200617531484174, 0.050488674223764955, -0.05324097461862325, 0.09483222051283428, 0.05000151177711843, 0.06995272082243785, 0.014521177959252788, 0.03233901926467025, -0.029544858455040585, -0.027013743408081204, 0.0018155569438403165, -0.007725909175561171, -0.013973873410384365, -0.04928598432075305, 0.04849511518421036, 0.04082059028785403, -0.11784371815598528, -0.0013233149874642897, -0.023945658462904015, 0.005881489972657923, 0.02401943977583601, 0.07275914874617548, 0.03569084304161684, 0.10581320167816806, 0.04318924260407759, 0.0006261421678537562, -0.036069192300366724, -0.001078021043050875, -0.010820161485722676, 0.0036809112325721866, -0.01298490241149575, -0.06337062692567548, 5.258479310975941e-05, -0.09063874577030684, -0.032899301095495645, -0.050597288508990805, 0.013097005811199849, -0.03726614462932971, 0.046067188339899146, 0.09147687429625927, 0.053159024991010904, 0.10289542632036577, 0.013328173009078662, -0.027737650931058268, 0.06476105107724249, 0.024997913296925887, 0.10682182305203523, 0.0616432438810121, -0.016049428793670915, 0.0004365737491349227, 0.040856838618862926, 0.11851109747103056, -0.04902303558755365, 0.06258100377526281, -0.011252685698619926, -0.01326760414224891, -0.019553708416080035, 0.14760428921723728, -0.01868837060525579, -0.11388500852582022, 0.02797506625044911, 0.00010857430424078404, 0.040247939333354445, -0.03253710443143701, 0.028509761096463592, -0.023801584045727617, 0.06554329912821871, -0.020469984402662955, 0.020562299259397575, -0.08068180025578556, 0.028996759098073543, -0.05552412402996206, 0.022233767255830355, -0.048211937102794, 0.026194222026355896, 0.012807351176073116, 0.010685923287111196, 0.03202363360232805, -0.053895254914655674, 0.005353725913427664, 0.010114896547878623, 0.08310540065132381, 0.03681343771882974, 0.003288270056661081, 0.05283639784773737, 0.04615069132708845, 0.05545982911014762, -0.03440596986274741, -0.025216502156782363, 0.02365235055042538, -0.06007546950350974, 0.055294424931242, 0.042090485836405955, 0.0018178294030071196, 0.05929081261459732, 0.022671913158881493, 0.0795002769794118, -0.020129657936151096, 0.013200474346929687, -0.009062015966669848, 0.03673072270886334, -0.10109936665099155, -0.05069491374232024, 0.0170064669779546, 0.0018307959808251699, -0.029082601733672633, -0.09068743651543958, 0.026865941577836353, 0.01602018753795977, -0.00988164525395073, -0.01234445832411794, -0.0618218750441617, 0.03213301330152066, -0.002892559166121633, 0.04886654218884484, -0.022114472147384812, -0.01805423704029357, -0.011513486679511839, 0.0500733358618671, -0.026033638770212423, 0.006343908315940836, 0.016463618060296184, -0.06648135052016521, -0.02114510362994922, 0.008546051223460423, -0.01901681729013763, 0.05482361283604053, -0.04686940518620828, 0.029548109886606416, 0.010529725314562347, -0.05408104366372411, -0.044224350997170384, -0.031966551017985206, 0.04073605589300818, -0.0869962528934715, 0.062376077178860186, 0.005987747831147952, -0.06606052247132715, -0.09368051632579695, -0.050561124182745415, -0.031304324022731304, 0.026659834698858853, -0.01802141034199403, -0.05433786353024649, 0.014964420368599988, -0.03111417114978218, 0.035876827344424066, -0.02016104706500301, 0.03548266719637502, 0.009185361686667021, -0.05964246383932654, -0.06077296354820081, -0.003945989983649235, -0.040648324559549365, 0.05100668456738004, 0.02509168738260457, 0.0017369244923432158, -0.1049997995198002, 0.01759203068095527, -0.010266037272157044, 0.0032378668482716593, 0.0020380861924350494, 0.06270634686232558, -0.03630168909892498, -0.0033396052125742866, 0.024298278686208007, 0.01641556035645004, -0.003130861655169016, 0.05455324670032098, 0.09869985878189654, 0.0017893801172122199, -0.008136570798397228, 0.01858505944752665, 0.013592881347730833, -0.07030472679443624, -0.06398774453125389, 0.02116562200259824, -0.044943135050524476, -0.06778729955205061, -0.05947864599430405, -0.05434391915075406, -0.04285428294953294, -0.046254139992790134, 0.12071976828359733, -0.014688854742191323, -0.10333900044117345, 0.0016371812581089883, 0.03998320700154518, 0.027376111025514332, -0.021712762545019863, 0.005557466958790474, 0.059445948954328885, -0.023614477461875782, 0.0503525783139092, -0.04860578015108013, -0.024089907553051345, 0.08391673823818728, -0.02256404044263631, -0.00046038464813561515, -0.021565831918783956, -0.00849277424595256, 0.00530059480532344, 0.04641097658055959, 0.017759284752587944, 0.012391828374473215, -0.032821106157186246, 0.08425943788492454, 0.048295484275620276, 0.006543153233577805, -0.02792915452760443, 0.06731175631046618, -0.006435080103033367, 0.05952704887911537, -0.06058053334462637, -0.07408850049715493, 0.03202403908949267, 5.4971466284783875e-05, 0.0731413557389447, -0.09654345097753429, 0.02450524277576255, -0.09575482255405904, 0.0014151860102715533, 0.04850648029570991, -0.07030686986708981, -0.004909734832617436, 0.0030243496495361674, 0.022676579446502622, 0.031299400461341546, -0.029829522684064188, -0.03816401681718657, 0.014952327087586152, -0.06612683049203481, 0.051600537741651936, 0.0367778463268761, 0.026311894447031563, -0.016623025002622267, -0.019418730443561585, 0.03149581212700895, -0.08181780162612759, 0.06324164631480067, -0.018935226593560027, 0.023350332905122596, 0.017781624978914872, -0.0027350165396078496, 0.02127832153855483, 0.04259735323228706, 0.08071636536141011, -0.044215792947927234, 0.04259903414338199, -0.006384717530968051, -0.0608114476712433, 0.0023348810001840516, -0.004304999622125186, 0.00987682679740512, 0.036535612918972005, -0.03903785057091427, -0.07589530809954025, 0.0014495936498619333, 0.04048654335819979, -0.08914153828004746, -0.01920809418356193, -0.027236878402885575, -0.10173216551826306, 0.03547184669697192, 0.011774173701521642, -0.048487649818696306, 0.021828797929423528, -0.022021117525652428, -0.012395915402597343, -0.06897805416615126, -0.02832862463117704, 0.05622523090223615, -0.013182986353126407, 0.04688370829979266, 0.0015222932132608051, 0.05198223056979535, 0.04098106851505969, 0.0009905157376507876, 0.014712082289801661, 0.032799597756134495, 0.06920160539728057, 0.010944772291532874, -0.0658291455101262, -0.002565817662676441, -0.0725885446358433, 0.003378937103326708, -0.013578502546496441, 0.017544221800919742, -0.07153036279205607, 0.03831406326283478, -0.011624705735922239, 0.02835627462632399, 0.0463619761116966, -0.08298717310492304, -0.019336820597985895, 0.012881408816863317, 0.012121815527393484, -0.023990491710991962, -0.04093867913870796, -0.03748788262533342, 0.018125747968490487, 0.04630560261879397, -0.14797545354219235, 0.001161192456267033, 0.08160115435974326, -0.035671489696984714, -0.06565497147676849, 0.03054920413019624, 0.10344188555882085, -0.07363401972058094, -0.01207551735222093, -0.01740843047728707, 0.06131413009489809, 0.041558348459145016, -0.07404277982161436, -0.11798358578419132, -0.03248889336649247, 0.005930720799643434, 0.0580720741731567, -0.0073774368249585505, 0.000364897663266298, -0.002734837192761651, -0.07342265656405571, 0.044291301164017825, -0.10627665043876314, 0.0378351093775495, -0.025363740031685914, 0.03087089158343567, -0.02747926896157649, -0.019727106558319028, -0.05430838473742578, 0.030638696509648674, -0.024264550841993537, 0.0831443824033516, 0.04474194268158081, 0.01690182949251684, -0.07228802824479207, 0.13703700632360766, -0.010302814576969115, 0.06956979756876075, -0.06767158187910817, 0.04580256622843725, -0.03088736327142014, -0.012794625683441767, -0.027207784938490076, -0.029459695459112378, -0.024091507580941154, 0.02065512792564163, 0.07786196109042619, -0.00666562026034048, -0.019189120029896506, -0.08050239055186044, -0.0033529605513166138, 0.05822573518238529, -0.05398096480983392, -0.0028738774934365598, -0.03711840868805754, -0.1158889256455897, 0.007768207986844455, -0.07495088938746973, -0.06024293557810666, -0.029935805548173273, 0.020693322093115078, -0.06189506799456557, -0.010372453329869705, 0.05032873721987046, -0.009779292490966995, -0.006556792658784293, 0.0009285653883575732, -0.07267215616456396, -0.019585284649997547, -0.07662200365855988, -0.039981725835685815, -0.09390803033723262, 0.02007950225117803, -0.018200881237821424, -0.012499139331552082, -0.014236300934037244, -0.051555245047970856, -0.06311047788323373, 0.0063768729030606675, -0.0027784169625839792, 0.04148218545339058, 0.06785396629756153, 0.011730851940188492, 0.009028435029683564, -0.028378232674432412, -0.0028116600932204597, 0.015506934041983568, 0.043406246116696114, -0.006329695540361279, -0.03764234042054744, 0.04491496027011572, -0.044077896976251536, -0.00021390304087524342], [-0.07226014394826699, -0.04254912844031059, -0.05035001259523864, 0.05287478672067285, 0.012554496946319568, 0.016666054921373068, 0.019059379561284076, 0.08474095909504013, -0.017248946345694235, -0.05090932587599219, 0.033313786355389736, 0.07523054200279347, -0.028478158893966547, -0.08915577082824658, 0.0022491111205679266, -0.002701938490721673, 0.07724354509080879, -0.017489996794234297, -0.035583723650676184, -0.013725709250560715, -0.019686339940156273, 0.06295724793414985, -0.006909298650482684, 0.006088226107750045, 0.10511553482718573, 0.029754245285510152, 0.07495188327534452, 0.06921031494428002, 0.019440011999285044, -0.02711575000594637, -0.03385147165388902, -0.023091858770489544, 0.042031136668651166, -0.04365285478819696, 0.03562377333547914, -0.03494261593139464, -0.0451491750757479, 0.05392680678768416, -0.03544684696293698, 0.014446015335173215, 0.07620159042202967, 0.07005409291990171, 0.05263480045001519, -0.023847139765817052, -0.03251465645846532, 0.0406996318139652, -0.01986635265798575, 0.07157722549341393, -0.08499462669018096, 0.028021846593730866, -0.02944939540977404, -0.06640331326898445, -0.014343199597129042, 0.07101167204386782, 0.05699356696174345, -0.006186783896650707, -0.06439207103938156, 0.025083419439280656, -0.014304984352965735, -0.010480739679633215, -0.002234982822199023, 0.09670455065962778, -0.046288566507883946, -0.012005194050116942, 0.04330730301373975, 0.03031637028266669, 0.04797166761221641, 0.023773685717286552, -0.045921809442149644, -0.0015155919320392845, 0.09298823256257838, -0.02301643044418249, -0.046385494545097404, -0.0029869099573597243, 0.0027245095877677186, -0.05392902222619432, -0.024989702513058293, 0.009267430795276676, -0.10939390786397024, 0.011813709066185566, -0.03638624785215072, -0.12849416981354284, 0.021639488248471783, 0.01823418802222035, 0.05002117465875175, 0.04000793106532784, 0.03742237026278107, -0.06338002907620863, 0.00661572703733772, -0.015081982790237838, -0.03420615438487792, -0.0468775406103135, -0.015391990243380284, 0.03810515867709308, 0.061758650083617, -0.011235306142079909, -0.12006236078558467, -0.06328172483901445, 0.050820109088084923, -0.004461789707977763, 0.06510600896934048, 0.022405457200716187, -0.051854949192470266, -0.13250362033213536, -0.030648579001700465, 0.04850145980127858, -0.01756109453932067, 0.01605056672402388, 0.05202568434709252, -0.1267444056403239, -0.06569282361218547, 0.04827913519010513, 0.06015342989200102, -0.07632310452410031, -0.043469314337100676, 0.054138833997506214, -0.007171195093166938, -0.002357011385279434, 0.0011182185380968401, 0.08352646630914322, -0.00714722346413733, -0.006872078920452428, -0.09444391795687228, 0.02880474452206327, -0.010658865721302205, -0.0692775574694415, -0.04172755604835292, 0.009982318616825246, 0.030986274074288424, 0.016761903365335885, -0.034193327883153865, -0.073462560170274, 0.00376318146676365, 0.019941336963485913, -0.08532221008086655, 0.04174467116886214, -0.014505762744347405, -0.024703279276555738, -0.04338723718745115, -0.012287747605657926, 0.00910679716019803, -0.03793359343775191, -0.0023209879238235555, 0.022947379873865345, -0.006801424198654948, -0.08454183182689104, -0.03259616890379303, 0.017008221631459985, -0.04134293200472488, 0.006903694494203556, 0.0646264259064542, -0.0030077655618542735, 0.00564547494759002, 0.04336159526355866, 0.02076212476044184, -0.07701016119571684, 0.02277870062890514, 0.032763395117377955, -0.07543561550825356, 0.0008935013334322372, -0.005130628431185272, -0.03541312542232906, 0.015281858662822731, -0.061478057981481586, -0.04815719593182194, -0.008792072055683218, 0.014573702900411954, -0.02035660883354077, -0.0808305780853454, 0.028923475707898723, 0.020475488435506707, -0.019433265075083424, -0.0304703128370845, -0.029089906003895452, 0.08174109706483196, 0.02085399740887932, 0.016858043283259284, -0.022439894017420654, -0.0367827624069503, -0.08432361213440852, -0.01972246017227296, 0.017405197697242636, -0.022916548749017173, -0.023518861156869037, 0.05307778357292426, 0.03539519673666297, 0.062009450592887976, 0.017914776989616153, -0.021571843891470707, -0.07593048341036773, -0.06396917373295766, -0.003529605358377087, -0.009656728773536127, 0.011967711562498038, 0.045187092262643634, 0.054996385846621434, -0.0422997987532705, 0.0642098437773248, -0.04612503803519846, 0.02114918828542025, 0.03615763287391122, 0.0393035573555394, -0.05124279316281793, -0.046303475041545604, -0.04223952102863925, -0.046372212482866985, -0.06049403414200432, 0.03719499333724046, -0.034008644737055255, 0.055908040396003035, 0.13766400642309767, 0.0017563579213209764, -0.013774006952186835, 0.006159222219702116, -0.042908720547687136, -0.031881638140142804, -0.04098722305634256, 0.12682752130544697, -0.02761907874129436, 0.016427600313703276, 0.008639402220215276, -0.011842766706744584, -0.11437868042952451, 0.09155275731445231, -0.007359607280183425, 0.02539394168981678, -0.06437983310231249, 0.11713245073461863, -0.06777511784628892, -0.12963793086766798, -0.00705893868948045, -0.007255255682524871, -0.020336352825723714, 0.011117816191487126, 0.05566639264538003, 0.039670785709302485, 0.023824364907596884, -0.05864957864703716, -0.0196273970708374, -0.09774630016898386, -0.0012376362219275365, 0.015557749273413636, -0.02286083152473117, 0.07253495996957797, 0.01583355661772046, 0.09159275727580424, 0.01216044890174136, 0.05749266688250877, 0.10618024382825851, -0.012476135896887649, -0.038522465955842564, 0.05290451725864752, -0.022114340459340208, -0.07213589018617227, 0.01777663247016778, -0.005338845594726616, 0.18148430257047157, 0.06925943460195123, -0.045332737820062204, 0.026288243096595006, 0.018640448332676394, 0.009052480149482817, -0.006537897793976258, 0.06954588743363271, 0.043641156715663924, -0.037756946177189735, 0.06615460721908194, 0.04967277080360502, -0.012914655144036077, 0.019029740102750766, 0.010034302801881792, -0.10612664870736926, -0.05909278253185764, 0.06483371827987257, -0.0014748644867469524, 0.004976828845612046, -0.02642949261693787, 0.09052061735739043, 0.022149015841665134, -0.08997150123019688, -0.013292163721961922, 0.0334293629090757, 0.062431021168326425, -0.050865118560902804, 0.010381959723096072, -0.02738130007596572, -0.06239634059565034, 0.06569894631113123, 0.06891917098841131, -0.035455468606039264, -0.056814818054228784, -0.08762300619529419, 0.015942138161839342, -0.013011281560297825, -0.0034278013353044273, 0.003575517079031081, -0.11918660472984784, -0.04910571801351951, -0.10359936800231781, 0.014876635273250673, 0.028582983445952337, -0.022978548131862623, 0.10844669584778412, 0.015776978982392057, 0.01695499722865911, 0.03116058762475444, -0.0018424056414476915, -0.029359388378485014, -0.04109833609128449, 0.04024331342008532, 0.0599195750052734, 0.0059718954260325995, 0.03230697736272373, -0.04662793119159247, -0.04198141473070593, 0.0576823420656941, 0.04790582245703729, 0.03579101236652414, -0.06655078352417525, 0.006445264313506476, -0.028157213597718157, -0.06210765850740347, 0.02962529806457264, 0.06193019649551487, -0.029758573904816944, -0.042984122365450746, -0.002478319273001967, -0.0056746541530011615, 0.005828183104953653, -0.07531955964629884, -0.04379812222425089, 0.022380028987830557, 0.010569642927926629, -0.058059096959972425, -0.0008213960611716743, 0.01799172598514495, -0.004150777551295326, 0.01695975068164189, 0.004701533552323398, 0.008046206162367552, 0.07607289808553819, -0.00753871667534864, -0.055620405808610655, -0.034535227294387724, -0.12250202206876726, -0.06688531185555457, -0.07971119186499144, -0.006571529442887148, 0.08276509305928295, -0.005055762253075683, 0.037171246904775086, 0.04234879760087627, 0.08631371916593088, 0.05592092721839745, 0.019466470661736502, -0.04402307788199079, 0.020830828933043048, -0.08993634366827717, -0.06500931800658452, 0.05846432730496138, 0.037487444674126284, -0.012024645375851472, -0.08578960089791014, 0.02817843290484761, -0.06096007270329901, 0.1562437036778008, -0.010178667150968235, 0.021651630375416984, -0.10569706836663556, -0.007379763841201509, -0.16044783217811404, -0.054676764699526266, 0.021578456385906202, -0.037151815715375694, 0.07500684806668215, -0.02876758485106744, -0.031447671907783456, -0.01914012821059288, -0.05291007692859252, -0.07399432067753091, -0.020177876305603398, 0.0644542440164213, -0.03538555730861541, 0.0025307027617791017, 0.053203099254436274, 0.03230627326533553, 0.03882877182575453, -0.016306485200778854, -0.00618875425563027, -0.049449975386908575, -0.07886848046731885, -0.010978482687117354, -0.01005825881308642, 0.03673319277248321, 0.016270528648221445, -0.06705517024601572, 0.030933023526347667, -0.00858232580922493, -0.04164213361331499, -0.1021797120540285, 0.017662081151686472, -0.0683459288630964, -0.04052800266269376, 0.0008989888245391358, 0.11838096613281252, -0.030986545174993343, 0.000906260829565513, 0.07794758411383992, -0.04095628625235923, -0.00458256873981695, 0.03274737962589774, -0.008122753490483131, 0.07853512849634697, 0.029713859620517532, -0.08827468652256536, 0.04134538690379196, -0.07581348937760819, 0.06652652914697475, -0.09681073418529695, 0.04252935234563851, -0.10093381449175877, 0.011944331005916506, -0.011432715281188837, 0.02430542329653634, 0.040712120437559875, 0.014459795597327761, 0.0018765135103458533, 0.03058603557006573, -0.055140156112658836, 0.03868542197009136, -0.024393859460767824, -0.09147744123287202, 0.02683402443939499, -0.05515735512584082, -0.06565392626903745, -0.015420624596509839, -0.05742880441403373, -0.05737655538880208, -0.028036600841166773, 0.007076047325616715, -0.025510583485793815, 0.05401536151851144, 0.0018682135132224611, 0.043750118282409246, -0.04433402615220101, -0.036730843453775606, -0.02424564868366774, -0.04984831831740681, -0.0016885718904392163, 0.05074142747596626, -0.05125715420899238, -0.08518698748088277, -0.006162487076098378, 0.07526338467180763, 0.045148857417439445, -0.05577346242179083, -0.07355404086935848, 0.011821811905340245, -0.014256858166434093, 0.05436505701696312, -0.0217331188369014, 0.01136918538013822, 0.042446092700741074, 0.029573673530447795, 0.012379110934152704, -0.031070909767649448, 0.0831939093715418, 0.005842830956669076, -0.005099151854850038, 0.03224889092399485, -0.043939136153494755, 0.031889641819357, 0.04111010146033943, -0.02385899865661968, 0.005689188105886984, -0.021363688237887295, 0.04319737209638961, 0.1303515923040675, 0.0027924623459023344, 0.05482801574530626, -0.023664599714601945, 0.036773400074571944, -0.08820816244991517, -0.0065697337987071815, 0.06599145273793439, -0.09485796021555289, 0.044799882764067316, -0.020341615179499378, -0.05078019055376836, 0.02064532639492471, 0.0425090661426224, -0.00825912017461174, 0.005671017101420709, 0.009157138087256366, -0.03986953653066681, -0.029474111101769222, -0.012348540445495784, 0.06714181371657062, 0.035096200070627546, -0.07816157252084627, 0.03134259692771317, -0.031281478511182195, 0.025444404636752207, 0.024685550822661502, -0.015023152444827855, -0.05228530930225031, -0.031815282872172286, -0.07503286184480126, 0.0030717409983382436, 0.04223595500141513, -0.042957644272541826, -0.06132994867298679, -0.0055191437534340155, 0.03246959801482351, 0.057906657794084375, 0.03285743685600199, -0.06973133948394838, -0.05149618050470739, 0.03560974666931589, -0.053776539351067784, -0.02689427852997472, 0.04304533372714132, -0.02495160666286121, 0.020241914301810958, -0.003112149712629639, -0.049313648948920034, -0.015111775942340238, 0.0024158851464222033, -0.004431359705153441, -0.013843658270943174, 0.015721774109984335, 0.019528325773972642, 0.09089625125729119, 0.018509595742560784, 0.004627040612317064, -0.10541210811599422, 0.1011640332867921, 0.026574323313920303, -0.01863450769020332, 0.044097275012949175, 0.016585756600841127, 0.010697401274657783, 0.1097265908645187, -0.06695080517698335, -0.057527825188403686, -0.08647273760988347, -0.028146277273092064, -0.01534116555819469, 0.06402762588961201, 0.05768164414740362, 0.012820866774528842, 0.007617646554936877, -0.06228084284212337, 0.04974397936823487, 0.041403904273539724, 0.06377005831731496, 0.028269224710519993, 0.06972326249492154, 0.0009122969976819251, -0.017737501654620198, -0.09076797232485287, -0.07596795180693472, -0.10685032386690639, -0.05454537768902381, -0.02427873615147104, 0.001886170295279576, 0.10578418926170928, 0.041619109525276476, 0.02947166660089216, 0.04024199581199607, 0.0224018512580854, -0.019543142472163995, -0.004034510462185768, -0.03213589984953745, -0.057926468362577234, 0.09243032831694982, 0.041374537596675094, 0.07374230661999097, -0.10854840746446037, -0.05616909244636955, 0.018469324119995217, 0.01104872975772995, -0.000665147680087529, 0.018024475746171907, 0.07416421055966316, 0.06506891314518409, 0.09135072901368778, -0.004614261977184126, -0.012212015164239672, 0.04535501719245523, 0.09148520921069747, -0.049542721716978044, 0.03450793756866785, -0.007605099182175528, -0.10213680346926883, -0.03206169076917732, -0.019207131096544334, -0.04900870398461581, 0.022794672390384144, -0.09592966948632493, -0.0977656180943958, 0.03851959469857772, -0.03754835350762649, -0.00478027814784933, 0.011025447085325997, 0.04056024408233549, 0.03055116801267776, 0.06930358257898167, 0.024002740620901172, 0.12216119438378142, 0.04380422917883403, -0.11000621745846424, 0.035483645713218624, -0.010371390355843302, -0.07929299743368294, -0.03132317596906081, -0.06280553668803196, -0.05142359864477476, -0.07949436828238818, 0.010694992485797465, -0.022559769590022514, 0.014019785814905114, -0.05940562969497865, 0.07732264825621868, 0.059357202866999366, -0.005222695641992062, 0.07973561383568926, 0.0623401547033098, -0.03845802634956546, -0.05275434986997078, 0.04309119410848921, -0.004021096512919415, -0.034180639084822426, -0.005261515841300408, 0.06994599480085335, -0.0151097254723764, -0.03832224745704368, 0.002507351185729896, 0.06076565807454218, -0.043151632711516875, -0.07541934492676426, -0.02629959897791497, -0.06558888921450745, 0.03303420265474883, -0.056765989806506156, -0.009154832278193427, -0.037076246766088325, -0.04267374371163257, 0.020218654432450453, 0.027430136524027444, 0.07266547610553445, 0.05583723129108462, 0.0525754667080038, 0.057759243703107734, -0.014189566980802365, -0.053511282157882596, 0.003036550645770294, -0.05063628022168145, -0.008036709213193655, 0.024467780563887286, 0.08322756926412424, -0.05623312388184726, 0.000832759072356181, 0.11955465882492515, -0.02592038099290666, 0.04921616458670546, -0.0781045383332212, 0.022575729349161196, 0.054686875393208975, 0.0979919864136395, -0.051855176825516505, 0.026423523614492024, 0.004534313638834015, 0.009513117155888531, 0.10178452419778913, -0.014916056648773457, 0.07210751601255685, -0.009153149770057004, -0.017337056925482874, -0.03098928333871503, 0.03304898953436486, -0.00413650386456761, 0.0023638232098677383, -0.03172961440384926, 0.04387439943547458, 0.05006754068640725, 0.07237888149863146, 0.01730660237294409, 0.03616150231723135, 0.053871294545607275, -0.03115660348302628, -0.08485444235158515, -0.09172577941147514, 0.02426446262442351, 0.014865612992281268, -0.008312105872768311, 0.006749930183388178, -0.03882715046061055, 0.08099635578990036, -0.005105216814651261, 0.01121398794808072, 0.033650532239796326, 0.003817000566996897, -0.08702719323057376, 0.04145470844418258, 0.034209880159860394, -0.07400791055219909, 0.0005248391699269538, 0.052253376212314004, 0.0055412635522570815, 0.005655262219778276, -0.04781762106272944, 0.03377065492616513, -0.010369688147961574, -0.00806857796938006, 0.013770487630402077, 0.04616148470292529, 0.0803830529516434, 0.009681000675431779, 0.026883416418742662, 0.0009732445749621176, 0.03897323527079805, -0.035765754006688785, -0.0037605415076133117, 0.08733068284173823, 0.05245208440033934, -0.06671336126856733, 0.0054767540361449225, 0.04254488125609743, -0.07750975223598654, 0.003943629021806628, 0.011643668937255599, -0.02101910875910015, 0.12068480296939849, -0.018650079144640695, 0.003931163498190753, 0.02244026331550288, -0.02614131723205227, 0.09432257945156557, -0.008198129484566524, -0.014724816829810337, -0.06986515065198132, 0.07688545935322018, -0.02806395578205788, -0.00683174128201469, 0.028815803163440106, -0.04213243872910923, -0.1294139767818681, -0.05566272142932636, 0.00636058688873757, 0.02852084236296956, -0.02016345174752558, -0.06413360985761997, -0.058623865422873046, 0.0014085760017342464, 0.07857226080976044, -0.06404524784065511, 0.02159894129270584, 0.0348911394878727, -0.005560259665208651, 0.01952959599049981, -0.03934753125938083, 0.03444958887872051, 0.03170955737330763, -0.0040317400981357224, 0.017631538939635635, 0.003899232714731502, 0.017564124750956707, -0.07910782631703595, -0.0035055842684508084, 0.10158626809000956, 0.009567892857072987, -0.0034544084618501726, -0.031792131991272, 0.03050977002767539, 0.05227405594609041, 0.11894183296931997, 0.006640206192332249, 0.020524541220002038, -0.03372101447101705, -0.0744416723876843, 0.05308025715316304, 0.004045378304051874, 0.1253558810271349], [-0.09555073680248938, -0.0012109472209349303, 0.028825014354266838, 0.04465708812027596, 0.02299006920307166, 0.06194916651924644, 0.07255037749891693, -0.10927477485230944, 0.006310997304601644, -0.0042326403961726955, 0.050333012352936704, -0.08824453783908556, 0.033485568421196196, 0.048431334751215, 0.10437245101631842, -0.0431869999876653, 0.05740382950032519, -0.033869994020448435, -0.06553838936169751, 0.0013346227400954837, -0.027530088894431197, 0.0964520130620755, -0.022928520442642607, 0.06651426376945994, -0.03235917961964931, 0.03735523821279936, -0.06760153707361595, 0.008314701914335365, 0.005712568898877754, -0.03839225433334753, -0.004772424845355513, -0.05189495706692591, -0.08718191130475952, -0.028125936848456726, -0.04451370291649183, -0.03922442552989844, -0.033895220281546075, 0.021047753527672092, 0.0158969283514506, 0.05650354185692628, -0.021899481725842634, -0.026571918377897928, 0.028068511950262064, 0.0035999402267092814, 0.009058814030278625, 0.006510006570572178, -0.015936008878525358, -0.017527439092333823, -0.026323436407895657, -0.015297696551312318, -0.07988717942726753, 0.02490579245491417, -0.054537063549606565, -0.04828235661115993, -0.030346357289974823, 0.15961427349750554, 0.073898967246067, 0.009730881733010722, -0.030505631315038854, 0.06814425444968147, -0.039103238818077375, 0.06465581761097157, -0.11069990885647313, -0.047744002799764734, 0.006933153470627503, -0.07650167255149341, -0.007079453409784624, -0.020660463396980976, 0.03706685940742997, 0.05416624216394099, 0.00869607966418361, 0.045845550522761416, -0.008596113277313145, 0.0017505486913097859, 0.044407103218889396, 0.07254968736701888, -0.0006517567008272775, -0.07958952437990416, -0.03409879547420721, 0.05877867767695932, 0.09539469042238412, 0.07925378411085568, 0.012491834156151646, 0.03126661614435903, 0.04710047246360782, -0.011779605635698276, -0.04711030582069524, 0.09218864491925324, -2.6285781220109087e-05, 0.047122855816769414, -0.02366599609289769, 0.020660310108587005, 0.07016813798562038, 0.007887154340021987, 0.018920612836344892, 0.019558942994201717, -0.054521109607322385, -0.05111455721760269, -0.032288717443114415, 0.04855787731507869, -0.04000185184678397, -0.016278715073512296, 0.008786994666432409, -0.07677381387839316, -0.02962724005529596, -0.04087170090549504, -0.008249937937220309, 0.027421486047537854, 0.022554474872661663, -0.024444917149104916, -0.07025515304361123, 0.04526504528436957, 0.0237164302442803, -0.07910488217742483, -0.033869838946673954, 0.044799465244558474, 0.08780999544411514, 0.061124630166271954, -0.032224848247600336, 0.017200394310132303, -0.045952928835246945, -0.16525020598247683, 0.0003822581320605493, -0.05092169905406182, -0.04527325711104282, 0.006879981049499102, 0.046052052511616946, 0.06895486206840143, 0.03557907767805349, 0.009013698902197479, -0.07415275219922889, -0.04661621212033122, -0.048855356192788024, -0.045768230405204946, -0.009074038731806452, 0.046283000420462225, 0.08127699886596694, -0.018799048929578382, -0.08232775450544288, 0.03301550881936817, 0.011490657136405931, -0.03350935625072522, -0.012634150026208085, -0.017691650042833223, -0.0870356967295711, 0.04428002063890887, -0.07553453713082739, 0.07220637500027652, 0.022293899271709675, 0.06134051485390176, -0.005218358614305903, 0.028657079316269353, -0.15237586571312894, 0.06565908439281502, 0.03982482812254477, -0.03495913600630579, -0.06477633467644246, -0.00387959533716339, 0.004373075653837696, 0.05254655911001698, 0.0775829321734143, -0.03051013132373222, -0.032923050248168204, -0.07943197228036461, -0.060666061974220406, -0.01714533519398722, -0.054270144167623297, 0.06230355271602523, -0.05775210365514693, -0.0404887939231712, -0.04392447231022151, 0.0028534441053298036, 0.011557834135277867, 0.025152738063463197, -0.028214661478995463, -0.06133600785108761, -0.001002728988312625, -0.013010722440618615, 0.013730007747307788, 0.008012154606065965, 0.019760521332965814, 0.13380400167642134, 0.021458856654770417, 0.0038268027214458733, -0.053679177326872, -0.046245692825112795, -0.018387219698704292, -0.0306338453004947, -0.025306199376389168, -0.022160373289726518, 0.002362691490990265, 0.04198662616696534, -0.08685719035435234, 0.03571814590059724, 0.12508297892945636, 0.046289613183418676, -0.10985600361486444, 0.025275982949325985, 0.10186407352398891, -0.0681819978137652, -0.014014053684962958, -0.05568909560757442, -0.030597861152362963, 0.06411687484399148, -0.07868036317327477, 0.11506999922392977, 0.05424801935332993, 0.017505815866034554, 0.02473003058177669, 0.006247647264396093, -0.08941038906338136, -0.0048802280926911554, -0.0036795442540676466, -0.0382085196146037, -0.040417740583360603, -0.0462002068870518, -0.040161044395474965, 0.027067290544470046, 6.249621279320122e-05, -0.10095490474301798, 0.026955792511635584, -0.009230514354110562, -0.0012838576439031157, -0.04018262103150278, -0.05353717645790085, 0.1188921833565131, -0.013442683740216196, -0.002816333328264402, -0.013216814362364968, 0.01460373211269335, -0.010414832353551663, 0.03824281236778314, -0.05294640430653539, -0.07534933552432319, -0.06740500763286456, -0.04110191326651976, -0.026730992813809168, -0.0023073592840848925, -0.02353071197828767, -0.032079119339609156, 0.0015858153866615795, -0.039088025497574036, -0.0003760110780356224, 0.02115119811360916, -0.04035678245394133, -0.03052894635260396, -0.12751785583540104, 0.010453314109152156, 0.03073037922114136, -0.13031273048394362, -0.008848943205712221, -0.040165986838791794, 0.058994066184347896, 0.04253656015720897, 0.0790069335174077, -0.05996006026683369, -0.015127867034792393, -0.04916952524091711, 0.004441182992688906, -0.0270400262898345, 0.0032587297027749157, -0.012519199587200106, -0.04007095263791329, -0.05528524508283794, 0.1034316800954721, 0.010800696483359951, 0.020726110028936616, -0.002831729226227344, 0.017767502686020755, 0.07942865516492467, 0.011777732975230248, 0.04405993264721609, -0.008669454288452005, 0.0175367329421263, -0.005860699694675616, 0.004227927029814475, 0.0187430266240386, -0.05130953673756505, -0.08438015671417613, 0.0004575840660052938, -0.08173827352380034, -0.1687221772710593, -0.05567669340129535, -0.008660046470431263, 0.011943218552143541, -0.03462215061200478, -0.048248145038156505, -0.03417017827677895, 0.04835324484334566, 0.015182455662643719, 0.08803744354207738, 0.022394998508436896, 0.0547169342000668, -0.04906628242353024, -0.08523893413324363, 0.02699246160513221, 0.04696401648593285, -0.09663438955479922, 0.03531820271638415, -0.10012323905839063, 0.007299180854355377, 0.007525020293071256, -0.023765425272061432, 0.02825883822171743, -0.02058345714017996, -0.07260854514415103, -0.10075156791091708, 0.0031147574989540718, 0.033174723385208, -0.029663347717648274, -0.041628508535338914, 0.07001962327208404, 0.076124759861363, -0.0023644131026771677, 0.10279188203542361, 0.07284899010978069, 0.02820567345129124, -0.03826141736124212, 0.0017181291831033425, 0.03693889545108571, 0.06944178662546358, 0.01074630526499199, 0.015064900338393352, -0.07235600885902506, 0.06739067085835149, 0.028513580658311014, 0.028416943532271727, -0.014916866152345772, -0.03180143441618711, 0.055898648147514676, 0.04205093103230757, 0.004092886457331379, -0.04390822250120436, 0.03205777850013716, 0.029647898282536823, -0.06357287197202217, 0.05755767824733232, 0.06628349405590238, 0.062031246643417665, -0.04560905812152434, 0.07323717135768106, -0.0330034800546525, 0.01574864242927382, 0.03939275857195255, -0.08012684776503722, -0.014614529753112847, -0.012069024108617085, 0.01790565437608781, -0.019958360121868943, -0.007179903981122179, -0.06927428864624362, -0.08052409118158718, 0.013796263270018322, 0.012616439399984098, -0.053321196528069416, -0.08656448970316796, 0.02372599135232763, 0.05502043173760749, -0.0006652574783527097, -0.007071529233539896, -0.06737451839291184, -0.04373108592561608, -0.0030718474169038725, 0.06572512569893826, -0.04635587998553794, -0.02859019513435384, 0.006015229434890374, 0.030175009058455778, 0.022907120583048286, 0.04632524985234904, 0.010962863333471316, -0.033851768163700204, -0.007863985698229613, 0.038015559165556226, -0.08190365953723502, 0.001081262887943513, 0.040793599635871855, -0.041912094159159405, -0.025694932209080788, -0.010135677495594008, -0.07256809253346336, -0.03432172173109642, 0.05050678085031254, -0.044825304553339135, 0.031208809932728652, -7.24015963395792e-05, 0.018764108672919715, 0.004456330686540007, 0.07394256499129788, 0.04837294855649891, -0.049369893183002216, -0.06601533902141102, -0.042182172425506724, -0.0035753092644831425, 0.012914162303546778, 0.04859691041522195, -0.017396307680203213, 0.0018152470458415203, 0.01844973643964412, -0.015920855753012, 0.02025890430969605, -0.011662418458885436, -0.08321238440017742, -0.09219820647291398, -0.09239181678430926, -0.09778608941129215, -0.013055589372342693, -9.167740814471298e-05, -0.0897743734377235, 0.03420764091211898, 0.03283701506688186, -0.007872961393028195, -0.09207385476543867, 0.006024259606867156, -0.05417125734396127, 0.061203488245442424, -0.025874205530222474, -0.042947065099699665, 0.09591368613714883, -0.048387524417416325, 0.058097159063893504, -0.046162420490704084, -0.004837267741324331, 0.03927635932212859, 0.020961294323581695, 0.038896905088059805, 0.0025658268366923957, -0.04319929509715443, 0.019004267772148822, 0.044978258571715855, -0.013947328422278908, -0.05513518818959077, -0.03367849255157654, 0.050552550793955986, 0.03152714951047953, 0.008099923683947564, 0.01168685127385426, 0.02194660900125507, -0.013216604251318863, 0.056424017902380545, 0.05645193979764605, 0.008022244693685307, 0.022917903767756893, 0.024144716103427805, 0.06995586298604388, 0.04032698594205887, -0.06746498892060243, 0.00944591236873687, 0.055730082553664205, -0.04774816794362585, -0.0785671784677147, -0.04121414190356632, -0.08138999543130938, 0.0030361057494812144, -0.010021029419504454, 0.02359089728945738, -0.04730900241029399, -0.0062894402310077775, 0.004167493210268971, 0.08270505764176128, 0.045404608996046245, 0.048733744610938795, -0.04283765582048802, -0.017497286942664635, 0.06494672272902306, -0.07449291927785448, 0.028095460878306198, -0.010872985551297176, 0.0816060733268101, -0.04927889877812128, 0.06180772056874491, -0.04477868723649116, -0.09552726657953185, -0.014774132547941844, -0.0017581758370868146, 0.003336315539648275, 0.032431786086733694, 0.020873329334123742, -0.053658280607460924, 0.011964267623160788, -0.03688218583621696, -0.0554910273686175, -0.07861564910665211, 0.02867032788431736, 0.0757749582128223, 0.06528017292227516, 0.023340318457690776, 0.07127351200716865, 0.053538185525486934, -0.03348665689272867, 0.01630780221285546, 0.08147095439420066, 0.10345263091844507, 0.014964664023043688, 0.057969233759389144, 0.07737208790591382, 0.0027150582880171685, 0.0833251378151379, 0.0689422798911544, 0.07128328066978908, 0.04205893832884182, 0.03389125120991981, -0.08261204286725356, 0.019915605137997176, -0.10486498456318048, 0.030033309633326222, 0.01760357205237233, -0.06888322728287388, -0.0009711067760485541, -0.004020887567485235, 0.007206551873034395, 0.06403578935601477, -0.044862478396376256, -0.027011777373951246, 0.06982477228481973, 0.008096187236365215, 0.005792685027656269, -0.04337477972167543, -0.010315408103771543, -0.0033632813083224974, -0.008886508610316863, -0.02545982018822624, -0.0022392155037352615, -0.015455491230845834, -0.021108111919878936, -0.034982557156397476, 0.050787478931164226, -0.06877769805195567, -0.08135081832140718, -0.013508514768255151, 0.009096791277473433, -9.707808384146294e-05, -0.04307226874538913, -0.03609159933917159, -0.02532586721256986, -0.12034041739774863, 0.038291084155789364, 0.02946653665182795, -0.020407888794701987, 0.02769855951031661, 0.03472786790710375, 0.055712621746984874, -0.013749615468802101, 0.006104257735722717, 0.05514563253849141, -0.05833046755877161, -0.05792205117367391, -0.005941547977764022, 0.0625322165583724, -0.006624217611355489, 0.002514516258648621, 0.03649066543616911, -0.03377185171012855, 0.029108186278899988, 0.06131465232264829, -0.0479881099113568, 0.03757529713312112, -0.06900983327941393, -0.004288661454770996, 0.033781303264900094, 0.021741593160224112, -0.037353915779522476, 0.02167637444063541, 0.010256280073342987, 0.010660690142297915, 0.10188037891009352, -0.026513583368329326, 0.0585430418055619, -0.11161278414470124, 0.00602859946624179, 0.030854434243102018, 0.07380848121197539, -0.041203191503049914, 0.07969097675462262, 0.0385927407696139, 0.07343981506203087, 0.03461840535611751, 0.0504267768219783, 0.08140504342545474, -0.07177011706039543, 0.03773020927151049, -0.04776252082757823, 0.003575486452989388, 0.035356333095816955, -0.03919901792062844, 0.05299132913094247, 0.02157994464495561, -0.11464029759805124, -0.05272221129937193, 0.02924718076911807, -0.030925160204709323, -0.0016180013923607248, -0.05521452040341794, -0.06599948902686953, -0.07897820970327236, -0.04185560358679818, 0.0065341356096770475, 0.1899497813890687, 0.013207599642012733, -0.030189417467632443, 0.04139990289789158, 0.06837549937820438, 0.07585265707460838, -0.02057495704990992, -0.040303383340752924, 0.06381740844485666, 0.04986480038212283, 0.030100362735996526, 0.06469083687401149, 0.032680845530772676, -0.006298628655700939, 0.10251230086927422, -0.023722532976943645, 0.07586350843550763, 0.05425546161125073, -0.05840688174888805, 0.013110184795462323, -0.052196647914327876, 0.002874038776461279, -0.027051322794662474, 0.05328938651920005, -0.007638037932933952, -0.013052438193083457, 0.08205474808659234, 0.051746632162352285, -0.030835919424841155, -0.004523920960843046, -0.03031300609387455, -0.010464093035820935, 0.0008223981484341925, -0.05807993406841628, -0.11312310026717795, 0.01863022786830026, -0.0012005938929424693, -0.03228924121879715, 0.007977896510525271, -0.11794297738437956, 0.07063025109465916, -0.0018435875381992886, -0.08737213997809533, -0.01267461694229531, 0.030850169447155656, -0.046873370581327865, 0.0588784803749592, 0.06305417124797465, -0.052069487618134604, 0.07632229690631571, -0.0455744102176009, 0.008574720586060168, -0.05487006232591893, 0.03996976775623682, 0.03791276442841932, 0.07456745506331564, 0.00089678061376375, -0.03977685686843916, 0.05127320258645596, -0.04088156187621648, -0.04341490580242484, 0.08591208549082108, -0.04676558466937064, -0.0059873406279383, -0.011430118523397934, 0.047274144446982275, -0.009042543434620711, -0.011279295637723055, -0.005581935258914826, -0.02753548969580483, -0.04848674629263039, -0.015119303463915183, 0.010532352430600921, 0.013817371671115119, -0.0015935315255736166, -0.04481929616365746, -0.019030931948086634, -0.018579349389362634, 0.007909804103934118, -0.06820762160442363, 0.045763717547033095, -0.014397892576994921, 0.0055105859246271155, 0.0043928134515885155, -0.0006056748384181724, -0.013464023155902189, 0.020299005810850073, -0.06100332440884438, 0.0687127722353799, 0.04327183851537421, 0.0031947903844143973, -0.07706532795140425, 0.04181392090406721, -0.09573642611884961, 0.06683406073037211, 0.002060685360318654, 0.06414759867565328, 0.01104394302426555, 0.033808318788207135, 0.07092228666954901, 0.01061927919115005, -0.05238623467181358, -0.029030762159496674, 0.025869990582551575, -0.006397712957072271, -0.04547340975968028, -0.0541720094461206, 0.015445546333601696, 0.08082967985590105, 0.02329136479682837, 0.0687563702208253, 0.004618024784913571, -0.029940513522872855, 0.01302276574194714, 0.017203140382147594, 0.028143621600840465, 0.043898286945557564, -0.04292802213059157, 0.07949358018118104, -0.00225071528316927, -0.012705699124717529, 0.05481028314116187, -0.04028831857357311, -0.0770094159306214, 0.04659019124928609, -0.019188959377642856, -0.05449806837696228, 0.03600674475351859, 0.09802958535138866, -0.03351190691214022, 0.03583147026855584, 0.02337961949980642, -0.005607653317748021, 0.03167336269937596, -0.04718119897448188, 0.004460911310644639, -0.0881685334562933, 0.02797127379763712, -0.01284903468845104, 0.02749377773553435, 0.07969488636354688, 0.017378261126723533, 0.05349889846267998, -0.12883263383457122, 0.05244252698723901, -0.011151708512066373, 0.07768688243044485, 0.02499569767568798, 0.012087867248317197, -0.028036667196381298, 0.04225490436182526, 0.07105881662672926, 0.04323941327482132, -0.029387191262597055, -0.0107770685691524, -0.04592132420986766, -0.0036415716475644675, 0.02541041728214119, -0.0021704440398853772, -0.06563579158334204, -0.03614278289869777, -0.09737373321385773, 0.03291542370970152, 0.031081924958497736, 0.04555593992952212, 0.03038822514235094, 0.15625757374980775, 0.08700263141811146, -0.04940030954737326, 0.013967444602517604, -0.02957965618672134, 0.025865513602785783, -0.04301289563598152, 0.009779914217093084, 0.02991748477686432, 9.087022601284162e-05, -0.005298966557872398, -0.05453898343678801, -0.07464272097801945, -0.08580651894029238, -0.016871879399712943, 0.017854107257075494, 0.02621128285711181, 0.08606451775842884, 0.019462302392644546, -0.01368799684291588, -0.12441302289909538], [0.015124350705389603, 0.006907690379583708, -0.06194700668451342, 0.04348145644141529, -0.020257457112268114, 0.049721408523493923, 0.026135059410291952, 0.0317918552625005, -0.03696976662769914, 0.0008382350781839901, 0.03278041428302523, 0.04398912572079042, -0.029088539922937917, 0.03279228298642764, 0.006539514671012473, -0.006290276476509073, -0.019178968899482278, -0.055780053659556086, -0.07146998824914043, 0.022991115768596034, -0.0034605929464676297, 0.04988807730403915, -0.02092836188813699, -0.02401766273634297, -0.028291963725991024, -0.019178086055201184, 0.06453604201963274, 0.0033791969306402225, -0.010355976159548714, 0.03439557968962506, 0.0029823751179605274, 0.05441434465918244, 0.07430154493711462, 0.006416465942710482, 0.004901990879607429, -0.036196453302269595, 0.0488063330447667, 0.04822624595550727, 0.04365794292404575, -0.03232595172526618, -0.052354638617395255, -3.145837421629579e-05, 0.024514432807619977, 0.02045972638959161, -0.035449645501027104, -0.013693866430649014, 0.00994361730616197, 0.003573665950092452, -0.07130492120819365, -0.027474501090246264, -0.08752475326757155, 0.008744801448741246, 0.07691959933665847, -0.05523064423841361, -0.025509202177312496, -0.017843786726020137, 0.009359298637777293, 0.0558360352272447, -0.027810667436836866, 0.08654312003974783, 0.0009151402462249751, 0.06589675038878015, 0.0804350534686831, 0.035190897574805605, -0.07327936181878766, 0.06137585659090156, 0.016641647011188573, -0.008110640907741308, 0.04620005533267336, 0.0628567478359146, -0.02439702398218159, -0.05189524862953786, -0.049409992587674124, -0.013121679617752287, 0.03314652974171028, -0.04490379483069717, -0.010571294596164635, 0.06565944615645977, -0.06952166506557815, -0.06680323212506976, -0.00684226387719521, 0.015205848100724232, -0.11403378608764567, -0.03232570475259496, -0.05772198327816277, -0.06906033648063728, -0.0008090981607221985, -0.06603463937387084, 0.0015645054939902665, -0.03563743047574295, -0.041863805559205415, -0.034224010371596815, -0.0904397873803987, -0.03850387976684025, -0.0050944264826623155, 0.040050686352033606, 0.0229813216856531, -0.01263269829405419, -0.04128977283648127, -0.0902063248265652, 0.053226037245272986, -0.0014609182592274798, 0.047583829097109245, -0.02914783891512118, 0.10265001143099907, 0.02705933432197121, 0.0016371394125045406, -0.03503000067378498, 0.1052950413692849, -0.008026294540786153, -0.07190851008052089, 0.0285867210311271, -0.022210738985565928, -0.07880853105134414, 0.03957197098078485, 0.07978141274526919, -0.01652667528200535, -0.02358527135226168, -0.0015555954039979212, 0.04391909032402373, 0.026029585252341267, -0.005920354546444909, 0.012656184556554317, 0.033978001619172256, -0.06634847012634285, -0.015051605575747477, 0.09708423853454097, 0.021610866605568213, 0.02439353261185653, -0.02774160184072858, 0.022374256462372916, 0.004542268230496337, 0.014466863638307112, 0.021157523509202452, 0.025961392042883166, -0.025258853662403134, -0.05948472853496746, -0.07026348587301984, -0.06675083444759256, 0.04112730773493863, -0.05090767910402762, 0.030331770993927917, -0.06692143279901497, 0.05362455403182594, -0.11741710009624291, -0.0214736432508638, 0.04560393884230299, 0.08168040640167208, -0.027846809150572138, -0.0811349562315807, -0.020740074070497456, -0.008227805186647508, 0.026036867297391353, -0.029619618830725895, 0.0051386996350407214, 0.15134400881036567, -0.046832908236627974, -0.004542677129828154, -0.09144216458778423, -0.0543366861822956, 0.06686101343002247, -0.01440057563392383, 0.1001683375275588, 0.02876156585683697, 0.02324587716012484, -0.10019969454214732, 0.05840965135141243, 0.07205136181102546, -0.007340415950363946, -0.031944348970596975, 0.009570995291428379, -0.132681352395148, -0.03689242834686875, 0.03592803337537314, -0.058839435187756126, -0.01554180477691839, 0.026779426216019128, -0.05076591188003939, 0.057386526643535246, 0.01744188099226413, 0.011127923405152063, -0.02509049816217994, -0.009000090470693414, -0.0012578737015407422, 0.03331984473216843, 0.019402741583961866, 0.0702747866336667, -0.02604775174301438, 0.05047504303407368, 0.062154253493729765, 0.0018808582918746518, 0.017266164666239977, -0.009992860406121093, -0.012223491475253074, -0.01235073049035163, -0.04610261170649933, -0.07623400616187219, 0.11344785929145676, 0.01894016781182111, -0.06922950095506873, 0.010891664416102368, 0.03256977057163149, -0.03710959150614862, -0.08717070005085714, 0.019797956670291942, 0.050755503604707056, -0.0150484324205851, -0.0724851499805455, -0.07159488266545284, -0.052887752998396945, -0.07726780513495382, 0.03249743104864022, 0.0024106721416362518, 0.02501945401737822, -0.015686727977079467, 0.04158686831966626, 0.010233817914602752, -0.01636505885664117, 0.024681692417775316, -0.0019684903729276014, 0.06565788637839327, 0.05338451514633079, 0.1349611750344383, -0.017393819105521003, -0.015112176287496178, -0.016736774715728008, -0.07331401686744307, 0.0136105525613597, -0.01947760268516799, -0.014252539370187965, 0.013867390106477652, -0.08332237901499043, -0.08630092945588874, 0.022964668689156725, -0.03493699978292436, 0.023510047942855217, -0.02878494438775125, -0.04900566717292666, 0.038543472685721475, -0.019062883022375753, -0.06925263202180391, 0.0029236001553197936, -0.0001049238315867541, 0.03311747029139683, 0.0006472249020813038, -0.05768171083442558, -0.0013093341195031603, -0.01643687400329659, 0.02429428875858367, -0.0673348089868018, 0.04785974853016261, 0.07417136058816248, -0.0463056784582851, 0.052882430560083765, 0.08719199267863116, -0.10011095500918742, -0.03614283473150804, 0.06537835445448703, 0.006270099226452065, -0.04188385123394104, 0.031010136685450284, -0.04855607019152982, -0.0050961956640671715, -0.024405861879563794, 0.022071583491166353, 0.00457192351481053, -0.01804820735290285, 0.07448475327569401, 0.00784702493270083, 0.02556370986616468, 0.0035027521594636762, 0.025257326463808683, -0.04278759688852291, -0.01893508991365019, -0.08278470176668182, -0.06935473784726075, 0.014811470150663687, 7.094245550986683e-05, -0.0021885917534703032, 0.04904120621224054, -0.028864101696823224, 0.009310643452962371, 0.019706619526179275, -0.03175179577599226, 0.061669787306456385, 0.016266827215606742, 0.051380681560148536, -0.020281839375796352, -0.011062743456838778, 0.012731950025066708, 0.03292324571360118, 0.06381739050655823, -0.04668820638288236, -0.03586047017900723, 0.023433848163185046, 0.008290661606069059, 0.0646338919917797, -0.011365387348202034, 0.026979507918101105, -0.03995163690291009, -0.05199165906525346, -0.08877137530977307, -0.022768919933079834, -0.02580383239642483, -0.03421558749054816, -0.040902281000042756, 0.03307900670797388, 0.026082748029509495, -0.024365244467559145, -0.005165882351535665, 0.02566262266421774, 0.022971085976487254, -0.002738952609631128, -0.0034880349885222615, 0.05631561565457773, -0.04035900022034353, -0.0038784610385359103, 0.05169682591792495, -0.07450987173306353, -0.02579152855292258, -0.03320776449525838, 0.06613672212801992, -0.028994250729604668, -0.03375273756569348, 0.034258871825539265, 0.053889793844000354, -0.024512427330956314, -0.011746614252413391, 0.03457345628836789, 0.016170482538704272, -0.09403526044717482, 0.06639530415520027, -0.03371252170856634, 0.07457404006053647, 0.01034948564436078, 0.048358523371443335, -0.10036066110706164, 0.05629803505715862, -0.023153389669688145, -0.08043320120083873, -0.008073752891683774, -0.0208160112932832, 0.046060753160950305, -0.012017712186363338, 0.013348640104824176, -0.09846950110919439, 0.06278824337339109, -0.05719814334728319, 0.010059496693381602, -0.019368746779884864, 0.042160504291482645, 0.07071544771761556, 0.009328810163121133, -0.059890731046777494, 0.009586051929416124, 0.00622548880650441, -0.06915745738922442, 0.059777575002778104, -0.007159150386979695, 0.043271521828467885, -0.031714954076339334, 0.0038794983038991306, 0.041320510578136044, 0.05989323052976197, 0.09615321673903303, 0.121312983079874, -0.008300888258286128, 0.03920957798665436, -0.030680229581616026, -0.03333468796455716, 0.016142370652671503, -0.03513821196349407, 0.03575825897920846, -0.008290771740054003, -0.034629903038086066, -0.03898720193087445, -0.043382109947027354, 0.028078474500620867, 0.039910120886243336, -0.054673646099867856, -0.04977478439273154, -0.017159188026524965, 0.02767422558333459, 0.10450321576492794, 0.11367472425964638, -0.03192605882080388, 0.03441651528537557, -0.08505753399610935, 0.021204322213623138, -0.12011125420778741, 0.024535324257483317, 0.039538550238631724, -0.03888898687932386, 0.022673676766901085, 0.056000188638384796, 0.016473355980224855, 0.10777222275005344, -0.046475678706478896, 0.014855979883377229, 0.019463441745417916, -0.11670940691708126, 0.07242582894245643, -0.052649048782503094, -0.0620283493904696, 0.09522229244467408, -0.06701847099743886, -0.04199109619251644, -0.010214761620705429, 0.021308611829641326, -0.11822373454535742, 0.001963931544122079, 0.08910695485227384, 0.029536466326944368, -0.047942541576146476, 0.12309746566428512, -0.0006280562188596993, 0.023098120806213873, 0.009780965261237673, -0.010295756539487546, 0.0338832246824717, -0.021447114873740163, 0.0069001791678598955, 0.033477984858108156, -0.10362603747583475, 0.0020892649883131054, 0.054161735361086275, 0.09549526680274713, 0.040508188619052525, 0.06239540137317406, 0.037002065798202595, -0.044431301913007266, -0.009938182275874926, -0.07787930756397321, -0.04805598709222247, 0.04180721021167524, 0.05702756132587936, 0.10216195290279267, -0.006370302078780479, -0.02687462809839657, -0.049983661670019476, 0.033632351047308016, 0.06374224896970737, 0.013652597334542056, -0.0015654261790573058, 0.04278582615377009, -0.02717062081595319, 0.019426069302957018, -0.07376855454456256, -0.031789370543534444, -0.028246623287609598, -0.02959275501746892, -0.025998590697745603, -0.025993712870437183, 0.053995173863519236, -0.03937199074594852, 0.024855250859918035, -0.04524390047126025, -0.09988351897421455, -0.0049968123484554535, -0.04213631440224946, -0.09334543198190569, 0.09610536574500418, 0.05195869080785344, -0.03226016659421433, -0.05416899212791126, 0.016492910798545892, 0.0206437746555319, -0.027860469020859546, -0.07243804412958776, -0.02383655883268143, 0.019327798241034144, 0.04028816080750278, 0.02856196988276644, -0.052992202006738695, 0.05349764711180567, -0.017275075700226423, -0.006857073113214305, 0.0035433884740884267, -0.0357503836446943, -0.06781991626629283, 0.026595751333181067, 0.061475888143483544, -0.00459628926187349, 0.002763353588757052, -0.0366685261164066, -0.0227472844438174, 0.010588090513040814, 0.017385362992255165, -0.009684727478502731, 0.02226144829994028, 0.08073813343625495, -0.08336669699865688, 0.04981434045848633, 0.04426400272228756, -0.05544588465210562, -0.003892373871228892, -0.026164726372146674, 0.02179847334835196, -0.038953206039575014, 0.06047004371977052, -0.05285020452453642, 0.11209464754943387, -0.033661022717035693, -0.01398702460603344, 0.07800936651658061, 0.049072668978828955, -0.008094276336672274, -0.04220542636640466, -0.05972240192921973, 0.1288685767742903, 0.04275759919535573, -0.010582247547957878, 0.012747137947220958, -0.05419196365638907, -0.04441806519455956, -0.012685253372241679, 0.05673562192258453, -0.03216159574638989, -0.004952724099131211, -0.022607653748298855, -0.020873055407437845, -0.02675090978315725, -0.09100553027238732, 0.02349714922120814, -0.030090216170983432, 0.027916321213462977, -0.028949709415056937, -4.113387367997082e-05, -0.07423504152155139, 0.011192768008979169, -0.08210002673028118, 0.007327038289647707, 0.054584764445180005, -0.029849208647758644, -0.03553241581279463, 0.0074033311511145575, 0.014401726701333542, -0.026095183043889206, 0.03388009435461793, 0.007006711777567232, -0.18699865977540236, 0.0416322752058566, 0.0763910559234729, 0.05412457145852345, -0.036484658228156545, -0.0804768935701103, -0.03558068675312865, 0.036947563383968124, 0.00964972095607513, 0.019047504162501915, -0.02314946513909662, -0.01457814165538218, -0.04205539033660854, -0.09667905039889022, -0.07427081833798695, 0.07608296039663653, 0.030552884614222047, -0.026982276052769417, -0.010553678974089965, -0.05212148482095786, -0.10378347087911832, 0.03624676443634571, -0.0416635629357065, -0.03172489935972407, 0.004561198298323134, -0.047329106724278695, -0.01601025619696531, 0.006939818866085925, -0.09822444391437037, 0.023581524678986717, 0.06721809406720329, -0.029673543160888095, 0.06003594609627913, -0.02868594365440077, 0.02346495119809565, -0.04252902938723173, -0.08632975802953528, 0.06212003519205762, 0.011473140115665813, -5.179881282019207e-05, -0.1220755882811245, -0.09030729447146349, -0.027290430569004882, 0.03400134931031505, -0.06837997492352209, 0.06534407895413939, 0.07831531112018196, -0.03158812910944323, -0.025162326587953334, -0.03234898004993194, 0.022022513222274172, 0.005995311325089139, -0.08272065661711514, -0.06985139635452861, -0.0007528306375976745, 0.04690429906152297, 0.04449227549992312, 0.061244420297572884, -0.01708675662583619, -0.027774850472498374, 0.11103997339549636, 0.042105897720543246, -0.07486963318514656, -0.04269182054586827, -0.0733329972697497, -0.08450628378886872, 0.10684035986445858, -0.07881980886032736, 0.03780501283214424, -0.05706159319690383, -0.0439153025742106, 0.06667235789271643, 0.012558056095665696, -0.037101189178001544, 0.09019996038278612, 0.06082845475487385, 0.07159768213091214, 0.012930625255540552, 0.02063419503764763, -0.007988135683518624, -0.0013284173920696091, -0.0008526845978694481, -0.037454290539081635, 0.07606587507406475, 0.00878004451206513, -0.04355314033043885, -0.004757539694988641, -0.038557527463491975, -0.02312857082527432, 0.11347491118330871, 