{"input_size": 784, "layers": [{"type": "DenseStable", "module": "LeafNetwork.Layers.DenseStable", "weights": {"type": "ndarray", "dtype": "float64", "shape": [128, 784], "data": [[-0.05810279942795348, -0.021352298527407092, 0.05276227643589549, 0.05614183653785356, 0.11748840616564896, 0.01582581682327155, -0.043579373742620796, 0.0030321920598611685, -0.018585398381079875, 0.08198638745582537, 0.02040922770646169, -0.014957506750140495, -0.10037269471194071, 0.05566784238412317, -0.0865668088458179, 0.09147306439356763, 0.051359514554848794, 0.013295593035192574, 0.03711491871853609, -0.0802031720915967, 0.04051767973273521, -0.025955496967688247, -0.010506428428884721, 0.029790000826678927, 0.10230234366171671, -0.012180997407355117, 0.04078083375236733, -0.07074580829263374, 0.04858827004439734, 0.046464161145236826, 0.07195449495867808, -0.016350409751665754, -0.03762728707752826, -0.030489950580515235, 0.08566967345626224, 0.028782829047585962, -0.025743364730089945, -0.023596140280195223, -0.05522333246592991, -0.010022986583167161, -0.07684559661392228, -0.08026372630429467, -0.012371289328488437, 0.03254477178442424, -0.01465811871668921, 0.053873046127332284, -0.0219753171327006, -0.028895122798373824, -0.031045459363923555, -0.02967989847982402, 0.02476883338664247, -0.02781268105061822, 0.034327053892559106, 0.04481103911445074, 0.13945319976291096, -0.0698551092923901, -0.10094744902373595, -0.010700851320103911, 0.012052092399445612, 0.10183164795150032, 0.01870530171855941, 0.010517576498505193, 0.06933958367913885, 0.06106422677410848, -0.03963598021110449, -0.04699245033892078, 0.0030203723000805987, 0.07856809314044526, -0.13251326963935933, -0.045201957862802296, -0.056666999062387424, 0.00047065441272881243, 0.007409382588851944, -0.007468343272470941, -0.006332984047256701, 0.020560591196777566, -0.05706221175943815, 0.019338365289024398, 0.0407355606494939, 0.021601792167413744, 0.0949218431191994, 0.004303267818763946, -0.03705849209097123, 0.03695736882304943, 0.044603472527237044, 0.050980059725430724, 0.053761709920356816, 0.06292906244747425, -0.09816208995096673, 0.006168375272564639, -0.06458717533483233, 0.04015700735773543, -0.04268476388758719, -0.012115630106757709, 0.07182483438279239, -0.031224516126989614, -0.07509531685814352, -0.04483511762270471, -0.04588611313383118, 0.05824227005718735, -0.060157724154837264, 0.05872321722464475, -0.0005075695470494629, 0.018235497240741975, 0.08305094564736187, -0.00537222385547641, -0.0948180497980595, -0.00235864428878969, -0.06648187459932457, 0.020618223721997127, -0.03642316975068604, 0.00918740136124367, -0.06708011725619073, 0.01406845914058394, -0.057676465756576596, 0.027398129740360818, -0.07473029905813064, -0.04586764075119313, 0.1570990145449672, 0.04428618562707305, -0.09935244665787343, 0.023988377388535563, 0.014450065509353715, 0.02489783886634458, -0.03292792122552776, 0.01361519358000225, -0.08555057816536979, -0.057905809419794604, 0.08406948385613751, 0.029094333620464666, 0.03783853393865267, -0.03233994825105622, 0.06568899462651105, -0.021803779796428887, 0.015216938071127438, 0.058184721781470494, 0.016611577733845122, -0.058518315934370776, 0.0904196216451384, 0.09712146854018514, -0.0017690325719681057, -0.06587331809559253, 0.005757845588319737, -0.03383967464646154, -0.019642685564224535, 0.011939798803804205, -0.0097570638134398, -0.045426616212557516, -0.02412963378201221, -0.04618147267860712, 0.0715621026245676, 0.010875911540803022, 0.018917394327105427, 0.03257899814182495, 0.022087561038030726, -0.008140800166812205, -0.03363987602574029, -0.010003716072263835, 0.005507254118212961, 0.12731063719691454, -0.023513817651631595, -0.010766110004194559, -0.03188055543619576, 0.013582276382100326, 0.0629905226889935, -0.053501622975783446, -0.0134485610489958, 0.019288171210613058, 0.10990187402231542, 0.007951251154464814, -0.052141927481743816, -0.016725746026757485, 0.01641651989786062, -0.014683941126383616, 0.023362551071622727, 0.05575074210550675, 0.02166895722359673, 0.03689760131789119, -0.023857617120933622, 0.006177030488672029, 0.03760632668890609, -0.07627571202169893, 0.03125643282132545, -0.07662114775318833, -0.04283172983705458, 0.013126685817621228, -0.03513997184575201, -0.0467955948715819, -0.05061475847473355, -0.08501385116683308, -0.005434209579970944, 0.03955972990145127, 0.04534806021932986, 0.012566521204027929, 0.02101576673051645, 0.04068907975115367, -0.07515775177703854, -0.03630011777478075, -0.09846255276242205, 0.005507845553278268, -0.04669754085544351, 0.008452598649711823, -0.1329067868107473, 0.010460151951833975, -0.01833117468162232, -0.031299801936765174, 0.03952987521515787, 0.09585393678869784, 0.04987827270532556, 0.06515748646270313, -0.050318285447137186, -0.0206278982837051, -0.02059033126892681, -0.030922229049745554, -0.00964295245479428, 0.0798228435544201, 0.06844263811177685, -0.03543508767418035, 0.022423291433851928, 0.046525469232015546, 0.03502017643033971, 0.047251607917403134, -0.08743362676503078, 0.047818789432593614, -0.0029042804223848757, 0.11266390301002868, -0.02277252466577365, 0.016029573198208923, 0.008082050933082105, -0.05768644571366857, -0.02483789512587756, 0.014290645937630807, 0.024289283391009553, 0.025279288153684742, -0.03163186700455762, 0.06659584816310654, -0.01509458562674232, 0.047010910969436194, -0.005552802991679197, -0.0853339453425195, 0.03595118247379075, 0.058498833526234285, -0.004278151692478075, -0.034396566671258184, -0.022259283170206992, 0.01615555919332203, -0.0031222418968967405, 0.017312896273756696, 0.02905686330441895, -0.03195038876781347, -0.0400923681389448, 0.045696391378653965, -0.07979074016754317, -0.009344300827401664, 0.04326192469457007, -0.002381169111629073, -0.013581051621396686, 0.021491188869206843, -0.03498139676050465, -0.0010494829873409022, -0.039762624824181074, 0.006863852782235559, 0.06867872195619125, 0.06606600298979066, 0.043497988407897134, 0.02520737419977109, -0.05994617327810633, -0.05800243164780028, -0.00875944931145776, -0.036238462734835504, -0.02380001335993515, 0.012493111830309381, -0.004854382716359873, -0.001199296612088131, 0.07470302258090433, -0.06737105599150993, -0.0014323663110459193, -0.06897204070038275, 0.04154616478112483, -0.009340659212997753, 0.14566947216375384, -0.049981191267050855, -0.04045554034890355, 0.05272122080152561, -0.01318276248638823, -0.047423684368434145, -0.08644763784999288, 0.007410308108623326, -0.0005281425762268351, -0.03181584463889148, 0.026836974926771732, -0.0021509129330010454, 0.0285008930685429, -0.03519310583467362, 0.004594296921156923, -0.023814710991169233, -0.06663777302570302, -0.03212784774660808, -0.03144634567243083, 0.12658140275577606, 0.05446217675660865, -0.020223892663163094, -0.004024932359579173, -0.01337506572062439, -0.046107247712877074, 0.040482929448946665, 0.108082858998544, 0.02609567890394748, 0.021279581387995544, -0.031670242690367924, 0.04006100816195599, -0.005843931443446814, 0.029791798823668683, 0.016917909067467072, -0.007202588192588629, -0.011585019490513796, 0.00027004700014364186, 0.027878063559123006, 0.057987591634404353, 0.027801890505012184, 0.06613097378941767, 0.05706167552807505, 0.021137437107813618, -0.0027000507784841537, -0.035363523063962635, -0.038849472226092835, 0.029010513456642843, -0.005769680245152107, -0.04113429498341672, -0.05536816771262255, -0.03379454819630284, -0.04758047589016141, -0.03796346880767528, 0.016242549174236846, 0.004494882092604332, 0.04432922357979541, 0.07469399034664281, 0.020545044628390248, -0.007229528493629992, -0.009394346144287241, -0.0444541702080367, 0.007954569004233726, 0.013932945387612968, -0.06815928065682109, 0.048115976136205704, 0.0788599589782431, 0.07927318746075272, 0.0028881161050369184, 0.01101105813984435, -0.045881619506056806, -0.04718120569712941, -0.054356413825231494, -0.03602079311029572, -0.013683260321991514, 0.1026364488871971, 0.004162685310438091, 0.024053666348319392, 0.041593038424982465, 0.03311778495431154, -0.0607959817479538, 0.00875062138065192, 0.019841898115219636, -0.02328822439667104, 0.019938396412795174, 0.008409653149528016, 0.07947899457439196, -0.011189823524167447, -0.07343902646022787, -0.12474517448529857, 0.09362436929736821, 0.019774406637189112, 0.022858444778430964, 0.15435569038454558, 0.01548714140941302, -0.0561643454698746, 0.1315983808052056, 0.03608048238703345, -0.13110122146362183, -0.1132678068424076, -0.034456064841028665, -0.08019204164731242, -0.03521467883204535, 0.06582877233846195, 0.030949688886605754, 0.003309045338377786, -0.01621333623919039, -0.008800130789832581, 0.06597991775312119, 0.1010495223141278, -0.023988243108390414, -0.021918502724272964, 0.07413483451404666, 0.015080837141575845, -0.0477700907257628, -0.05101829470971769, -0.026069377734173636, 0.08103427913264306, 0.09620486408313722, 0.043747033668257926, -0.06495199843732284, 0.02516778438956834, -0.05564338256978763, 0.07296372552123301, 0.03239733818745337, 0.0011072635619441922, -0.015443852892499424, -0.036401615779872026, -0.03176257477528791, 0.02199873759050893, -0.043093825363739124, -0.07754211781394059, 0.13655982555224488, 0.046429235476826904, -0.008207248608858698, 0.03994262616435208, -0.051462542304011656, -0.03595129930628974, -0.03450975509167506, -0.005446385993977054, -0.05741323349742423, -0.10051566621490592, -0.07900688272639615, -0.02511355513478782, 0.003480241124710471, 0.05811333371887124, 0.022786102082471223, 0.037918618649644166, 0.01097173985857231, 0.05751355685717483, 0.11614346632036898, 0.03207004342960932, 0.010188672061280104, 0.0014302945074721385, -0.068211788862434, -0.0679328943781708, -0.036894356361734375, -0.011633776638101468, -0.08822539517983162, -0.0050717547655727575, 0.04460222484209302, -0.03139516232412434, -0.019789713660445803, 0.05165740607863765, 0.016324018481286375, -0.09170184690873938, 0.02571832362756147, -0.0012517440116087885, -0.016689098371195293, 0.033368365592552254, -0.10095254163839373, 0.006182538534922772, 0.02060845790051365, -0.022865600494438504, 0.07173249291446612, -0.10958139942335257, -0.017582545755344556, 0.07767789118982739, -0.029283319773468347, 0.12205140488839859, -0.019524062361186135, -0.0030092000420096337, 0.017108444745714758, -0.09016787179054685, -0.02742761662555766, -0.009552551050914427, -0.03971258448404842, 0.008799726869531345, 0.019207144763603683, -0.0008552169528848552, -0.00025785308463324393, 0.03688981252227099, -0.00897743568334025, -0.018314291319604877, 0.027707089098649194, -0.0011454750951476102, -0.048117694656573645, 0.027703889064274973, 0.007710773107053369, -0.017913427696492592, 0.04614065987673049, 0.03182339827329109, 0.07434884223316342, 0.02964049842278103, -0.03149901637739443, 9.815289606674685e-05, -0.008629560201913975, 0.12532600978426117, 0.04224479885473325, 0.014941009433657825, -0.023309099728769694, -0.11865587217897504, -0.000958629071506736, 0.02165000317514394, -0.02946288767539408, -0.06301900070321897, -0.003945101629820468, 0.0708960597350738, -0.06932569353944362, -0.005126580130557558, -0.018615465303005705, 0.022300992311623333, 0.02964944826655491, -0.024092660970476985, 0.04841534981487456, 0.04822837278083939, 0.025776746985594717, -0.02193698718452058, -0.007663980774972436, 0.06436874578792623, 0.030225667401523944, 0.06513060622050872, -0.015597240172347994, 0.03029688002626586, -0.038509310263509726, -0.03850087869943744, -0.03891847815964271, 0.08013009776121599, -0.03247556467311516, -0.06674004537255758, -0.11013116145108844, 0.0547792471156332, 0.03442954305076332, -0.011655747201206743, -0.03430421136964824, 0.010190098026691118, -0.017210174265870935, -0.03451372905183375, -0.12850449010709955, -0.02411443212597689, -0.02724636604075161, -0.049009728142636565, 0.022065278021133502, 0.030092366987750887, 0.1033799119092982, 0.08264843635645687, 0.02496615166043856, -0.04351342089630383, 0.0011840041910681567, -0.07335373225351301, 0.024933434217730453, -0.030169095848717825, -0.09459488950581675, -0.018074144214512713, -0.005495513709729198, -0.05283979888024486, 0.03316265535118054, 0.0275848346240793, 0.049424336021229726, -0.05507417347851409, -0.035985257697020955, 0.0820051835828185, -0.018268078690547956, -0.01272108352853212, 0.06407505228678619, -0.03445958386014593, -0.03796382782518395, 0.03990921939060541, -0.05669366567644174, 0.004912955119450123, -0.020810951698250993, 0.032967362746091064, -0.014183550395087086, -0.036984122846335614, 0.008831539531172883, -0.10545651050217572, -0.012144832751158104, -0.03596327184819145, -0.041220280542289246, -0.05346007462092907, -0.02695997804054643, -0.014324895704379868, 0.022899952725693815, 0.008840200133668978, 0.01141617431055529, -0.08019711397500577, 0.01565871075501987, 0.006808048282127648, -0.008690774457341599, -0.05868385352157264, 0.011541395257653632, -0.005107181674499931, -0.02715427279773872, -0.05679656301894106, -0.0742470394867906, 0.03897676037780555, 0.03423186861235545, 0.07492622535721072, -0.013143791351343333, 0.055526091857938525, -0.0007868990115779764, 0.04643029754411404, -0.004627569980191087, 0.0009659694081561478, 0.07234492558548279, 0.02554216755331409, -0.12408984450332965, -0.04665390857455724, -0.044692410821857625, 0.030846164411239142, -0.10197930689376583, -0.034462757060893155, -0.048677452581050024, -0.10700722754447994, -0.01853333425411926, -0.002058018192903378, 0.015543164370203469, 0.08450858277330503, 0.020882359965090802, 0.11786741737711935, -0.044355829028122955, -0.11305247209915428, 0.014903158937686756, -0.0037862787687883512, -0.016394327122251785, 0.01681008477823341, -0.035920512568888154, -0.0038528628098679248, 0.057980057065067765, 0.04781551101727389, -0.09308379898569907, 0.0006595255487257478, -0.06464701570925653, 0.0448399343269553, -0.05864611120051382, -0.030453917059396696, -0.05039605908744765, -0.015097049191772696, -0.02676325889161231, 0.058135979634703655, 0.0027695165113505228, 0.004608708906534549, 0.02468530409860781, -0.07194418793568594, -0.050581141503728416, 0.08434788094737469, -0.07639256701912045, 0.04236254844711056, 0.00760412037300483, 0.02629801984614966, 0.07896346202524292, -0.03455763758555329, -0.01335838327600654, -0.008637121559102673, -0.0018806978502474835, -0.04697346317284819, -0.052420622003786256, 0.02939295879862662, -0.03173016041468252, -0.006114838237230303, 0.031063894542582807, 0.0127908279233143, 0.037557011566995986, -0.017652076645037595, -0.08737382501499005, 0.08006209330063498, 0.026638352466036873, 0.05209566755060598, -0.07264493652516651, -0.01247596998406985, 0.04694225693957963, 0.029970138128177556, -0.14782616196600917, -0.11662585596789662, 0.02524030785942419, -0.05917514915032808, -0.0775696514454989, -0.021319136975443527, -0.014574558741562844, -0.005710997150570822, 0.06845040524220421, 0.03785487671884179, 0.001469300764401251, 0.054584867100957966, 0.10490215052660606, 0.03390522157922819, 0.020049236427473995, 0.014855032614262156, -0.04691266771704563, -0.04995949584630788, -0.011908257072103065, -0.011773338185431127, -0.005303260064617056, -0.04422738432710216, 0.005987548616222967, -0.037458068069837265, -0.02789958988974694, -0.003961268163399523, 0.07841082507398445, -0.039466644970732566, 0.04831426380651047, 0.01692126070683662, 0.044509798033763925, 0.03531568733958433, 0.060990777610927895, -0.014791118483352525, -0.021543087464580148, 0.016917738667559593, -0.003413508701140073, -0.038885222510109556, 0.04602600492656409, -0.03587805904779453, -0.027763437859312325, -0.04745867906606021, 0.03461194563308511, 0.011855626921022492, 0.021675826677461717, -0.01862574578982143, 0.09342460564548004, 0.018283896004675212, -0.0073254721524514494, -0.05705275804035899, -0.023011780282462386, 0.03462354894861842, -0.017117069393855728, -0.02241766771039166, 0.02499696675537716, -0.0013485542497483202, -0.020517608699159612, -0.03221927514197339, -0.0580696367863919, -0.10213904292382375, 0.0225569427244687, 0.021347368756228967, 0.0007063397751948584, -0.055230747069200226, -0.0682309295646054, 0.023419437381898354, -0.08679064343571533, -0.016020658194626367, 0.015127012873109653, -0.05206340319813089, 0.02565091149609232, 0.0017592520901232999, 0.027758931785295614, -0.09055185270117229, -0.0841082378238349, 0.04259240161223588, 0.01027805795332426, 0.011313033209639053, -0.047117847085197624, 0.031335589350560675, 0.05837635316484042, -0.0804577848207549, -0.09337383924859015, -0.020702208863390276, -0.046117620207313366, 0.011028969258743054, 0.022431141547759572, -0.054915539585349116, 0.005002550649319456, 0.04095132974711008, 0.06761494697623634, -0.05701882993527523, -0.06170602447766342, 0.03128977758174133, 0.0897163704424164, -0.08196915322872775, -0.017321585398694543, -0.04762204459631987, -0.033762713370225066, -0.02196725301368053, -0.017939452157292913, -0.020208832957721315, 0.008096252554568256, 0.030177156373349025, 0.010071707312467223, 0.026619667475299084, -0.04777239699785126, -0.038683648251231696, -0.026156912453477864, 0.04991336850215961, 0.06365756185402324, -0.10309662458213412, -0.024593108079878218, 0.03272015772314725, 0.045977419883356754, 0.01088809518653901, -0.026128015112347313, 0.04395012103411389, 0.05334824311659749, -0.052327707814343476, 0.06235808236638189, 0.000681726622282918, -0.030439050551494855], [-0.1268058195613939, 0.033064765074552756, -0.044323752645240445, 0.07444008171210456, 0.03642135304459098, 0.03873077435986916, -0.05954938531093595, -0.06311437022133169, 0.03821187275662828, 0.03626814756738696, 0.057625363661014936, -0.016086430649023844, -0.023039189372282776, 0.041303723413996594, 0.029352738852624582, -0.089086206008589, 0.021767184124759975, 0.032710749309938544, 0.0009175565836808278, 0.06533646265621, 0.06443067679244734, -0.06482866370169744, 0.0004463554630876759, -0.011410777528137623, -0.018163890593996684, -0.06186442178813244, 0.00984750156880841, -0.00820618994258721, -0.042334705428491236, 0.08097900485796672, -0.05669347960146198, 0.012507079465377819, -0.02282695766923169, 0.08293391143944118, 0.03889581931866422, 0.06831973112783972, -0.034983635926676804, -0.015153450062146872, 0.012132558763839618, -0.08515089873747324, 0.00446606681059506, -0.05142259609300408, 0.042388082760421227, -0.03013853723353737, 0.004491361861037196, 0.08820899705314462, 0.1108509375750498, -0.0059723701867282365, -0.029666164695448322, -0.0873287550837368, -0.02533428765145599, 0.006510153389080963, 0.01322200536446516, 0.005349904789623647, 0.023212651456892622, 0.02052068282048197, -0.022108414529794115, 0.13380384644473162, -0.046892268633668376, -0.059284219704953, -0.03960985388010986, 0.014016301839542618, -0.016290691827630314, -0.029871634956506608, 0.02477042754611645, -0.04202483961109388, 0.040355377479174524, 0.039639525076545376, -0.09674915603127653, -0.0912317832205363, 0.09997522819377028, 0.1012245050062579, 0.020668838191857948, 0.09555726337498269, -0.052823793962571426, -0.04243023637768783, 0.02720895614802206, -0.011898755616010075, 0.06282878532994032, -0.08434304830095435, -0.008071592842706025, 0.060591156818112696, 0.021875820629981356, -0.027832175978925042, 0.04561572116403182, -0.03659937097741768, 0.02396960478242008, 0.01731477678157524, -0.04572183251341977, 0.037658091388337735, -0.014647206951492986, 0.039185669808605016, 0.013934862177295124, -0.04128597929064121, -0.07102941731863342, 0.04872932774083363, -0.013931339536956761, -0.017342759912481985, 0.05442118858025962, 0.0056822242701559285, -0.01546584917275971, 0.03666666152875453, 0.0816905087140888, 0.054872916187580306, 0.024639605753150873, 0.009285328516944639, -0.02935914261611307, -0.10337029387231023, -0.023686011510283808, 0.008816426458646517, -0.062060549525513035, 0.015058622261280312, -0.0004592842177580636, 0.031093378016173324, -0.027399798764425592, 0.012483223496270592, -0.019557285524762602, 0.059338947285937506, 0.04658194895618396, 0.020007574899198622, 0.04792760974523798, -0.010474473075615286, -0.040034064127906194, -0.005966540862560977, 0.010166142602699386, -0.050351780021699086, -0.031802611204634984, 0.01095554722778443, -0.05315030097726933, 0.04916384612486807, 0.011636532752608245, -0.009171705234227865, 0.05307122559799424, 0.015093783314297247, 0.034353974028317184, 0.01685098673715958, 0.0469768870910338, -0.027193069827875657, 0.019905020076267703, -0.000557871832875647, -0.030687141059957856, -0.004301731647304783, 0.0134758425030113, -0.04884775335322989, 0.03475972582106784, -0.07770920943701659, -0.0015139698589427594, 0.05804994754896981, -0.11077452354689403, -0.013560735202177123, -0.014831648716461674, 0.040504848738971776, 0.005703786978322013, -0.08541326345221366, 0.031249172876763494, 0.0015581258951288292, -0.07942721813632306, -0.008354902284803234, 0.0480319954203116, -0.017951434527129845, -0.040945094032183396, -0.10335026268161387, -0.038877491354314134, -0.08606801859647634, -0.02441362665081016, -0.11496668768725972, 0.06370384838912779, 0.1274468678704061, -0.013586494652242823, 0.036720315538559374, -0.007612858727937376, -0.037872746615860486, -0.04726246760446123, -0.03992911766251438, 0.027780302488357042, 0.05624738037630636, -0.03373072426886647, 0.044452595119052155, 0.08081961336547529, 0.05597654049704145, -0.055624569862862565, -0.0036899156374087835, 0.04979804078235301, 0.012147364480296519, 0.0020318145313464636, 0.006365453750390734, 0.030914895027234445, -0.008343369738338229, 0.07607245736636734, 0.013768655665221789, 0.08507686914719169, -0.0035016716122211054, 0.17939482298846338, 0.06332209484408827, 0.02497572820300587, -0.04124992976237514, -0.052218644582304005, 0.091027595733164, -0.043779151636862426, 0.01395768589070517, -0.02557792625397449, 0.025551205376788705, -0.009556223632030708, 0.021632819344837018, 0.03885601792249614, 0.06700276672379467, -0.0012929598326890525, 0.007089176533300827, -0.03377863010303021, 0.04050196334150119, 0.005120495876172595, -0.018732107329128965, 0.004520510930327079, 0.04121497484473257, -0.04397548058242246, -0.08152898355619358, 0.03529195993252635, -0.03380324758887805, -0.04925801070898861, 0.031787249110164235, 0.010409949914411841, -0.0008826467261330302, 0.044060140505858304, -0.01827408408164605, -0.03148382865542606, 0.0019104070519916964, -0.055232809979005926, -0.013977924201130164, -0.0005340028726641305, 0.011944989194169725, -0.030889929813159783, -0.02441454685346876, 0.01665409051642312, 0.0023411757121670875, 0.029412930632900427, -0.026887893539080332, -0.06075182046833248, -0.034328954793504916, -0.014629888201241146, 0.03846351782003625, 0.017576257086696908, 0.038620368988463646, 0.023776844543443948, 0.0786160694032565, 0.017557088507991314, 0.007088090476408055, -0.06334467042451487, 0.03835763144288588, -0.017656351854092648, -0.04233165632750612, -0.05326371755656707, 0.04652568184650553, 0.02048949199251858, 0.0778189151195236, 0.04229987097755708, -0.0451557702297346, -0.05767895212821885, -0.053723236382233294, 0.0378449310134425, -0.06951724504365982, -0.053825895350606535, 0.02565913655751725, 0.0708724453550624, -0.06495668420029474, 0.021126541557740793, -0.022418568935265743, 0.014250733968234147, 0.010871377801657343, -0.018623554001802815, 0.0013922577055178627, -0.029121442692578253, -0.030252965022477506, 0.0008112044065928945, -0.020222577088527514, -0.03953018686904909, 0.0639411132943083, -0.00026992860055382575, -0.04441146641745635, -0.11430094813137646, -0.08766553136921013, -0.030432741239521267, -0.06623073185172122, -0.01659530621043464, 0.007964915887967947, -0.014863331914010122, -0.0706104352193226, -0.05137138956350346, -0.07728955338576347, 0.02991265883539931, -0.04104154990227972, 0.06038962699390172, -0.012189397616592863, -0.03693088395027717, -0.13341013727170983, 0.061683848259965306, -0.04914582739174684, -0.03395074127166086, 0.035923348392498416, 0.035625653352986286, -0.05375013611128671, 0.09101029034218219, -0.037316971923092204, 0.027420184888207477, 0.0250830387721781, -0.0037470499122562893, -0.018015204285673245, -0.09349296724061584, 0.04421238090197097, 0.06936571784428877, -0.027167502058720063, -0.09130072265517462, 0.02507138513047328, -0.0032139713204953537, -0.03618291111307523, -0.03342665076368405, -0.0037861961875280854, -0.0700603826286474, 0.1099345578260381, -0.06601838692019446, -0.008104950449811662, 0.061150357570899164, -0.10280412974418772, -0.01562799466860942, -0.037064391597478916, -0.05755610005239031, 0.009521382104871233, 0.05532935436833754, -0.03082076775039545, 0.06350126946049937, -0.05206278050888438, 0.008799294821538685, -0.03744981990345404, 0.051728579441374524, 0.01994133879860553, 0.08031730100752353, 0.016037406639433496, 0.044789040183808825, -0.04792328770471046, 0.081966641147118, -0.0013584561942555386, -0.013790116458992455, -0.0645673284892345, 0.04906747639432437, 0.03932074190980716, 0.0777962583389504, -0.029760597484615244, -0.09001747849831593, -0.040933985514153816, -0.07707944439882151, 0.04914103599459064, 0.10836866021984735, 0.06165188244237882, 0.01186883986151936, -0.10637690370958812, 0.04442931924670303, -0.038930464543074104, 0.00761154270515234, -0.0424527309632829, -0.03859411243419832, 0.04210734794936698, 0.09588664522979963, 0.015653908336327824, 0.037929907328294654, -0.040578252749254466, 0.1731642300156502, -0.012652375781327996, -0.029527310947036013, 0.013468914905146501, -0.05424126750535744, -0.042306026387498336, 0.03165899615801115, -0.009766193990201295, -0.01783305502329097, 0.017438291913720882, -0.013064257496095773, -0.018676637319337188, -0.010423336710183749, -0.01014128346479537, -0.044910379302147176, 0.000973586224438602, -0.01749937030424545, -0.0026063179932887606, -0.04119748429957924, 0.04278123542548814, 0.012845065542275606, -0.08842575698829538, -0.03103604908942929, -0.09802811012377873, -0.04127540630007106, 0.039592841625753196, 0.054115603440189806, -0.07033720990721232, 0.05899125885051611, 0.05342243142307876, -0.021155399872694915, 0.045709912351374345, 0.07325636675742324, 0.11130283583073494, -0.0048895853613478615, -0.07326409044100524, -0.044224649204400585, -0.02132641421124223, -0.03310624094866074, -0.00032321693662491416, 0.06892825172516127, 0.06501951972963549, -0.05017442119537845, 0.026545845309078515, 0.004380226836575378, -0.09925848758698834, 0.007448732175142516, 0.043735309574618776, 0.0347533395586238, -0.0005763584358973933, -0.06587012289756154, 0.04539873160889721, -0.00180642910501106, 0.01831305525470637, 0.022529745642065176, 0.009730836146135813, 0.026489977550578102, -0.02782079149239729, 0.06609450660781649, 0.007367372146540381, 0.02031877160797384, 0.07199046585962694, -0.006968536511624167, 0.06383152189879769, -0.08075542992409071, -0.04814915564939405, 0.12422930063780413, -0.060884108108284936, -0.0029866987221721306, 0.04764934792568868, 0.037808276424087836, 0.011547615501184596, 0.00800985692413719, -0.058317554049273385, -0.04692387540131372, 0.026690871384999048, -0.0828005584616558, 0.005227787840002771, -0.10247046813285347, 0.014655282550447445, 0.012963684387483888, 0.03933414182672354, 0.023068953934749968, 0.03102044052631228, 0.019674867347716743, 0.011660459395806028, -0.043159452739025765, -0.15108996520588522, -0.015436418428441075, 0.0030507741506389015, 0.021780986465007184, -0.06619054567386654, 0.013764957461361206, -0.02763815304845064, 0.0376282794109656, 0.07140317331964639, 0.03652296256483777, 0.014050014084132215, -0.04148851125544351, -0.025290148768933946, -0.06794609161398665, -0.11842669755518524, 0.03211748060518396, -0.01635404842524641, 0.08141119472202225, -0.06865045644006587, 0.06810925046892616, -0.09341765861693092, -0.0353365669458424, 0.0660828050430286, -0.05134478991594528, 0.12619108013523703, -0.00601026825956992, 0.09506470773149145, -0.08433789358999247, 0.10079712035092737, 0.010086400103181098, 0.06031847394024674, -0.04077622422472629, -0.037399006497636195, -0.08526823571336754, -0.10563383716704298, -0.029593954037245913, 0.04632645620252428, -0.03369759398949431, -0.02253475794950472, -0.04065201906695931, -0.0260549001084469, -0.0019672357670928167, -0.024995454070722987, -0.0012447850898944849, -0.04183891945746527, -0.0018474442169270162, 0.03435958261541481, -0.045454744480396714, 0.042444195570940216, 0.0015432584574926198, -0.03529548639637799, 0.02638348097253683, -0.0031355699580037275, 0.012145404822873098, 0.05943376594999971, 0.03047256778809916, -0.11660999578515048, -0.04386461102122672, 0.002976624269445678, -0.0037275333350955363, 0.06626042223053626, -0.06216154472605841, 0.038277171219210225, 0.06367042955021603, -0.0370731870713316, -0.06377913676063465, -0.006605034512762317, 0.0608338616487339, 0.09158042874787019, -0.015289197803494168, -0.1112962301209679, -0.0012108445823311442, -0.11429880677180068, -0.029415157310178085, 0.06317812672227432, 0.04993062171152647, 0.03980195507112526, 0.014159381321497926, 0.04535927109848878, -0.029343121465769274, 0.005129506905642346, 0.009267791061664359, 0.044051815878500475, -0.10440387427999705, -0.13988585932816608, 0.04368198044585625, -0.04879133656342828, 0.036965919898281796, -0.00827878638919352, -0.05894253428963618, 0.0923506730385019, 0.002801288007348453, -0.048887673500063275, 0.04668580199259311, 0.06365644673806423, 0.019473301949764706, -0.08370778966821732, -0.03732093981537925, 0.06897813891751209, 0.02293318415621011, -0.013144059878059585, 0.05827421802654504, 0.043649284024184554, 0.05512160709502907, -0.1480028566198429, -0.03599490810336694, 0.015096015396361776, -0.0356238129368971, -0.17633130920367932, -0.12245991251708185, -0.013379625953115046, 0.07044582601505753, 0.03647240559878547, 0.004338057457941307, 0.04141791491219019, -0.0004478564803243786, -0.0036307679064593503, -9.945747901082559e-05, 0.006666275237953806, -0.014800548486957596, -0.04121529702308513, -0.026959342883977628, 0.0332568136825752, -0.02569512892542633, -0.02911052644655234, -3.187329319926213e-08, 0.0284674157796941, -0.04948348428749689, 0.043138641874591925, -0.05692695282338997, -0.025244723079947986, -0.05360680349303204, -0.05717528138360767, 0.0030573691393679485, 0.007301478968944875, 0.015058401288163933, -0.04133197732330969, 0.01828365915543903, 0.037823271225183495, 0.04411175715735508, -0.0067019182785013134, -0.0018833873792058725, -0.0010775625226001743, -0.011441855970865614, -0.021927468314048706, -0.007480036149111591, -0.01248979859174808, 0.01572407314226081, -0.037890665991517455, -0.1007053925800666, -0.09079867091194356, -0.12018033352994352, -0.04878502596376691, -0.015844940856607315, -0.060799649129963294, 0.0015937793331083966, -0.03322318232525721, 0.0460042742478406, 0.046088108046667034, -0.027730884129040886, -0.011084110816810001, -0.0679572989590069, 0.032388800126345804, -0.053787485953441565, 0.01997443162405579, -0.04744502593181812, 0.05991728275346817, 0.014838365311207777, 0.0589504380176918, 0.032159858644813896, 0.060165769027494084, -0.045261055543598425, 0.07118694179242345, -0.046158670076273715, 0.016277456863516844, -0.0742323146247774, 0.02584408574382534, 0.01230097374656222, -0.04251480351825635, -0.0039196587666199415, -0.04609551085605797, 0.09199389293852761, 0.003582372764018831, 0.02096927926487678, -0.007101758869704184, -0.07079958146429445, 0.043026337988806784, -0.05061973028912938, -0.07098526482796445, -0.023653235024702013, -0.010691098413922597, 0.011057083080364249, -0.018840337001410946, 0.0030972678658551744, 0.00020014410304162742, 0.022974854039872056, -0.06288686375925258, -0.037585056507216455, -0.035485153888656217, 0.022169674460296752, 0.04229051211521895, -0.064400549642359, -0.08880577431993009, -0.10913501043653721, -0.05679106179348106, 0.10365655738523673, -0.07654205361537153, -0.033241485423480696, 0.03147470351278943, -0.07906892843798358, -0.010020694929075489, -0.11493941727444466, 0.08222250731122799, 0.026594671536288292, 0.02273104808869669, 0.0684324481379311, 0.003536728412530879, 0.019046682132775914, 0.051673798441140804, -0.014452240828805514, 0.034685768913662915, 0.08569110172713754, 0.06832262832850253, 0.03683786119598253, -0.04468194553252099, -0.003947410516558608, -0.085548790407851, 0.057244997755770265, 0.016333625979799066, 0.05205563668183198, -0.0011246218696757137, 0.020789813384349765, -0.05348272004029273, -0.09930174142960202, -0.054259052630735743, -0.10523746649078944, 0.07392651117539602, -0.055013051978070694, -0.031167907187901106, -0.048122969189946706, 0.04010598857871324, -0.01850760387998298, -0.03661213520861807, 0.006108840745785045, -0.038886825459280995, 0.017830890402892263, -0.05850532266384022, 0.013035366198992962, -0.01874303351630338, -0.06938489091036451, -0.07096994376879674, -0.0023177761804933387, -0.02505460138824138, 0.02076383955875022, -0.09483827780700116, -0.06673105015013835, -0.09469341933148524, 0.04900768909288775, -0.022983657535898674, 0.023811057981315997, -0.05543271985789982, -0.06217488276908633, -0.035252621960604746, -0.009278828389923647, -0.009316262733661203, 0.05499946485778298, 0.03681238544892922, 0.05774384943607723, -0.027427448814713176, 0.04607173527997564, 0.01150131709560733, -0.027428152138399973, 0.035252191251359186, -0.005428538407782415, -0.04318287755543739, 0.08820145956800274, 0.04803494007819398, -0.07610436000490149, 0.02908391567641153, -0.0004932186243423273, 0.014376992606356559, -0.00882462646992204, 0.04171017227422175, -0.08683852664848746, -0.09549135903490776, 0.013369873387983214, 0.08527476558842362, 0.03973590326427508, -0.01396693899333794, 0.0690302359291611, 0.002124884107104936, -0.043541381704743226, 0.029839754449856027, 0.08488984019537978, 0.000128756174825771, 0.012189269005466347, 0.019269371226993667, -0.01444825866948065, -0.05563239065391066, -0.07764871954152557, 0.08398563352104536, 0.07244493328027027, -0.14499618492532687, -0.04142315504456447, -0.014129721175617836, 0.06682072715613163, -0.01613426602701685, -0.010425297689788185, -0.012676804989743405, 0.03377242682259178, 0.028591141673631793, 0.06867222655710513, 0.004387533357900238, 0.08640484944843024, 0.02063878969436798, 0.014562599440764993, 0.0638636456150604, -0.011604576653195113, -0.02778772058922551, 0.05042019390075522, 0.03358649615802438, 0.04197578131404356, 0.02042450428383245, 0.011882796762929897, 0.013873489156347122, 0.03766730741022893, -0.16620363611811748, 0.0015434405073783454, 0.017846151678540242, -0.043240821632588945, -0.008867902144921879, 0.02969756288027852, 0.033214715353569985], [-0.029664134923366507, 0.11573884999955378, -0.05301217067818961, 0.005692786724817463, -0.01280366849932911, 0.00034380568565839186, -0.029647455651610876, 0.07990356906289249, 0.05537001169122948, -0.002679279533366505, -0.09788600642948221, -0.025170305153331865, -0.03064770647186821, 0.020861970190869328, -0.0031223098730720116, 0.08782139508858446, -0.02351440070470501, -0.027874404167925224, 0.008002458236444117, -0.008354510902679546, 0.009970502921600373, 0.078920470475652, 0.03510153572500172, 0.018269088674362395, -0.05755230419685811, -0.010938971179402306, -0.01088216777342863, -0.01406335342157267, 0.0458924000316774, -0.0013903777422143839, -0.0249881560154824, -0.04242018151839645, -0.013614310377648948, -0.029163860352436434, 0.08307448087336075, 0.08456255070935106, -0.03929244118670854, 0.04527136748870444, -0.05330803145249053, -0.05946344908102007, 0.08279121463682358, -0.045610738388192386, 0.05906467151609018, 0.021750242417111366, 0.028474128755467003, 0.032064091756116894, 0.02660963704393958, 0.08577662511944452, -0.03621967729921716, -0.07690140822171128, 0.018563861835569243, 0.03798094348666276, -0.05271889327017984, 0.1318768759049943, -0.029965242722120197, 0.037276934042483924, 0.021447979916844828, -0.11238893195020255, 0.01341947723746446, 0.005401418608622519, -0.02167962942842997, 0.05674212846413028, -0.021619728545778743, -0.04325639634126213, -0.02359088389293054, -0.08754133929109748, -0.0193589577339613, 0.025056759023802697, 0.026699926639760178, 0.05422981741066349, 0.05014878861735393, 0.0500794017362007, 0.042700238563737815, -0.0066791409307735165, 0.042190069258777545, 0.025505600411875586, 0.008258383106594318, 0.1340208754785577, 0.11531341079619935, 0.01502730434268968, -0.04372532765994144, 0.07488808181065694, 0.12201572903913138, 0.030991354971789512, -0.03634095252021528, -0.064325113765059, 0.015312845164417692, -0.04446907723935167, -0.04048062883421925, -0.011996487185103374, -0.02954219545737577, -0.0783427222249974, 8.161504678647159e-05, -0.02814125603862691, 0.005098289859576778, 0.04760953635707452, -0.0101030109976814, -0.007830564567687416, 0.018075532725976295, -0.008455021722356699, -0.03507968709548835, 0.061803727747752536, -0.0001535614259386625, 0.024642238837583978, -0.027529033233141376, 0.09325067955884395, 0.006910766642745779, 0.02360847489304273, -0.01313672861365694, 0.03700430630658622, 0.04703336563350058, 0.02837761646188634, 0.08261090076491526, -0.07050090452321976, -0.029590704847997622, -0.03122723679760179, -0.07325946136429343, 0.019058051697479768, -0.024309430936603055, 0.04128316547484176, -0.01206796937719173, -0.083854146172372, 0.015985517624259798, -0.0795555441148987, -0.025622075290123912, 0.03305373352260109, -0.019414927759790576, 0.002364546068020088, 0.10465596572926732, -0.005417029251283838, 0.05226358726334268, -0.007466206973596803, 0.030399886693825474, -0.03171563176484422, -0.03598381973738447, 0.012102246290803385, -0.05533453720574607, -0.04216343148944189, 0.04969455138114816, 0.00947161562441493, -0.011188639379480584, -0.06330811605957348, 0.07459765944489775, 0.056743602456059576, -0.034352709556075965, 0.017276089241428486, -0.015173735037805109, 0.062542111505795, 0.020010185711499345, 0.034316593464397534, 0.010232557539740367, -0.0011860547946263905, 0.0022529827129663177, 0.006014931115356689, 0.00708924190572227, -0.03635883704275669, -0.02232159409410407, -0.027715837568635354, 0.05434452431887406, -0.02193914970790651, -0.013871193637416904, 0.06237015042697691, -0.04915053074479129, -0.014763455792044319, -0.030219120719792956, -0.012609270391846863, -0.01947191686068647, 0.050642093802340755, 0.06786175459805013, 0.0197265461994482, 0.050892871307574, 0.08177121061406169, 0.02600239974822123, 0.007516311789775074, 0.03989291260375821, 0.031839228904880605, -0.08391268248803439, -0.08237584456938672, -0.07945975989527629, -0.06542714081944814, 0.004167238828098634, -0.01898731830338094, -0.037680696667543916, -0.02460998311585155, 0.007449170557483906, -0.05024625533110929, -0.024508157460898097, -0.06972114371031606, -0.02113165354050259, -0.11898841969181462, -0.038895291700075094, -0.005440750865168563, 0.004790089511566401, -0.009040824553400238, -0.07692654937316676, 0.01671055303210248, 0.06347338497651443, -0.024797798309277364, 0.01565135390701627, 0.054164517517550304, -0.018347871227916028, 0.09701482177703273, 0.029369128122578417, 0.05005579802785174, 0.0835583906959419, -0.034151787106930113, -0.019042400779704784, -0.021243808722413656, -0.10942425998422348, -0.031149847338255925, -0.07239992685835095, -0.051744029261164684, -0.06850449370389713, -0.09284370184926573, -0.10526995378188056, -0.15336330062947373, -0.11678500596628227, -0.05713767399525837, -0.03074798325710257, -0.14195676823871592, 0.067938920264159, 0.03206470180049582, -0.05934911345229371, -0.051035508457391444, 0.04358521024018788, 0.0417693566460882, -0.0422794138793866, -0.0011202582372672563, 0.0900822309144836, -0.08036122886456924, 0.08583388795103682, 0.002520424153933489, 0.031198905227391167, -0.09743696041743465, 0.02951173771116298, -0.015459090673108616, -0.017273016052545036, -0.03132287958413184, -0.06517225005601772, -0.02009405505085887, -0.10959888954157113, -0.012285673951307892, -0.09728409513646721, -0.047751907031634164, 0.027005174966038048, -0.02056129560725948, -0.04423297873367336, -0.03926539549504914, -0.047725491021910746, -0.07361005259722878, 0.060898578030643316, 0.02902772563871411, -0.05168252300957563, -0.04742858045744912, -0.09790597907259303, -0.08218221704550448, 0.02696715826108897, 0.03359543156359137, -0.0035583113842677628, 0.004324026871548497, 0.03702843187579178, -0.09065371853901714, 0.01525360659021599, -0.03748412052338769, -0.0174554338759998, -0.014066536809176178, -0.029500102069121792, -0.03667639173076707, -0.12107767572850162, -0.003336563370133533, -0.0798513882671423, -0.03751448444333535, -0.09495337986883819, 0.0016160467140528554, 0.013629008918810909, -0.016852666395583384, -0.0034850663843642095, 0.014800458202495516, -0.08464288075218399, 0.039759844398822464, -0.07913429757972756, -0.09841635091478645, 0.017809929028922405, -0.013063435472710496, -0.08138374550663355, 0.056345572266553595, -0.01426979773860025, -0.018481136686343644, -0.004372308225203423, -0.010737884131339328, -0.06087639155405201, -0.019938121846226484, 0.026831637559073498, -0.052102268461629686, -0.06668043687243481, -0.005068655406651866, -0.01524855601670286, -0.0458989434239574, -0.04122943717553288, -0.012446503146943112, -0.07403507360825246, 0.019641872696018154, -0.029048716192559502, -0.010086562252807364, -0.12281894162560525, -0.03293453634531506, -0.02994773254973714, 0.05335258341150542, -0.01945613937120499, -0.0020865607133230242, -0.006252349092459457, 0.020337834862409053, 0.02138642212861553, -0.06064143916240146, -0.0625865524087078, -0.024497262813641993, 0.025779893464611223, -0.06552647967297065, 0.0034650285751245836, -0.016851710899341992, 0.05106825751461483, -0.07640362090413642, -0.0005472363330002912, -0.07350678585625156, 0.026171795246396453, 0.05691416381710997, 0.003843715309568856, 0.003467594037493233, 0.04046669887111461, 0.056074436584663614, 0.018979740125252213, 0.034160232331708666, 0.019279118739684683, -0.039867460055105594, -0.003937087154871654, 0.0769694440713494, 0.017465158864876828, -0.021541079707615596, -0.018753347136724354, -0.012018007730111292, -0.04750376735170428, -0.030129675268260842, -0.009652593120399733, 0.022073997836365072, -0.03879964112007403, 0.025656168043721058, -0.02685706062998434, 0.03116545090544145, -0.07712567283610645, 0.030177777899923052, 0.004728325690786653, 0.0016291100103048178, 0.04016128655356607, 0.04664408761782768, -0.012556107012408108, 0.05321010975741002, 0.04299314347191608, 0.050441093325603266, -0.055626574943159125, 0.07168545243726211, 0.031033192615529986, -0.15382810620330498, 0.08915868266848057, -0.008303490917559879, 0.007520398266824962, -0.03251635866059835, -0.0761973438712306, 0.0012695857179735868, -0.0024806817082686735, 0.0077224840995341664, -0.0032996331465124738, -0.0889013450512814, -0.039555807017234594, 0.049183847120685964, 0.034721094359320054, 0.0736732236485465, 0.03623302363476314, 0.032479650155218295, -0.005169483680377931, -0.03195721308944686, 0.021283837267591612, 0.06793986954485542, 0.00926471028276644, 0.10525029917766703, -0.05431769380521197, -0.017226785746783428, 0.0752337753609556, 0.14545235369692433, -0.01588763286029408, 0.03516323721091433, 0.000666137838670008, -0.022549867906596098, 0.06614904321580345, 0.05152621327164167, -0.011265484331158848, -0.012456216414440866, 0.005720908530331418, -0.0015188555990432793, -0.045546850620216794, 0.0175107160425259, 0.03800167713646367, 0.05938493293571161, 0.029282962868806488, 0.02137006453049447, 0.07379584531362673, 0.036541662882859295, 0.04560069418263029, 0.05636894337793657, 0.02133218668869543, 0.019408135404812916, -0.009645420977534484, -0.019852463606338126, 0.05005197577570031, 0.046834040883406675, 0.02510926513874708, 0.04762684265811903, -0.04101547660955744, -0.009432950826339966, -0.030053494853237668, -0.015512126409353323, 0.05978275690556237, 0.03244053505738964, 0.02287953454546784, -0.005267819913695758, 0.12778564633764775, -0.05505337280472232, -0.08273628825750579, 0.0678476809946234, 0.05351732135566296, -0.07066693765442661, 0.016338949904548133, 0.02102939848770963, 0.031640514056716994, 0.016985468975798203, 0.002438638805988311, 0.04420732955644075, 0.020432341377101322, 0.007681521658237897, -0.013006137504392678, 0.044941003737478946, -0.01074422967431837, 0.1205129865440179, 0.06787685163486931, 0.02311178643483282, 0.06189497468716609, 0.023621557064957284, -0.01581966762854677, 0.0028183816438812673, -0.05523938231599819, 0.10386299139256258, -0.007616998541408026, 0.027382458422220004, -0.011384060054927397, -0.01009161763787339, 0.02676895477873134, 0.008633972064402005, -0.04215061816635434, 0.023124399254958607, -0.021385246765261417, 0.04649724460109193, 0.057037728364743336, -0.07630632367297166, 0.04684696615497182, 0.0407011173445597, 0.0369792890030158, 0.09823147895796219, -0.023149707784637333, 0.03482698134803844, 0.09499145203751615, 0.033123448302876786, -0.02154757665566684, -0.04107702981133122, -0.0030427997173609967, 0.01703581135487154, -0.1274970731531713, -0.021112849863355255, -0.01184888137303842, 0.004842842650067554, -0.053855741414627366, -0.02835935864483986, -0.041857556331198684, 0.014436089522390243, 0.018837951538886462, -0.04893800810217384, 0.08253761711172651, -0.010122000505065499, -0.023216780366170073, 0.0638697877219197, -0.014575050990991299, 0.08728130350356995, 0.01088725667224071, -0.0020909477420719114, 0.025366515881937148, 0.042616658728790946, 0.044416257622092066, 0.06141211644491251, 0.032904091186578395, -0.009627655625747718, 0.01118350501717192, 0.08426377541352909, 0.009395200444029972, -0.07042556625758112, 0.0948431980343855, -0.010428321008674806, -0.07611286606433354, -0.030156471177815745, -0.013187661338852106, -0.02154067641859103, -0.1421103436266645, -0.03544578083934088, 0.0720552990512301, 0.060814110241248116, -0.024876157283408935, -0.01837796525197571, -0.002590593616056292, 0.046207547316715114, -0.005202598064377222, -0.052341570652501425, -0.003954166158857146, 0.005032590764257395, 0.04985039194064676, 0.009227599188186287, 0.10607736707365507, -0.03006860020719469, 0.013091495014830559, 0.003529909892097894, 0.049817975439097974, -0.07121126215784054, -0.04133045196085279, -0.05806950872503079, 0.000745423441351202, -0.08031538022409201, 0.022638181788473474, 0.04523147314822995, -0.06167254304377255, -0.0002305080703098831, -0.0319998470201507, 0.08682457333595626, -0.08961801098317558, 0.044722214136221, 0.006292629781891539, 0.03486149259884003, 0.07397031486485103, 0.014134062507168376, 0.15963750853198938, -0.012810330541840585, -0.003363404033046997, 0.015614613301549446, -0.0005027411469922678, -0.05324348757019855, -0.0197789136831793, -0.08639574417979426, -0.023531910167399597, 0.018135043471813557, -0.10539925269044458, 0.020819091581212854, 0.04996224310715129, 0.00037182684831120065, -0.042242096908987524, -0.05513662960980664, -0.012966860136368441, -0.047652921240594275, -0.020405179351265637, 0.0005333765947551299, 0.05387437597731513, -0.04017617160686842, -0.03348166853472568, -0.0323456438310121, 0.02307388123439641, -0.0020873977975002286, 0.02058086818177705, 0.04191721808722326, -0.019883629156683052, 0.024917194191461378, 0.06167780057767341, 0.0402873864782743, 0.03538380354766796, -0.004873489113916195, -0.039184561911409656, 0.010673316379611383, 0.08043715578469418, -0.0016542259123935898, -0.004538327145568097, 0.1210768624310037, 0.013928821618265351, -0.05403593785585804, 0.02333411715219455, 0.01398383601589954, 0.05678602326865959, 0.0032311461087941922, 0.04157314091100726, 0.03513890899906433, -0.028459138092763674, -0.028865573906251416, -0.048856721157670126, -0.03709250253303666, -0.03372733142525783, 0.05905323950754543, -0.026555431767034177, 0.04656943938105492, 0.035538899376632196, 0.08792452102323813, 0.03659294960079395, -0.01246665715702919, 0.011223195421882395, 0.016849030837820852, 0.03400626710997108, 0.0277109573569545, -0.08692267469926752, -0.026666646777154777, -0.02274868780415517, 0.0019992925858950427, -0.005557294527294489, -0.004352408286272899, -0.02369972354761059, 0.034180387808930075, 0.0013676242588888214, -0.002008665648927776, 0.013515205260739674, 0.0011101945752575962, -0.0538716833909612, -0.07836001068006034, 0.006358090460160242, 0.035409855932759776, 0.003362671176075083, -0.09231518372911914, -0.007093638764093531, 0.05825879279051288, -0.06362055644460862, 0.040579705697749185, -0.07475201656313689, 0.04082168091588917, 0.018180952206974257, -0.03201693068626522, -0.054144036919218645, 0.003964017922989032, -0.0360616129376489, -0.01761013184833835, -0.057005567052134845, -0.03531717665505444, -0.046545769335123076, -0.06495558881044385, 0.04632811620584701, 0.002884600602870821, -0.007027942187553036, -0.0255015157098219, -0.008941146980782829, -0.04136471301358645, 0.043314377031761116, -0.038848105021884065, 0.05536731761301855, -0.05983224139981419, -0.05957584555002228, -0.08803459234614043, -0.02566553627623598, -0.09583885136780483, -0.060319374643397185, -0.03275382298134707, -0.05785742109318714, -0.040718791624724346, -0.0812813774653558, -0.04155583282186471, -0.01798744156660647, -0.09439611191988483, -0.06357921899004612, -0.03175424483553006, 0.004602499423245618, -0.012705599056447138, 0.0006947639980219917, -0.002486246799948774, 0.01342791376928153, -0.06499676374660752, -0.05931994660070079, 0.0688164349854711, 0.05226535849500308, -0.011249705282289992, 0.019220353380324365, -0.08825524820287249, 0.03411504594719651, -0.05511205131898848, 0.02731461430321173, -0.02516583611350064, -0.0014456089802702685, -0.04002304331377322, -0.013769680993149222, -0.038634243929690205, -0.044631990816863025, -0.01808607298112847, -0.07374567366549993, -0.0315252295566269, -0.08701645074141982, -0.009504717346151319, 0.026897999399728367, -0.05295070375243574, -0.11029142636516794, 0.002214700164231668, 0.03799748219232297, 0.0665819825393023, -0.09416797393341371, -0.06915300668683619, 0.030604546177748715, 0.016542010682316723, -0.01801268464831344, -0.017679901453249724, 0.010768712580972594, -0.014941587763708415, -0.03463551129745949, -0.0519796234455837, -0.022382477258995476, 0.014623271048145217, 0.03151318873094936, -0.05238893156350416, -0.060642288901838655, -0.07855494036652189, 0.02284706665113256, -0.05192026754491088, 0.026267295450476822, -0.05954073256847828, -0.03070941371750951, 0.0767130893356803, -0.07489880282602067, 0.04631316218059895, 0.005303932201931204, 0.026217429842890366, -0.03724070178769739, -0.029241994587155543, 0.09473174511774606, -0.005938802889196065, 0.03137563894438415, 0.03148630177962969, -0.010544032909789555, 0.07261223603725026, 0.03711244349152866, 0.016647980935561243, 0.03898621590882537, 0.004223620462019936, -0.06548918850484413, 0.010325037340358416, -0.02794467498289527, 0.0017719642645713384, -0.05710128488048877, -0.013563158542650704, -0.05557860011993269, -0.04142318464999838, -0.050079738516990796, -0.014569175063748946, 0.02426311884936313, -0.0008395911212510492, 0.047484313989572036, 0.04748368992604378, -0.017669077384495826, -0.06739172037132705, -0.00205079044521099, 0.012360304973480136, 0.11100377389815783, -0.025280866083613907, 0.05635534281104751, 0.04866282850937925, 0.007331534772912328, 0.02698683240732941, 0.051252213285212976, 0.007532296312452643, 0.00839427757432193, 0.003291974774761488, -0.05783639951303239, 0.07926070851777961, 0.052243281326448385, -0.01507189445719664, -0.04466581532673271, 0.0063840835048028345, -0.017612029409760487, 0.02248788614839352, -0.030894576139068604, 0.022648769388265794, 0.05723709837384134, -0.05508386798241849, -0.043570078537714975, -0.07460741066302704, -0.027813598452437242, 0.01288639978105123, 0.011155101698577898, 0.06922046594271157, -0.02517073506345313, 0.024755671587162395], [0.004251653929943397, 0.001102300956874473, -0.036184240456343594, 0.055793046800160784, -0.0714906964353901, 0.02757652912825233, -0.018122579651893563, -0.006194096716464266, -0.00037486125923399347, -0.008536855173723336, -0.033301376564030205, -0.08782392754990234, -0.051739517305105995, -0.07039085769609424, -0.05363816706458998, 0.005378116174665447, 0.013551514357162014, -0.05087401666427507, 0.01093920446851166, 0.010570596655904043, -0.07774059432376816, 0.010172268430676439, 0.07191152415454577, 0.058139655724331954, -0.050555834753368833, -0.017646911868430315, -0.05646407212398852, -0.020365162528102925, -0.037732729446837386, 0.0025873721737807815, 0.02005552297525584, -0.09885920010290411, 0.004097995714581438, -0.010556570621804531, 0.03930280103722943, -0.09726913998759781, -0.0639487030139342, -0.08528829557032101, -0.04395932009348161, -0.037835088830831316, 0.008280124260081088, 0.02254964818937345, 0.03174385810023456, -0.026627795210966452, -0.046293309285388544, -0.012159269966191917, -0.09427332647334785, -0.006087443050327837, 0.06239591233639017, -0.024249998975547114, -0.03389263676604293, 0.09780598597798286, -0.03712144735137672, 0.09181351194089059, -0.003814668908176981, -0.10235466905652926, -0.03942855827174761, -0.03974668682445399, 0.044627981137790436, -0.07554128993359162, 0.0015600944670609484, 0.010126786895529328, -0.018126842523428405, 0.031026241840346008, -0.009059951879484253, -0.05322642436291348, -0.0005478911062700462, -0.0556053198896031, -0.03583237646045962, 0.009684661327247573, -0.05821705386198618, 0.029496688473440776, 0.033771136914373785, 0.01701409806972548, 0.05113538865075534, 0.08306888793561697, -0.020627203981546164, -0.018657256261127315, 0.05612737246835251, 0.017795881934301042, -0.040095450117318694, 0.002726588205870658, 0.014656813458624044, 0.004750505236237706, -0.028104587708012475, 0.026853626667025118, 0.053764313366410466, 0.00898741287647565, -0.03791780791615517, 0.04292948258961297, 0.10983367254448727, -0.05047359359330555, 6.953416144820878e-05, -0.14230952228537563, -0.10640827289389386, -0.03309333217388775, -0.003491143139035184, -0.05883694954284307, -0.011721734320358959, -0.05729215385256688, 0.0111945774595121, -0.0072071379950783285, -0.01908340046063406, -0.00666976003230332, 0.02043360087321223, 0.07915580930150308, 0.0664663609777658, 0.023705740575903782, 0.036932189859964513, 0.11265067928296982, 0.054444980093988224, 0.03431402577571215, -0.06203872553185308, -0.03134633334488709, 0.0343428836621618, -0.0002514825624607171, -0.05112373813470722, 0.04904475273714188, -0.06394751411903629, -0.057901971012752226, -0.05128491165603244, 0.047987813328166276, -0.019644751559446623, 0.06724971214258565, 0.04600137575947649, -0.05031275961189072, 0.01923931299052521, 0.03131472083156752, 0.04675563280172895, 0.06282811366883707, 0.03996838499664526, -0.023909619070750697, -0.0029519269468184484, -0.026007129718447534, 0.005568379471975072, -0.04911139019927999, -0.07621719939284062, -0.085823833778807, -0.07726196967487736, 0.10411439694492, -0.038776189634462783, -0.059173128395975626, 0.03790718705572777, 0.007688152094963164, -0.05900802606869517, -0.0368966959964063, 0.04802796251233202, -0.07344449821331546, 0.02075099095084758, 0.04034725124309065, -0.05100372794296997, 0.055798478106775636, 0.03455646338109443, 0.0333141346912647, 0.06551113803312382, 0.060076958975562256, 0.008276715892126217, 0.04425720136016461, 0.02844500705979032, -0.020701285444230357, 0.058904090821745414, 0.05107536232746215, -0.002747419175864853, -0.03730363969000233, 0.04667483087138019, 0.03115068143212568, -0.06109187863779522, 0.032978818139606667, -0.012099951084058636, -0.0009969238421941142, 0.05167572739170131, -0.03369672706432383, -0.045358091076542026, 0.036927813932987816, 0.07264950345954589, -0.1046281122368694, -0.019209021514171268, 0.028820650516079963, 0.06442563608447797, 0.000906347771680051, 0.10850296515893393, 0.04061752586013987, 0.07578262467612744, 0.026177364667106805, 0.05392880860468876, 0.009556863552326713, 0.13040722379668712, 0.08522539048798032, 0.06114347245319168, -0.0600331028844457, -0.025782557996660443, -0.010996722623292848, -0.012117959277129798, -0.02933283248939554, 0.02836003780802301, -0.0428537591834571, -0.01243065760368908, 0.03902555173326718, -0.04602406558625471, -0.00852121184855573, -0.009252262176353707, 0.06748642571732645, -0.04500437796389481, -0.010805461457570444, 0.01861347655707327, 0.10432325113093421, 0.09188958149651845, 0.07429928856224893, 0.08639919289651192, 0.09251598908390421, -0.017201514774798553, 0.005006576243816703, 0.06015098539137467, 0.11211702125702412, 0.07928882428533203, 0.0793260602884521, 0.08069644399409777, -0.010824721019871161, 0.039637521708070965, -0.07004737599647694, -0.0761887269275181, -0.06294636586757703, -0.008912907291729359, 0.020069990646380535, 0.00776323303243267, 0.002058149511263932, -0.09514958648498274, -0.0016576762225011987, -0.03374164844520294, -0.04528750696069603, 0.01453329576914958, 0.016676716617434046, 0.06864630748897778, 0.03486088124897484, 0.08817192753523675, 0.08318328556789936, 0.03645452947501249, 0.10710750772173541, 0.018445770712289453, 0.10415237959762076, 0.13079108091832706, 0.05038452329378806, 0.0438906170485832, 0.14925553718796342, 0.05069550193218251, 0.0791571215778719, 0.06077471620826243, -0.02783059176458497, 0.012391050321080909, 0.04773599214114884, -0.08999789089763766, -0.11565426906506679, 0.06983413830115086, -0.06134168415505045, 0.006085619891896155, -0.05297496557079047, 0.05390989512018628, -0.04643220403524704, 0.018173699468259703, 0.024380734937708416, 0.013582262301218508, 0.07237706088040974, 0.07455612113316379, 0.059879081753636224, 0.0911995844471103, 0.03400378333591808, 0.055576163302431085, 0.020087143492989738, 0.1271471488296807, 0.08397854654711721, 0.02734730266426717, 0.12242966288053415, 0.03257779765177818, 0.0024595057887765205, 0.04903420845830504, -0.03941722064603825, 0.11895268268194166, -0.006252347624598704, 0.0339051837788674, 0.05857402515332708, -0.02767509464041585, -0.05911076196083792, 0.011548890111130998, 0.041484697845648816, -0.09532206274836992, 0.0539301388749297, 0.04380551794492254, -0.0079686817218602, 0.10535826347716433, 0.03317282865546593, 0.05892365262237138, 0.13902692361983837, 0.11114235020740185, 0.02427376821906714, 0.03893517392352271, 0.04508187289960048, 0.031452521943041635, 0.04700391495192797, 0.10359339302995892, 0.0014120068816479896, 0.09324230014511956, -0.06251763548205332, 0.08207724732399155, -0.09045052309882891, 0.01844359795107339, -0.03357141766953614, -0.027536772068190822, -0.0711857689460523, -0.06440913728508645, -0.07418648008128187, -0.007506343212294024, -0.054186727243947276, -0.04997514218883465, 0.09721859681705451, 0.0760944826643584, 0.030708481452222196, 0.11336255107256088, 0.08073622652668068, 0.10057200716446586, 0.1624692692043151, 0.06634411463919032, 0.0268813165036185, -0.0056725829987249125, 0.07406053644840413, 0.06347336912931716, 0.09064810110586732, 0.04072133982102366, 0.033823898187715015, 0.07874160379863766, 0.07893608196084012, -0.04125384031851334, 0.01641659634574378, 0.0069179897044861815, -0.029870526700627426, 0.03446617462587883, 0.01166132083534325, -0.03864701400865402, 0.03802844070186995, -0.002055550301715835, -0.08665700888411461, 0.010464273789358798, 0.029246189030982656, 0.04406742949367128, 0.04242138889883328, 0.0934740779394945, 0.0643007033131416, 0.1054932359777469, 0.07658481732021345, 0.06221835672978524, 0.10337191343058592, 0.1430542183890096, 0.10454858202568472, 0.06205215992723169, 0.08319982580938834, 0.14694827860533763, 0.10177135723435499, -0.020391010428409437, 0.009452643131236796, 0.06889792625049358, 0.007790536431956879, -0.0447879887233764, -0.030540001939150994, 0.06068012555625149, 0.07050548978819447, -0.07356165572512534, 0.09980622355386133, 0.0010772823410331255, -0.09457266563184943, -0.02230684362491728, 0.07116123039800179, 0.05105730237795178, 0.07861757312535138, 0.17144207092335453, 0.13423266356356992, 0.15720692511299958, 0.1093380275493509, 0.11157352217610794, 0.05545789851261872, -0.042730470645763644, 0.06739171381723273, 0.14130293392188475, 0.10842203681143742, 0.053970476101242594, 0.10372686204691922, 0.14801940114749304, -0.003746217092425938, 0.03093717832658805, -0.10903631396522535, -0.02056501753206462, -0.06792576749802867, 0.05039566073243027, 0.0528126035682113, -0.027255206688455606, -0.09162375624573503, 0.025926134138535818, -0.1130299360903703, 0.0018812316209229126, 0.05957914822548004, 0.030936420117601313, 0.002404078538440254, 0.059540332321716224, 0.06639022129979522, 0.145604285236974, 0.10993748694901789, 0.02502357680340563, 0.026537960251327288, 0.040071239023633784, 0.005937798874770628, 0.07174301574666943, 0.035181805307365165, 0.06466269822443096, 0.11580878662069478, 0.06664350831844013, 0.058581814245150673, 0.0038843458155549695, -0.014278002656924305, 0.03268811480346566, 0.033265366298845786, 0.06317015640685822, 0.021458344338165878, 0.056004755661559366, 0.07305516434882126, 0.018434953774020775, 0.11748772290533815, -0.008642380776654524, 0.03316550777389298, 0.06570159563745402, 0.027894289946945924, 0.13288588619852568, 0.12394663457345405, 0.06249383785393788, 0.0772093763605358, 0.05596423984780527, 0.005237824234760992, -0.008038275196456675, 0.1022852917869443, 0.10730275336499862, 0.13490161557191271, 0.07790150968843788, 0.0388214586414058, 0.0023594284398678698, 0.05214525928368199, 0.028259862162627436, -0.017625971138945536, -0.026733826161317982, -0.0672067133134821, -0.006411937434110957, 0.018698350455351148, 0.09622279005216364, -0.03374250747353572, 0.01984186441449811, 0.0362977956710783, -0.0442844697386406, -0.01121002106654699, 0.04930880968635441, 0.09486751549858344, 0.06465925032925035, 0.12368249166846636, 0.09928047220041976, 0.11883061524302145, 0.07154307470932209, -0.09424532067211035, -0.0355817091963288, 0.10052371609004816, 0.1669384069372824, 0.11645456039743043, 0.011368119746766835, 0.022933076769921023, 0.094584443948209, -0.0052868776765439916, -0.041723790300429886, 0.05585904119169006, -0.02502809705615196, 0.039701730845104886, -0.044569095272789745, 0.04506927863797993, 0.022558996202296837, -0.02109702455847593, -0.026848684279282956, 0.06068772762419708, 0.003384751852823821, 0.03065005509337703, 0.1092698197963792, 0.021826769670225083, 0.10035825127945083, 0.08177504993134617, 0.003321124982655887, 0.0407129370696113, 0.05251302233976904, -0.01734337253445946, -0.010969037793440705, -0.0008031100979722305, 0.025039222607764613, 0.13027810205234017, 0.04194153134266002, 0.0458268166942354, 0.04311899347518238, -0.11389682873064899, -0.0356620481742857, 0.07394437446557464, 0.0219419866461014, 0.04513844783611663, 0.07140109521950223, 0.07677830944397818, 0.02883486092545618, -0.0013011593047051043, -0.026324854555384483, -0.06935052799431236, 0.057450464602008866, -0.016835778578844128, 0.07434527610095275, 0.03608858616582782, -0.025623566304984285, 0.11769183589687959, 0.08600520955047623, 0.08733268396436522, 0.08625166111827291, 0.011786966990905675, 0.0609346758665109, 0.05454784635976502, 0.00963660714948204, 0.014121200621877281, 0.04433235069588846, 0.08175814652236295, -0.023763023762319955, 0.054935603195295724, 0.05506884552833185, 0.006385408022212313, -0.12649954976540306, -0.0035560074691471043, -0.026498071008587504, -0.02323561941368257, -0.005491032644554525, -0.02212773008420136, -0.0622111168070328, 0.053251728544374724, -0.02938135130344905, -0.05054032241267658, 0.027077958155318174, 0.10100765031916342, 0.03308810143900446, 0.065847100647149, 0.10789322821310256, 0.06335044349275121, 0.03335019115954843, -0.005471764135463021, 0.06560753843758266, -0.004114718186940117, 0.04584784980421877, -0.006001831960358695, -0.020217407199694115, -0.048228986406046136, 0.04492453390657742, 0.07744196387837063, -0.0602445908702047, 0.036577610341289264, -0.0037998334830732787, 0.08282791748148804, 0.10439548483178739, -0.004228069933502194, 0.0911674036115073, 0.0033866442045025636, -0.06991833197667872, -0.05294544082139773, -0.08799151832948517, 0.06341654115039164, -0.05446121055529869, -0.026397183118167897, 0.047807112629314724, 0.055229831098921454, -0.07348713526986163, 0.019983420063656023, 0.013767700121637074, 0.06368406943793392, 0.013540827124385075, -0.04411980610293366, -0.002704635162643602, 0.06816939996470574, 0.0798807179272106, 0.06945533381610441, -0.05188942196867937, 0.023479538312750233, 0.11245911481341683, -0.03172606433922382, -0.04832386898271467, -0.027146468956008325, 0.08360531335474809, 0.08079651570955862, -0.014946025215633745, -0.005004341204964101, -0.02409456093632943, -0.06551012294801678, 0.030138347903420133, -0.006820355951975099, -0.025256018863308326, 0.0448007512420918, 0.016184371818003113, -0.008003163521166623, 0.07620430452443243, 0.14392766841351345, 0.10147044447960629, 0.03029189375492643, 0.060551830404962335, 0.047943677758065635, 0.08604877454512491, 0.027812053160988073, 0.04197282303332387, -0.03162996865597114, -0.0319803207907567, 0.1367634464215919, -0.09296208489514797, 0.030078857351744752, 0.01050058725273758, -0.028455522083363976, 0.06044082506857873, -0.0345879324017334, 0.052458287336454704, 0.0395623941448305, 0.025934548163372182, -0.027695634180156633, -0.03015013278229989, -0.033911744657602466, -0.003814413252316225, 0.08365217435241695, 0.11500430466572618, 0.053718111315243365, -0.008672256432544077, 0.07139371662379936, 0.09650282536925613, 0.12866795477365042, 0.08370754962904015, 0.15955828158741026, 0.02614345120558112, -0.018131378699425115, -0.024808393075453544, 0.04640023808134455, 0.01514282751567566, -0.04657546448156954, -0.02082078266132009, -0.06531844360467093, -0.029822872346265225, -0.11371099093818408, -0.004090400581743989, -0.024063220512089402, -0.021454763976100688, 0.022268526394518658, 0.030993563534244543, -0.0046808234845368245, -0.02096315642611556, 0.08182975076389304, 0.002069140570471533, 0.09604191879053542, 0.058660580211669755, 0.043644152533150696, -0.03060413149398156, 0.07956379298301987, 0.16694260188827773, 0.1395231638648285, 0.02716017661436029, 0.049533548287888224, 0.03185800614772909, 0.11846115619992402, -0.08374336739872995, 0.03933441843078736, 0.030825603945524763, -0.023634105002339888, 0.0009355523768705906, -0.10533668377569198, 0.0619328399239555, 0.06241388180628949, 0.027340747091662312, -0.02009894594831039, -0.010881107207929674, 0.010338438886420304, -0.004376042396360338, 0.07230571382836681, -0.00453980060064048, -0.0195244057269537, -0.1035566632497763, -0.06265930642452053, 0.010163674835974731, 0.0600168505126629, -0.019680760281424566, -0.014644754183539383, 0.054560364039166837, -0.008230187174586455, 0.055066912156966935, 0.035610296159648586, -0.05508437338905403, 0.050314667556113885, -0.0770771579331488, 0.09938131668868584, -0.04863740027287143, -0.07359038394959516, -0.013601211834101193, -0.09878056339873306, 0.01703181750644075, -0.0022024311195926044, 0.03200353194986376, 0.06101616452605817, 0.019477874686502476, 0.049236896400488436, 0.05845157674353734, 0.028915551751205176, 0.030953085239034145, 0.0157594863861318, -0.08472914010920468, -0.10652849912250838, -0.08352687547290438, 0.007497126965226977, 0.006840705238651529, 0.03481064036081938, -0.10227971970021218, 0.006877797672657324, -0.051686067653916395, -0.11910245021726802, 0.03508042178991862, -0.10973857567772724, -0.11555827969687672, -0.011553435640536257, -0.0018442390283983806, 0.13651867455420189, -0.0030507592886298233, 0.03575226492580187, 0.020847547217172552, 0.011395828019330955, -0.03718467399084123, 0.07763004709149102, 0.06459030624815022, -0.03406712278582974, 0.01501555580787406, 0.06961640861191966, 0.030261224577461436, 0.005655167182810917, 0.04093330116842639, -0.027155136879777376, 0.02334151646972445, 0.009541604629509171, -0.06695956998200345, 0.08137607465414734, 0.042518829772981936, 0.07473580361137117, 0.014586907672129125, 0.031924667606655875, -0.041873787270558904, -0.01975314017277842, -0.10935376763036439, 0.04573603954323686, 0.010701890124927688, -0.057927245811166275, -0.048520816961542056, -0.008631286694432033, -0.07920312590350997, 0.03800220413411133, -0.03844417998623314, 0.07271708214833825, 0.026494516293389447, 0.03052082528018957, 0.03326972346777054, 0.012592762895646582, -0.04571835510218345, -0.008908181926342193, -0.050145795804181804, 0.060463958472736445, -0.01408742336142893, 0.014067919916496002, 0.028622355940786298, 0.03576135366162179, -0.0343069457341123, -0.0592459020993868, -0.06386721429419542, -0.06624018626407065, -0.07862889811087509, -0.01240476237728683, -0.0437125017216698, 0.004673782299942135, 0.05766119640476749, -0.02798866930489914, 0.020605694050629602, -0.060377444580908095, -0.01090124008592474, -0.03308588935491757, -0.07903212880955687, 0.017727838926461226], [-0.021979296932338854, 0.04005996327116265, -0.047441601250015175, 0.027176049612763327, -0.030003349625042995, 0.08598740708779577, -0.004098056631884756, -0.030794646164573145, 0.0013130488104864625, 0.01686897667246539, -0.007063468692601672, -0.05510675371762262, -0.07818149781696743, 0.048904204182113324, -0.05983709429951543, -0.06856362489195875, -0.03678074444999536, -0.05482076989969897, 0.025430591296813906, -0.031407039652583, 0.040406846937662236, -0.011705754570568208, -0.06378603793755258, 0.06250694780888749, -0.06501562357678464, 0.016202405850465798, 0.05644082292091338, -0.041599267764832755, 0.06404905431633978, 0.04126742931384053, -0.028062657108109883, -0.003911463762980415, -0.03590943610176739, 0.012596387336221737, -0.06682107821779035, 0.035068717136477356, 0.07494006189195239, -0.028869608268988593, -0.02281348466869725, -0.01711028341389949, 0.04946542716075524, 0.02570234027195808, -0.05530515219281822, 0.013134887401672226, 0.020558533066402068, -0.05896906328932556, -0.017129918356390945, 0.018684426881370654, 0.03640192600154153, 0.03188504795405921, 0.03176946205228194, 0.03460205451130655, -0.030673668077424113, 0.0481587464320232, 0.0538411583350143, -0.047324383808818975, 0.024643759051608337, 0.015609204406274578, -0.07804753383226667, -0.07510305704159088, -0.07730730138176897, 0.02753722467590548, 0.03566736135820341, -0.07474910363083337, 0.004722330283380981, -0.09432690340521996, 0.009496875034840896, 0.04643049604642523, -0.05061994656452526, -0.044171934395486195, -0.018840467853175513, 0.11074517278781584, -0.0038667112590321773, 0.05008575930051189, -0.008077140906736405, 0.06936610034328541, -0.008563324152299925, 0.014858203699519746, -0.03869540543045053, 0.03321681320562196, -0.012028136332464311, -0.005272564888844162, -0.06571286722213164, 0.027743506918254328, 0.0315784981364001, 0.00876809588379931, 0.03515787925458905, 0.035528853419652125, 0.06646383009124829, 0.008392385921097607, 0.028681038180175707, 0.03263157256108661, -0.11761467952250869, -0.03899055077913926, 0.010598001438016844, 0.06376909796163227, 0.009795651246253072, -0.08083774748398927, -0.011683858918451062, -0.05580877069174555, 0.03024528271097992, -0.11015910185610703, -0.0316071997261254, -0.009314500563649694, -0.0768291277696979, 0.0017470016711588036, 0.007219957953457959, 0.0532464772546872, 0.1286386478332434, -0.0787335439325528, -0.04397340089109692, -0.021136234790336203, 0.029586649434674546, 0.013738257911922786, 0.03490959509671124, -0.0023401099262411996, 0.004452631678477384, -0.046115198506486696, -0.0028846222823105372, -0.03087448630913653, -0.0070835143422045485, 0.04423747022439463, 0.012220047395618366, 0.010786230879291658, 0.07455550143310495, -0.01871059215072046, 0.051385302369351016, -0.05391957674961401, -0.05929738817614426, -0.005659164233504568, -0.06905594544687621, -0.009805845184075746, 0.01348634281460813, 0.058331417082442806, -0.02256880766470052, 0.028127531021497308, 0.014811772235509647, -0.017575780500209963, 0.039767417627388967, 0.026749355844603934, -0.08390803003972704, -0.05936742212136257, -0.03293072573748803, 0.06134665969378301, 0.0014598624511329035, 0.0010107885187897242, 0.13488780300739875, 0.024291338015498026, 0.014197597622229215, 0.04401065471980385, 0.020004305976747846, 0.0184682379528114, -0.023829761669983494, 0.12026764359728848, -0.0793531040669891, -0.001357328553335533, -0.04496763386280875, -0.07035941704500001, -0.0965193896701795, -0.07552473779775488, -0.049613339792447926, -0.0427004754144039, 0.018504280832481748, -0.006615369953170946, 0.02237338616320217, -0.004883293437464946, -0.012868167528925974, -0.039523921406095126, 0.06399354974621302, 0.06082547113468568, 0.09366024460926102, -0.023085729952242263, -0.06341882041800687, 0.003907556331225886, 0.0004283801393124295, -0.020878651177174454, 0.09673276956692824, -0.004353319994147562, -0.005555556168444161, 0.09343607382396986, 0.034697607193184515, 0.11423427376306454, 0.00737701326510977, -0.037771457386285054, -0.10619544100734502, -0.19128174198060025, -0.01822800305904752, -0.03897093160776173, -0.02491848957380551, 0.01968325373819428, 0.009365156159586595, 0.03913218861154967, -0.005055848493980473, -0.01900276564715321, -0.062470135561747055, -0.03177149636299198, 0.01699342786824184, -0.046689406374955826, 0.06859185552821506, 0.006099012956392943, -0.10789383702905733, 0.029011969308738953, 0.044568311716689915, 0.04803130133105591, 0.00313031932668504, 0.019989570463877896, -0.04979185644155099, 0.10920349884149508, 0.03888024984934325, 0.03179511633108992, 0.10507128955941895, -0.01827269100546526, -0.07269247310475443, -0.0917065790837071, -0.07561709227321034, 0.005437920899050005, -0.038449398016637125, 0.038950866321669116, 0.017054819565001673, -0.041334175171387155, 0.0221980357584567, 0.08285865659677508, 0.024718429267404723, -0.05473267724655279, -0.05460959323831079, 0.05598534342766034, -0.014810992222270593, 0.02952398636346135, 0.06591645898316686, -0.07284930274696733, 0.04515248025486269, -0.06385873882172316, -0.04836915513878484, -0.08824699392675854, 0.05783300639150798, 0.012540511027142032, 0.0913174834733357, 0.15167625601806636, 0.0222741509094041, -0.04893233112274888, -0.07588230639644844, -0.08083761929446155, -0.07164243637860263, 0.06459306071674036, 0.03976474096022835, -0.0166032882722504, 0.002984312218011297, -0.02281018342491108, 0.03865478720006974, -0.04729469527650477, -0.003045798618882847, 0.07363832409959092, -0.028939067952507485, -0.060458252663981873, 0.0659961728476583, 0.04833517861328293, 0.038508226601154945, -0.08464700365863287, -0.05568184658020961, -0.03733083011313999, -0.02580135462597575, -0.11975757986633559, -0.02205281664063206, 0.06593184847312353, 0.09765454183848311, 0.06576412423592684, 0.0492636486235898, -0.0481410535655686, -0.12225733288234854, -0.05693414231149979, 0.0049906251475275885, -0.046377235796599234, 0.025540833308348453, -0.009367740438642701, 0.002285567040094958, -0.07798657165039112, -0.11184567977079765, 0.0654569657817647, 0.061831398400375256, 0.061400737654316744, 0.022082665635423625, -0.03825976235574775, -0.06537852526178042, -0.07171567532171882, 0.029103936556916708, 0.05847157010509121, -0.10907840213064149, 0.04918873290947271, 0.03520251679226747, 0.0052458877345758536, 0.01937142944139136, 0.08135282042011528, 0.03848374715426719, 0.042166532642837005, 0.01688834397141343, -0.14695221087068222, -0.07700488758267958, -0.08658863225158717, -0.05220786245037168, 0.02011251623699002, -0.017742124005399613, 0.0513595219971538, 0.03946726684590269, 0.017071326558746457, 0.04550186953454418, -0.036548627884605285, 0.06178029550265503, 0.020229452263929092, 0.08940538254025264, -0.019663551358761567, -0.14392520160446948, 0.05519854729414114, 0.023169131949002716, 0.00600690728160545, 0.05262990256437045, 0.010694922560769683, -0.06062859322720298, 0.032805814905967755, -0.015995308886489566, 0.08602485039268382, 0.12404917858332726, 0.09321562648446373, -0.024290638753477693, -0.08660847900235709, -0.06563527445487448, -0.015858160572901972, 0.034912788525755536, 0.04749719661337779, 0.027310433087846475, -0.03508471576450513, 0.009529630737767605, -0.04369144025128996, 0.025996961872167056, 0.02513905810873043, 0.05697531147004874, -0.0731551343999897, 0.007382621705978972, 0.052793323429660255, -0.06467100969752071, -0.027451067237648157, 0.017999657752800807, -0.022239222837676174, 0.005298640365630399, 0.05111436111784671, 0.09470156964232299, -0.057936906306590506, 0.018603385969585957, 0.02881377969074924, 0.024825351219648073, -0.03572014583140345, -0.028662715620052372, -0.05161942679014273, -0.03620896837892132, 0.03344876711037563, -0.06248836796951144, 0.06344421146678864, 0.054019881144086505, -0.024633735541284042, -0.025654897634721896, 0.009504793616516294, -0.04844030142998254, -0.018818424591383633, -0.03898612559432085, -0.0139474575456282, -0.08433671286217333, 0.023719650180928937, 0.030343870803808924, 0.06151885825756524, 0.05359270989868266, -0.01893006013495876, -0.05629816136689562, 0.047111805796852556, 0.06791488231378234, 0.05440770889222787, -0.002897284998071613, -0.007920372003801959, 0.05274660606486976, -0.03535348162328631, -0.09750206067481605, -0.002049676088238536, -0.12708616740807419, 0.04077149705738186, 0.023803823265900446, -0.035218385624244085, 0.01805155502019648, -0.08616371203271248, -0.04516078788210285, -0.010833399983783479, 0.05330759727106981, -0.0012568964347741947, -0.02363004570181634, 0.03525431440693093, -0.009729904187456853, 0.05921646748466272, -0.07444779450157267, -0.08858294973489783, 0.09077102773060912, 0.08263262614158308, 0.09353896327232858, -0.06007145609370265, -0.007552754083222976, 0.0036747551794525965, 0.02410333758848275, 0.03196078384794858, -0.011910702889237242, -0.05042896738944151, 0.04467890829208291, 0.041605863216834044, 0.015582914382671639, 0.07311631629325613, -0.06105197565777306, 0.020541172250720233, 0.025704804910981396, 0.0762704195342468, 0.0194359417506208, 0.01604624771045728, 0.017973974894597053, 0.029609163713083805, -0.015606639885786337, -0.006584825397565207, 0.050817550373866975, -0.09851492751068158, -0.04191596665243857, -0.0015659047530791074, -0.026808315332792577, -0.085267141106707, -0.06342968069839898, -0.0018284424971881485, 0.03242393887426835, 0.07235229925757487, -0.08555328536854163, -0.012647088275393506, -0.012762047759440107, 0.06015748464037275, -0.0011318465681029492, -0.06355586050965227, 0.04208253937820834, 0.02036321109476613, -0.05357886443677253, 0.0012124707423257354, 0.020259150598679675, -0.04493114337360403, 0.013571667360996, -0.007296945650588998, -0.03426928312470139, -0.09518129676892298, -0.039363190831827134, 0.013437593468052745, -0.06423536261350854, 0.07351338994200608, -0.0015083195070327551, 0.0325160955289513, -0.001709739265561653, -0.010268896753517092, 0.014817019582787411, 0.04167585264321299, -0.03702410854848048, 0.02517298552785457, 0.0090098602320062, -0.028424311239738476, -0.018986027928542884, -0.05265138161002579, -0.08475338798225654, 0.027109089273243736, -0.017204588753066286, -0.041879754227512084, -0.0450691822691478, -0.01445345885406104, -0.02619395876363423, 0.0006726190858570194, 0.03494127458156067, 0.06254788220616136, -0.001778307260017705, 0.04759098783588241, 0.012940688945577504, -0.027917405808293567, -0.002587985436265696, -0.09925659593501435, -0.10735019464264228, -0.14014105232317545, 0.10078331690754194, -0.02190510286399643, 0.020242141698785493, 0.04211281429539126, -0.0256983041320341, 0.03238765723361437, -0.06581915412590544, 0.03153811390201608, -0.0036737852458965338, 0.06994770678251497, -0.00829174698822953, -0.03459316946974463, -0.017993995914477316, 0.060741322118677395, 0.03921001027828427, 0.053405571270255844, -0.015654727505783027, -0.07706074019881574, -0.000633189651668511, -0.05082095387604526, -0.041604061589204384, -0.036123544117535614, -0.02810028227672384, 0.08837848574190249, -0.006624062418975664, -0.027065645352242453, -0.005687642097308481, 0.0686942453828586, 0.0357120664091833, 0.00033066799859020584, 0.03338455519923605, -0.005566459599028145, 0.009752199182236921, -0.043415301821414766, -0.05453520023286451, -0.07142242957983438, -0.048200940424919576, -0.008396257564035156, 0.10146578360321126, 0.05228778047100452, 0.025125993045309384, -0.007210909434490048, -0.04032229044466333, -0.07086420561284004, 0.013614474818464697, -0.037066251705079, 0.06478983081444853, 0.00032990321522067086, 0.001824701205498387, 0.018378534276090718, -0.05299874478906895, 0.014863858454634532, -0.0173974138585274, -0.038363398162774384, 0.01719506551337318, -0.02214592099446519, -0.059867940032845623, -0.04122071415203632, 0.05488560204836082, -0.027997056225641297, -0.0897194168380498, 0.025043188855986727, 0.000884394202760665, 0.011032458101901, -0.021744212150033068, -0.034144055794790046, -0.07909715154862218, -0.015449158293100715, 0.02620352261743647, 0.0033162716732887095, -0.07022169882663531, -0.02943360616530633, 0.029686780375031918, 0.131862867898387, 0.04191347600205593, 0.012264160804075025, 0.02357884196471555, 0.09931273956830113, -0.007846883547334817, -0.09546050561094006, -0.03469894925764492, 0.040930611727881414, -0.03363211033305329, -0.05513629540622803, 0.0901644216420731, 0.0885544458703844, -0.01492324673508988, -0.002952053165252137, -0.019940538378090372, -0.011298016854745224, 0.008306154837642247, 0.07812528460638272, 0.002159023939628783, 0.01652539826024859, 0.04925193381145388, 0.0016813719380648431, -0.05152737712727524, 0.016264979864199235, -0.0035655827379309636, -0.03725687206286285, 0.02463427324651272, 0.0025659035157734626, 0.05444405335304695, 0.038864989435606706, 0.005720039249056289, 0.08434836122536414, 0.06484902081402456, 0.010311917413467719, -0.04433523551715267, -0.0275524912070854, 0.1079070081648832, 0.051441997040289476, 0.0005405481884167263, 0.006197558866177603, 0.014326981446772833, -0.0304016786657169, 0.046608706218485035, -0.03785661713738605, -0.07627802742115007, 0.07852017124787417, -0.06028146596991179, -0.05176018687295792, -0.0034826105538920235, -0.024492421482822165, -0.004994678234945367, 0.05174005705850104, 0.016882568697462717, -0.003510838374531127, -0.023755135490904324, -0.07774860826488515, 0.04892880059424334, -0.009607370047300445, 0.019329311470591637, 0.007674057090106765, 0.06565219568055301, 0.013860976257543492, -0.11905838074739153, -0.08904789618535938, -0.11078682406899917, -0.025503693282130688, 0.027230812668001248, -0.04750307569923634, -0.026564220744570707, -0.02654956920771045, 0.02376028411953019, 0.04476644669592489, -0.002246155748048383, 0.014454293742551529, -0.0052407438401956205, 0.002937459961381026, 0.06131772457814776, -0.05884899023327575, -0.0453006795757656, 0.015737586675284063, -0.016260817338030517, -0.004504536440623916, 0.008868111622381979, -0.063553212750347, 0.07611364129973497, -0.08499106906814638, 0.021066587851211904, 0.018840764067800293, -0.0012388434255663657, 0.004007449431629178, -0.016145858644711783, -0.026876826574685275, 0.030159560699251076, 0.038568059897989344, -0.041317096590712185, -0.016797515039958223, 0.050863149026445266, 0.07325057354248271, 0.001796972809266047, -0.10248637421809037, -0.005243063544916513, -0.04578135605325663, 0.06301689441546493, -0.10333952897609032, -0.03195698735230173, -0.02430166760370296, 0.025522305998699906, -0.037064688291042265, -0.05411012370836936, 0.04736335879160556, 0.03325722711188538, -0.015066256169150393, 0.04829644171751954, -0.08817661427048039, -0.04868672647953427, -0.02019217461216839, -0.011506210210577707, 0.04565143564610561, -0.09529433957993379, 0.048003921788975, -0.004797506237830046, 0.014450288151601383, 0.015725636662821924, -0.037766807792428844, 0.042299339005847016, -0.06615049478778033, 0.010832314132645775, -0.0013760203807795526, -0.005431935845981932, 0.10822638924272482, 0.009413024355008003, -0.06105627951451283, 0.05933612558035359, -0.011761189410775941, -0.05616438145926707, -0.024721678859750507, 0.046901973519756585, -0.058203828624651975, 0.06904738371915123, 0.007658188014010034, -0.08324985307083067, -0.08870368374698785, 0.043073805281012685, 0.04992698665850352, -0.008145401051899094, -0.03542077251206915, 0.016470077725912354, -0.05981885783085818, 0.047675909923883146, 0.09892357279386642, 0.10406049660895467, 0.07140562290570103, 0.08655244228865965, -0.06424907746868391, -0.032254968944472495, 0.09806502285172843, -0.06172224673150995, -0.015980501201386863, 0.01706024425996017, 0.08369188694355655, -0.07439211580124831, -0.0007316313619697843, 0.02192380307149539, 0.015010513852837167, -0.03959571344458538, -0.06660336606558806, 0.026859221490498377, 0.04754876333168423, 0.009850227597255805, 0.05816028209880199, 0.027405544886517304, 0.06713516572807401, -0.04633707257642138, -0.054648397010108464, 0.07861232917069103, -0.0019035773054283086, 0.06545504983777006, 0.018232412084828023, -0.019947965157281405, -0.05591011772724171, -0.02100131628776577, -0.00454852379932955, -0.03705797793733156, 0.0764258364187932, 0.05079146913630933, -0.07511087332780828, 0.04192906624270655, 0.059175382857848485, -0.03805991734531667, 0.03726134085087427, 0.00435307894548493, 0.016759403467609985, 0.06073351971728546, 0.04799292657318359, -0.023384138129329424, -0.019682332922600604, 0.013988461961730874, -0.0009403749908575202, 0.002385626576539778, -0.03771382978481152, 0.002727013877604952, 0.01671333601612846, -0.07023399048600953, 0.125026118792988, 0.027247481667641543, -0.019825685671621792, -0.04167969103568836, 0.10274834502656652, 0.024260500131077934, -0.05363109737062046, 0.03404565158519739, 0.01313152152245199, 0.03822587152121228, -0.008565969542060603, -0.051897548493608246, -0.05319150202521569, 0.01732193183091838, 0.030095738402449595, 0.08476286337182626, 0.00568815796272304, 0.025131869932592223, -0.003859313092494051, 0.05488468658720614, -0.043330010550568586, -0.044952274696430865, 0.060062431732529335, -0.021878883761889296, -0.010002018653775488, 0.052360284673891, 0.0526579491607174], [-0.010183246815371874, -0.016002446544535157, 0.002367064698023959, 0.010246481887330551, -0.07197252380708072, 0.050219881550055, -0.044292442159813976, -0.004130312297763769, 0.08454597021121023, 0.011690613167806873, 0.033916430094727154, -0.02294784154969618, -0.004026382185316775, -0.11432882942128748, -0.009330071759879724, -0.08470523961724506, -0.001990821728217539, -0.017143549088304514, 0.09095610443084248, -0.12263857388630757, 0.0007360263404162959, 0.07369540152636533, 0.0855860030286837, 0.048238115696480316, 0.04608028935213244, -0.006846263063322341, 0.05185953570362846, -0.041525937904066244, 0.06907595157025298, 0.02754598302911605, 0.014053223135272073, -0.010922378624727546, -0.07721808708081333, -0.007792755735575459, 0.03103855194399032, 0.02461872901241383, 0.037764706951829166, 0.003954211606051411, -0.0022299894409876487, -0.10753071049414706, 0.0690303136559957, 0.03313344383867493, 0.025724688233865887, 0.038021256755554955, 0.03093365295027468, 0.0016945262737464591, 0.04933138209121832, 0.12009377463780088, -0.0004990950726262294, 0.08520025893314066, 0.05335770026110064, 0.10650733374280019, -0.06678617390308206, -0.01904426728582116, 0.04958266923986368, -0.015516145810597804, -0.014300655432642709, 0.05907940071399703, -0.029648260243437592, 0.040033121345647335, -0.042830556575814506, 0.09513911328751241, 0.01932424412718281, 0.03434015449839426, 0.09199922525056378, -0.07206976873460073, -0.020314004289124096, -0.06237674034322825, -0.01894777305931835, -0.04215994801817805, -0.050519902183453126, 0.02498547338076135, 0.027897199275285174, 0.09329286252219882, -0.0018319911388909088, 0.07955068404831854, 0.00585348938469063, -0.013310253163550608, 0.04592202563893953, 0.04732663172592142, 0.06249768631191549, -0.05219133618133116, -0.08107228415843724, 0.008812108379729795, -0.021537529943102214, 0.007276554189930156, 0.0078026725232688025, -0.03409350160183736, -0.060938247585076905, 0.036381053276826746, 0.03841300095800471, -0.027698787047904398, -0.022463303383447528, 0.03888413107482921, -0.016459324608462635, -0.018125250289481542, 0.035919781573605016, -0.03706517894484666, -0.012028294777441734, -0.006268297611613553, -0.014413658334490405, -0.10873791320950554, -0.05532786902621507, -0.04610339826816656, 0.010703754976915591, 0.04356455879285467, 0.0062574298693745985, 0.05872954073139689, 0.014185584813276201, 0.012254065572935352, -0.128320420504444, 0.03798922378747415, 0.08270920805752427, -0.04589999166600055, 0.022516183171490463, 0.037794558285205816, -0.009028465016809947, -0.013560320783302186, -0.06318780389095636, 0.07107857376974767, 0.03393175837186057, -0.026889568191543204, -0.00896591589481077, -0.04776628733641837, 0.061412818571443914, -0.030156989794092592, 0.10400934080159883, 0.005034946292002869, 0.010849499077474564, 0.014397886332450099, 0.0006308357837912902, 0.008901839684479615, 0.01706758151412532, 0.040721819258315285, 0.005538025117581011, -0.006917396892399664, -0.006000871883618355, 0.04504488553970111, 0.05957845933942574, -0.014904422843640592, -0.018546390444434648, 0.08183209759459857, 0.0038127751512998446, 0.006805687151592019, 0.033805856799179815, 0.02810292776276277, -0.03254430280639401, -0.01728224382800449, 0.06861901350218534, 0.011401276930861355, -0.010271064746552002, -0.0009749719050811609, 0.02876768868984001, 0.02894377456859354, -0.026522166317207323, 0.015965380833732185, 0.045711069484186205, 0.01433046989220816, -0.027737841188529237, -0.03082846903170776, -0.08920741045807612, -0.10309365623346388, -0.08159778940087946, 0.004268206258317297, -0.020215682230050887, -0.08403596291183206, 0.02338883731038388, -0.009888581124910931, -0.05324247705795382, 0.12476196960662367, -0.06153996323459997, -0.0687133702165756, 0.027186595460978274, -0.06536512061613113, 0.08240914986687732, 0.028480726061744458, -0.025789119450139973, -0.05584003573926931, -0.05509289284149597, 0.023071721763766338, 0.06287276086006989, -0.003997572808133688, -0.07008526158361134, 0.01866050172277041, 0.07624130564651031, 0.013098680674696538, 0.011699734317367916, 0.024950131339260856, 0.003911812622375852, 0.06596447794003031, 0.04680422011138785, 0.06581176466323639, 0.014984913735494895, 0.055386160663848105, 0.0433546255964709, -0.010280719632772654, -0.0419537655407571, -0.08401804374158894, -0.043579294308329464, 0.02179543593335583, 0.016407516534822635, -0.018276688149034603, 0.0052025511160203805, 0.08939128555105237, 0.09222259446022896, -0.08967931889676875, -0.01584458220871395, -0.021231934517267067, -0.03249892093488952, -0.04278804840522625, 0.004043865416154534, 0.01563009558944137, 0.07586911863590652, -0.03180990909110906, 0.04656024760086593, 0.041002316664429266, 0.0014220551321056248, -0.021572734556855724, -0.04418459494858613, -0.014502640801363103, -0.07759694613053764, -0.035410023687504406, -0.05784233040400994, 0.08268118149695797, 0.013567922433415341, 0.007993651801341012, 0.07019047691032887, -0.002133169599640417, -0.06961081811754952, -0.06878719134899285, -0.04585104737530402, 0.08102645053800518, 0.09848673398434306, -0.04312045156935033, 0.02030025254321277, 0.005369990165467313, 0.04607775303103204, -0.033221491932213396, 0.017268195807767707, 0.02039131075037604, 0.035761970168466446, 0.0008029968624420967, -0.0037949362257026897, -0.01001800359864262, 0.06550095390645833, -0.02066844254214198, 0.0443075952855294, 0.038327022664200315, -0.024992404381815932, 0.03477306980033637, -0.011116160366915897, 0.04543181653195443, -0.03454771109732932, 0.027436069877978034, 0.0240931463081087, 0.034787919035579346, -0.013871792261869848, 0.06930541544013472, 0.03888307856083954, -0.00044111990473141415, -0.023162415728476788, -0.0565622365234046, 0.0822519348811884, -0.02397485173396851, -0.0076103453027774595, -0.008742367000199897, -0.011851452981919761, -0.05613888281586354, -0.046843439691071846, -0.046711890045325534, 0.044679851026130694, -0.001427068148891064, 0.04952103242412647, -0.08337113114554749, -0.060103562760266946, 0.08485071606700557, -0.06936356640334448, -0.016098248937425536, -0.11967319602816874, -0.0601090292165468, -0.027323702909588635, 0.023956657753175813, 0.07459886886207566, -0.07001464438959529, -0.0648230388894916, 0.03721223541587413, 0.10111607423652175, 0.08618021445148338, -0.06131601844405005, 0.017674936859513612, 0.0014188063744000464, -0.06312375198066578, 0.006396780810488756, 0.008307920914720053, -0.09124481866151203, -0.0444361325055151, 0.0012978342704944793, -0.0661321371790951, 0.06132109352996858, -0.013559690248204635, 0.00129992048601962, 0.030649351667901316, 0.04881342086743212, 0.07992836410979194, 0.009467261878837275, -0.02532276565778407, -0.022593583322453675, 0.009148395843938, 0.014447527226176832, -0.032210337660162694, -0.035962673839869556, 0.008914687382557886, -0.001605859082451106, -0.07307227760025356, 0.0008992400351034819, -0.010867354453018565, 0.022907791260470038, -0.03560701655574576, -0.07358153577301034, 0.007586813446278812, 0.03888904269933666, -0.08184947348878087, 0.1049853890540062, -0.061194021327788534, -0.034611343975322555, -0.061596146873055785, -0.02420564120581932, 0.0013644036876617669, -0.026180900980363415, 0.06965157277881898, 0.03207107173923124, -0.033729954138117135, 0.05643416440504742, 0.022267962292340276, 0.03990934946394827, -0.049018794148215826, -0.005641927488708791, -0.01405968041305063, -0.039131859634219765, -0.0550669054076315, 0.041989124942017106, -0.061510276042258415, -0.01678116391070684, 0.018490801896929976, 0.02752373262922849, 0.011235865624099613, 0.007591312566319769, -0.04950032482069016, 0.058035446872319346, -0.03585580573284091, 0.0007666504653430275, -0.021493088849823417, -0.027140621723928934, -0.016078680536173857, -0.0413972392043529, -0.04456415331227682, -0.09767987788192843, -0.05921784893920024, -0.07389201280954634, 0.06314627386786524, 0.047784364277700817, 0.05917915807448626, -0.008406387582762524, 0.029789752176915422, -0.03962805194207661, 0.011740548544573695, -0.03456087752728339, 0.02266438593351026, -0.03424602167897663, -0.037705074062574534, 0.009679869890472162, -0.0034408223232188324, -0.01577803548575884, -0.08408294999160969, -0.13312079587414316, -0.02696096729807318, 0.08227420716007368, -0.023208678959918457, 0.02498035066877647, -0.009701496371753021, 0.008813804617507647, -0.09339647963899136, 0.024316282761707917, 0.10798916629923458, -0.05661844626436359, -0.044301905800425964, -0.01963699672882964, -0.01952030466806818, 0.006090325798706384, -0.027158671626255827, 0.044822964498510094, 0.005283997230391112, 0.020923120652703818, -0.005083952522488361, 0.0033401491579722288, 0.061081538014577275, 0.0651087241114184, 0.006078002058354036, 0.07711127180683383, -0.006718523239651351, 0.009899493508819183, -0.009476241205881059, -0.011109466489141274, 0.06887220010885714, -0.00763662308952133, -0.023123126723260865, -0.04095346893535008, -0.041699839036126236, 0.008823704202770953, -0.007451692542441066, -0.085195449792855, -0.05272223843809295, -0.023565568240671346, 0.0037090441517273415, -0.03674880606619674, -0.001611902856795405, 0.07737571741158582, -0.007163435579226498, 0.03687741773891006, -0.04057673793368192, -0.04802740133413985, -0.006936336601689348, 0.05154791440907424, 0.01371028344277399, 0.106958308439849, 0.0751117185793914, 0.014270388906189672, -0.05198158079951762, -0.0044562481978406236, -0.04672882457589599, -0.02618088479864524, -0.08331198414699062, 0.01409974565438258, -0.11051070660708968, 0.057997965642420414, -0.035918317789818396, -0.06311276439988021, -0.109229795209057, 0.09668136718763391, -0.07311091747158152, -0.052101041288384525, 0.0062491021374038655, -0.007653107945288839, 0.01076356375856409, -0.0324657522563226, 0.03151501487782714, -0.04213683683534257, -0.03346108087430602, -0.018086609974797458, 0.02452187894551977, 0.0389696304511433, -0.0603531307925498, 0.06469765201487873, -0.006337409682055184, -0.0005708052219513342, 0.006142861006479653, 0.022171401920703042, 0.0011064742762901003, 0.013270451209361487, 0.042139805964165465, -0.018071797308784558, -0.08414892627599552, 0.04027438077340588, 0.03424399067487746, -0.05117829576204755, 0.027171112978012738, -0.02820855570247065, -0.016786308524034003, -0.027896972901516527, -0.015232000584520627, 0.11644205984067263, -0.06886898393820827, -0.005350233818008859, -0.07019534814121307, -0.07761373450627697, -0.03361719050215742, -0.003965919520197573, 0.03267075650039135, 0.0018212571920231987, -0.03784320963742605, -0.06263279405527437, 0.058292472678054534, -0.014172861538072207, 0.0132676934371026, 0.013203493234730915, 0.022767877257848314, -0.05762144849625785, -0.053785600637491625, -0.08278519764712058, -0.024089443534847987, -0.0677311303486991, -0.0027788378814021723, -0.06869824932158584, -0.03787935009637507, 0.022885665683169895, -0.01601574268868832, 0.00860269229804696, 0.003154016402994672, 0.04780648280246117, -0.06342873692895407, -0.0329502750093568, -0.019808732665856886, -0.044306445867596966, 0.017596353754012268, -0.024107318088483654, 0.0826279219935376, 0.025833624446167498, 0.10512530781289521, 0.016328845334124823, 0.0677425503304162, -0.032080889619612196, 0.01774420854016982, 0.007750874626319558, -0.09951840744907754, -0.025384174862935153, -0.02856484633290686, -0.019133620952963136, -0.06412730510632993, -0.05429849096442612, -0.07610685784157245, 0.030406689437196727, -0.024650155338136553, -0.08348562966170384, 0.03703712031343774, 0.020395590219804985, -0.062338761004046894, 0.025144625689435672, -0.08288106526376701, -0.07491051433368637, 0.09987407154587982, -0.030984220070181638, -0.01907729338016333, -0.036872087912699386, 0.06104870053213816, -0.03774187911258289, 0.045923633568460805, 0.07482325199787983, -0.06366331155519292, 0.043270783803019984, 0.04625296185593174, 0.060488660846247946, 0.08932115597929488, -0.03637582430716281, -0.00796425568740238, 0.11059607232802418, -0.045022749233105765, -0.019039272411512674, -0.0010246523495085296, 0.04025091831376328, 0.0650083321119364, 0.02789104864641835, -0.03713659896688614, 0.037248000627920934, -0.06518139594594854, 0.04123311339695139, -0.03241177004144201, 0.09335126932066087, -0.02964320915737816, 0.033437196202975084, -0.024534745228159814, -0.05097350101401165, -0.09606123170461331, 0.049741766503860495, 0.03176011644653876, -0.08714544849698827, 0.03495915897457414, -0.07545374574429166, 0.002520551676961117, 0.04769303054048431, 0.0643328759599825, -0.03743633737268183, 0.029228209512900324, -0.04513421793786277, -0.041397610200752354, -0.043512492547006405, -0.0015779246100549053, 0.013668935072244716, 0.03191348452701816, -0.07656908517189222, -0.003974993242213902, 0.049680961229001154, -0.08209128453403361, -0.07605916702169585, -0.06756194393584865, -0.009358376055888034, -0.10043146288146203, 0.07313060370437835, 0.10677727358341893, -0.01308212223631532, 0.12056223320091133, 0.0015037953753687695, -0.016576041954562006, 0.012745266306303427, 0.014717629066178805, 0.04673867612926014, -0.020388388186182372, 0.03177030022396354, -0.017632859496640098, -0.07590057680346075, -0.02776265196065494, 0.004752661461385197, 0.054691465266493544, 0.025666616631829738, 0.021113040592476554, 0.05895126095392099, -0.04555673875356153, 0.030966450341674768, -0.01840624733615166, -0.0789532686541263, -0.03880091041311979, -0.12835960712209055, 0.019168714759600705, 0.03970368781443796, 0.0023250402028286215, 0.0912063551868013, 0.026502419142325602, -0.05754014251780875, -0.02706001511783333, -0.023509182705234066, 0.02901147591827222, -0.02265983896362142, -0.002515465099335909, -0.0409219093464541, 0.04784060161000969, -0.012493589927496667, 0.1290999737873873, 0.016787120888244966, -0.04520380960070795, -0.012154148850816589, -0.08507681693608544, -0.12835222550443973, -0.0017218789407477775, -0.03916937393983703, 0.1096488211676139, 0.05915810442242465, -0.04716245337307459, 