{"input_size": 784, "layers": [{"type": "Dense", "module": "LeafNetwork.Layers.Dense", "weights": {"type": "ndarray", "dtype": "float64", "shape": [128, 784], "data": [[-0.05849639052109255, 0.0031593738005459464, 0.014407148997170787, -0.0896364678171722, 0.0070989483158627725, -0.04824093082784978, 0.014876965871109907, 0.015763325691772846, 0.05933656141558876, -0.053699872956502546, -0.00526004169853283, 0.0334157026182426, -0.010098367899915936, -0.0284930271730938, -0.0721860810108338, 0.0006898613646870994, -0.11569283761427696, 0.1016036332837767, 0.07634768618946358, 0.037985362045855606, -0.06337913780009559, -0.009510785324026768, -0.0026361733090895113, 0.04189500738992986, -0.01066916769162142, -0.03471717402921765, -0.03534736798501697, 0.06630219943287093, 0.0256257154275658, -0.06896542655312425, 0.050338065130365525, 0.09506273510395494, 0.039689381050211386, 0.020006578535737708, -0.005241535912629707, 0.05633923226066484, 0.015044843764926197, -0.05463756236698779, 0.009446051220913985, -0.029330106686836672, -0.033436776868959156, -0.02568790567382136, -0.0039027476055980685, 0.05153152734086715, -0.010583753141015428, 0.04636468142996392, 0.004186600732648493, -0.009767391683278955, -0.00017803902975354046, -0.056257911155045054, -0.09792287031912812, 0.024727108466322832, 0.07716881159578513, 0.007373918216325882, -0.039926719303016854, -0.043981556891723166, 0.03630412674900971, 0.04063870892133435, -0.008030152933985927, 0.017904696920077318, -0.09217552852946101, -0.0401271639052255, 0.046264532932164676, 0.029720403864637143, -0.11539783467151833, 0.04042326096617968, -0.09132830961022123, 0.009344473901547391, 0.05268364106997106, 0.011934319573462594, 0.026174073238872334, 0.04306325839497773, -0.03791340021542787, -0.008714510394855404, -0.06381342909221134, 0.0024591620349079103, -0.0017571217585431913, -0.06627751249084794, -0.025162484487298502, -0.01759650292453896, 0.07365180561512252, 0.03984359746715398, -0.0034698571258098337, 0.07106498105635481, -0.08615380215926538, 0.03160731931278562, 0.011643280537367793, 0.020554916225681803, -0.0536242425531189, 0.10684444156717035, 0.007023199118362516, 0.026059055699282577, -0.032195872468967615, -0.05545735462730053, -0.014206177386158144, 0.0647648491221501, 0.027277835851584012, -0.014112964641122109, 0.08366558340053704, 0.08060572700249412, 0.0763703091092307, -0.03599658176020627, -0.03873740691311161, -0.026219501729572235, -0.026326020484816137, -0.08540621371830524, -0.053372376525590216, -0.020148456561876752, 0.0546819076878827, -0.008066152287247228, -0.011088340508647059, 0.03487393427495835, -0.014565860344356855, -0.06885648106408879, -0.07027508041182108, -0.028226574417419617, 0.004981568230176102, -0.02462558159505189, -0.01752175869800804, -0.020137537408591012, 0.006485484424171071, 0.053535817215264556, -0.007958923935031807, -0.00012354028952134806, 0.008408403583974515, -0.1496669613116553, 0.02490226836470255, -0.05730748817275769, -0.00728392507797562, -0.017522286612230847, -0.014389755562678849, -0.0751439986045095, 0.025451321288138654, 0.005688863904533311, 0.005052068686838055, -0.06527687935170381, 0.044288864513621344, -0.008571972660457604, -0.053280621652701955, 0.15522944953400375, 0.014610500747972566, 0.0010176384099017562, -0.03768438389713614, -0.01559374072677667, 0.02324078667904359, 0.04140964431115206, -0.046415312246959765, -0.0053026570390813975, -0.02627866998294972, 0.06963977055914504, 0.05626263162240987, -0.033181639544868524, 0.02012026834827027, 0.022562459024642774, -0.02805723299153869, -0.0002884590901646994, -0.03363499633209375, 0.05143709343496425, -0.05658882274529075, -0.022667345605631335, 0.019809104611192487, -0.05281966351746547, -0.040345080916950986, 0.020488939800315326, 0.034424105684656994, -0.014265616379665934, -0.06965031381429235, 0.038377278577382344, -0.01492569612102273, 0.01851980782824752, -0.1032405587583661, 0.0823297073538382, 0.015242304859632998, 0.11147384285341098, -0.03570557135460041, -0.0771704632453622, -0.023760422569007702, -0.058114211911964926, -0.04532099696171939, 0.08627064755322637, -0.033509193278662204, 0.018909630856656198, -0.04537894614850122, 0.011565070809306714, 0.04482954802600204, -0.03867448977353349, -0.13034645262360342, -0.004771521032383766, -0.08046531996812127, -0.06359800601504915, -0.035872755830775684, 0.06066322026089438, 0.05927369089039127, 0.02282200620518156, -0.04275881854789085, -0.08209815869414337, 0.04146320949622797, 0.0009383802130256197, -0.032475559925817764, 0.03612194621900181, 0.0414259152997224, -0.03562736834397136, 0.029566540940957366, -0.013697823092890396, -0.04055027438187195, 0.0980682189005409, -0.012710642990256338, -0.00036368357067502374, -0.09143447219532443, 0.03759234647534848, -0.01784636272109528, 0.02858348442315582, -0.08757001251527631, -0.010322480858879535, 0.02029346949603393, -0.06916481868361164, -0.003059538160276599, -0.012537130214200776, 0.06115720309276255, 0.00715692187574224, 0.0796939943361866, 0.13006116944769675, -0.0020151371998576675, -0.042418813452528424, -0.03693349908708518, 0.018808386270008352, 0.03278411638201942, -0.012479009821887193, -0.05345852433385213, -0.06132970811685931, -0.09722772163276615, -0.05188110057813069, -0.06783037269103759, -0.10994047728308996, 0.0336857117902936, 0.04841723301574582, -0.07720909329542308, -0.061527021152039285, 0.09084398295411125, -0.08971940826731169, -0.07532722949896323, -0.01146677204214011, -0.06848319409133789, -0.0708823963771965, -0.024426820133386914, 0.06025230724146011, 0.04609768663831199, -0.024848868144659718, 0.0775021775868873, -0.03054476446280617, 0.03377457203415001, -0.0024122152965999864, -0.08465867012571786, 0.0361575010155192, 0.0044145223202861315, -0.040726832557166914, -0.007958316149693044, 0.010725019875635337, -0.09624922786105343, 0.08006476095161676, -0.03194470019567833, 0.03269807567598061, -0.009565597908122113, 0.03223464875889315, -0.0019596314909520835, 0.015396527098654241, 0.021979909963891292, -0.03551531022745577, -0.026763210586821334, -0.06237548396124372, -0.03764007935677546, -0.05872061784330477, 0.02478378587503252, -0.009207081984556857, 0.034200500252668, -0.06682010461969963, 0.003421163804772038, 0.013418581944265396, -0.04408847296880347, 0.04800172251093293, -0.07192517438983442, -0.013263973602721408, 0.002968263103368698, -0.05316771283983868, -0.011280491831768224, -0.035582652401085595, 0.031511860298908526, -0.01228389462434853, -0.02182627613176064, 0.007220380465967235, -0.05841321351551358, 0.010046057086900451, -0.0007224774775196428, -0.017858092248813965, 0.033650758189430675, -0.0013142590242149748, -0.06335716464874044, -0.015278081310182939, 0.00960778008941146, 0.016828205462475238, 0.09253565500053136, -0.030914564743908798, 0.03552894081825608, 0.04827858049503865, 0.05844358262151272, -0.021985619443821137, 0.10608423743412587, 0.03557169870638324, -0.06623064202104964, -0.02327765571998341, -0.0298917443536163, 0.06015564925178151, -0.0687724982601943, -0.010082068037387842, 0.06657563640860467, -0.0045976300089887855, -0.07977796101126661, -0.0738811986192051, -0.02662497439279058, 0.03063734497604562, -0.033692719004218635, -0.07727385314874087, 0.0355694786828966, -0.03500509689433112, 0.014963120099794692, -0.018480172718733742, 0.014005097136728846, -0.06374990705191401, 0.07177824879886244, -0.09585547627017584, -0.005480753723198841, 0.06344145887205369, 0.025656410204618604, 0.008244560620898267, -0.007048122555589479, 0.021811350685434473, -0.0030067107086424213, 0.023034094558009227, 0.12680337348023923, 0.0508050601907107, -0.06826860887866291, 0.009231218677910253, -0.036786132224391484, -0.017728339619136717, 0.06400730009818982, 0.01751720734476536, -0.0037431291051201743, 0.004967213379513619, -0.03390364159789302, 0.09544608638253621, 0.008776574866433953, 0.07645238937748586, 0.07742513075422046, 0.006597760298556276, -0.027492332530074506, 0.0022123722447323826, 0.00384706223975571, 0.09201675173359389, -0.03311145158815544, -0.04629378931699922, 0.032557286966551406, -0.08271102354758404, 0.03067127059318484, 0.012085343271791449, -0.08351409779097366, 0.021227861464148057, -0.040459264620302006, -0.01705642375645808, -0.10725282416961016, -0.038111415076037665, 0.021115128671877703, 0.01171628302125347, 0.04158609531126915, -0.02244928848293756, 0.02390973818394358, -0.055886684512919865, 0.09063160126860256, 0.00898172132573507, -0.055986474666713276, 0.061806165690878274, 0.01662046787328356, 0.009503529457328694, 0.07940848171154889, 0.031810364309169954, 0.0473780132842759, -0.01208181241956706, 0.08119856964706842, 0.1445922892414698, 0.006089951965333214, 0.006621226719631316, 0.13756026131307686, 0.006297058668207781, -0.029947730297056725, 0.06857368623113916, -0.033888934168188986, 0.02542968281638511, 0.022257697500892685, 0.022554526941173075, -0.03670210183329794, -0.05640699316202799, -0.07008128266648106, 0.04853939598107532, -0.03495789022396132, 0.041765202377290686, 0.0330833625697519, 0.01132835767274441, 0.04009356601711549, -0.04509793270615963, -0.053959340591613586, -0.05735069200554648, 0.025041184620462283, 0.08263183745561796, 0.0788964791299632, -0.032424357012291, 0.010172814624383793, -0.025948808204475454, -0.003960937489897771, -0.03196585526205365, 0.03874596966363688, 0.0026511390370853767, -0.0097527093739562, -0.10932817756623676, 0.0033576913853964104, -0.07153624909361717, 0.027872892524603524, 0.0439666781018916, -0.057867366896618554, 0.024890675058436614, 0.11519813423505812, 0.043448046908685804, 0.028953348059102133, 0.010843699950294867, 0.0328341952599229, 0.06549660353326812, 0.0421379847386894, 0.056975420584875106, 0.007071294183677452, -0.025301728922832653, 0.0393074631645259, 0.028702293063156987, 0.018376482557380242, 0.03683710012735413, -0.06142574286219614, 0.07947203290126952, -0.062408757652908695, -0.017499869547798957, 0.04449251669451065, 0.04216415946595546, -0.020085238299071766, -0.05854809643795237, -0.026124846793552932, -0.01850641297698631, -0.07106254356710509, 0.01967164832936977, 0.002077905026023151, 0.007183606663245255, -0.009739481604673444, -0.04937746786681231, 0.013876671951001613, 0.012375292225352127, 0.026248801105511522, -0.0810364400253036, 0.13829198919568142, 0.07396043371680168, 0.019242973930161812, -0.02731928683387863, -0.02655156225179219, -0.04706474857742424, -0.06690652715221415, -0.04766624227371421, 0.011417361625763326, 0.01682733276461984, 0.03053016037907334, 0.006829849460579126, 0.020442626353071317, -0.05124484659089482, -0.014138251501307254, 0.0009270980914145786, -0.03817706349979973, 0.03657330267338779, 0.0914482747454426, 0.06889970070809293, -0.0070338723810678015, -0.028850081824360854, 0.10020973365898445, 0.020533735236436288, -0.0630479215617567, 0.013302176066790893, -0.029379690543715354, 0.012736636082998888, -0.05084629894741083, 0.004856208837195271, -0.013138684177342656, -0.024953229818327018, -0.00868191521152756, -0.00034919249327218326, -0.008519684705504668, -0.07189638220287932, 0.02201705063025859, 0.024731254138030706, 0.03551407126818749, 0.02054560668845151, -0.016331920669019222, 0.05103194536655917, 0.011776840602118302, -0.08727369551587205, 0.01398345312647659, -0.017212851311498075, -0.0683648812062425, -0.0341493528227492, -0.05568626470119225, 0.009774511262048837, 0.033403196610793065, 0.058049312821935206, -0.013824307573194751, 0.0378504796510249, 0.007835026405798142, 0.0010938901591916338, 0.03297958843126486, -0.00855098468864164, -0.04986615353430468, -0.04543855764891488, -0.042742329251066656, -0.09460082629001285, -0.05156352300984603, -0.05679524970886775, 0.06395373690537476, 0.07479572018855746, 0.032927460382058286, 0.05682731334865141, -0.06387024538611814, 0.03191933955589566, 0.004222136094411291, -0.017747831315673254, 0.03287205374575857, 0.008929761572087727, -0.03360631419909423, 0.0021961424456428498, -0.011432582387482758, -0.014253551423554, 0.09526620812606526, 0.03308365775151008, -0.0014962799600092653, -0.00937919770106789, -0.0006773199186954352, -0.028719237267906046, 0.00018353538919560087, -0.009954251798693647, 0.0476452885159651, -0.025630058801805654, 0.011409464701748613, -0.00574732861470631, -0.032347908865316286, 0.02325492483087677, 0.007833159090611642, 0.016121872173749732, -0.08932208599710853, -0.003475932921946708, -0.00828194939888586, -0.036897616640682224, 0.028416241205775305, 0.005375122518572191, 0.010256533857638013, -0.0007282733115389417, 0.0369037131508299, 0.04113315319711015, -0.01416749163295977, 0.0026672305419327383, 0.017473499066234688, -0.014132260096549614, -0.025126708055190895, 0.07293130625531773, 0.009023106218902083, 0.004240370388910395, 0.037727808097513416, 0.07765243689117013, 0.023413908873309894, -0.022657374763761323, -0.007142341243327367, -0.03663223278082885, 0.02306900399566964, 0.012960410120444896, -0.0011834950483883807, -0.03658571154966979, 0.03639712705845675, 0.01439064106956826, -0.08040454870026675, 0.023915304917786536, -0.11071052097210672, 0.04297540151405125, -0.10671155749162248, 0.030112881699343938, 0.015398356407821494, -0.008286893201348837, 0.060088277608620386, 0.010583169578526213, 0.0675206491796348, -0.04136099343241458, 0.046624912294142645, -0.027611701401983803, 0.10593140169867284, -0.0277793073268308, 0.015547338494468583, -0.07742778813573949, 0.08191638862936858, -0.003408387233739886, 0.0015731401621937634, 0.05121048596596354, 0.038435208665140566, 0.009352264667090129, -0.06295886759684716, -0.0003440985392318526, 0.07124382434315875, -0.017495911694654916, -0.08948378021458755, 0.021265781977863336, -0.13650705868611612, 0.02893882973588566, -0.007280404918449214, -0.0029345563883932057, -0.05080423013367215, -0.04699315950995949, -0.006720595853664428, -0.03154573392223693, -0.0622775784050356, -0.009754904318645749, -0.04418425422082335, -0.04935463794237052, -0.007227375677941143, 0.05100399193719951, -0.033147734471427374, 0.02269077312503861, 0.08141053170808256, 0.017965883090711454, 0.0064060670662734855, 0.004617123602973856, -0.03955365031976471, 0.054753757745844414, 0.02006807887484087, 0.042847977125229406, -0.024744294619162523, -0.06372952250666172, 0.059810693275708156, -0.010293303668500864, 0.02922465644322247, -0.02826169254925281, 0.00619395497673867, 0.025190370971046486, -0.022489696860185746, 0.003375852188633143, 0.08993275119424185, -0.007629731443348935, -0.10619501844626517, 0.03226471622596684, -0.025647211222897044, -0.047539107241336476, 0.03274528068142599, 0.0075776764771129995, 0.034133329865978265, 0.02405684115634852, 0.04397656005525023, 0.059695322090986616, -0.028903658513692282, 0.02374585429914058, -0.03414584912080865, 0.14813108166181504, -0.07625078417939482, 0.06403348328174882, 0.0397015430328087, -0.025180431896654316, 0.09461995185541269, -0.0686412706963396, -0.014743154472956104, -0.023850698535320115, -0.01864182440345411, 0.049779255411992504, 0.03853897090479413, -0.01205770796442437, -0.03814746417532949, -0.009136314480656842, 0.13124877493089565, 0.07381019955540957, 0.01716704596097531, 0.0005889127464017108, -0.0561451208943287, -0.014193315336197576, 0.007116925914659575, -0.016534673272175233, -0.09748600134511484, 0.017978978696335517, 0.05089242224964217, 0.04501527097864923, -0.11983696151483432, 0.01218440803346609, -0.005136973147166711, 0.02201446738609727, 0.03748185317237604, 0.10821602620587047, -0.045123115336802175, -0.05982910756212117, 0.03795779602433001, 0.025307389581580488, 0.02292316930661092, -0.0187360605788886, -0.014756809051617378, 0.009591688387772097, -0.0308388874740234, -0.020043609135500195, -0.06007988958134463, -0.15903541869689536, 0.06919979518820137, -0.06359373379150549, 0.0013631230648718116, -0.03550656439706974, -0.019746356911286123, -0.025826294557862867, -0.017140111216088327, -0.07898984344023607, -0.028230601962600767, 0.017582033321889366, -0.03493697210188035, -0.06202578377817364, -0.04587900309720425, -0.07920575111712848, -0.07805943821592273, 0.06225183034429869, -0.052791005361534624, -0.019749249019578755, -0.11356820721498355, -0.00905585381017563, -0.09746152741755401, 0.0029322553688844355, -0.017335834575370804, -0.07735067271435236, 0.01201735386927545, -0.09690559863070951, 0.05885748857122703, -0.037774505225397034, -0.057767726838882774, 0.04312709556708299, 0.006596322809543567, 0.01614600946067262, -0.015980644580758704, 0.0007731479345206258, 0.016680354481702724, 0.013518335136537975, -0.08133538138283179, 0.003591941085670709, 0.027141380015009407, 0.0338589517586991, -0.004944989291741587, -0.02685245360643406, 0.05496290154041839, 0.025741435636585795, 0.10127850944633893, 0.009966181532446702, -0.10175041836379256, -0.006873935681472516, 0.005656470199141627, 0.04664723313747529, 0.17539041210524123, -0.05093054412282893, -0.015627424482482256, -0.012868893847786578, 0.04219624294187961, -0.013093973183204998, -0.017149904983319458, 0.062268109216345874, -0.0065402477434439235, 0.01830285977085189, 0.027393877350463905, 0.03754869026719783, 0.011367110181198141, 0.018391039179508427, 0.032293527705546846, 0.07453607416299748, 0.04932712877404793, -0.016424973299267596, -0.022165610735839048, -0.025407440464650637, 0.0789581849196853, -0.007358604570309965, -0.06205129638078317, 0.016619123535442534], [0.014309428877477886, -0.06565210447907069, -0.003637867492285533, -0.0019460418361960667, -0.051625107144366446, -0.1149775588125018, -0.09797658159618312, -0.00015713765635953553, 0.10404109440986321, 0.0021007977234035143, 0.008978571656987712, 0.04649418253443157, -0.01657011825289081, 0.08107709767625236, -0.0027173610215428944, -0.07268841852758959, -0.002118240807049087, 0.04080354533082512, -0.0017243912289576027, -0.07727771479848719, -0.07043013322993703, 0.022206938480796773, -2.6749579311176315e-06, 0.03080519841709437, 0.03497958456171499, -0.018913384196318238, -0.024895284872928886, 0.027940435917769485, 0.007435393528739737, 0.031782023805609905, -0.08195095992542002, 0.007166030407145915, -0.02539291050830627, -0.03919183400960952, 0.02626901108764919, -0.015577800037035116, -0.005188214569202352, -0.011511338178578832, 0.04016848036258696, -0.03503970591837494, -0.07799760837212728, 0.05405976772017907, -0.03784718694006076, 0.088804300139617, 0.03958853968444027, -0.048091684365673674, 0.060359456806880527, -0.04226910200165575, -0.034051215833527104, -0.03817161220306688, -0.017325396914878256, 0.02669431856571286, 0.03888097980650795, -0.08537317513050796, -0.03921208740467842, 0.08255723423631012, -0.006410618958331199, 0.07068872446913418, 0.1523412519546797, -0.020391634269301635, 0.039830152060709896, -0.017999024244069836, 0.03863940024404856, 0.04807942166214417, -0.04283311627625582, 0.018347883726493944, -0.06665486710321238, 0.04334166621830799, -0.07012793974182506, 0.025398139201685738, -0.008720753923523646, 0.003194896625327426, 0.03419065927206791, -0.019598544325304328, -0.07611930769215111, -0.05825218858087576, 0.040261540314326175, -0.03215651719323323, -0.005391231071889016, 0.12886182992460674, -0.031472332736830894, -0.07306836501403409, 0.0376040265833327, -0.03690374927023411, 0.1201983590864813, -0.09677472272408226, -0.01680714486465169, -0.039038296751170584, -0.027672227940586974, -0.0054831925372377174, -0.08237716229626811, 0.0005518632073312602, -0.08131132679367344, -0.07171745312833461, 0.03763976459354591, -0.026958191251123125, 0.01970193338317049, 0.01770794634384996, -0.058562030472834474, -0.0113310669347374, 0.061508564112361844, 0.000615304605225299, 0.033192740008741624, 0.022264511750567224, 0.009429734097366782, -0.025815486437322982, -0.04093188986966589, -0.0018413890500213104, -0.12202613009120952, -0.014790521968491621, -0.003731677441687239, -0.021284088869964544, 0.03657188422959961, -0.04997561300983177, -0.0723638088528555, -0.07762225170493328, -0.006396940267553715, -0.06786913655505698, 0.055531307846121765, -0.03395271100144567, -0.09140742800662251, 0.03492878559832384, 0.022202419950972198, -0.032732102504209444, 0.039291575688195614, -0.05005264797203509, 0.04783684022387017, 0.00738116796396802, -0.01512904155119371, 0.08367798829972985, 0.09010692092430289, 0.04871069104368984, 0.055596193270591884, -0.14947545948962312, 0.03403871306674935, -0.024068253083133893, 0.012852181578624298, -0.026436720804971687, -0.07200253006553622, 0.09759716690554296, 0.02474056200930028, 0.005613466930585232, -0.07365165446682814, -0.007337343621518298, -0.012129474038964132, -0.1039689007050097, 0.00758886804249636, -0.026584140749294077, -0.022795184406788942, -0.08250437827655147, -0.08258566847257102, -0.010951574324684117, 0.00986557140901302, -0.016925830363436575, 0.008840333310973298, 0.03906241522266512, 0.016727379729072643, -0.057898826639083835, -0.012399328493111601, -0.002374038449542446, 0.025636103276934767, 0.03930859046040214, 0.03442410950095642, 0.022791511592749388, 0.04847515362410186, -0.05566699050709618, -0.004376201939288497, -0.08317244328399805, 0.04714314366375821, -0.0006279333610599914, 0.0801331905253782, -0.058274328720188506, -0.06452655092229803, 0.0009692613142847855, 0.008319014544244621, -0.016424485144213772, -0.04065357591327624, -0.0028158298874637255, 0.00390165372025056, 0.007714014914202727, -0.023305539944766036, -0.02668442446207498, 0.0826074299449815, -0.014182699250256309, 0.017260228632273743, -0.013000634305232524, 0.019414207202385122, -0.039854418623502606, -0.03485668177205653, -0.03227103120888427, -0.013199633759595085, -0.016398259751784768, 0.024686126607659137, 0.02317534133729241, 0.0765479209879113, -0.022568094741229863, -0.0544386352098471, -0.019289369348726507, -0.0012152141417840201, -0.011504258143218789, -0.0009542940220636807, -0.011510683729067715, -0.03955611521341411, 0.0459275425492059, 0.06169795466857049, 0.004413319096080938, 0.0238155371083748, 0.05248838709153352, 0.013966085646809871, -0.09624351053245901, -0.044374263681557134, 0.09651660969818752, 0.021175524641189852, -0.08472711593443422, -0.03133065013971636, -0.010689876137622688, -0.0046237351042929115, 0.03107751624546478, -0.05137933450084982, -0.012210404099600735, 0.007643019673901158, 0.011027260830970987, -0.0705978771413109, -0.024224049887994106, 0.044266268176294074, -0.046616392024502684, -0.011530395830952384, 0.02558549963297224, -0.008636294709898408, 0.008805416406517715, -0.019714353456022266, -0.04968234977033293, 0.05274767916930046, 0.01980812528011484, -0.054812384699489826, -0.0003070048649286495, -0.00971785674178248, 0.002837164126858304, -0.02069416864287048, 0.028363729209166043, 0.008739697064483165, -0.1273325709608583, -0.002612522607525644, 0.015248907693220903, 0.0868033987731752, 0.0733247023185248, -0.05645896829228932, -0.046827006120469146, 0.01554486998835546, -0.06854720268492046, -0.09981863248152277, -0.07904532394658874, 1.0446739676564495e-06, 0.04525215984969923, 0.04719874613125644, 0.014016550819182965, -0.048275161448321696, 0.006784167730530548, 0.05061891348885442, -0.02028452962054986, -0.03936144238228571, 0.03899743503437181, -0.14474667815465897, -0.025467843398069203, -0.05399884046267831, -0.07718080474208618, 0.011655399389920038, 0.09457482232147722, 0.020340440249917113, -0.015005258623819977, -0.03196432695894609, -0.024774293951969156, 0.005438889732826874, 0.10737066902698515, 0.013537986198055239, 0.013505172613843283, -0.00247515552736769, 0.05122321358690737, 0.0583809535844559, 0.10568024289561755, -0.030597062732162048, -0.04406935486344998, -0.07076945491845756, 0.020147380996626597, -0.0319421052425574, 0.029167816615709635, 0.061114819287209875, -0.03872278912914573, -0.044437747753916054, -0.04990924966716036, -0.021681732848148387, -0.10420180404706433, -0.003250368327805441, 0.05964976771898186, 0.07062545009497491, 0.01326912934258069, -0.0419182881707911, -0.06328686878206026, -0.017714837262889308, -0.02483879313624642, -0.0765486349723026, -0.014032042135877873, -0.0679856249437923, -0.003809990931177378, -0.04379620147527164, -0.019320857931486003, -0.08420728574640572, -0.045495684200523974, -0.039035918318733216, -0.06251890761838702, -0.0017478760532229766, 0.03590742784423739, 0.020674253954129876, 0.09979573644013486, -0.0725879727246054, 0.053493937474819196, -0.06302387510777355, 0.049574503495779236, 0.023079095311812518, -0.002361651071869211, -0.12521754415479827, -0.028547449697315593, -0.07474750771691376, -0.041124728832809376, -0.03991518316186424, -0.08625452505655451, 0.04627894812242786, -0.041805013191194555, 0.0243327341523143, -0.027309091567947603, -0.024937207715030642, 0.04760289082186345, 0.012891766792966709, -0.015937216228491573, 0.03354615405158241, 0.02165617826576562, -0.06537398430749278, -0.05296514072559577, 0.09668266730409046, -0.019528547650282432, -0.07870755296428668, 0.0014938393571580233, -0.08069790722968555, 0.06597855053864767, 0.030597800173205892, 0.039874026719573484, -0.03263523517621585, -0.03467441108343705, -0.02232565780915272, -0.012698571214495684, -0.10976259379012224, 0.02334468456360037, 0.026817355472767892, 0.10443502216662397, 0.036303804593550246, -0.059372035364322034, -0.0819819964815663, 0.06279259434869641, -0.015345689215280477, 0.026417951111200228, -0.05876387085100576, 0.014457060857882979, 0.0017311511028979467, -0.07335340649846964, -0.016344015181300815, -0.0625163840774615, 0.01316187971161962, -0.01544115856262531, 0.03901315630849756, 0.019536829940165548, 0.0004912715824345756, 0.033652652725058824, 0.029046568660913992, -0.007102690144088347, 0.007850324601396388, 0.012390513119706075, 0.06580201891179567, 0.04634399009378035, -0.04142455298657372, -0.031102633420168696, 0.026472552191796665, 0.005693050701404696, 0.02697460061335313, 0.03497897432238426, -0.02518506698546249, -0.0527787418838503, 0.005936394146665032, -0.029559664019210213, -0.016012149733917656, -0.040381329105970004, -0.10755342269592771, -0.02697533332762924, -0.03344535674373909, -0.051255005670730734, -0.005138151660274415, -0.03152906356521066, 0.03726764325263839, -0.06712613424519054, 0.005238904422167233, -0.07690454765672576, -0.009042145185830625, -0.04160484809923232, 0.10663940869083884, 0.011579829451557458, -0.02147666417279499, 0.04517992025462843, -0.02913066389198744, 0.053965731702012944, 0.06588910517526686, -0.0008866571991237798, -0.0037254050663271658, -0.014479512232530285, 0.024704855745329254, -0.028314308199653318, 0.05940032450169294, 0.011351644467986576, 0.0029061915097625506, -0.0014985340144564303, 0.03197038490612645, -0.05072522692580246, 0.09775971540282434, 0.05397097868473455, -0.041995262072682046, 0.1131471776364204, -0.0021027501090044916, -0.04257210688383877, -0.007456982161673669, -0.09206249646809868, 0.0420092892368194, -0.04485717002345454, -0.012395120813132337, 0.021601228325216194, 0.011787934262411303, 0.06923452250962353, -0.016732191205391315, -0.07766143990947466, 0.05638034923999403, -0.014250834640858493, -0.03515260443822235, -0.03157773363415596, 0.009396890902130235, 0.03444870271491024, -0.08745015685168554, -0.051984118610477144, 0.016893977724227644, 0.004735714824187095, -0.031704072673377076, 0.027308791055857245, 0.0073833967101314115, -0.011261522806331857, -0.07330366351879548, 0.043270608968740666, 0.04804584057538197, 0.05773524717638961, 2.557538025771321e-05, -0.03351456698408449, 0.038651920924843375, 0.07962001187212651, -0.04247502867944928, -0.08572474186868301, -0.03703768619168234, 0.024629258868064337, -0.0032695652312996057, 0.001404940077736963, -0.05792060013307276, 0.05312193390789892, 0.01955753062868654, 0.03388248266144663, -0.013568999488277101, -0.0424918468971046, -0.07114546184659579, 0.023669465711565182, 0.02209654310143858, -0.06658801004104045, -0.003751725943413194, 0.0022496813353375805, 0.0635157472922525, 0.027056746022129614, -0.0006306505917109226, 0.10708907369612365, -0.007468876551442073, -0.0044931866070203495, -0.07109279429256331, 0.008566284294642028, -0.00040311000576049075, 0.02338971313344565, 0.018881912848396465, 0.00979251805989187, -0.03655915233473149, 0.02366006569623491, -0.004184246278800382, -0.0941892551499237, 0.08477725878457212, -0.02092380436322377, 0.07887169751483261, -0.1256938449100542, 0.03739865798876302, 0.05002105674638783, -0.012772220758015521, -0.018414038665230732, 0.020107830168835335, 0.11518530552302725, 0.03867596395844487, 0.010276589540046998, 0.08404926004240974, 0.0015975528518373814, 0.00497313835930059, -0.04805225391567339, -0.07078612804562863, -0.06678813852439336, 0.026189585670815037, -0.005965024987432803, 0.04059132903820645, -0.03523449436876258, 0.029794273263969485, 0.006680258972902623, -0.047441166549284125, -0.04140419537843861, 0.025777935332837097, -0.07901883100634582, -0.008640128480780941, -0.09565975951736973, 0.02951497496364658, -0.005266999432147817, 0.01430333616226637, 0.053140944180949085, 0.0919603226670751, -0.07090067977990917, 0.022141903239985036, 0.07045805009803834, 0.03868493087954072, 0.14672247587701864, 0.004876487784839533, -0.1684690069440386, 0.04323806914380426, 0.049932977301812766, -0.0016159766287772545, -0.034824368273888684, -0.07130708511666567, 0.011976597166902844, -0.08005903928459693, 0.021373846121249554, -0.06289720842498478, -0.04823804671503969, -0.004148985994675612, -0.0392835582740885, 0.027621073796919693, -0.07553226742692677, 0.02458468801508593, -0.007983186863357477, -0.11692739513786102, -0.06323673658193292, -0.011822420858980812, -0.015184857838677537, -0.08022830008804402, -0.07154288454012299, -0.006821205516239601, -0.04680714495962179, -0.01918656355854784, -0.009159289689803927, -0.024050992630630864, -0.028142572675296615, 0.04103503898453672, 0.029509261495196053, -0.016202343809007324, 0.002695827228444463, -0.04715766282572954, 0.025278329043165525, 0.07833815251620968, 0.0968098873888293, -0.04914931443750405, 0.003728340488661909, 0.04410080260517609, 0.005915822760388063, -0.028740782325335643, -0.062336643974710185, 0.10588298581310467, 0.07849669534451294, -0.13993124124543818, -0.006023588390113092, -0.014580289660409015, 0.050212580672798574, 0.07442724225185665, 0.08713079892352928, 0.0768802373648333, -0.06746754064863703, 0.05692544595337042, 0.02963428224372165, 0.032301053031637224, -0.004157981803891589, 0.04117956047040787, -0.10161277396825774, -0.13018300009963274, -0.07358545888246326, 0.0643500682163174, 0.1004586675117517, 0.11152252396841551, -0.06952871867474779, -0.006427709388325901, -0.009328940033368859, -0.08348636898782308, -0.057639865955892815, -0.021885442391776793, -0.09344195321355694, 0.07423347697399403, -0.07200596740553938, -0.011703974592712248, 0.03318844522896751, -0.0008371915816401896, 0.047870491584635605, 0.01387787984646935, 0.01777912605110252, -0.0010319967631873621, -0.06417745740879069, -0.09002370163114948, 0.014653330870246591, 0.03835997065815976, -0.06307994753151351, -0.017569241596168638, -0.04374491809454222, 0.09585521923137744, 0.022397260181017245, 0.06931668986901827, -0.07726892855848867, -0.00523012972590833, -0.06331027805170032, -0.095488841364518, -0.08959843590497686, -0.026460345289474975, -0.002120394709316406, 0.07930227149525955, 0.01497587109141839, -0.06770437010770106, 0.02162046900684077, -0.11473606719271548, -0.0033774520616457054, 0.04294391503737848, -0.027973558509041593, 0.022195617280085553, 0.006671784428788203, 0.056267240013944626, 0.029397217169528755, 0.024123340492419928, 0.03737384102712698, 0.017388008215665003, -0.034170067380005525, -0.030837320934177556, -0.002363762968290229, -0.03548451417769477, -0.009966243724713735, -0.03327555643363121, 0.03411152793425769, 0.0005778961369554902, 0.06447164430665787, -0.003455944451779345, -0.009729736776312711, 0.0715033344161415, 0.00617751710111359, 0.03338402982858327, -0.06380712708465885, 0.05377249830162058, -0.04915188168652834, -0.08833033979731462, 0.031883680521489176, -0.09532056728286592, 0.05172579774891277, -0.003225753986869164, 0.00046063502153921576, -0.023374075564805544, 0.0044774053467197365, 0.014487047262574283, 0.023708863335424782, -0.002692850124321139, -0.054257460350368214, 0.013506781924643479, 0.06926738231470259, 0.036349016741437486, -0.03826788283016012, 0.009269726010755283, 0.02071832318590477, 0.03757216475674197, 0.01158509192420904, 0.04030271382658578, 0.04323433387090534, -0.04251581476238124, -0.015729903276587583, 0.06497048629776916, 0.07400645883953631, -0.02159585272037414, -0.0029428179126698047, -0.09829221323232713, 0.03498859955853893, -0.0652668250012525, -0.011370559988643456, -0.03037678964889526, 0.017090047225969376, -0.03839462022862625, 0.022863725017023283, 0.03634773366420732, 0.01832536130840137, -0.04679496236857525, 0.015511163816004057, -0.029053362726696907, 0.02387353367309189, -0.008043749711163513, -0.033509486827107124, -0.04726263348286782, -0.01778556056630354, 0.07394572396441892, -0.010111871005122031, 0.011156606596729552, -0.062425948603425534, -0.007604814295929411, 0.07867157192529908, -0.042107675832190765, 0.06211009531000152, -0.03378457800905392, 0.07198599024606242, -0.026088121297230153, 0.11103615803583275, 0.03800752670968932, -0.12400075639520114, -0.022304200317737367, -0.0725949391462943, 0.029992396364564543, 0.08991666184158387, 0.012855136423429845, -0.024091753157991645, -0.03404036334105132, -0.03538187766527014, -0.003935545213747587, -0.01938742985306157, -0.0017067303645792466, -3.9074667288828853e-05, 0.06514695649523919, 0.02677311509842546, -0.12695760855061433, 0.006751390495466421, -0.05902939473956195, 0.005861036991369155, 0.07959862910628925, 0.08397391580596937, -0.05908498699593529, -0.0021146708336933604, 0.0685117044666723, -0.03170208708192559, 0.05744467317625247, 0.04402171556709834, 0.028371457313512722, 0.07747291019882624, -0.022987477274335415, 0.01459409972402448, -0.04877512781898843, 0.011441968617301432, 0.017765758139970906, 0.03132526012290136, -0.005128897952006368, -0.007142367541894889, 0.0884804256546173, -0.030502110250924135, -0.1050610014084266, 0.018566301440547196, -0.054061648141447, -0.049819576375100594, -0.07335255972407749, 0.05125961356625984, -0.06252116703657595, 0.05904042742956865, -0.022906064880328068, -0.0008083246152467718, -0.02653290703905095, -0.024009063590928515, -0.06303569510961202, 0.0599292248664481, 0.009496875756297816, 0.05103960174887121, 0.003689657139205964, 0.018415065755197243, 0.033615939583639905, 0.017244710484940192, -0.009896470225502699, 0.021693019076480868, -0.036758750987300116, 0.01825269983052111], [-0.028142749038292898, -0.06153034153099966, 0.019254389205662657, -0.01759398963956265, 0.03743430654837678, -0.03661009417495636, 0.0066898909766711905, 0.042855558164345185, 0.038876606844402806, -0.0030539205827963367, -0.06832257071531773, 0.05918713228848475, 0.1072172978163463, -0.06856155545703542, 0.02693900257163244, 0.10111238010135318, 0.047000138973736866, -0.0989417305508622, -0.07009062586677763, 0.04788244561323099, 0.022288222299821657, 0.06554796279896738, -0.11621842874251755, -0.06956428905124529, -0.08631701104294155, -0.027570815937794278, -0.11898728418920608, -0.03415117621760004, 0.11609437895667626, -0.030347187749385163, 0.07107825201358316, -0.03668109499494451, -0.026218778439949426, -0.01846177760139687, -0.1475653095365119, 0.062481602191479746, -0.006633443000406756, -0.07566225592162744, -0.02292624620657072, -0.00867621951998485, -0.006046638786449716, -0.008456728259682285, 0.012508355646698893, -0.03560680688926265, -0.010809427293910842, 0.020065211806668665, 0.02789063628497573, -0.006257799568581156, 0.009113133332005707, -0.022042357280872196, -0.01760870553391873, 0.003936916512008123, -0.02527079956655498, -0.002057036580410382, -0.017914221093602557, 0.06552884316024488, -0.04467148067842986, 0.034433091121620324, -0.014483844550326922, 0.02673023205422541, -0.10063630332519226, 0.06075342520312306, 0.035439728742350074, 0.04783582694355926, -0.10608167806448544, 0.05873699046973023, 0.00489349503417137, 0.0007002757237434748, -0.002126906001453802, 0.03454666248086452, -0.024827891664475847, -0.08209911130836242, -0.03163869841147431, 0.12944395664293373, -0.046434109687237796, -0.0105780614192675, 0.03944115271987065, -0.07198113156290362, 0.028255436663471876, -0.025583827218263303, 0.05409261558722259, 0.07003362130303849, 0.008353189043465954, -0.02749751442760203, -0.07097600206113376, -0.061486733039784414, 0.02102194599119386, -0.17321452012177505, -0.031662961612735546, 0.009988694848946914, -0.08960601067857245, -0.019752990136680616, -0.010135740350135182, 0.08169785283947678, -0.07675470322218901, 0.07037457233098444, 0.06455902703453646, 0.011757289707563148, -0.02037383624581128, -0.06036579274653745, 0.041651024687909294, -0.16989091576919724, -0.001944338062642145, -0.0282820491942069, -0.04308626868072444, -0.007642468815578668, 0.03833075395808001, -0.007094880159579821, 0.08496351390808402, -0.0206514583095954, 0.07056876653787021, -0.05761116899794917, -0.03784149157328527, 0.045523417115861144, -0.030491349743770352, -0.01704927003353991, -0.007862691670569638, -0.035553883607171266, 0.022438893536714487, 0.006290019119378543, -0.09475922580553152, -0.03843497073676285, 0.0186994678783917, -0.16220125741035907, 0.07589722185986601, -0.06914164634650236, 0.04161598064433081, -0.01524122571385307, -0.003423159845095656, -0.08318082094238852, -0.07491906213417229, -0.037635583055014986, 0.07795569417810083, -0.02669469931788313, 0.08663961381952183, -0.025810703529736433, -0.033412637586734885, -0.027721160979766898, 0.007809455054126433, 0.09427876899674761, -0.061163980402250816, -0.07748945457007048, -0.0007592659403149633, -0.03898543805502136, 0.04669629917860964, -0.07070113845089637, -0.11048954823267752, 0.05582920789626695, 0.0445026232527241, -0.03765342170446718, -0.01800411113889004, -0.07130055613753167, -0.057215045945539174, -0.023165526886999428, -0.08125967648874628, 0.017394855288161322, -0.08881023256827404, -0.06167161979799764, 0.053640552812239395, -0.02284279345020914, -0.04890693097298265, -0.05684248570237683, 0.1299314487183428, -0.01935831541674684, -0.015344967715716893, 0.041292238129496825, 0.02503297174934749, 0.002341043229767362, 0.07112812900365516, 0.039024251349933224, -0.03455223185907161, -0.012285597598237781, 0.03444389158672733, -0.003586018921012801, -0.06381028430842454, -0.07209313672611746, -0.05273147381227961, -0.01382561620393493, -0.014564068732771189, -0.0275897780485501, -0.013033962777351181, -0.09275538744665122, -0.04307259206525504, -0.047983658950444916, -0.09511784862313483, 0.0008115705366569196, -0.024802191250891028, -0.042390342677708456, -0.00382577843810917, -0.07346337488688624, 0.02579129985465823, 0.06078726077237573, 0.07118570856807642, 0.006462080882700963, 0.05431935651774821, -0.04618727318524451, -0.023157741107755366, 0.05330312643313786, -0.02677190665659785, 0.039688644350633566, -0.05078789910764538, 0.07458590659658165, 0.007568533305132243, 0.09001995912368901, 0.02584648497935283, -0.03777634777981971, 0.08072966003434923, 0.017925476102489797, -0.020326723965979756, 0.032566665673652816, 0.033120247844743884, 0.04285138378857113, -0.10311775508113323, -0.025222747814179845, -0.05689216565173051, -0.02989069101918269, 0.018754260252836004, -0.039835215655163764, 0.031040140752910096, -0.013502167628177412, 0.03115318850853243, -0.005421079986249168, -0.007112992500668175, 0.004307520441233684, -0.03847038856664929, 0.02370962178228384, 0.0786208534756666, 0.006135154160573763, -0.13703960504758914, -0.019922508995897398, 0.02832385461676386, -0.03214149606309816, 0.033103113441819654, 0.03565019646144854, 0.03511025031239921, 0.09588406355657579, -0.07555194356461908, 0.020418684921608057, 0.0536100223149978, -0.07343644351345374, -0.021525450752367305, 0.006208006640660228, -0.050519745213414936, -0.07263438225544083, -0.0436424472727412, -0.046982220557405835, -0.030724106152466884, 0.016165078189525315, -0.03477473160556819, 0.017514261097109768, 0.03341710322352836, 0.017791736392096403, -0.03357680877405465, -0.04395649383223882, -0.04625571162987628, -0.026600256051749583, -0.0023449581074404652, 0.039270236518637903, -0.05269003224425666, 0.02134325427263841, 0.02837608134933791, -0.020259143730371097, -0.021916160192931695, -0.025272436549324283, 0.007822701393673944, -0.015609784754823788, 0.037264744139670535, 0.050507959803128284, -0.07560220403642787, -0.024201048845533216, 0.07310299752220853, 0.04980484195203887, -0.02494095741971442, 0.053565001436878514, -0.02845578185730449, -0.05505708125930602, -0.00874504839600692, 0.045018819866463555, 0.04123404742465246, -0.001868854979239736, 0.006434410333628026, -0.0020765556736736623, 0.06085921635902711, 0.027745066139001847, 0.07268726340636018, 0.02704144770022071, -0.07243349947971581, -0.0028894466997849543, 0.026379055095323865, 0.003027766760172474, 0.07016040184764549, 0.008489422149977334, 0.01756643817832903, 0.09114570293208975, 0.07103387573152349, 0.09286447224418132, -0.07743916729067965, 0.04154282254816469, -0.12276040864933377, 0.08806722108721775, 0.026419200438089555, -0.04618098280890492, 0.024424705117568665, -0.05589708955839774, 0.03539372070986636, -0.011460419309975106, 0.008555163829652103, -0.035627959360089945, 0.013067478914006826, 0.012304622338432566, 0.013120616140683453, 0.003594889733323856, 0.03126008924876844, 0.0363271883949746, -0.028727009318698413, -0.03390079679423229, -0.07100091723685792, -0.05186635500501404, 0.004559266127553704, -0.05393557558622732, -0.07874718644342217, -0.04188102031836046, -0.0541516572973716, 0.08341748194899008, -0.062194658218514276, -0.026047694266854965, -0.05583467360202359, 0.01286259349261884, 0.0028491517806280672, -0.009568819296515495, 0.038734568678328744, 0.03913921607446568, 0.058124469857874436, 0.027205330678674516, -0.010516088612563583, 0.0014664252395811743, 0.015607110623064281, 0.01259871662524361, -0.04884250520767054, 0.02512481996484866, 0.031114809547751702, 0.016390238120921448, 0.022915454484743858, -0.07143530820759551, -0.02274057834646736, -0.02779758233860796, -0.027802666984617763, -0.0037384536991159406, 0.0011152507776461755, -0.03383252681335118, 0.07118560908776161, -0.025387367061427926, 0.02081901704645403, 0.005565761383310396, -0.00592445316214793, 0.05585150742179815, -0.008442707548257149, -0.002320578574484035, 0.059621764964774164, 0.04391815333438564, 0.05093271465735194, -0.03127570664475538, 0.09227480561076064, 0.06370135263415255, -0.03907949585801682, 0.10565090893921708, -0.07038686025612421, -0.001490650714887526, -0.03424759499862569, -0.02475158137664011, -0.07174501044375109, 0.08390653275859458, -0.08835316634108807, -0.013269988570962213, -0.028148908202362925, 0.007575698275852194, -0.036010214067103516, -0.006392159499114284, -0.0334320200581034, 0.00885621744856991, -0.023727078317871436, 0.01024920942200052, -0.02734101777209802, -0.07398620906834125, 0.04925542248426042, 0.022234515437738262, 0.006157476101780364, -0.015680681317972643, -0.022129445575392148, -0.010916674695564423, -0.017896843253614566, -0.06883491817228159, -0.0048647771002403185, -0.042600895605298165, 0.05352947858379514, -0.06314173817095553, 0.017908284717917836, -0.10485331047304362, -0.012587489948752622, 0.012659432276738106, 0.10480131745670176, -0.11284255063649719, -0.03212056927170957, -0.041566206432261894, 0.014620209010534874, -0.012827185029119413, 0.05240872135623161, -0.019020161369594404, 0.062291937893663385, 0.07197240383527949, -0.01517065583105207, -0.09313669504540505, -0.015918237351574303, 0.021260044946665935, -0.15605301138092736, 0.001419357196831927, -0.13490086562960638, 0.05526503013200566, -0.018172984666778424, 0.0955367827533984, -0.08616066448528378, 0.034183295447258566, 0.009076261228421218, -0.07072495437963824, -0.038899865337636015, -0.030813036611991806, -0.08174454841033578, 0.026449453976108546, 0.07594606296159744, 0.04091797117909427, -0.04063803490608493, -0.009430558618534809, 0.05504194433302406, -0.027469865332143517, 0.04446446555927488, -0.028396887519712175, -0.02321126914609627, -0.04371772981055778, 0.00547019289305571, 0.06505115429262798, -0.0355494586269663, -0.023252712284960272, 0.06829074513257874, -0.09367170885578391, 0.043639670838420595, -0.053806505897426984, 0.0661679373293978, 0.0345585922083752, 0.056575481161777054, 0.06778837777231175, 0.03224778062359732, -0.06722419992210091, 0.017437749156779012, -0.023281539045250845, -0.012040888466380961, -0.007140049595513829, 0.047017437405610915, -0.018952705846433503, 0.012565416762971194, -0.027321867818887034, -0.03257375967667475, -0.025660313699506308, -0.08677399887370325, 0.019406420943489745, 0.018625879378682528, 0.05892740545019693, 0.027276972896407604, 0.026804332603619446, -0.11760289095184442, 0.09039430996680733, 0.08804130089106847, 0.010993640989186619, -0.031229736080386584, -0.038010867043088516, 0.063760168336075, 0.005513549242386911, -0.025798606867729487, 0.08289103956997272, 0.07117815304409332, -0.09071628956672025, 0.005907258422423443, -0.018473920296953997, -0.0260778689883127, 0.022304599526301594, 0.03598176002396878, -0.008605086832452612, 0.0507468933803468, 0.09687336509597394, -0.04529897875034173, -0.03465454430355947, 0.12220069097230078, -0.07060262786604456, 0.023645019612979178, -0.08765579558863515, 0.00744372571826429, 0.049188179933926345, -0.03375348781593855, -0.13122076473691208, -0.02540751849750641, 0.07252680946523006, -0.06495817350921154, 0.029812197143240272, 0.04723632322096046, -0.004555100788728736, 0.01718399176902879, 0.0397104484919177, -0.04844346336429071, 0.09812837305884724, 0.0006953296705297362, 0.0030824722900770975, 0.10850511717682307, 0.05307209205168978, 0.040075456834633025, 0.0077956448394485385, -0.04501833789176827, -0.009503115251812636, -0.037010999970601505, 0.026058489533288782, -0.014620321380048373, 0.0016098726888036977, 0.007051792436877166, 0.0094000106803425, -0.008038846081361746, 0.06916819005097453, -0.012289335241289567, -0.07582579710492336, 0.012466656253700676, -0.04788678855626957, 0.01572235819508578, 0.04614077936771156, -0.0044267292875512605, -0.05278402064903269, -0.04129685633486729, -0.05274119219115954, -0.02339820746135116, 0.031289791565776305, 0.042976991813497366, -0.11030259803734668, -0.004463345773313403, 0.00437366191682861, 0.016091054579136357, -0.05536552884124372, -0.0010072137293805192, 0.03423221117158356, -0.025094657981331602, 0.022117034561827863, -0.01714593546500547, -0.10583583106071157, 0.0011821918827502104, -0.03174827900093089, -0.13875651430535807, 0.1516995732501545, 0.012208897877075627, -0.047987474651509855, 0.11548719282569751, 0.006245127932969591, -0.03837891499841775, -0.0963037767060627, 0.08254342593952206, -0.054612796512051455, 0.10207558974389971, 0.02839271407589534, -0.04719661100187324, 0.055189628338784116, 0.017745700488259266, -0.023141131162309984, -0.0396670666131798, -0.05804630010990725, -0.028009768076253386, -0.004483492870797136, 0.03798016695222855, 0.025927791457620714, -0.01371927585447958, 0.06392883201428481, -0.13168036235013686, 0.0522146227624646, -0.026731877799421395, -0.005279260223637434, 0.03174118066549271, -0.026266358392259104, -0.038709418885047676, 0.030893820054016394, -0.014399985566017102, 0.035962185730363555, 0.017625575156191602, -0.14180409762329807, -0.012252020565572017, -0.02965159170990946, 0.016754590900854453, -0.03614747392136638, -0.05632031635463808, -0.0025420238487603667, 0.013947476154318133, -0.01152399042717683, 0.0842910092777097, -0.007588609836523533, -0.04770497470211873, 0.008524768163891668, 0.06585808988002803, 0.015632790478094936, -0.0045085604190157605, 0.03709071433602064, -0.04243686588325699, -0.08423238328085599, 0.012824243364009258, -0.01669710598347044, 0.02752666844198858, -0.03075558516502018, 0.00429427189561222, -0.01575228387927895, -0.003659317279768655, -0.00019118039276466752, -0.07823929497210057, -0.03851340256776002, -0.07943974944841911, -0.04295472028787315, 0.04710300485910523, 0.00824489419712412, -0.03669768424483336, 0.0408460402858652, 0.025178059161266503, 0.01937783736587166, 0.1302888015167574, -0.009972481294538475, 0.019992541442909732, -0.10746598212680192, 0.039878748504279964, -0.042417515755017905, -0.0027414723912254774, -0.004368445960738733, -0.03439575328259435, 0.004463868788457528, -0.013107378886488271, 0.04988945126304942, -0.00020513073706666428, 0.002702042571492711, 0.014775757290521552, 0.05190594708945875, 0.16259273342010375, 0.0238921409373495, 0.015379639217482036, 0.03421681064220914, -0.03600687011987624, 0.002041651217718512, 0.022381097828292375, -7.471546865160046e-05, -0.04734636748384619, -0.02293566717537302, 0.05749411145347848, 0.0007841295555359699, -0.019165272316609513, -0.16120087284101875, -0.09710782968421106, 0.04935307532102599, -0.032268704927706816, -0.01379712443068531, 0.005641084117067008, -0.04705826403712367, 0.03582103078623009, -0.04226481935539389, -0.0061321882993891404, 0.01625619596644659, -0.05123723569661778, -0.01245120258664119, 0.014766877411428951, -0.03177844614193167, 0.0404947742597587, -0.014515078993775219, 0.01553300248352327, -0.036328170063570045, -0.009751213079627568, 0.019196220130600277, 0.06560455658937146, -0.06265096787862617, -0.011622212145293858, 0.1835245567100388, -0.00806176515789016, -0.01720198595832129, -0.027129715726522622, -0.0663180730797258, 0.006938068028129721, 0.031079885956983983, -0.038373029275008644, 0.0388792037617963, 0.027486323554805712, 0.03256639630521642, 0.013629682279556531, 0.0903698892701766, -0.022799760135194837, -0.03460363892183456, -0.06613467276977067, 0.05365430210512889, -0.014279034250966107, 0.0443567929091456, -0.011773418554091067, 0.07257298024444968, -0.0610914512064843, 0.012063108367767094, 0.0307601384297957, -0.023600604747788547, 0.038523666154613105, 0.02807705052766728, -0.11469703961754005, 0.02109781053642043, -0.02746089226180056, 0.054089985056570415, 0.04556505928004323, -0.04117997476279855, -0.0013403751181301875, -0.045090680457022886, 0.05214860518364312, 0.00992271391258275, 0.004059139568843421, 0.009626487199003135, -0.005539237313642146, -0.16685132262886196, -0.02651681150245605, 0.0046445247241631215, -0.03879371510065027, -0.014525783280591328, -0.0780414535576093, -0.060275726156959177, 0.10727087544973828, -0.05720935471100125, 0.049758440210489044, -0.05891877180577018, -0.05393832525963785, -0.0036331016880473605, 0.038631917544852165, -0.00623228370144841, -0.01697002105491282, -0.03772163011803267, 0.032407229404279154, 0.004180325467524964, -0.02511011537699953, -0.002407968976455535, -0.031640940544023256, 0.03734634418452761, -0.04518802919970747, 0.007407490436560815, -0.06642520349948412, -0.005098750802415018, -0.01402289450127765, -0.032415880792145614, 0.0037895760402675816, -0.07179537982879966, -0.08503427886128218, -0.11417980534624057, 0.07397751826562007, 0.016848146773037555, -0.003055085867491626, -0.01654247984610753, -0.05379230334153419, 0.0630791197552534, -0.02601558823334721, -0.06358336371169059, 0.09124971113267984, -0.05606131040249158, -0.07576111325090429, -0.08947945718159309, 0.020829009946896765, -0.05633305248373838, -0.015020224920402, 0.016955759254938637, -0.031794427712312855, 0.05681653790582251, -0.067341834354629, -0.045092871463051826, -0.06173259000945937, -0.08153868832655564, 0.056288303300595914, 0.008102069665023614, -0.01499456150789224, -0.0841254981898372, -0.0607100993536421, -0.0142322561147435, 0.010297503932424356, 0.0031263794535631314, 0.04858521953742243, -0.09803677176493145, -0.0013976824165577188, 0.026527715200162384, 0.03987791648288817, -0.058942992393165174], [-0.06899658706419459, -0.0003150968586627187, -0.07217764303799314, -0.04648263873417583, -0.018120238144274884, 0.09467329874737371, -0.036815810875519495, 0.03024334430677993, -0.010806294513962837, -0.08493477162870557, -0.01582583746401692, 0.0031568708622267206, 0.008285420110029865, 0.02356915314238299, -0.0019611988202071734, 0.04433312131941647, -0.0846798918462821, 0.03266922001726318, 0.02424048615705647, 0.07172152563436883, 0.061941231857070324, 0.00737940721087573, -0.0015042653869608818, 0.036682511597965935, -0.003075728467048257, -0.005171687535690797, -0.06413991984541403, 0.12202764168120125, -0.09372731698226447, 0.04008749748155326, 0.07336284089969412, -0.03789614450090929, -0.012893910190299044, -0.044726263939076145, 0.010588359758358612, -0.018405749107792226, -0.044080271989441595, -0.026246576968724917, 0.05873218624692238, -0.08443905910901907, -0.016590548606141665, -0.023647738883076377, -0.03328575598083258, -0.013801981010604812, -0.0977350626160352, -0.005603514149584441, 0.03766045859433868, -0.01710771558063148, 0.043667904770653104, 0.028300923060549692, 0.001679126105960266, 0.012367640355931875, 0.0051102298690088345, -0.057800681575860206, 0.019944185600391996, 0.0004837367685417356, -0.03487276488779192, 0.0533670587987759, 0.03882852151834079, -0.012368064780191933, 0.007104300459754616, -0.06298735147822834, 0.03816065631328683, -0.07820752068753002, -0.034924198567831514, 0.029864259122957204, 0.04431908920958888, -0.005821163955969041, -0.09685685377449052, 0.0988578519240451, 0.08498042010555835, 0.007211420865008732, 0.09523547357931819, -0.016699337200425025, -0.0038920081187874787, 0.022528333202083015, 0.039538689186783875, -0.0036760343233973826, 0.04356798037983798, -0.010601174528656988, 0.0653072056532344, 0.026077734468178397, 0.01572397306693494, 0.04637954172192819, -0.04227595513209361, 0.05210450162336644, -0.040673092350485614, -0.023219408142038392, 0.02260403596507541, -0.031264974682947366, 0.026280188517186453, 0.029894746687787264, 0.030304424682213667, 0.01851752462914268, 0.05447377944887734, 0.05302905751127147, 0.030919605279664506, 0.10421849101048417, -0.03643176024543978, -0.04553825091771484, 0.05138474413589355, -0.0006980262565970491, -0.06116650915762601, 0.00772378538366675, 0.06839884968279544, -0.04922896090613913, 0.08394648810177908, -0.058029227421517726, 0.010319914039898155, 0.010303170158305314, 0.09898892323239869, -0.019765410815751366, -0.040818454095678906, -0.09044771499317537, -0.012011578327303558, 0.02527783796858538, -0.046870754992302845, 0.01660781588209485, 0.07924759241924742, -0.09419477137062321, -0.046539773155527785, 0.04754132749623821, -0.04484200280907915, 0.006224904987843193, -0.1220186990234687, 0.13239523172903933, 0.015565257426051977, -0.05420860294626364, 0.04698190446848449, -0.02788770899576063, 0.06859053766750174, -0.08644958069224362, 0.04986332635528993, -0.0700067569295843, 0.03220040824272262, -0.024598357452847996, -0.0040996890534353075, 0.04437678692437455, -0.06319651446974148, 0.04006004279537655, 0.05814785593467528, 0.060041950381968766, -0.03655160972933652, -0.0378339174073832, -0.032026067009917294, -0.027407649119333192, 0.09089069788130652, 0.021670903913350685, 0.08552035541806657, -0.01202590001683697, 0.004412741734584941, 0.023077478808213984, -0.0006116820679626223, 0.01424290924495445, 0.04751276765881863, 0.04840785617866427, -0.04495371915654846, -0.03885430966151706, 0.005279177825404315, -0.0028442482705387847, 0.006434833313553791, -0.007944011398507537, -0.0221233092032137, 0.07515056046126312, -0.034211021307993465, -0.008318597928803373, 0.02680946476717339, -0.06306402747110977, 0.08125975300782742, 0.05992553078032179, -0.034207311719299596, 0.02578491004986172, 0.03725434046914117, -0.10549264965379143, -0.018363385267498714, -0.07213008185590641, 0.018251868500749693, 0.05963731003450566, 0.04103222993872341, 0.025763893757240294, 0.07622199746553894, 0.034807966871652475, 0.06673277904619312, -0.07945068259322524, 0.007982814180337942, -0.07150965499347069, 0.03015474498687293, 0.005737713782866589, -0.005478893136625186, 0.017786422224049157, 0.07040334913189902, 0.0874878064952106, -0.04214981666309064, -0.015640741545475567, -0.012024605558851058, -0.005094521332844138, -0.009599979736950683, 0.021674520002935755, 0.018442849543460104, -0.05715458602738727, 0.03461859167126146, 0.05155615217804928, -0.016247137614026082, 0.08120707034676006, -0.017632061326357147, 0.031662946146514194, -0.01898613078327272, 0.004445347552885098, -0.001138424463493518, 0.05472452745273319, 0.03914892413372874, -0.04034159134445037, 0.051244941006346106, -0.026333889289952415, -0.011553556295311422, -0.0008095000412463109, -0.0667370267969577, -0.14606574145941567, -0.06473629479912525, 0.0028141446554559835, -0.07421795476993553, 0.02516317880046894, -0.01350521068166151, 0.07201616217165487, 0.08309676755031026, -0.06528626555763015, 0.023987003432148442, -0.02668068709146624, -0.022651481418149884, 0.04635314591535243, -0.011642450520106356, 0.04768848202738627, -0.003495026806811849, -0.08788606235994242, 0.09145916105709243, -0.00820268977427879, -0.10698980862979399, -0.023664149682700523, -0.06579525697569288, -0.013658272963150768, -0.052468106466199656, 0.09087153472979538, 0.07639446059558941, -0.08075001250625263, -0.04687363841842455, 0.0494782978722775, 0.05292557396721234, 0.06846195311655616, -0.015905527987232694, 0.009820694226272885, 0.09971624966056529, 0.004418131528119295, 0.04358663917652392, -0.0212864365958361, 0.06166349314608124, 0.03542575885264688, 0.008080062921810146, 0.012962303190271175, 0.023363501826836122, -0.0284302832676408, 0.022324872211410867, 0.036482424346139034, -0.054999724835856884, 0.011317945934241173, -0.059633251784002486, 0.05026091676969197, 0.03772710240606915, -0.014722934524007832, 0.10756584555620244, 0.011988589005238828, 0.01331365119200212, 0.04040510123076656, -0.04705502731004085, -0.07786007900228556, -0.022435369217571492, 0.0638546214255057, 0.05543159019414062, -0.044617548100860105, 0.05143100891505939, 0.006913043184524569, -0.020254964098077248, 0.09135004612393076, -0.02603168599288079, -0.026988227692858132, -0.05973342923945836, -0.06943456684987732, 0.009037703918366467, 0.026034084790053043, -0.04858372468566557, -0.03048022150121192, 0.03063497814260959, 0.05194887741003303, -0.08474566931248752, 0.006018318757143876, 0.04090473630583513, 0.0700037632911018, 0.038225804265844064, 0.07915543340203493, 0.0009851266480249514, -0.018344112713271566, 0.012356436901083593, -0.046434578674008395, -0.012995659776001879, -0.027990933919869572, 0.042091412417606056, -0.11606055656219286, -0.0652094467073474, 0.0008395712334392659, -0.06181703428653029, 0.07406469600933901, -0.058226874066506895, 0.0246016572847651, 0.05931708675469287, -0.03846507052390503, 0.04268303509721796, 0.022761930079674666, -0.037498484526511056, -0.05912634553692554, -0.0641321586176659, -0.03492566087806617, 0.04743308571550383, 0.07120604275074469, -0.033649802158366604, 0.08505606051239785, 0.010727498101686786, -0.055378014316840786, 0.027390127252787128, -0.03945829778890291, -0.09986703371618644, -0.02066654652579839, 0.06045588895422526, 0.0034734301832851423, -0.04630316950159327, -0.031103895710289774, 0.07124176868819274, 0.014684295592033594, 0.09500391977956307, 0.02630963456589405, 0.0628510071080988, -0.008700798376291648, 0.03405835322461844, -0.03301937152874938, -0.02302304927884911, -0.0005419792569325171, -0.015289646563984566, 0.05439862331165361, 0.06738029147271093, 0.0037760343293927853, 0.016746455174372173, 0.11330178353082108, 0.019290995936357653, 0.06135127601176643, 0.0303431725734755, -0.03797322668105389, -0.0450072142553059, -0.0019357018741492104, 0.03910792373493734, -0.0343063794178106, -0.030019694965009405, 0.000992753639171449, 0.038080088847653015, -0.014234414742376801, -0.002779798650555261, -0.008567846507013806, -0.016332947293233736, -0.04151639331982776, -0.09677112608088115, -0.059981949522223216, -0.09080178723505315, -0.08052440525688945, -0.013470999610448621, -0.051849648423086266, -0.0022828302675781406, -0.02347375546758177, -0.021156051619921835, 0.015377590408087538, -0.007651285685278325, 0.03048840690854168, -0.02484343451284314, -0.018904813176317394, 0.0501108369332458, -0.07868904565905599, -0.034500916786292544, -0.047790532404626586, -0.04808371829435941, -0.08713905110874337, -0.05398282337692864, 0.04883378705040666, 0.07058406287277766, 0.01861271233787908, 0.04615764375241882, 0.04559716096910969, 0.019209402297099398, -0.003783029215155268, -0.0236526008828227, 0.05759346268633029, -0.06890411433289072, 0.017692593257219946, 0.03161132509688739, -0.0030333469605164603, -0.08616017787626076, 0.018182043954555527, -0.04860831583812727, 0.0838195296355196, 0.03500325719991196, 0.06780200755969716, -0.03821386267263199, -0.09742584979453235, 0.03196133012133213, -0.008032558654535279, -0.055615938722500646, -0.0002964011159611902, 0.03241217428969445, -0.06851588385323402, -0.00581433855829892, -0.014426736010871164, -0.0035863721035507483, -0.027655363655358006, 0.0035834668137437083, 0.054283777744653657, 0.050447160351738636, -0.07332220358112627, -0.03376009418130354, 0.03482466656378895, -0.023588544966171517, -0.025423533884570398, -0.049208491619326084, 0.03911366619264426, -0.05807537102508765, 0.0011927657260999024, -0.016386212410001235, -0.012950092484339058, 0.024807098092952666, -0.04877638322918164, -0.029415377649665158, 0.0133859026173253, 0.07306190510490815, -0.059775701885575114, -0.04466710824308505, 0.05572717322380027, 0.06762315828709038, 0.005206457813553688, -0.09736504867128497, 0.055645900538702865, 0.07519801925191053, 0.08081061166698686, 0.009193049388363331, 0.04944165723547523, 0.07762077747056068, 0.009622634782505505, -0.04485466976523099, 0.010824325604469023, -0.014288701992830522, 0.005377668148284219, 0.04164854086677489, -0.0849046299845684, 0.021254761735937926, -0.10648949135239563, -0.06582211672854174, -0.013680469791255362, -0.06419950621904902, -0.06114939725844246, 0.011537453338563004, -0.10158763891330203, -0.026633150900783584, -0.0029650270188835235, 0.048057569282983714, -0.024290505481373507, -0.015335752875512376, -0.012573662363559873, 0.000985187273328843, 0.08894124832891552, 0.03450606036438755, -0.08808718692015688, 0.059134258822086776, 0.0263673777599139, -0.023527693709225434, -0.008457289200499837, -0.011264317980845989, 0.007287981364065982, -0.10059714176470985, 0.0922298055902423, 0.030761129378140014, -0.05945772657110116, -0.024495856964146773, 0.002342520859761111, 0.0017369347039367115, -0.04380150492388691, -0.0699610720031243, -0.007066153935516761, -0.06817209135896123, -0.030155389636135104, 0.013050849073673484, -0.0006153190344442232, 0.03472922632132829, -0.08886229565889325, 0.017257556707896214, 0.016079941463495995, 0.03647986263878459, -0.035896621729187235, -0.07366053700231182, -0.002534339543046127, 0.05080584373334817, 0.06098867886509087, 0.019321356319319118, 0.02109472923275101, -0.0460885265242542, -0.08562993663219216, -0.06367100346328344, -0.041591673336495966, -0.05673466855810391, -0.03151377798224503, 0.07523769537191712, 0.01867413836725722, -0.02003373580965049, -0.023149137842768824, -0.06254016727634434, -0.01895199579513148, -0.08160456698773184, 0.006571980987750435, 0.08336145536112381, 0.024845012548279023, -0.03600572159466672, 0.033875339943334526, 0.06722024535504707, -0.03457240298610352, 0.05245832995968479, -0.0026206359046809713, 0.13246299524024102, 0.06773998098638702, -0.03557572245415999, 0.09763076464132259, -0.04484343378897759, -0.008138095727044568, -0.007367461031678796, 0.031547159504339506, 0.05075901978737177, 0.05360583593911993, 0.017261897218781637, 0.07677325483426053, 0.016392603265253932, -0.008656509026351622, -0.03726688490175989, -0.028137420955666043, -0.008633025442634303, 0.047621889515129426, 0.06153338783167307, 0.024055882330636463, -0.010504413229887691, -0.01829203103447433, 0.043933996662609796, -0.10843765657081764, 0.011949535810670844, -0.02851815815541552, -0.04561775948525405, -0.0018550721775811858, 0.02551981268565657, -0.00990451786925292, -0.05872608172282744, -0.022336088204924064, -0.02447212545103162, -0.019279932305050537, 0.04991108156727498, -0.0059096050656473305, -0.015336983035334916, 0.05226121029910257, 0.037427448317578375, 0.05031301427308785, -0.008643640901360645, 0.0165311370656252, -0.07226007071848989, 0.06727666164776167, 0.013733747992011, -0.0882385030879321, -0.09591483852085617, -0.054177465005541846, -0.00021251674369925007, -0.006322368265091286, 0.12161075387784195, -0.014279766040090477, 0.14298818407503905, -0.08796205901712156, -0.029028309768236442, -0.09049956854913825, 0.009525903367558682, -0.00818780082880942, -0.04944425385814629, -0.06009287054781182, -0.07603172155211035, 0.025707860862568894, -0.06170170636747753, 0.017325430247575185, -0.012012941085471308, 0.0635164220959663, 0.0515707272463164, -0.03535886054697261, -0.04643769452296576, 0.03005646957786784, -0.018441400618153962, -0.04023676757133926, -0.03243760692839547, 0.029836660301241016, -0.057915349912001916, 0.021171387230170563, -0.03947326639617661, -0.027582900317513946, -0.013629276726076467, -0.013348281853156174, -0.03876651803474337, -0.020448928368178867, 0.013607056319088144, -0.054751180466855585, -0.00805047621410547, -0.04091595590131472, 0.00016861699437661348, 0.04189019765813353, 0.06277581137540528, -0.03338458001487675, 0.014644066950240791, 0.06493902095564516, -0.03677373152529807, 0.043847084746941205, 0.03173239610285514, 0.049672340327197244, 0.03767326531553371, -0.014129255824440239, -0.020997761192658716, 0.06848973815929604, -0.017077649294588954, 0.0132764031285488, -0.0028771416772690947, 0.02869038266712985, -0.06076164483415428, -0.025761329559165515, -0.027996758837048524, 0.03831460901616853, 0.013631127114804268, 0.01558441014162412, -0.055718220198181664, -0.03472204097269659, -0.013434447456600083, -0.036487939055303655, 0.0458427780614627, 0.014235640981798572, -0.00665554650310462, -0.0099558321702031, -0.05204550687080589, 0.03254655316857056, 0.0334864013817252, -0.0378156346214574, 0.04642758150305364, -0.024794806694296186, -0.03975731449698704, -0.04908264634956074, 0.043036233608882014, -0.04361467185034419, 0.07417681038497731, 0.0715797955093045, 0.017244861896704832, -0.020001610989352166, 0.05820387998565853, 0.027851941228954177, 0.057210224457670406, -0.039752000181166376, 0.011646904632593156, -0.04167439004365329, -0.003716787351276865, -0.010368617522801007, 0.008953054676392378, 0.057724192759010105, 0.007506064205436969, 0.025707186408297906, 0.018135556969616596, -0.024806286230076875, 0.01002027763087662, 0.020920291293881607, -0.0885156886091214, 0.07069161034831097, 0.003781939342469526, 0.032227737339465164, -0.054798726270303404, -0.05126888828439826, -0.025641080994900256, -0.03190521492111596, -0.013158282526649802, 0.020529559471171164, 0.0194521971997246, 0.016693952217022603, 0.016051119083053053, -0.02569152101098235, 0.07589438259821664, -0.024061528448085723, 0.0025554956430486665, 0.09422789751517617, -0.030074737123821856, 0.05634387734333532, 0.038413146369942267, 0.1464774607835036, -0.03783910248923616, -0.0214018174311034, 0.02036077970679741, -0.01650135009493657, 0.026347034929532203, -0.08848817282757175, -0.016362081462075535, -0.009934764144263393, 0.08666793395467083, -0.019218971416008684, 0.05887736382666183, -0.06767727764284429, -0.014440713962072233, -0.06036778510810144, 0.03081595166224695, -0.035008440397359265, 0.06700427355986079, -0.013275727148588379, 0.1105602663597919, -0.01569707321600972, 0.014628219676506382, 0.026216287482232672, -0.12623699261581953, -0.06285534692768067, -0.013620289770079286, 0.003540897468590018, -0.07310114302574157, 0.06827816044054505, -0.046262304020986904, 0.0382501222344394, 0.017645519962410976, 0.07213476709251065, -0.004266087334135686, 0.0294628810242781, 0.002361941950967223, -0.01421276540316597, 0.0016223407166079862, -0.0016581253984669316, 0.04681283410782819, -0.03698336305323466, -0.01715638868152963, 0.06825088632197276, 0.06907203975716235, 0.1261709572466733, 0.04805775431565395, -0.013206457537076886, 0.06098227096962755, 0.09151076507563373, -0.04594771264359912, 0.001748461022419471, 0.030280848036635864, -0.029705666370589252, 0.03328331276004158, 0.0291792561498045, 0.04246908621813928, 0.015936212451146545, 0.06237011479518184, -0.04173622428405443, -0.018647902070538163, 0.01601656998020029, -0.04656864939982848, 0.015758492664192266, 0.02416848545654145, 0.053055279357509005, -0.005588946068921932, 0.03913841401127745, -0.05095497505661791, 0.07401914872267487, 0.003200122032305693, -0.0077124689852239225, 0.010329559593377412, -0.004803102553731962, 0.07632823773985371, 0.017697066001987, -0.0015826248439517522, -0.0043473996393759064, 0.03735159897757642, -0.0028626725093834162, -0.055397597033433325, 0.0033413516232830174, 0.03277669467864752, -0.0412712239762554, -0.03527960956437047, 0.02092671320515038, 0.03963707675249909, -0.03390907961593019], [0.04867799324476383, -0.05553813205269866, -0.04990668520569983, 0.05938317674952329, 0.01285634505965148, -0.024842421348862366, 0.003569913167024584, 0.08892109407845258, -0.04263845500875634, -0.031621844197235856, 0.010780851484593734, 0.039352658899436115, 0.054648618807253954, -0.057514965652233394, 0.02048733223311079, 0.010077517450930046, 0.051911635977254095, -0.02361958382982914, 0.00481775365751673, 0.03487372368608463, -0.009456001530613219, -0.01554010275232261, -0.0701759023147291, 0.06754257675581368, 0.02384865266853519, 0.0028121107171632767, 0.08066715583018982, -0.03041938491079684, -0.0038078309176314664, 0.013847185990197373, -0.04196622807817545, -0.035455284441728976, -0.03673221616416465, 0.0002417060395182279, -0.00635479526580114, 0.03940240842822879, 0.008905743170938072, -0.03529994107093129, -0.004807867445940689, 0.08240078616427854, 0.07356130496925009, -0.013821983960767623, -0.04439290423214793, 0.012880714746548895, -0.03772673302019861, -0.10156780492397761, -0.11563602367459633, -0.08248422563605079, 0.08355648220687438, -0.029770770512534423, -0.07285057856892577, -0.025942682760110056, 0.02140242774035617, -0.05394049817219821, 0.016884398866705844, -0.05325068643015583, -0.038341431120696136, 0.04086157205357696, -0.009359737137881177, 0.022610425380349793, 0.004151835111950453, 0.052401230389415084, 0.010456193863465085, -0.026719438226551557, 0.01347949641561634, 0.0707913412755576, -0.0033499040319419624, -0.008964925991990105, 0.007512605575097807, 0.03492538729245231, 0.05922569291463665, 0.06384321044809067, 0.05381018088180607, -0.02747463037003757, -0.053076622147035374, 0.023647524233735697, 0.06113635354787793, -0.09537105615299073, -0.09468837929859449, 0.02904122489527369, 0.07127702760136122, -0.09164790005738398, 0.07122671297367728, -0.03694366915342483, 0.0115288868994118, -0.020960912176471468, -0.06928643393362985, -0.05567784517061532, 0.003491966914372103, -0.00971110255679308, -0.012233052415923039, 0.07717786848058864, 0.11661740734406732, 0.020458484018761162, 0.013145521484465506, -0.037497228248826335, -0.021108147604134528, 0.08953831110236708, 0.0650812378274056, 0.01553440794931966, -0.03827478178621499, -0.057260459524891234, -0.012833767764118532, -0.05476691735627335, 0.039560232207242536, -0.06277888960003185, -0.026931662238327183, 0.0052327049283829126, -0.03652646750372567, -0.07625693755381353, 0.005480750661522014, -0.032034882291733006, 0.04947975939720472, 0.028490634811785067, 0.002764707774381168, -0.00717964204164015, -0.015118584593431166, -0.03346216907161229, -0.08263190238966546, 0.03688153871608954, 0.028002427151963844, 0.1017845652868742, 0.04354033278754122, -0.03401387838037157, -0.03958983956821586, -0.03287452152471342, 0.09113759606677986, -0.0555847251961612, -0.05750171484429101, -0.05621699295240097, -0.03483196012592051, -0.055987786143922885, -0.07955930097326948, 0.06734222778463665, 0.04647044314887385, 0.03738243922696072, 0.03329195159440085, 0.005455822891472364, 0.04486685861914727, -0.06655188041849909, 0.03186457932031307, 0.08315787344976264, 0.02503843453062027, 0.03030631330679734, -0.02722192731391222, 0.017066971237244696, -0.09442198661696861, -0.0039596140369250335, 0.01606634700465642, 0.06420690188717114, -0.006731121679690854, 0.03245214456653306, -0.010193302796620273, 0.019388941382254898, -0.02187443986707785, -0.0373645379750299, -0.056060580482841356, -0.08527307176535531, 0.08336148659656001, -0.05826578920531193, -0.06598697850539446, 0.02056012237262965, 0.05127932864840613, -0.08565182259428482, 0.039319586942469585, -0.013631211444846353, -0.02505051876827599, -0.0914638789318132, -0.03866149079189151, 0.006746600255312433, 0.02084716490608896, 0.043049931334721306, -0.0555177943174778, -0.00756698930210966, -0.009826497836308724, 0.05197375489680187, 0.031842535691242096, 0.023858157525598323, 0.0465083705620757, -0.041806315994948516, -0.007727284704139337, 0.002475072197222551, -0.08240485969818788, -0.010788647449481352, -0.016507859815112505, -0.06529568889528584, 0.04096140343196087, 0.007464716970271039, 0.007149146287626047, 1.1398071018738384e-05, -0.014955533373153957, 0.004566589342907101, -0.10636476549418208, -0.03802345422024769, 0.08742323078485226, -0.0014676597666844773, 0.005125823389068174, -0.026283120530314303, 0.005807805462345148, -0.05994218229631547, -0.060234358037304085, -0.07516626298054398, -0.02849992241473725, 0.002885892103652619, -0.04560925280482379, 0.06247108301843466, 0.020095470405579567, 0.012745455933597305, 0.004561510099635977, -0.033575834220937406, -0.07044507190833282, -0.10495136821772331, -0.04101105036863951, -0.07782198998097793, -0.061893612015660425, 0.0015526473465605226, -0.01112901398893591, 0.004839399139617396, 0.03338115993991554, -0.035257143417530626, -0.005778194054979061, 0.004885776574314391, 0.13109285256022682, 0.04063945715313829, -0.030695035424227534, 0.02563571439177916, 0.01532919983780093, -0.05529526053912681, -0.052351901398513145, 0.02751927469697068, 0.01884233353275024, -0.005396678185558453, 0.037619459927287956, 0.03961841008658277, 0.07584886445426434, 0.0017044870975733823, -0.022602217838413916, -0.07507543118467865, -0.03624232000248764, 0.001427304708131838, -0.021757605220660378, -0.0012540450285422103, 0.028159956725662193, 0.019767784555737106, 0.06394751848305165, 0.04579284547485687, 0.017922687726266536, 0.017240161587919613, 0.0815055675145258, 0.0425135267959459, -0.013996148403894612, -0.07526819895499397, -0.013921811212197903, 0.02929018717368533, 0.046623066589699544, -0.037714765810774584, -0.10100185982084456, 0.1285150988584121, 0.05651752010737446, -0.0709275326582237, -0.04494945751659302, 0.015739031042103856, -0.024296548924413765, 0.06581238724192219, -0.026559320604966765, -0.08636895324548527, -0.24135883027674804, -0.0946733790869412, -0.14095495767534666, 0.009713332180924404, -0.06426861085398464, 0.031199894090991647, -0.0264685709693166, -0.05094117223526116, 0.014407762042052848, 0.01774509697893663, -0.049599805822998964, 0.002710146340359027, 0.009478196036922577, -0.001675554924277716, 0.09681458874034182, 0.006204738638573272, -0.022969620598653095, 0.007320132790752608, -0.03181967558875628, -0.02393026287405011, -0.03854541734307823, 0.040693914568407305, 0.11629877072832046, 0.08544344989371946, 0.07025522897906666, -0.027948472849271634, 0.06776114464267065, -0.01366842869502881, -0.02789113540135176, -0.024937109900067794, 0.03378620653583462, -0.06914010035130722, 0.002692201172821546, -0.057402363696600005, -0.018499852514509325, 0.03603037939531062, -0.08108609189129361, -0.027876629319304767, -0.022238766687912203, 0.04005053216707938, -0.08470795895775801, -0.008191336027714099, -0.02191589029299017, -0.05250485437205994, 0.004169161474220069, -0.01507780926508317, 0.010474934978694343, 0.04141103427050277, 0.0835193156829866, 0.013240996259089354, 0.009139177334766694, 0.016305799270166222, 0.08512934888824834, 0.08831319137136988, -0.016334801716087033, 0.01398501845825457, -0.010458666236640907, -0.008827804723587528, 0.106661002932972, -0.03915403659204658, 0.00151747837264842, -0.020712918737107237, -0.044947651152071146, 0.00790493965423715, -0.04760760049618489, -0.02002816961201608, 0.048120750151459314, 0.03195533502623676, -0.03391052067729403, -0.015191459537811114, -0.07899968700821398, -0.017662018052232987, 0.003656452314784808, -0.012526178100128314, 0.04126142938032839, 0.1749524742730157, 0.1149438913304665, -0.015697497315041987, 0.030440831051516477, 0.02835647950388133, 0.03705569780432925, 0.024772946744501784, 0.09532100767598052, -0.031165576856823266, -0.03889184356138406, 0.07829531152508101, 0.04224200016202308, 0.01522408697850665, 0.08224208913752645, -0.023757156068243714, -0.009592128799979352, -0.042819495402898436, 0.047202349523850974, -0.0283814089075301, 0.04089602040500797, -0.021151637785084648, 0.07749543162014975, -0.07374098680620714, 0.019727855981840868, -0.008085464519966522, -0.08689818603360298, 0.050749226421399785, 0.0191451433688302, 0.005359582652565426, 0.022470615682460796, 0.02931154616035081, 0.02728902958947825, -0.06632692377182293, 0.06186595408277823, 0.11114178673835472, 0.022083109173019554, -0.07907387869078653, -0.016174674433467068, 0.05256455562997392, 0.0038865265700797967, -0.0020060903320920304, 0.020308135197261032, 0.06475207193352181, 0.09114935054506064, 0.10131022323626974, -0.047977809241134366, -0.0054613477710048685, 0.011004653625752021, -0.014972029292664347, 0.09388665994192084, -0.10260527551006411, 0.07048310277509286, -0.05845080840656599, -0.04849991411847299, 0.09703934091879124, 0.008036179127814213, 0.03832607504016449, -0.031369240463394066, -0.0329247358253211, 0.0699229268417146, 0.09221293959880077, 0.045384021097239595, 0.05019022816813661, 0.01781884374107157, -0.011554433938988829, 0.03483212987184074, 0.017977997652105834, 0.034617265867631114, -0.014950312318494682, -0.06654494735715426, 0.021332510922515816, -0.05641544301922596, -0.0649685512074815, -0.00631172431528629, -0.04479101959831864, 0.037027070958705964, -0.08427694411748815, 0.04546611772885272, 0.010444914487521167, 0.0365669571377418, 0.018398373940167363, 0.10267376191854502, -0.04365361371791548, -0.017019879583834465, 0.0759696130747552, 0.02385903527565651, 0.012473553203958652, -0.0010460304845152015, -0.03689415499940516, -0.02048996891388434, -0.006614283689350472, 0.01863925437927374, 0.0840059364644645, 0.0021638032336905983, 0.019310234752932233, -0.02554825957005171, 0.052984867553080725, -0.016803840144997736, 0.008161248157536407, -0.0019027249818545373, -0.005127449717122441, -0.010967002588501468, 0.02958087398762508, 0.0152221510744601, 0.07994170052162546, 0.06140965520788142, -0.0028048693611234946, -0.02375690139397781, -0.037353156955464005, 0.02415576865117914, 0.006346237860278639, -0.025446404939136753, -0.042115012712628165, 0.08736059009568663, 0.023582283453915786, 0.02933274130629106, 0.014099977986448057, -0.04608245015652607, -0.015086051903534603, 0.02525892646409225, -0.03691737257844689, 0.03713601550253446, -0.03269482745126607, 0.06605480326180677, -0.07725053409094977, 0.05394998003535999, 0.06862559487711951, -0.04557328474518384, 0.03618284815884362, 0.021332796018588583, -0.11683480024642592, -0.09153304040254395, -0.0808412996775386, 0.10004477656248692, 0.03269163090407332, 0.05675502951392166, -0.11418922982061387, -0.07213124168715003, -0.05383749520832936, 0.022259884527665617, -0.06384336656713066, -0.030382595599802657, -0.006028236809281549, 0.024566712731702335, 0.0232050894471461, -0.03555736002383066, -0.016164944230541035, -0.02444870832393432, 0.009329957538591834, -0.035632501357887265, -0.011706362608758333, -0.049812919682748535, 0.011989506799995697, -0.00309133237356259, -0.0008905049449225127, 0.06752747754066679, 0.025999566256382115, -0.00676119069885995, -0.001972120666817518, -0.011939865799031823, -0.0482971400970507, -0.00872118306763042, -0.03850315296044946, -0.00030361602004772643, 0.006306045944305499, 0.01915493371593272, 0.004572987261820121, 0.07926980284898588, 0.0008357316566377706, 0.00945137860645594, 0.03454162979835965, -0.04384815786212504, 0.051636332612326724, -0.06844254036894869, -0.045919875804067894, 0.014130852884440579, -0.002740123444352335, 0.026121884628814124, -0.11630355983543957, 0.02363000695929374, 0.025240377693849264, -0.055874411230629556, -0.06191953776646296, -0.035959800961049164, -0.03401176823580055, -0.06587087307913746, 0.08630741361563456, 0.0611363025241972, -0.04830919366004822, -0.060693613177812286, -0.00554513811576401, -0.011098199618810586, -0.013950296258473674, -0.09571963368215117, -0.10748984434528643, -0.05459480157822082, -0.027698001492363254, 0.027966480271967534, 0.01275549662101333, 0.01330981439750517, 0.06902675064664054, -0.04206340717035302, -0.06079252504967578, -0.0440788568937227, 0.029383214258837297, 0.06500748192160186, -0.01147434958411493, 0.042302927970868515, -0.05364772272019169, -0.019137285351156386, -0.048184000520163986, 0.020248753806752035, 0.0069412636427299895, -0.046665615621135643, -0.02953275336608777, -0.012898784549700835, 0.027141548547792275, -0.04063232163657017, -0.03160877965427383, -0.1347393803413914, -0.11912707845688099, -0.014290251546752212, -0.013253233824196653, 0.01714535255856845, -0.04696904764442071, -0.047359725489024056, -0.005861992412266327, -0.11353856783897198, -0.04486139030863362, -0.010771852295186794, -0.04894514996038402, 0.00521178429417931, -0.06307198288440678, 0.05218677259171983, -0.0024457522861080308, -0.05806265528743436, 0.05535567703611321, 0.09033583971569509, -0.04790405535848121, 0.014150102334873873, 0.016313672697485383, 0.05905019317304043, 0.005506833629655264, -0.003876803550625615, 0.006100226501209467, -0.08054909685231967, -0.022269968672486973, 0.013555534077591807, 0.012665290340866399, 0.028374568160781787, 0.030674688047525163, 0.0123893693399636, -0.009222946802607499, -0.032460126622036775, 0.010073154156882093, -0.013389579420574811, -0.01858648461651358, 2.9485625894400273e-05, 0.037227428374550266, 0.003502172632744873, -0.059188125338132114, 0.017674150577126967, -0.011316727827811457, 0.10523331963914358, 0.008578108829072475, 0.03420532239320938, -0.011429350866218142, -0.02795123017197859, -0.021065218920423876, -0.0446567334521121, -0.041590190291637415, -0.016061743396726436, -0.023541229142455992, 0.03116989811965247, 0.060731353499870105, -0.005869177844427972, -0.06769486864683608, -0.023474874198576093, 0.039948824525883976, -0.00781751938199537, -0.05775268419838636, 0.05039615881017057, 0.03470087809594375, -0.029639352738619673, -0.047504768630209866, -0.03022959791627511, 0.05437219703189109, 0.03579002896632989, -0.06399344440968294, -0.018517112507752915, 0.023677752837950566, -0.014358577197627991, 0.04287662836089995, -0.040789782337238116, 0.03419307439565087, 0.046949944582628356, 0.024813705140651787, -0.020932500649448148, -0.07017585873179677, -0.042736632096240415, -0.03392782244472703, -0.12384811415181536, 0.0793725774399279, 0.025613605000385294, 0.05740377108043306, -0.0748423014524481, -0.0006193298612206298, 0.005708780865761639, 0.012481404876651838, -0.07114236358438401, -0.03657619621749715, 0.016448585413468792, 0.030764152084472446, -0.03213500922914772, -0.019931346135916246, -0.016588801606461135, -0.010420592895211946, 0.005709237555874243, 0.058511237308192694, -0.003427894602171967, 0.05558760676711482, -0.01092414506772574, -0.040084924636524244, 0.019116742657570265, 0.13724391278944048, -0.014625891450965668, 0.026576493378219698, -0.1011960202044824, 0.01022148362955661, -0.0014354425873407016, 0.055531529287978595, -0.037022588036671404, -0.07870883472836228, -0.019082331542507543, -0.00913611034944489, -0.024511913945989745, 0.011612589244853911, 0.02309522035379519, 0.015167055798884114, 0.022564860890438073, -0.004064528615975303, -0.015265641035263412, -0.05884134794592386, 0.005457068438793131, 0.04595447636276563, -0.05349995348273926, 0.008596467788516351, -0.03156133616775041, 0.010393067855486215, 0.007405887626595681, 0.0051501243767956605, 0.03213858750886616, -0.08531839914070302, 0.03841287633503941, -0.0302692175244156, 0.017519694355215124, -0.0440969990303032, -0.002352329017020548, 0.062042931586534136, 0.06400387940939607, 0.026898559363853786, -0.09644074842456266, -0.03785626337619213, -0.04955228846242278, 0.05715762120438312, 0.009371413427064375, 4.9202497802182496e-06, 0.03712123373759484, -0.052686182911448505, -0.03463879664528438, -0.04598277554730765, 0.10833722541255333, 0.018333242138088263, 0.008543276148550192, -0.024159745190082973, 0.06648590828041472, -0.08082378516694946, -0.053997999371156985, 0.012307090979983643, 0.01731902780258665, -0.09296988430652063, -0.02162733400947812, -0.029722466987166376, -0.002908936034050797, 0.051783812957236205, -0.007683892409966601, 0.01001197348468659, -0.041331477930359385, -0.0435495899724275, -0.04240010619852441, 0.05234947110987591, 0.1476999320589581, -0.05207172037919026, -0.03334459505840043, -0.013284124009839486, -0.007633413203101965, -0.011435196661154157, 0.012560178052842012, 0.021039582140635994, -0.006336348752644982, 0.01216970235929386, -0.05537856149820602, 0.06397760827712423, 0.019207499838683206, 0.009747660721140946, -0.06007170048508737, -0.024451389631196085, 0.007228610451897649, 0.024725115060280283, 0.034466321377992735, -0.0036523872988612274, -0.046642868759847224, 0.05019309187995917, -0.06323095242178756, 0.020932194600745333, -0.0021464640386115535, 0.007704834055999622, 0.06370888717833618, 0.023119627762652566, -0.05070083875236804, 0.04757048395968983, -0.021896126314316967, 0.03999038282599819, -0.016974621003849277, -0.035186544354320275, 0.05479431002836971, 0.01549908502901367, 0.01546022516173087, -0.08289453021105558, 0.012105793325240071, 0.06275933588980291, -0.006307063024073664, -0.05090540896945906, -0.014107692255940335, -0.01627944638385573, 0.03450958589110772, 0.08606453437106966, -0.042198287444297204, -0.07031368174540398, -0.02109236085755862, 0.0309455287600614, -0.0015838073871751257, 0.01767150889206553], [0.03591817666339132, -0.05782804080483637, 0.010054129223178486, 0.049607018232493354, -0.06794778642880799, -0.0002923868192050722, 0.07235315819568401, 0.0344079245143405, 0.10400384632572475, 0.013794504650740811, 0.12572905160085, -0.03151066317920452, -0.09762462344413023, -0.010122326915211165, 0.043785465348032515, -0.10710137545334364, 0.047647120261083815, -0.00765686284601752, 0.007215494552306086, 0.0641059747902719, -0.0877005415187551, -0.14843848846739102, -0.05545550734895117, -0.024627938871962077, 0.03863371828445748, 0.1021069777662983, -0.0028734709336588446, 0.05681299140757067, 0.030128880187344494, 0.008797503976947469, -0.028095374438101752, -0.014259752367581612, -0.006465645041306643, -0.0023628613199372104, -0.00853892655453844, -0.05325759912307175, 0.020506621174253985, -0.034967142922830895, 0.013689692939235807, 0.05817925542919304, 0.011333884981187063, -0.03465917053622914, -0.022142530606241603, -0.06636883641885839, 0.04431845169519632, 0.05115861568955253, 0.10898123548479091, -0.045015265807905006, 0.019614439487376376, -0.023921807952857893, 0.0469098133128703, -0.11204094382644994, -0.03719087409056934, 0.12331375416105946, -0.017440047655083484, -0.07584547803496279, 0.03072954220430621, -0.06896673416231662, 0.02390047792245659, 0.04756088899911505, -0.03557259145924023, 0.025307601497222002, 0.05067431385118601, -0.029940673390596265, 0.04783365108324298, -0.06131549512826397, -0.11537793167603144, -0.04680296565812307, -0.010155652944109904, -0.0430977907934515, 0.03378568856980642, -0.0048501152134846435, 0.021336456286136535, 0.02653952207267108, 0.023133682187059693, 0.003213528352470531, 0.0021646406633486596, 0.003746127092599862, -0.059936730635953915, -0.001821330864265477, -0.11310266314912429, 0.05463651728871802, -0.035840602618971665, 0.0641434810220366, 0.14769322143543942, -0.008137709823593542, 0.07492215526677037, 0.02063028901385948, -0.024709956619502312, 0.05012242379507032, -0.0615931353388159, 0.09754157048487894, -0.061202315599340924, 0.03809368092232538, 0.039648306073470724, 0.04582070628778949, 0.10085465398271769, -0.08796783251360298, 0.02000675853717548, -0.05986561656954585, -0.028612513293479785, -0.01114888552132724, -0.02579606358413371, -0.00794241468082194, 0.04333265642830873, 0.02736826740919593, 0.04023323031028312, 0.08669965282186066, 0.014854333104713749, 0.04918600043122196, -0.006578058251610199, 0.07965817127972373, 0.008951184051649965, -0.019002233235145383, -0.0026502079800787134, -0.06612368926088821, -0.0028618299025798414, -0.03640553120942747, 0.04351694198482507, 0.07059544608814097, -0.04862027190399845, 0.04391292940861932, 0.05999982220342108, -0.11656401262671999, 0.004124315465500977, -0.021234431761874704, 0.013970536929374382, -0.012583717421556725, 0.0894659589786563, -0.004604508724890227, -0.0713537766542116, 0.028180861798316522, -0.07042020782287298, -0.08773893874115539, -0.011039063117653677, -0.13283424704461133, 0.03535543983390275, 0.043313787462326045, 0.08204148851084256, 0.04722977774383143, 0.010606672925439696, 0.06381891566567326, 0.05892569843578218, 0.00836848064740838, 0.07239507912130921, -0.021786147078911817, 0.00233856376028099, -0.020240309862404278, 0.069349904046002, 0.0038500917835925805, -0.05151850038496377, -0.031543993796378865, -0.01509445566167157, 0.045544739882043474, 0.019792012290863234, -0.027160443899373693, -0.03948137607246434, -0.010853518924720957, -0.04795573369513406, -0.0005440335568251639, 0.0068565078834831395, -0.11532642774126246, 0.016586106195710194, 0.08424075685999413, -0.10840882534606362, -0.07697446240645418, -0.011117063473621194, -0.014826294781928366, 0.033871467579001016, -0.08711900790110502, -0.004456857462819588, 0.06797574136636625, -0.09399530945361478, -0.032349826144295026, -0.006479303794530422, 0.02980819170683993, -0.007782920621840323, -0.02685608907687726, -0.044166965103701904, -0.09434926946848601, 0.04411394439314816, 0.007456022758668453, -0.11255962098990839, -0.006976755481763311, 0.0029072302961286466, -0.009482434945326409, 0.047342320603683076, -0.0003892846712636616, 0.03237730345347956, -0.03256882198480373, -0.05361796252836048, 0.01514634817300808, -0.0169908103293007, -0.029147354686466547, 0.05060235477906155, 0.04285297399678153, -0.006233983688562535, 0.03830684902621823, 0.03980587924412966, 0.046162578258582124, 0.04916902994557413, -0.03806890956237816, -0.008983078194794582, -0.0014969490342774646, -0.030857826940575483, -0.04153536908271576, -0.03925141869658508, -0.002155254765898805, 0.03353720769094692, -0.010584713373653859, 0.11870430465808482, 0.008049594068793285, 0.004762001399578265, -0.020818502163001257, 0.06695853758547839, -0.029693535497453533, 0.03229921531702868, -0.0033198503096597692, 0.08434457432569933, -0.00027485886941789353, 0.03852133959940426, -0.04504663315658903, 0.02992855369500969, -0.01879348420062979, 0.008104308572498923, 0.04921328821872998, 0.020531769362839174, -0.018290431488274125, -0.04699842841920869, -0.016330658626156472, -0.00607019456184874, 0.030980455313170403, 0.022236883161571176, -0.0821020224164061, -0.051932599811434006, 0.04045350560353226, 0.029337881915098684, -0.0698744195942555, 0.003087591088110011, 0.0003858641350872237, -0.05617558284358101, -0.054151993845221146, -0.013073354812846771, -0.05606818519991444, 0.04144517697775246, 0.01134763982537362, 0.0735805751403855, -0.02332339448004411, 0.08353731352213417, -0.03749724928796163, -0.06355166130685529, 0.017897113372736233, 2.0925061497833454e-05, 0.01795229900446917, -0.09603906731489827, 0.09164498827225417, 0.004492786497094773, 0.009240032777873233, 0.0732860222276253, -0.10855425188029474, -0.02017262881292627, -0.02622485349121376, -0.017589831882320436, -0.02536922551086466, 0.0024923838951854465, -0.010429281557610928, 0.04218621124350769, -0.024648160057756982, -0.05564767086305296, 0.004940529876598459, 0.02194089250027987, 0.030880370740894187, 0.013676730779686236, 0.09692878477569912, -0.004528247061300788, 0.056309400392748045, 0.011276401673202104, -0.05290885611104689, -0.05758574086478777, -0.06764128635037878, -0.04316895971675251, -0.00912169218776569, -0.03864760210612681, 0.03395607368262206, -0.11716596546618661, 0.08894128994416889, -0.045635220490707465, -0.048604820974160995, 0.09037978366823778, -0.028650392382091338, -0.028329540422405083, 0.06918197515324016, -0.05971267112348893, -0.10788870337803333, -0.042169230949055614, -0.05420507784388825, -0.06505830855269926, 0.07636967692336905, -0.0063090970748521935, -0.0003563867118391018, 0.10342301135011597, -0.01959876068778998, -0.06547517877540333, 0.03481509875191655, 0.04167937911606349, -0.027963576331365675, -0.015824599068941448, -0.02434180867986507, -0.018335686938017855, -0.02267414411482508, 0.041051636258308544, 0.0018480071082723753, 0.025151078001535373, -0.04397786872945185, 0.002806793134615804, 0.027072443628813402, -0.0185068586681889, -0.0323544714285303, -0.03471777827016704, -0.02339719413719532, -0.08838464560765644, -0.011600861766203457, 0.04500088512793402, -0.008593713754871987, 0.02533235238391832, -0.04038365334935299, 0.0481193749814775, -0.1249823933675174, -0.01609402197746888, 0.0604737174568619, -0.004455187521707186, 0.022843540378431375, -0.005510989137697564, 0.010530802708997698, 0.045696950691475516, 0.011289253293017791, 0.02056341210305249, -0.03576632020099283, 0.019641678412601806, 0.11886377558998695, -0.024845514331826576, -0.03164113153592913, 0.0038766783592707062, -0.13410664499062872, 0.07010258649217983, 0.03880354906469328, -0.058483626275722345, -0.043659968773322406, 0.045345420907081074, 0.00510579003211475, 0.014798218847043272, 0.0381761659526388, 0.03365317080769848, 0.03667599452612766, -0.06316575418237169, 0.008905729607495165, 0.04573637752997514, -0.06636564422426129, -0.09412260634052566, 0.0240831452160889, -0.10920292111132311, 0.010497772110290713, -0.07714878612003295, -0.013632460778643652, -0.04010367594024872, -0.018079850814507237, 0.006734136006708159, -0.07873909358773266, 0.062281257363395875, 0.031241196431912796, 0.03688250174780531, 0.057278979841191985, 0.061748494891948676, -0.023874511689153808, 0.023161025099526097, -0.047368047287254834, 0.0020225707654870917, -0.08058883463185812, -0.004653049628989737, -0.06786645904970258, -0.0015704361236927708, -0.02577646335876365, 0.03718781247007377, 0.03726693193609383, -0.020690565586061475, 0.03537764304522296, 0.061002347551884606, -0.037705768888175874, 0.036923808433465335, -0.05181020120744165, 0.05492442426901683, 0.1233453571984954, 0.059913963723645575, -0.015651693692007085, -0.023224163443070028, -0.041424174955066596, 0.019155533834893334, 0.06796611398177327, 0.07781386496786599, 0.07205284413018095, 0.004900350374030938, -0.09011415043885167, -0.04144733025950772, -0.03716615663011795, 0.014115296599708792, -0.09552096548197062, 0.046538054343526654, 0.0043210278262113665, 0.03649856538414394, 0.006793669223418973, -0.03536638151386083, 0.030788276090437394, -0.0739774525353823, 0.05781079409207882, -0.051668065626927884, -0.0250005744848742, 0.02022824682974948, -0.012228121810204643, -0.05953842716490445, 0.019157136455716855, -0.1052955202805447, 0.021294569024361786, 0.011488660804874519, -0.01802667301654608, 0.023187624582400125, -0.011845661647102919, 0.06222377405549286, -0.1258159957812547, -0.08689473759278707, 0.00964381171397836, 0.0031452870646619946, -0.04568523091204371, -0.08183629641144706, -0.03085779092800945, -0.024118364547303914, -0.07979828522708642, 0.01186988507031641, -0.016440308207975998, -0.03700068532268458, -0.05921125411769198, 0.023966549742137317, 0.02056950856074385, -0.00426296052591235, 0.02921705883929318, 0.017402010089121237, -0.05729606314629258, 0.08547685925779634, 0.04841217855819622, -0.02278389154327234, 0.0031261637619770756, -0.0461567900830635, 0.039069006604655676, -0.00950797172823987, -0.018743164315650537, 0.0074973941252855685, -0.048433977144892705, -0.010479762996548424, 0.11510752177487492, -0.00012049139582310297, -0.03259641652032367, 0.0344505232748416, -0.04935024617606463, -0.037823212917452144, 0.0806755205375672, 0.06919546494811885, -0.08074391043485304, 0.024576945411534948, -0.021028259609084898, 0.057192209432504144, -0.04020068089557341, -0.032769419631926464, 0.1016204619015497, 0.07839057656357966, -0.011846188603015489, -0.05629835545502518, 0.053034214249637474, 0.027632446719972985, -0.002041916119232935, 0.06812183676509417, 0.03349036945835491, 0.0838925465354843, -0.001673826962662858, 0.01710358650183892, -0.004544613275208903, 0.12206337535022133, -0.07280661926019022, -0.0466710362532473, -0.03251954487683802, 0.06230797565245503, 0.05019005263150762, -0.059346994399421114, 0.11201202305996531, 0.1211332886439374, -0.01067923882635082, 0.002044337408724638, -0.06228932436708113, 0.0671112364432807, -0.05180333193852912, -0.06772181265077117, 0.02504220331826587, -0.018954676315025155, 0.03817683919230515, -0.04098845836873897, 0.010568158239648913, -0.020067119706102823, 0.010705540413783061, 0.04494690981643791, 0.09472265488264156, -0.0640360380857319, 0.02558393389172821, -0.048340445871946885, -0.0532555103185367, 0.04880931492551265, -0.014377611701752608, 0.002414614853382862, 0.013226150147377401, -0.02963529071112946, 0.01875434642174446, 0.02702920048049305, 0.03249110574453229, -9.98972164630188e-05, -0.008627186372999819, -0.0781813443597283, -0.002317849900682576, 0.006368080736338546, -0.005520321761172691, 0.030760514603860513, 0.052536933457540846, -0.08477059933686547, -0.038843015171968316, -0.13295832923156087, -0.0225065514341344, -0.07586976588117704, -0.052566987069465075, 0.02542784960619811, 0.015206965484703096, -6.289246656463288e-05, 0.024672018018901218, -0.015160093732424721, -0.03254457353803612, 0.034230710445870526, -0.008229920127748062, 0.0225595775130011, -0.0411112816485392, 0.0044807067049894974, 0.026195207545885463, -0.033039236581290016, 0.054181401090056515, -0.022658841685349748, -0.031784488106892946, -0.027883549504853253, -0.07578334330674684, 0.022081259713963245, -0.03849842122427369, -0.03161115646223855, 0.03268804810089771, 0.008477968479335003, 0.04594944978668443, -0.004713361388597491, -0.004907533739538654, -0.05073408179848514, -0.05620698095860505, -0.045333869536789174, 0.02270448008239423, 0.01678866153880338, 0.05854814210818952, 0.08116806906982689, -0.09846044371300053, 0.03861575876116982, 0.061915019889242265, -0.05571909269904607, 0.06899417326532949, 0.05789742168129532, -0.043843803101810054, -0.05604145506524719, 0.003043549941594506, -0.06948582811074015, -0.01964594093319498, 0.04184722562062794, -0.007568199102787421, 0.051535632146644736, -0.008866045203877574, -0.022948167243582642, 0.05047971098518559, 0.00870875744937624, 0.010231286082395662, 0.06431158447622908, -0.0029989093618009066, 0.0733680421089679, 0.007334649056708347, -0.013452543796456112, 0.09407538488979546, 0.020865823924324352, 0.010131163422510941, 0.05519189031175767, -0.01657069399279676, -0.010976894438966133, -0.04203577468583089, 0.01382903660991438, 0.06195606277596182, 0.010178367804867871, 0.00970276530353865, -0.03111492641122907, -0.008975505692532424, -0.02895256757053443, 0.022218632409739626, -0.01630822132664487, -0.045796382344009595, -0.10353469222921338, 0.1259198019966116, -0.03559489172130126, 0.06270912734148902, -0.035756902778161355, -0.008860254854904227, -0.09299320483024687, -0.07768346128717216, 0.01915517771418257, 0.001558482536953128, 0.0580387356645576, 0.04498885433106629, -0.10111261534431817, -0.07124852622317213, -0.035534521203550516, 0.04666560730758329, -0.013833532727165854, 