{"input_size": 784, "layers": [{"type": "DenseStable", "module": "LeafNetwork.Layers.DenseStable", "weights": {"type": "ndarray", "dtype": "float64", "shape": [128, 784], "data": [[-0.023874131324247223, 0.14190030137303664, 0.08872863416606755, 0.08112184007713626, 0.05179468734424717, 0.006102268617237618, -0.014018620879199983, 0.020721384449501466, -0.0828180599730078, -0.012958769199025246, -0.010374064997179293, 0.04723904739360873, 0.00921135590085906, 0.003896149740607656, 0.022985515945992657, 0.0468505482448001, -0.03708907508326649, 0.007624285738632405, 0.10721947125739682, -0.03981919794558358, 0.014093455659369198, 0.0030042994201028577, 0.005823911902481217, -0.02519031429833462, 0.02133679751431158, 0.08066120653529307, -0.007901041536336058, 0.07098887219319457, -0.021275198914161478, -0.0418174466586522, 0.11294793116095282, 0.11086249246707357, 0.0336029610735257, 0.031043693121609674, -0.007331391781616815, 0.028786527181725224, 0.004796122138783042, -0.07165995476068703, -0.03969083179222445, 0.03316791351685402, -0.08049627787806546, 0.01820131604505141, -0.016345446930913665, -0.019868150777689563, -0.1009031160443369, 0.002807893677380325, -0.054005585427058966, -0.14264764252393816, 0.006268698264168188, 0.02060142128124041, -0.04339885631624933, -0.048722087915669, -0.013856763250967246, 0.03347974068746231, 0.06634657636424468, 0.07045205892855104, 0.06245227983354614, 0.0323603815935588, 0.08382411743164096, 0.015439738240523821, 0.024999920816261956, -0.006566603476064903, -0.07627944253305609, -0.053750355852736374, 0.022991921767893032, 0.04230576663494839, 0.04806815461837277, 0.13299778738014562, 0.02310898849610566, 0.013712111528995805, 0.04663648726731489, -0.06735449387241517, -0.0424913483854458, -0.028443148560628483, 0.0032976557938847353, 0.02350746321871892, -0.07091923186524604, 0.00793668623649547, 0.012964639453295318, 0.07727157245108127, -0.006839014474336677, 0.013823077445757236, -0.03974315128226208, -0.057673990163651385, -0.007901915959309225, 0.020712233368743994, 0.04803281358777593, -0.027068354637655473, 0.06973889111814091, 0.009034795191334023, -0.10062410823717852, -0.04200240592716112, -0.06253445673364304, 0.0551918372462729, 0.0022315267191347072, 0.0440662167223817, 0.03199624158436668, -0.016956435677723033, -0.012681514899386775, -0.017914032222623423, -0.04733965660831974, 0.04594684264092952, 0.0016042846360517383, 0.037745165420367675, -0.02877810056621062, -0.04768042515499685, 0.058244539457111444, -0.03968625404435091, -0.0146855004727082, 0.012196764825319579, 0.028999078298127832, 0.004930942520440961, -0.08559479632822498, -0.011687770243246302, -0.017877516146896352, 0.01709056840209475, -0.03796035583370799, 0.03338913563944121, -0.06879119600997732, 0.08734920779930688, -0.050767135319910825, -0.0021496276489446327, 0.07227235219475195, -0.049856591975439034, 0.019267646678819295, -0.04704260754845743, 0.012014182425129334, 0.013150835595811235, -0.05211909621680374, -0.039738275967210725, -0.037122642463430555, -0.012567670655498357, 0.027882838660067643, -0.01062923312159646, 0.0941628522012204, 0.05499722564898168, -0.009336645829628653, 0.0437205267572415, 0.03712821352481777, 0.01305743899083711, -0.004393713618747352, -0.062269098829183044, -0.0701960630208684, 0.08422761847265671, -0.04381719717391935, 0.06425430887330015, -0.020203858748171103, 0.002287652282437701, 0.019315889802987155, 0.002442060499175684, -0.028920602394699544, 0.07604806487982232, -0.06155074172682314, -0.025010091362000827, 0.05122125818172003, 0.0637045504264475, 0.021485323723178015, 0.011711508484516252, 0.023275472778241168, -0.03342015790595371, -0.07220426155851532, -0.053151216619773296, -0.014253370656591767, 0.08870097348169798, 0.0256287501918734, 0.002605566625975982, 0.022214327514939437, -0.05863622669799187, -0.028057205708568313, -0.05577981882275328, 0.09487911537181051, -0.006341224022060868, -0.011623202230742811, 0.011968939701888105, -0.06913455103513708, -0.0315788244188954, 0.029548746238506955, -0.09725508219834374, 0.0873695378476857, -0.047568717519926716, -0.02183173945868432, 0.004872180963233776, -0.08938482353857147, -0.07274377915205876, -0.08922259489363221, -0.03346172341343619, 0.036627619350175916, -0.1039047503276129, -0.034373679359096326, 0.041265027604575046, -0.10167152197997925, 0.00757768653340769, -0.054133906749321545, 0.018610193860005574, 0.02409958232010689, 0.10118161440574878, -0.02475048705882071, -0.006053068049710363, 0.10665811631599217, 0.005120435587558637, -0.10291580847232448, -0.05865810587102278, 0.13102214482937155, 0.03552451204811822, -0.04374588922892865, 0.05166275583256309, -0.00042583599571039874, -0.10695792098219659, 0.008482423880342333, -0.011333144153488534, -0.043144703356423786, -0.08138673612212023, 0.0007129120735195619, 0.005417572296124019, -0.044088002512682446, -0.09022915034658686, -0.0373279403990365, -0.04593581843463321, -0.011845036693605846, -0.019156408260798043, -0.07112528095352048, 0.007017049868853138, 0.018566885181507127, -0.04992903835875719, 0.014351861575875027, 0.05829394903447415, -0.08774486482337235, 0.03455295329775234, -0.051494783796774087, 0.0500957155253039, -0.024194250386653314, 0.03574031466480278, 0.06913636529250704, 0.036524693773513035, -0.021019747921013462, 0.020362878727303694, 0.03865269967764362, 0.03608282270470154, 0.015780024113018272, 0.052478098686429886, 0.00932832139536911, -0.0685606103413453, -0.03469969617876714, -0.0026958457259579254, -0.03944043890906357, 0.006439579826135566, 0.009402288440902476, -0.01811734776502149, -0.033369463127321516, 0.02195347124749485, -0.024832023655674603, -0.0006414090410469011, -0.0027037869762622413, -0.0287902592777612, -0.056967373531664395, -0.0529379982357987, 0.020218541433617176, -0.0684092253363832, 0.00020172507911370144, 0.023049534717866655, 0.02096852064666158, 0.15268169960315103, -0.04401417040396508, -0.06825125758002692, -0.022833792962348554, -0.06880463030176553, -0.01676986411722205, -0.03490610423250239, 0.08205992000667924, -0.034578582760317854, -0.02525911026387557, 0.04781685466733339, -0.01725786609662344, 0.01895294138833647, 0.011954141231964038, 0.010597554012788255, -0.049596393029831015, -0.017645393084647635, 0.0333471122333216, -0.004699081590225654, 0.03604875806563798, -0.046018480603864, -0.07795842691606264, 0.005891364131726663, -0.008443500117773471, -0.013056251182548755, 0.037340865265514785, 0.003916959474981524, 0.06290481299792179, 0.058942818654949714, -0.11205215430004098, -0.029235993288865666, 0.029474975016473188, -0.05181761852225051, 0.029481780689580326, -0.029479641756114103, 0.01751523328819916, 0.046256359361258395, -0.0524613393842087, -0.05603883074387635, 0.021092634938324948, -0.01978069039320652, -0.02198947732682996, -0.01041885580983514, 0.04488470521585228, -0.09976101500468496, 0.0893755642182439, 0.03165040816240759, -0.039597287025562165, -0.06808284874034436, -0.050329772136989734, -0.03212211013813879, 0.0325592695151217, 0.010573134612877736, 0.03127332299863472, -0.0868081438447281, 0.024615061068655027, 0.022896396876902605, 0.007981215955245698, 0.056221273114238926, 0.01390448100340578, 0.005498363045456209, -0.007073166569171542, -0.04033960079412201, 0.02213176644465967, -0.014150907512891778, -0.03224962699280956, 0.06902949463980128, 0.006814049511607764, -0.037997179731418605, -0.03032837893775037, -0.10113002234941537, 0.0579926389413528, 0.028287761811198568, 0.09517582818367107, 0.0013482649625852444, 0.03250694634352541, -0.007850284116416794, -0.03319452684881412, 0.02991099402203973, 0.007866697466486447, 0.0674536708445805, 0.0680047488707976, -0.014854264135533063, 0.040127869993065786, 0.0687342874391136, -0.16364095746297028, 0.03580661803180816, -0.024230053168066264, -0.023792786857690398, 0.04555764693258007, -0.06410894055715691, -0.01388284793815915, 0.04795144649496302, -0.020952286117086293, -0.003922480437913695, 0.018369534314087763, 0.11547782165137427, 0.004896888818671377, -0.03756188105380936, 0.005502259585031448, 0.017708102211957982, -0.022547164695639443, 0.01879305129670764, 0.030778552346377618, -0.0968998729707405, 0.04957494152151775, -0.04509571603602819, -0.024264641615822886, -0.001502293302134625, -0.019298006331687108, -0.10196479365500785, -0.05259432712879651, 0.033897434448436875, 0.03495706847895593, -0.06697668562020154, 0.03544877718644515, 0.006585606157137608, -0.11322895984360214, 0.010086655682774278, -0.05452783885610363, -0.07739821829165834, -0.048830040932392786, 0.011090648478648728, 0.01726172090583011, 0.0473874827449281, -0.058847845078875645, 0.06913916282895091, -0.03027352160401405, 0.013435653726093939, -0.021006921716454432, -0.03114684014711923, -0.06015544370894444, -0.03349616765345372, 0.02499729819730036, -0.005136059758978871, 0.0010446087092840684, 0.04332402003147981, 0.004147833340586998, -0.01932888761780127, -0.03960108518130587, -0.0029626768518524783, 0.006864938836992915, -0.01945993076008536, 0.012188192113441815, 0.05517525783386064, 0.09501804104673835, 0.02228550711963859, -0.023822741446794155, -0.14547650481626376, -0.019709515363027848, -0.05557267546317957, -0.012908209006576072, 0.014695089059446768, -0.045438278050340036, -0.06129546706495917, 0.0262528853534775, 0.04440305304180605, -0.03288883149313056, -0.041760905361688735, 0.025468219002069803, 0.04091633645328935, -0.015224263049974752, -0.05220527384929641, 0.006566011900822839, 0.07497039005749358, 0.00048044356181476885, 0.07031307582273168, -0.09030464599752637, -0.09370867192386184, 0.010832410085149837, -0.11571520311271243, -0.001633829259010081, -0.03244625179034577, 0.011399065798720359, 0.01833789685755873, -0.03563776516251714, -0.026600716720028273, 0.015133351739816033, -0.03906588752364317, -0.03864153600115153, -0.08651508661666742, -0.028505585336323688, -0.040060111266555655, -0.05001041374379797, -0.018251368726392783, 0.0066433420296912364, -0.026908419288035345, -0.029105090285034097, 0.03596338353205447, -0.041376724242237116, 0.04223623547479561, -0.0804380360823972, -0.0979033621639681, -0.015270283852792492, 0.06950984438439287, -0.004259240335506543, 0.03859690096125784, 0.01788997938491059, -0.004181149954279066, 0.027867573688437074, 0.0635524416400004, -0.08336946028692799, -0.015237873452063544, -0.05265867500912781, -0.0026233151713549964, 0.007150301886882143, 0.005782301985167471, 0.050085845117430645, -0.050888043808293974, -0.040008892344318675, -0.003010569163329456, 0.008790048849159345, 0.006009294774640121, 0.0132873163309895, 0.021820363971738612, -0.009935085056379505, 0.098098114191693, -0.037648579136583794, -0.004583379761725735, 0.005558225153904235, -0.008703750507036506, 0.07785049044014453, 0.057515288274910474, -0.028347666643819318, 0.029986873665822252, -0.07493148904032625, -0.011211134001752299, -0.011687071830750984, 0.04069888345862342, 0.011580326049307347, 0.0358895330120562, 0.005563197058543051, -0.10637535707873297, 0.0021246159390595847, 0.019033832400347468, -0.02596074215798442, -0.0031570781809418073, -0.1274103667346538, 0.00987379110016769, -0.0787181869456969, -0.12905308408578828, -0.033264100277859886, -0.026284755350439077, -0.0061733496714231175, -0.025643545582322083, -0.0037536589107214453, -0.036467755316326636, 0.07268620108118537, 0.058162559143750084, -0.060426046326028, -0.008333088512381731, -0.014640401437291332, 0.04854282752109011, -0.005493942896090951, -0.04575029245708463, -0.06014475936084587, -0.015120005223473421, 0.012430620336229974, 0.1068229867856893, 0.0036080866482496986, 0.054585036241564924, -0.035196149686522286, -0.029031441898460863, 0.1246775010641809, 0.04426295151829662, 0.02967368720806802, -0.005697973856020272, -0.0015149900006113605, 0.020045617408371127, 0.08358104540824306, 0.013272219990230745, 0.05966438192666435, -0.02433152398239452, 0.013483332906060212, -0.01317660577728555, 0.02329701887815975, 0.11801230918588711, -0.008150932785198026, 0.0698095201024915, -0.020729577096823867, -0.05226439718244874, 0.029248536233663927, 0.004278080681135077, -0.053516298454171066, 0.0278924405522329, -0.07454464684887725, -0.028698452389745013, -0.03263291880716658, -0.0018083855639120135, 0.03640844357632403, 0.03208824852620793, -0.0013225749537112861, -0.09205011186287725, -0.021650590325919816, -0.021038901598154566, -0.019723267070830785, -0.011415075659507102, -0.011078227549855095, -0.03513462952225237, -0.02797872204236289, -0.04147494773012822, 0.018136600557434816, 0.025050017496530547, -0.02887185725399557, -0.029039823017661094, -0.06739740679767786, -0.027092183483278787, -0.06753261478320682, 0.05979538967573105, -0.07503655114659351, 0.011677131959953839, 0.041409718920458416, -0.021394808845062296, 0.03605230546229406, 0.02686311513988921, -0.001045859668024809, -0.05050066680114081, 0.030215932362878055, -0.1343560062896285, -0.0466359746519, -0.020599294416131037, -0.054824862519590734, 0.02693921163141761, -0.06558625175583824, 0.06098982435111792, 0.05331741894068603, 0.0032946019373218246, -0.07822940791074447, 0.014807648954465185, 0.034176548424676885, -0.004041012032904468, 0.006124824692512476, -0.001189698619768108, 0.01538982925279265, 0.029104172432956953, 0.007298482996195551, 0.061971535755586483, 0.08521614478717714, 0.02161882280157884, -0.03556940758102948, -0.04936516276086284, 0.05095533404627022, 0.028151714777512497, 0.06438377842365804, -0.04770637455121881, -0.10369272248600035, 0.0133549863030558, -0.02033085479992629, 0.020656722574395624, -0.006939691745067282, -0.0048149929616243875, -0.03780513020463396, -0.022344063833068077, 0.016302484339183382, -0.0459431818739406, 0.006938440220386412, 0.06845893772058557, -0.006440044957854291, 0.05712866359170779, 0.0401363087072066, 0.07727046008114838, -0.003507426946411612, -0.038463186048540716, 0.03168927818385103, 0.040838802344383765, -0.008702865579062035, 0.013963306975730831, -0.0268027668427963, 0.02421936285072208, -0.09723232660620817, -0.05437566093241448, -0.03413677909517822, 0.0026393572337662847, 0.06311642422112365, -0.048627396667874676, 0.017673211757835997, -0.013287131679990016, 0.07607836860405497, 0.07027410971384859, -0.03558335613984334, -0.004896137324116421, -0.004161494408353423, -0.010159428608833244, 0.03238262861881335, 0.07620167117326503, -0.043310808324394615, 0.016400617266847498, 0.062189866433198016, -0.10683191402840271, 0.0017330813817782028, 0.0462820316160209, 0.05857584063577849, -0.12024160673333424, 0.06316453089668657, 0.03767084467406613, 0.03392640370454796, -0.026173802172457905, -0.05090648847980279, -0.10463337801844085, -0.017969063388012938, -0.05929159988722087, 0.008889225250158518, 0.033477155215965, 0.03935955540341779, -0.01903502078429279, 0.08738469917155259, -0.016666237780207236, 0.025097110756438033, 0.029395798668993032, -0.030289476770500763, -0.02069965114289152, 0.06095968605988569, 0.041322243547586686, -0.01613713546232464, 0.05177608694515017, 0.04362327278503357, 0.03969961116361578, 0.03488012555422438, -0.00696673411656269, 0.062365946716863255, 0.06704103843474238, -0.027785314032997152, -0.08585019429219173, 0.04451006748458752, -0.0076377172009151435, -0.03858014891851257, -0.0022833712506072947, 0.07941394451692806, -0.05373329966465697, -0.05690653338076814, 0.10182435737884642, 0.0045597354646192065, -0.055953499703868426, 0.1010861711320921, -0.011155136365923541, -0.05855310622667712, -0.061276813916184954, 0.08171330266049935, 0.005859241164479069, -0.046646131156677956, -0.08567200030555297, -0.009646165036618288, 0.08204717247920369, -0.07361467850153654, 0.011301135241940624, -0.010278968502967029, 0.028009127129685354, 0.026747712643089647, 0.042723355848218715, -0.08846167318076872, 0.020218467793032543, -0.018742151797671067, 0.007109974196165239, -0.0315923441968877, 0.03845759066474735, 0.003010723254635215, -0.0046231185679190805, -0.024277216329899234, -0.013752486334262558, 0.04926823795480695, -0.010761454831455368, 0.062299673165350976, -0.028427157547666865, 0.015603586898091413, -0.08848653973990939, -0.029016878829618915, -0.03408784697268172, -0.008786280169354675, -0.01491285219492779, -0.029616861356398475, 0.0543340148677806, 0.052841141751995384, -0.02901355340211854, -0.015914282164291672, 0.005988840021142185, -0.08189520954562514, -0.026757140705434005, 0.07122814200607591, 0.010653116676382452, -0.11115719879137158, 0.030370174917103327, 0.02724202182244446, -0.0666074007521625, -0.031788716601161345, 0.02802977008539996, 0.003677623430153504, 0.059804168085629765, -0.04085981253000612, 0.055041848890561906, 0.005458028365151163, -0.0020675923041232314, 0.050684754998051265, 0.04526078528644915, 0.006173025032614216, 0.048370947317742795, -0.07442656419813554, -0.0016787568557345394, -0.07304008176283182, 0.008620828756645866, -0.020328338932043118, 0.08507533005751046, -0.04889781703793151, 0.040900966129903564, 0.0006958668880369416, -0.1792359616894022, -0.05810751854118821, -0.03195143614044642, -0.002746852508931785, -0.027939816655836225, -0.05258317342901839, 0.023772581277070014, -0.04413926093052837, 0.020399368184283267, -0.07416649412956713, 0.00514469991471865, 0.015692354734025606, -0.03224959096339565, -0.047309403151056736, 0.005161849175483395, 0.029119695009793216, 0.0955932887822745, 0.022345495093994697, -0.04671541720273744], [0.019348528791106368, -0.023589683000097516, 0.00988980873342069, -0.011168533878743897, 0.016246459846743735, -0.021859243184129892, 0.01788573057393442, 0.018834767505980957, 0.07264093993697027, 0.01125309578549521, -0.004486063884684851, 0.030919531450522692, -0.05306655484978657, -0.04838444492946846, 0.0689380583149297, 0.05601291943926053, 0.0823064503121332, 0.06363094258413347, -0.062341611303219385, -0.03850521443571684, 0.007331203264521253, 0.0571578335085406, -0.016003406324107967, 0.03155169555202741, -0.010361377887753733, 0.11041756367179956, 0.06836284227303077, -0.03831187628498109, -0.013027472461306847, 0.0015109481672976924, 0.01646503677346833, -0.03616659498248345, 0.00033525326446456536, 0.06991245895005246, 0.01746339242932537, 0.08514071921284361, -0.007448248634869767, -0.04476990567578294, 0.03615414290935547, -0.006861230918972111, 0.06512922250432307, 0.051807758381275826, 0.07681618295544958, -0.051009800310123296, 0.001225678008827762, -0.020220150252401006, -0.0005965079322342204, 0.03182563944231606, 0.045895774418407184, -0.0702617333110253, -0.04897543892875869, -0.042135338280758626, -0.027152767881569142, -0.08639619873212574, -0.06891349453370277, -0.06825506898511376, 0.03714717997680668, 0.0443260774944232, 0.08788552013924741, -0.043201249749780915, 0.011613949914108558, -0.02845231795898272, 0.022010652245037784, -0.10098784579532105, -0.01684810003844312, 0.1051133934262123, 0.016925231019746648, 0.02855839282005336, -0.04282449632202294, -0.08487036332534204, 0.02981797264242635, -0.006996665795062193, -0.02013695286929021, -0.041867494927652585, 0.013426138107262772, 0.033330875994786194, -0.01101941745456142, 0.014886884952850347, -0.04904284144832733, 0.014239488308814345, -0.09828696891293802, -0.0439281683868658, 0.031770021916244055, -0.07312565660920117, -0.001803326980069871, 0.07451180359413845, -0.010320796117425262, -0.018049864990474736, 0.021231749209400408, 0.03110129193975347, 0.05069496475544038, 0.08947320564719681, -0.042124512249557856, -0.016290152293410586, -0.000818100748058831, -0.03703068734492535, 0.048900791505330846, 0.02254624583463895, -0.09031101277573395, -0.03747071629509909, -0.09464952374292183, 0.01870580009052216, -0.01212981649908591, 0.050640002812520485, 0.021569791425828124, -0.07013171695702383, -0.06712728815458999, -0.027963775180251994, 0.023337439393329284, 0.01519765375275721, 0.005259872678807215, -0.04499077841062141, -0.03854469542984509, -0.05667989307526196, 0.04681189153387291, 0.012333851032371012, -0.046589370870541894, -0.0594756479622633, 0.03227302760049073, 0.026034117677606584, -0.049692433974831, 0.03808411800359073, -0.03213864871288516, -0.01592759010489439, 0.07603498687226543, 0.0015265024946989668, -0.015619382824227483, -0.041365625461482744, -0.013444385215509317, -0.038042352726500236, -0.017587958660637355, 0.005300298064760269, 0.057357231518181326, 0.04038719254090152, 0.021586899678033268, -0.0013225065249162632, 0.030788248313412755, 0.0024309119994513806, -0.019778343927093073, 0.07129012994327268, 0.004060882887158763, 0.06224220694186951, 0.027684205136233327, -0.008887295167976202, -0.009497290661308194, -0.009906133303407148, -0.08829991554133547, -0.05959732714290104, -0.00325457405310094, -0.07650202493579183, -0.005386230742334116, -0.015003788874562536, 0.01292517555392369, -0.06768293457720256, -0.008066011190682449, -0.0886326514728573, 0.0023113591319479376, -1.686360124445597e-05, 0.007315484590249093, 0.0828189609925976, -0.012652043384801984, 0.011542437608530833, -0.07155360165101002, 0.05777884955461966, 0.0060238615757995315, -0.07665970780931577, 0.05197159936258598, -0.11973036735514371, -0.03508891671416286, -0.006304881952070006, -0.026293137996007836, 0.04635171325865082, -0.041355306157528256, 0.003683543020402637, -0.028599143683517483, 0.0010435516730833928, 0.001941954052884035, -0.02239035343405917, -0.04220022661634023, 0.029787203135827462, 0.030058374737830032, -0.12261294616290902, -0.05997873597031741, -0.07064482040213303, -0.02851005919049453, -0.006305742805247923, 0.03994794564904512, 0.031828601943555634, -0.015025844486918967, -0.0505011127241536, -0.0036160659852391033, 0.027223214584380307, 0.00670081682284111, 0.0745161353781044, 0.003132288973228883, 0.006390300388455897, 0.06429413300378647, 0.024187120488589443, -0.024774033679299978, -0.053741419747147384, 0.016405544498831737, -0.06440515901892609, -0.033549391758516824, 0.03052780626416444, 0.03224538530082151, -0.028890701234857142, -0.02450407132341192, 0.05614386517755442, 0.05229457066670639, -0.03538086436100298, -0.06881544295328214, -0.010377392739738376, 0.04925603133734562, 0.015210120179277748, -0.009577333937230165, -0.05085949666363506, 0.012248766150032665, -0.02257029725024977, 0.043234605064858475, -0.023393766887531024, -0.06693106572983797, -0.08971929384562004, -0.002979900682706251, -0.029004498887191928, -0.04073402844005944, -0.056177467504667566, 0.06095426933697523, 0.0802320084218229, -0.02516818615988946, -0.037975255634953894, -0.018987654033459252, -0.04645587955616271, -0.04677355012085672, -0.007653380675815555, -0.007467562590673605, -0.06105225629097324, -0.05338914188349416, -0.03512356556321179, -0.038175659871439796, -0.005429418291301473, 0.07545793983376925, 0.059201808471746095, 0.021533588349773355, 0.007471593360364942, -0.02317809791205379, 0.061690958912371405, 0.0046386538609280055, -0.016582789313093524, 0.006691388471106398, -0.015847413497716286, -0.09616791315636967, 0.01281855827174978, -0.10228512211101709, -0.04642351631517054, 0.060664161169823025, 0.007100941536125884, 0.02833884679160489, 0.0775283340847705, -0.033090309551590896, -0.0015999543499801146, 0.03365311201306085, 0.009599239747908706, 0.014746450226540834, 0.03855980528178775, 0.04416144525325753, -0.07280791995470767, -0.14477267753528703, 0.035258773651544284, -0.10750994324752432, 0.015959210410410523, -0.04930835282724356, 0.11295798241400491, 0.04532455710108555, -0.01740777635516381, -0.09462539109940622, -0.021322267279463892, -0.016206292670983637, 0.03879906375126571, 0.02649607614202129, -0.05401518621598923, -0.03474421887287903, 0.03302228756300913, 0.07154898390005371, 0.01982760492820256, 0.006344533879981244, -0.07187701145024808, 0.049736682813586425, -0.04550795775668638, -0.04723197987473878, 0.1083616340101054, -0.04213972039764349, 0.029776724419775937, 0.013985322896861677, -0.044319134139213935, -0.11863692282288879, -0.06353851140812282, -0.03677070883427396, 0.05747144067786094, -0.008441479804816084, -0.09071657587782629, 0.010496513378155785, 0.024591541163343215, -0.019466952815419148, 0.024171753006639807, -0.024919614680373812, 0.0851664873661518, 0.06393288920711747, -0.0005503787818971435, 0.001337387074512079, 0.021181384905139076, -0.06837515580218663, 0.013603342272196674, 0.03843252923590966, -0.04026041185621925, -0.017428951880750578, 0.05836365082457354, 0.04614647355989436, -0.008404069008907387, 0.11648469393556858, 0.026119780703987953, 0.003399516303282206, -0.11212749188325491, -0.15189308069432178, 0.0032060646791627436, 0.03177078046206942, 0.00023266717138855668, 0.06131377129926755, -0.05138168946745232, 0.01230161659230987, -0.06504751873975227, -0.05690955602672152, 0.05678080518802127, -0.061220642735195285, 0.006759748024893652, 0.007097795986153928, -0.013970186962462728, -0.047086979305976, -0.05625951723725185, 0.02500680297083359, 0.00827923665327444, 0.05732680405795672, 0.07922800113906932, 0.08301199257891122, 0.021970733351303184, 0.036530364985864275, 0.010116994588088641, 0.15977061236149137, -0.04686270161898416, -0.034463142086454596, -0.06312914247243485, -0.027313560671075928, 0.00446698062007631, 0.029902399601736233, -0.011400177377175254, 0.015703426538695515, 0.0022610342655359464, -0.022614034052777864, -0.0475553560588206, 0.0044769449724191175, -0.005149024539308809, -0.00041365489679728726, 0.027155546342854806, 0.079737680443986, 0.09977737893650482, 0.09101125086848819, 0.07624739957627621, -0.06739010873683614, -0.005933882351066576, -0.03404173551477756, 0.005497642261002963, 0.0931835689279365, 0.04039687759094892, 0.03889015235379989, 0.030113414832847515, -0.005601267568764942, 0.0236655181787919, -0.010969858043218764, 0.01393593211058601, -0.06364178186396915, -0.04748221832519308, -0.04415164947495893, -0.004800094522102042, 0.05088687617648447, 0.014618557314497502, -0.03442260797377539, 0.01971910092948136, 0.007176206583827553, -0.07645924386553454, 0.033108485719527764, -0.07864127234694246, 0.08994301672155011, -0.12763733613719705, 0.044341225262023776, -0.04100039492227861, 0.0143465544882963, -0.04985823346068597, 0.0751322461394614, 0.09076542790977146, -0.00537448918407041, 0.01262213156450423, 0.04912638366771402, 0.030669985870275734, -0.008285912154809668, -0.02914616812436761, -0.04108846056203352, -0.06676454533111564, -0.02196382464084668, -0.03883283250786504, -0.05347368950812162, -0.03477395021603457, -0.015883337794085035, -0.00054321870350353, 0.04013246211081588, -0.024815906047453474, -0.029224687039842306, 0.04168047601135997, -0.01592041854112821, 0.021435865224280825, -0.041539110713079995, -0.08102423155167937, -0.07554430369471336, 0.05085745207797849, 0.023780410825106502, 0.027343722312307365, 0.0019981712234541913, 0.007938170786259321, -0.014312700101238838, 0.05632772640693716, 0.08271494379695478, -0.013421835158012542, 0.10989306650771304, -0.0024816709013440246, -0.03506337204364586, -0.031174708423152186, -0.0713962026747102, 0.03276635411075576, -0.0026828674178743087, 0.04405336842752448, -0.04898046021348316, 0.05591648879982858, -0.12796572599329292, -0.03834347662415267, -0.05306346952261779, 0.012660659420754306, 0.06644075862390657, -0.11754879912204268, 0.06510100009886892, -0.04433997323033546, 0.03610642503925354, 0.10885748095938957, 0.020115954028771466, -0.05022254932484715, 0.005440130446999076, -0.0937185167857356, 0.015391086169080625, -0.026521793814229522, 0.036287316485371396, 0.0014505460746056737, 0.011475240319550955, -0.08096946822983771, -0.03827354401730623, -0.053581800357402044, -0.08464032750672233, 0.047702605769444184, -0.051240055918269564, -0.020903916154112325, -0.011420545288859673, 0.02978859498974453, 0.044758777937325495, -0.051944412652025596, 0.03162078983896398, 0.07416323825779998, -0.07331619341571101, 0.08087790738173127, 0.009253664692797257, -0.01002451507612261, -0.004357117768066741, -0.027550750808169187, -0.0047561188548624605, 0.022922081992357592, 0.07913512766146807, 0.06796219437957485, 0.04966508475875264, -0.0041506385897993135, -0.006775639595470822, -0.04443285716006783, 0.002229876098475309, 0.03598154474345741, -0.08972158981855048, -0.0029870219776268955, -0.12885531953229487, 0.03300526352437032, 0.10338109994481176, 0.07495102587516113, 0.032653715054036955, -0.019948205197490035, 0.05471318340909121, -0.005457087315870947, -0.022710220624324984, 0.007346923692767354, 0.07393380144223731, 0.028668369583059627, -0.08916773571790028, -0.07362335770120115, 0.057312136345222926, -0.017800459759979376, 0.023319295210623567, -0.055577068346484536, 0.02530522353562711, -0.01591803897994284, 0.029098952400611333, 0.03855536531350254, 0.006855283879835529, 0.12714487938866512, 0.002640278890833192, -0.09056786262869147, -0.015237996383897048, -0.025301143776786297, 0.0531897372302819, -0.0391554780660042, 0.005381231793708273, 0.08688392788733874, -0.06264799208946817, -0.05604197716079864, 0.006762518745842467, 0.050064165008566947, 0.016774928636906255, 0.00766295245145561, -0.06723056488361533, -0.07938849249973474, -0.07793934713355508, -0.10012940184057473, -0.002255402665512851, -0.05577883856824266, 0.02354135822388904, 0.0006176528507680315, 0.0689651764393334, 0.03025426987083596, 0.005499410946103878, -0.0005516664698472945, -0.025856909879633027, 0.045577087010119935, 0.08613838350139283, -0.19092041694696907, -0.12894760457649038, -0.09672663580051225, -0.04979401213586176, -0.0032470175244245884, 0.0012758207955790653, 0.05081008287775955, 0.03612143140021104, 0.09913154720813384, 0.0852555469743099, 0.07257905960084891, 0.09621465057623257, -0.011814870877909856, 0.027312274554193224, -0.08360031095811044, -0.06334484468031643, -0.05137658025647793, 0.059751296727502616, -0.07354053350379874, -0.010130999454272904, 0.011264016165793091, -0.012089815027219515, -0.07654620792361728, 0.003962028184954732, 0.10402780293166891, -0.03993969278918449, 0.021607615951643462, -0.03251174133824309, -0.013925414534643785, -0.1272627703524511, -0.07114770143688069, 0.06533975773824585, -0.002651180503277377, 0.01029501093886514, -0.015725592639545233, 0.010366475839959139, -0.08876017793003066, 0.0711317309435415, 0.022425244051010117, 0.06734078416442746, -0.07192929313258085, -0.00026911150548083844, 0.029591414853129713, -0.021478785080739183, 0.029709499358585276, 0.013860898884182817, -0.0006852925233466704, -0.07038170817456349, -0.015602719441372254, -0.08624981364376236, -0.0704583783711047, 0.08113481423568754, -0.01875181734983263, 0.030019276355712422, 0.0029914141957636683, -0.00782135090239483, -0.02959146881559079, -0.036915798912970206, -0.08352681338337968, 0.02115273059914341, 0.04599076005942707, 0.039201711503062585, -0.015156617290937606, 0.07105589311562693, 0.03928901528328068, 0.051774741317006996, 0.028815499570757602, -0.005639978781838021, -0.015169107649075494, -0.036520361352069805, 0.013990827018462628, 0.017550018864246945, -0.07580101747140744, -0.06053354818642492, 0.008524766985583845, -0.03163105747246528, 0.030165467921832813, -0.11304191872609363, -0.03605290666037813, 0.0368276547444571, 0.033445326500475034, -0.08901119159167512, -0.08835606024569416, -0.08013176237240524, -0.007858065576936997, -0.01305414199789549, -0.08659016436584416, 0.015373567991201157, -0.00283844013167987, -0.04415876472704147, -0.00139813174575236, 0.0026908865947215628, 0.047977221093392315, 0.019511086243494125, 0.019871014820817517, -0.017484876224958985, 0.025514123357818844, -0.015987701255734774, -0.012947813069823037, -0.023272020722193146, -0.00943914678310615, -0.04022741531242135, 0.013434002169656699, -0.10760425641317846, 0.05432171041369205, 0.008204819402619827, 0.05367321712902184, 0.029364985477430303, -0.0435745590289634, 0.016092954471388667, 0.066720585904269, -0.0018059674187087074, 0.03389446719042509, -0.1091246732071173, -0.10219589833360838, 0.07505856745313037, -0.04487495418354225, 0.019288341915981333, 0.034534405145918344, 0.08492375162630468, 0.010818909871550285, -0.01885294692090362, 0.1154593182656756, 0.06538817289080033, -0.16241932874304885, -0.03392831858053308, 0.023659354480147627, -0.00317734503312017, -0.0786922751448848, -0.026385829165982453, 0.006605285733813, 0.010588645414804317, -0.084044222731218, 0.03918570250399044, -0.036304779975261346, -0.05890178450100467, 0.04161888895975733, 0.031082426385932907, 0.032488443927657394, -0.032695965853088954, -0.038372926852536744, -0.07464205699307802, 0.05701471369960793, -0.013607234482579524, -0.026833585360117256, 0.1517308251652424, 0.01807124410186537, -0.007055441176157367, -0.029094273119067652, 0.004055893946353055, -0.03748661866181376, 0.010475599778798007, -0.01862245056119287, -0.04170741064263135, 0.10993379449052125, 0.04005569859376685, -0.009055267692789134, 0.04278908851341426, 0.006985121140382749, 0.07813604135573321, 0.027600190159932488, -0.06633048901003585, -0.006194427659512016, 0.023548694147646182, -0.05065380875282329, -0.02650510558506482, -0.04143356480287012, -0.054213006427294395, -0.0268889068751596, 0.005779219960872035, -0.054623260849445895, -0.0007668084652459684, 0.008743576495887048, 0.01708133668302836, -0.008363506835457321, 0.05831994712921974, 0.04272538032566593, -0.04161084001341688, 0.0462083698062009, -0.04016180075163441, 0.03461974973528109, -0.028496363132668345, 0.08840184605138875, 0.00960468958795679, 0.09537616330500173, -0.021100084683658572, -0.02347964045748536, -0.00632990926918353, -0.03818142710407509, -0.023280924431266625, 0.07131969694334489, 0.00521943094600777, -0.09471892394604897, 0.05188356634624105, -0.02926385177616961, 0.007192389015175176, -0.01072199414860997, -0.060966755042077776, 0.005268350360562862, -0.018943365774523643, 0.019880582126892293, -0.00955383608509509, -0.05044400300468808, -0.05836490460980922, 0.008403030716616921, 0.03054064739270302, 0.007960329499540597, 0.047928415183807256, -0.04070631720017434, 0.004299287490581491, -0.013628056216162646, -0.055094014722488094, -0.03891021416225887, -0.01796461264982256, 0.04737653616293412, -0.018298696611827706, -0.015859123527214747, 0.009319871411380087, 0.037099899736911794, 0.008876370103038307, -0.007513374384889158, -0.03427325372355754, -0.029139347390825614, -0.15168251112852507, -0.06382731813252791, 0.02762455898396641, 0.032941806788068295, 0.015270696754661724, 0.045754665753569845, -0.049014662684100783, -0.00044613657304436047, 0.04090684523761354, -0.036356112594222875, -0.01189399133864582, -0.013429878848936533, 0.04316463010022946, -0.043423149516202096, -0.061497783027801775, 0.024260273008924988, 0.15988343877702635, -0.0008579782206681538], [-0.03538903862546968, 0.0033536982570804928, 0.08394496326521085, 0.006760865690883481, -0.05668492759666012, 0.12442143160580386, 0.005153877564612649, -0.07726615347329178, 0.028829392123790504, -0.047630925927897284, -0.05025398941221005, 0.0529951352294937, 0.03247405694535348, -0.07306255456914004, 0.07673435570274618, -0.043337509428361794, -0.05333483683884956, -0.03720372926755042, 0.032853302339292435, -0.02063242700709638, -0.04802574882287781, 0.02234620955068573, -0.0359737860193147, -0.06478744519863187, 0.014749420431099235, -0.148415124949502, -0.012592620883519734, 0.023017682553609767, -0.07731879975072015, 0.007747931157729265, -0.0024224903040961704, -0.036201903649815445, 0.0648732329953677, -0.0464613906746075, 0.000120482900894673, -0.03777322900448254, 0.025363316704779076, -0.0977072154619817, -0.04532911387084643, -0.07146564166675415, -0.005313648191038692, -0.0433986248734956, 0.009184026473395423, -0.04020175704765372, 0.008414541783033514, 0.0021457822651878896, 0.07495283432359476, 0.005131557158967849, -0.05015417062409302, 0.015402965369533159, 0.013449919193711789, 0.006066464974117956, 0.010619332357129165, -0.016898422012404383, -0.04799816026382048, 0.020909420806125685, -0.07230479551675767, -0.02863840082014992, -0.15473241906237153, 0.01079712104324232, 0.006785659053340019, 0.0018202128933438421, -0.0727410580986701, -0.0057834572243427845, -0.04094777355564631, 0.024302514335035708, -0.013567873709613843, -0.007042133699254795, -0.038549387968092215, 0.037129629012410965, 0.02395263338210925, 0.03206336931380292, -0.08653469235125795, -0.12986363733446862, -0.03066289233939522, 0.04293555630649968, -0.038849459726718966, 0.03135613915993357, -0.06096966960179476, 0.09869050898132176, -0.03253654158558808, 0.018733959206251965, 0.03780540322958248, 0.11576642009766301, 0.0019789138010271544, 0.00457819210716354, -0.02183974606045309, 0.004581888521679248, -0.02837209889893746, -0.03336354176371176, 0.055948889992350814, -0.006537852179137917, 0.024733402043913555, 0.006540190241177544, 0.028297837032175623, -0.01937431850338064, 0.03378619801363728, 0.01888727419941981, 0.06467264795980018, 0.0309847627800941, 0.01849020548604757, -0.04072176368879379, -0.09845972591008231, -0.02484767153989122, -0.0020410187796777854, -0.013054213125979397, 0.06922822429854476, -0.017714276974386448, -0.0014382948300548516, 0.049072916471307265, 0.0016779504215486388, 0.025330498236954598, -0.04069605908097157, 0.042506155229771254, -0.09657335511409874, 0.09256847092780514, -0.07933950556425808, 0.04904336538935561, 0.021635971700170058, -0.03319916173493904, -0.00519883125201708, 0.03228542077182305, 0.0627967024354811, 0.05358751459095028, -0.00905600960254945, 0.021829708838601924, 0.01007192656798341, 0.030032912695415442, 0.004038075916259413, 0.01241589720316137, 0.04305874686579962, -0.05694050418891172, -0.022580949629061785, 0.001480534988306054, 0.021961999925806705, 0.06705834469706286, 0.04814223928731363, -0.05218245156368764, -0.04192928243507361, -0.012853787547154783, 0.04229408600695575, -0.002625482422577432, -0.02638380990693839, -0.08879645670737607, -0.005253289706064204, -0.09504042413806221, -0.05374875029625316, 0.009500871104753264, 0.04528072814703443, 0.005778279280086739, 0.0013147940820994412, 0.03651133062330824, 0.03278175063193571, 0.08742710472636997, -0.02742426629734007, 0.03381966752042636, -0.02144566578684332, 0.08748696331063298, -0.01023843900481244, -0.05634138359798756, 0.010849837393162346, 0.03515860571589563, 0.0001644568905430308, 0.029554788561287862, -0.03156341079154078, 0.04074132033787407, -0.003399283691897501, -0.015131274191903878, -0.012861556316683962, 0.03731605507056668, 0.04267148502594154, 0.004914681314207323, -0.03125042074240477, -0.01358160148864148, -0.008395417543962794, -0.003417379593925399, -0.0076977760481875416, -0.01716911601967082, 0.00918208407484885, -0.012089841035287584, -0.010420563523678398, -0.023503818564331733, 0.020186634032251058, 0.05849562615045672, 0.030458974684329426, -0.015987132662483427, 0.03388333017073008, -0.07460591022314376, -0.07548150200037802, 0.06897589013092029, -0.015012535713735845, 0.03471807398168177, 0.013250688103102707, -0.03455877423893845, 0.011362516277408625, 0.04153889217050427, 0.1481502156232506, -0.018780358443134377, 0.14398756040875346, 0.0010916822877550128, 0.0739179122592034, -0.041667375560971213, 0.0038599698508567427, -0.016811957214110176, 0.06730811684010017, 0.02845722357031395, 0.00785939736256933, 0.03396935706347321, 0.05123038280469228, 0.014288590675284941, 0.006692321649997673, 0.023147505740883135, 0.0004887094823739556, -0.0531856733404408, 0.0567810266087266, 0.03397966706362341, -0.0021886415555921693, -0.049761986680083366, -0.02088311234794629, -0.04903750560246909, 0.01895561393183528, 0.032258129050058384, 0.028826161804643115, 0.03991198615123287, -0.11453227753851655, -0.09871257839441125, 0.07306247106019158, -0.05229466286945742, -0.03776699710955842, 0.07546709241791241, -0.026127251711302747, -0.018047161507540262, 0.03256228765266453, -0.011974631865289596, 0.042628710340447705, -0.044084687064589116, 0.016722687738190568, 0.004472128053458515, -0.10087835885618006, 0.05377133682230486, 0.03549162546055683, 0.04864360077831578, -0.017673259093650397, 0.025163120618394447, 0.017215921842026215, -0.007999269984161988, 0.04052491878378021, -0.0442949435183982, -0.04826770514962852, -0.049585777632089705, 0.0404856515270031, -0.060946754640616115, -0.028518664398393487, -0.043694425039141505, -0.0786632153250074, -0.017918988346603854, 0.011283183615812252, -0.002156086677044858, -0.040312258061192555, -0.04112355722770501, 0.03600058913414928, -0.0602821491028873, -0.0035726660004377683, -0.0013977049741813565, -0.029550553878814848, -0.07660114825015087, 0.04135257575952306, -0.018734039904012137, 0.04130682568664653, 0.05569835801188431, 0.03071002698671363, 0.03230757634448276, -0.058436106751936404, 0.05541350686776667, -0.011054489683189271, -0.07756545249332375, -0.005482449156778606, 0.056584588752554, -0.07731213023009922, -0.08498984047481133, 0.017385183431556504, -0.03292675178379129, -0.001654130482723433, 0.004458835428348273, -0.019481300174328593, 0.05641127455177914, -0.049453950552250374, -0.04596561262705016, -0.06667392255447696, -0.014734787719490942, -0.08298637221058883, -0.04344500800232356, -0.1678640805061109, -0.09932678118379479, -0.10000240811911418, 0.05410422428401383, 0.019305144242525135, 0.0006159365545431522, 0.026694051763985226, 0.0060975842371489425, -0.019534949121026407, 0.015033919114327565, 0.029118697384726312, 0.06956197307061361, -0.02233863045569704, -0.005922415178490558, -0.030570680643625305, -0.09404110311071918, -0.023993391403682996, -0.02109646098498654, -0.023025308270550028, -0.027461393482605057, 0.012808895621069995, -0.01887324319194057, -0.026734787073662527, -0.02756730166030618, -0.0024260643584777322, -0.05219779556152053, -0.10086571934360583, -0.08917466183989485, -0.08576486627702762, -0.12880997671652167, -0.07566665310489142, -0.0694302796249495, -0.003172638484159796, 0.018128597108145916, -0.02971532007290491, 0.07476746166562016, -0.05045584628806933, -0.014427725194713232, 0.03916529089835468, 0.021473539228841824, 0.03165860387670646, -0.03373249615572416, 0.041571002286248035, -0.008735696686068422, -0.023337518821390294, 0.06523437306611567, -0.03216795734368384, 0.07110659470923443, -0.035896560002089774, -0.05142042051172328, -0.036359006443748156, -0.04163798168958246, -0.0037786538559689037, -0.11348150097655328, -0.10040644520949656, -0.057424844404194215, -0.1718961902140495, -0.05256317545362644, -0.06439582584981725, -0.07839583814810501, -0.03691813087076397, -0.056460227228266636, 0.03082650420026305, -0.010780976065489474, 0.06694516038202392, 0.04698244513528871, -0.06505635221241074, 0.0713560406593567, -0.031266303190258124, 0.031820154192732424, 0.05664476075610463, -0.06477797319697849, -0.022885425478212325, 0.044889756699728056, 0.047800126525794795, -0.01882816917099305, -0.00047392084630878446, 0.0013175096395628095, -0.07583793930322409, -0.07039211225294711, -0.13049800735698383, -0.09409387909632434, 0.01766790002257808, -0.14302946010575743, -0.12806533621852575, -0.017908126282376084, -0.09944881795264507, 0.0659707445062511, -0.03867150001694367, -0.03607628026092805, 0.04964067542184652, -0.051266262910236345, 0.04534658169926513, 0.011030937816481765, -0.02291091031147869, 0.019958189155142067, 0.07481045288241621, 0.04988509980629171, -0.0291517273553745, -0.03479166687999488, -0.0546252069159926, 0.00804286548076387, 0.016340968454228052, -0.007216502139929582, 0.01719170926516093, -0.05011856466569673, -0.07293619855688589, -0.012274916411529361, -0.08249822387453365, -0.09786932166782841, 0.004069402364012466, -0.057929687702985115, -0.06302482374707095, 0.005515362059519828, -0.0682902156667282, -0.0624495080635857, -0.1151654487678189, -0.07163664689169334, -0.014084866574500959, 0.06764931574904096, -0.106150327151402, 0.003936135650563188, -0.03225045001384316, -0.02583103618842013, -0.07251659907895826, -0.04964987275815005, 0.036398299485165354, 0.013063145717599981, -0.06173129163791649, -0.015379414306901693, -0.0346489063362021, 0.006433268310561422, -0.054838800394877846, 0.0449534265518923, -0.026002770626429753, 0.005352406217283685, -0.012112899712291453, 0.0905827032972238, -0.030295777578201167, 0.004392348210877313, 0.0533504569329509, 0.004472164107320159, -0.03626636210128486, -0.03347583757122358, -0.04447749790378302, -0.0458251512260016, 0.0029851611666297656, -0.08985763794303375, 0.05951889729271686, 0.02355953912697188, 0.04918446533132518, -0.06990685691485739, -0.062285737809109745, 0.1414840572171099, 0.055964269479977055, 0.013957032155309388, 0.02291524748433534, -0.0690496082688705, 0.006159611000315762, -0.06879230979298062, -0.04828660860517722, 0.01886861967354542, 0.02345803239322779, 0.04574984673866834, 0.0418889877651607, 0.04840566412039822, 0.008726540553738478, -0.026040923262200977, -0.043998344656587605, 0.0674526161113314, 0.06565639773262022, -0.06215578710550015, -0.08943739316579796, -0.0986977777185095, 0.0034578553859888807, 0.052485656166305586, -0.09048345890840033, 0.01114110779608906, -0.013036483248656736, -0.009762792201676015, -0.06366873934970611, 0.05083423204132043, -0.05264551713835624, -0.01364228714492325, -0.0441083049098713, -0.00963673487345102, -0.00046000682879268525, -0.06396822534766936, -0.039338953904607024, -0.04191534653662542, -0.04558639228861776, -0.03263828911964627, 0.013236598222217259, 0.022937126196641986, 0.08659142650850118, 0.11005495047562824, 0.004410393137896285, 0.006030941110428063, -0.0023846581581770093, -0.04851924141274589, -0.1433249891675383, -0.04679726353884449, -0.06428796084590552, -0.09231415935732454, 0.06429129115799415, -0.08062099097313544, -0.10006563139388323, 0.0023813562327067894, -0.05061654614777743, -0.04130316310616882, 0.009613966325556795, -0.07378365466634257, 0.023874814355573964, -0.012965612153429553, -0.018755995369358076, -0.04628828774164119, 0.02559779335738764, 0.017399913431296515, -0.04265941651000593, -0.035612559681724144, 0.017287068286998677, 0.11773515270107436, 0.012185590004216356, -0.03896727065950497, 0.10881002828692739, -0.053895597725351505, -0.05392203715446112, -0.12584288115718706, -0.0647015117850474, 0.0199588547663934, 0.01672939473833961, -0.02630377510674665, 0.01590613938957854, -0.02360166647557443, -0.0418008399240188, -0.016071988242245788, -0.003732307837241793, -0.026629253031523633, 0.006845203146714632, 0.004027693771941825, -0.0876005438925547, -0.0654177009478771, -0.02471113445828162, 0.10425321598489579, 0.009207371675785142, 0.08017676663471457, -0.05256502531392938, -0.03993882346450338, -0.0038912676452889927, 0.04932012425914256, 0.05858300346114579, 0.051462001883190264, 0.12603714377068223, 0.021234731963553972, -0.061489556489079666, -0.11870090192054061, -0.06998018381038654, -0.04952849015393751, -0.006284045051270485, -0.11436689816367167, -0.04162072163997681, -0.07184287507079216, -0.0161540553503452, 0.025059178630494675, -0.012838593331073107, -0.032875695415326256, 0.023921812065876916, -0.04006257972848931, -0.05949276747780517, -0.006997914531336236, -0.002887658156312189, 0.0017784245243629242, -0.013198595866828674, 0.034989643657959674, -0.025120315107036915, 0.04034006491244556, 0.03368084435893221, -0.018274354758819205, 0.04459136663307012, 0.13791818512557633, -0.010589879975587113, 0.052079890356073334, 0.07777356782773996, -0.02664624018474592, -0.007868060457099871, 0.0051970506827142115, -0.07263908432468934, -0.040420883810485614, -0.008264742015606718, -0.033177210950794525, -0.02255717407194809, -0.05511812540758162, -0.03882033997484325, 0.04937308878699457, -0.011929275227620042, -0.0023364918037683848, -0.02763390046988932, 0.09042788465143643, 0.04852718998211359, 0.022028641117045007, 0.0011123650386417746, 0.03928187254975292, -0.03134867867938616, -0.1005898827167901, 0.01255849551356105, 0.004452880109078084, 0.05294610074999252, -0.030477312672759486, 0.08452411363467927, -0.015831374810992782, 0.09130864004000737, 0.03813224058002196, 0.08354622803157725, 0.05016906050428706, -0.05936051453628627, 0.03954902720543962, -0.042793041408138485, -0.023338605295834744, 0.017002996500924725, -0.014199362884750152, -0.06666178063933696, -0.011306675170012803, 0.09056417553184352, -0.08292532758127748, -0.021151318655126785, -0.007190293400098639, 0.035347344475762835, -0.0019328125172203097, 0.04779806079853255, -0.02108887592512259, -0.042652100393972166, -0.005197842767679914, 0.032678510860429916, -0.005399044635920007, -0.0037623975927426733, 0.03044657983169014, 0.014925441705548048, 0.043845890640873755, 0.05266683295265523, 0.0683727123690228, 0.09713178710238242, 0.08410894425191852, 0.06926818985017925, 0.028091690548261862, 0.010378173770595986, -0.05497076403580798, 0.011795019627287242, -0.010027365967594489, 0.006888641697144131, 0.05587798375174078, 0.06111912890638178, -0.010739784649676244, 0.01891908557928662, 0.0914555484924822, 0.06697090762428942, -0.08413652672624129, 0.012632440145655047, 0.009855569223708572, -0.02445983755612558, -0.015712002755964644, -0.014212178847238818, 3.446203671590223e-05, 0.04482065019392744, 0.06356824061203642, 0.0017089364630449994, 0.06366552181269576, 0.014466583961267366, 0.05506549180189232, 0.019310571245634296, 0.05283926157947285, 0.07903524392174582, 0.11742192815016848, -0.012342819836215753, 0.07727560584138192, -0.008750907881916167, -0.03478088908097712, -0.01659408342397268, -0.006897923080813599, 0.033489666614484034, -0.018412921421833008, 0.061310110357198, -0.01691290238665139, 0.00522223144159079, 0.04911640428939905, 0.025723729649966866, -0.07904403980981084, -0.06046702275337194, -0.03301236765603303, 0.015351641988925196, -0.06054596854628755, 0.06507234702963809, -0.05951662109047712, -0.03354453167396006, -0.013715516996950753, 0.027339780423177796, 0.08548935275064501, 0.028040011806495745, -0.029553976781411372, 0.09006018371933117, 0.05744568179225894, -0.009273553228064004, 0.025845722252546582, -0.054924879651804065, -0.02500692056853574, 0.0248586989000645, 0.011573491736498713, -0.002858030260123467, 0.014709803575343535, 0.09584738606870472, -0.09969175057100232, -0.0778394055252778, 0.030491284799161324, -0.06278434393222845, -0.02553617972725565, -0.0813358598892419, -0.02598387101192589, -0.02642938409602305, -0.05746451422145195, -0.07846187645387555, -0.08718560107693206, 0.0077403577997834615, -0.05754852890700818, 0.01310640714499061, -0.0002727719517006089, 0.018520739562941313, 0.09072833295554072, 0.09676820164924498, -0.02970865626289808, 0.030828102157074527, 0.08137556601740129, 0.08780200900606061, -0.057998649504767255, 0.03885812291124262, -0.0875508763144322, 0.037510768696234785, -0.07245590617198693, 0.03551325513330292, -0.06653305708442228, 0.09015987554720897, 0.03392196272722904, -0.13322837454606434, -0.052073450636772864, -0.09793299403642865, -0.017077286307608498, 0.023125372169049394, -0.005866392092534956, -0.04984276313059071, -0.043904585022541624, 0.06875924724148555, -0.09618278377120251, -0.03641971148092007, -0.07732236430120913, -0.04363778260259408, 0.0168229432453061, 0.05520062700613353, -0.08009814574680353, -0.034980308573732403, -0.04117708749178642, 0.051379985446274326, -0.07870048741448485, -0.0017002019670686243, -0.06368153887429498, -0.012752416543848663, -0.03636753806091103, 0.00784277761709883, 0.13400823102771667, -0.05919722491986897, -0.04758066818627026, 0.03191774466077004, -0.06626886973455781, -0.005690307172278012, 0.031639181725294105, -0.06684365159470751, -0.007862628796884824, 0.04345348866832947, 0.08964176794704418, 0.019701446396367093, 0.0008290578972528553, 0.05162242681754127, 0.025263911538597094, 0.006942540027959459, -0.05337509991147581, 0.01766566488259451, 0.055451535160845784, 0.11613223976467064, -0.0664205646081264, -0.07020453313674391, -0.023209270941325643, 0.023351674610573796, 0.03334545611879959, 0.0008506037451662761, -0.026368238330236438], [0.09356344936444998, 0.14003757718927168, 0.01322462059461491, 0.023254945212146928, -0.010721982990120194, -0.029026731975129963, 0.03533449157267276, 0.05028788408205473, 0.005501299405009923, 0.0045960985566717615, -0.05807870680504404, -0.09033629645277547, -0.0876265852665581, -0.0751575941502166, -0.026625243738343185, -0.03267346004289435, -0.052662250686112744, -0.027919549226486137, 0.003852238112285513, -0.10410669496659491, 0.004517230247324765, -0.07147264930352554, 0.04202109068515494, -0.05625890975208611, -0.04406664370081622, 0.05685269728493175, 0.11965168482450848, -0.02604492485131935, -0.027584783130773897, 0.009139773993055924, -0.08217802471899188, 0.026458856981896917, 0.13678665972681467, -0.047611269490472626, -0.016081991629874712, 0.015546038170156038, 0.09502343163727117, 0.025740369780389575, -0.026158892617904425, -0.003901757868666769, 0.011177879940087511, 0.08035850872041808, -0.024050391371159763, 0.025857363475507066, 0.03433850736067658, -0.09870786610857199, -0.03907195106358571, -0.0036125561298596866, 0.0074958917365559735, -0.059491818552193945, -0.056119400329671186, -0.0595586314274936, 0.04849795210838746, -0.026688278111671907, 0.08934809888696503, 0.04895143387005997, 0.01359793326185356, 0.02939666501435915, 0.036311579171109234, -0.037342434482535276, -0.05423119116667168, 0.04460163191885748, -0.029756785777527234, -0.09601467736102612, 0.03258331742368562, 0.03578965832121724, -0.1421618886030459, 0.0038979746081057045, -0.07470413986830325, 0.09392385144855178, 0.07667265712061172, -0.028418665845414394, -0.029832955332960508, -0.015156242519370212, 0.03991918408386106, 0.03086777056221545, 0.02860722356177437, -0.0373815126915077, 0.06747824145104973, -0.041303346666360465, -0.04562932874909821, -0.08121797032702621, 0.030458498661975662, 0.05293820016177997, -0.020163930736522243, 0.11632198705713213, -0.07109581577220375, 0.028058424033439184, -0.02337052099966347, -0.10788143890178918, -0.01789312469632296, 0.0004724703312699563, -0.05585920381601774, 0.023170382330968773, -0.010991949119672799, 0.02128430514751569, 0.0017147747950203094, -0.004509757027502257, -0.026983770707817573, 0.09361048032986849, 0.10778925440786136, -0.04065240106805625, 0.02386012630047595, 0.055067243657385606, 0.021743457833166013, 0.018257748898486897, 0.08241347220263169, 0.07946544612511218, -0.07627495725899253, -0.040182464599354394, 0.017663659507489455, 0.027685826728421133, 0.1284918235905786, -0.05803984152563888, -0.01346427885969894, 0.04068896139136303, 0.05722254835076081, -0.02318150308586153, 0.01181822810331014, -0.013532756375653323, 0.04259052916362535, -0.06030084717198331, 0.05635059936851772, 0.001037435015822477, 0.015036340302887875, 0.023118999245553606, -0.05028154290368105, -0.03134569355804452, -0.06802189210727036, 0.10345369147340518, 0.09168138010045929, -0.012852470125146714, -0.003035532960478773, 0.015797956489946738, 0.035099482515060544, 0.01469317848660514, 0.010330771625784916, -0.11324355153708696, -0.03728158419824642, 0.024200939874655093, 0.07625986234970385, 0.07251550224169803, 0.02119481777744613, -8.894371390061052e-05, -0.02737832751817438, 0.04672844162518718, -0.15641089554448007, 0.07773986756642075, 0.030060925914611663, 0.07355511862593696, 0.019754642543247512, 0.0020411763138638603, -0.03089290733016942, -0.004401615624401959, -0.003004635434877137, -0.033725643276878596, -0.043404135089020336, -0.0658045981919782, -0.030211557559815687, 0.04966774239743747, -0.03177195596373754, -0.03507049856437477, 0.0022220177656195206, 0.004336028545518869, -0.004466431892300347, 0.08607874103749749, -0.00587053764582528, -0.02737241732339055, -0.02552544460839275, -0.009908210532270437, 0.040923603741132686, -0.00573614706770421, -0.0815932219836061, 0.08860482766940607, -0.024617404856459992, -0.010078845964000178, -0.04115535962397679, 0.008145722647512378, 0.055628951936420756, -0.020276784959564725, 0.002608159198263741, 0.005178539141847671, 0.04630390625029093, -0.08836017613093133, 0.00010358727767600838, -0.04763828778017908, -0.010322692906425197, 0.02019558041170343, 0.012785649612893205, -0.002383184228068483, -0.1402403192013645, -0.020988805305938208, 0.018170669345768033, -0.009865475325336806, 0.010218148862068264, 0.0003723821171795364, -0.024165401974125963, -0.05494109663146616, -0.01778884646180529, -0.030438036767984004, -0.0006462027349782924, -0.057941184035450316, -0.0367578465700157, 0.07442408565284615, 0.026570854526341094, 0.02140372842837818, -0.0019869295833573396, -0.008969097729674169, -0.020242236384081725, 0.01760979747360906, -0.02339463915550298, 0.023016010699861297, 0.001984693188843825, 0.018595306999719338, 0.033383928709666714, 0.015567573498064667, -0.06627595339748983, 0.0766200429769863, 0.042544107526291196, 0.0135218750962202, -0.01014616505765302, 0.0025969499329375487, -0.004197602201907548, 0.02115365032881439, -0.01166672606988583, 0.017889385132268003, -0.017293140428176267, -0.03356797909877165, -0.07289771417308104, 0.08320158966419583, 0.023632087927248822, -0.0021668069720399918, 0.03040815356823433, 0.036548916054964777, 0.09582089651286135, -0.0849420475060398, 0.017199822650371996, -0.03394906701641303, -0.07745160549371054, 0.07202589942886677, 0.008530079623265407, 0.007933512584165992, -0.037659149944202025, 0.035501896173451744, -0.00023879690724397016, -0.003797464691893306, 0.04406622236887086, -0.036464373637327345, 0.038119046056876035, -0.04267542539198361, 0.031938888692504205, 0.009429005930884488, -0.02264230567076062, 0.02482906118856551, 0.05816370810458766, 0.03914702384484838, 0.019230003393028605, 0.01868835363489644, -0.02697764401698441, 0.030955043655493012, 0.029012513079549114, -0.022055080024095113, 0.017055822865440596, -0.06620211120768596, -0.020515915952253418, 0.01972837504336177, 0.010576785198378475, -0.04106443807627098, -0.046508773256395616, -0.010589619744405409, 0.011425892351139364, 0.022406227913502483, -0.04897114928153412, -0.012784232212255593, -0.055937662859029416, -0.038490442689825995, 0.07286941983973921, 0.05053898658366655, 0.034116356953044956, -0.08599976555482702, 0.027974835371904903, -0.01736566419453169, -0.061272623825923266, 0.06356308903414687, -0.013942432737037066, 0.019265806141646635, -0.007866072717518458, 0.06278439121018864, 0.08297536619872006, 0.09643883009228162, 0.10852345554473108, -0.10054106495116875, -0.06504834840317365, 0.06340536409666843, -0.007073149863351972, -0.021278440954199784, -0.0738613533540589, -0.003530173403061276, 0.026414047349230262, -0.021910138324365537, -0.05869360754981463, 0.09368996147106491, 0.015347463025219825, -0.05310307216983208, 0.0519436542392542, 0.015557838290976511, 0.03062935016146363, 0.05358247550783708, 0.03891002502584552, -0.05498849730171356, -0.048074838760405345, -0.014115994954994129, 0.03946096324789842, 0.062819636226489, -0.05046263850156667, 0.03710271251866583, 0.09463003813875435, -0.002659608156974021, 0.06950071521291545, -0.08972965581631329, 0.0018131339115327338, -0.007386024496502702, -0.08300018893350035, -0.01608248508411295, 0.07295006830779263, -0.04245598591575305, 0.020654195194757613, 0.0355136320351408, -0.011061149899133009, -0.0031782344743032363, -0.06226876966150016, -0.10140422959533239, -0.00659001488283244, -0.01532020745831709, -0.026436652369199617, 0.059622478251402204, 0.04473046477114878, -0.08721675342462792, 0.0006084736541370709, -0.07655389591922623, 0.01995121416884923, 0.06082467019025323, 0.04965438099225904, 0.013968867596791132, 0.17367612357530945, -0.016654469684615866, 0.01640924545170119, -0.009173485479827822, 0.03873598724955589, 0.047540709725279684, -0.035486709153773825, 0.014045007091272953, 0.06150973559941604, 0.005550545831030187, 0.0032456914505293376, 0.044177193740150826, 0.08437779785864893, 0.05068494095462481, 0.018687085128106143, -0.03121020073753606, 0.02863908755362779, 0.0054374472158221256, -0.0817271782135704, 0.02708030204617353, -0.01257723146936, 0.06729009914786924, 0.011501717038893721, -0.029556703859793327, 0.030714889586086272, 0.0976409756710237, 0.06534233832798805, 0.00887067119019272, 0.08247035426964126, -0.012110644648920128, 0.01665893585671685, -0.029877844370335586, -0.024592161502096917, -0.011634358434885396, 0.006028317467437745, -0.04819083788956529, -0.04276077903694976, 0.009599288102337492, -0.0651069826757841, -0.02153866696678969, -0.059346786962218685, -0.04796164760963867, -0.03949212037085564, -0.01029261934800561, -0.03836694812544624, 0.025050494742939276, -0.09652364415940937, -0.03022844755217621, -0.08249511315122499, 0.027650780044718402, 0.0562049103336303, 0.004135961961995234, -0.011651235133435786, 0.029251904463037867, -0.03165691058909877, -0.004463102542038721, 0.028353418387378444, 0.04701758373980563, -0.060537729693739065, -0.020108760052827582, -0.0038568076473745154, 0.07028072265785705, -0.08620391975213575, 0.01293135352015536, -0.04918589954002596, 0.01745505548450466, -0.0658303024350442, 0.031805580674789106, -0.05855555923084835, -0.03335950003150091, 0.06141042333028431, 0.03507683008019407, 0.03983717766647211, -0.03834765340278346, -0.0015470052325969002, 0.02849586749947542, -0.021660016782736078, 0.05837138792362462, -0.02784092613627769, -0.050374404740196, 0.009759049774834811, 0.09826631014833204, 0.039075011508601806, -0.014694496472274774, -0.055251354086950054, -0.039962205542624724, 0.026238965069456967, -0.017973502937717763, 0.028896215739635363, -0.039117760789522255, -0.034330540406777375, -0.010585679519227826, -0.11012522677497354, -0.11625235386938121, 0.007184644233569334, 0.011194256135687999, -0.016398758003784812, 0.11389019523086412, 0.06112466098315511, 0.06419467776501622, -0.016413040426344522, -0.09020718535549276, 0.03865853513312048, 0.059108783004429996, -0.01888263092966965, 0.013412952344364423, 0.060391009548210216, -0.005837809132913068, -0.001179177750086291, 0.02247439200623974, -0.09244234648254898, -0.040618012147236295, 0.030071031493757037, 0.0733090553567375, -0.08227246205892139, -0.01181352745333381, -0.16403560013096222, -0.06285591091671974, 0.010275482268279009, 0.07577821726353355, -0.12039766623124626, -0.07228260411637882, -0.10627925434135793, -0.01962388273933926, -0.04870080732513068, 0.034657513622996704, 0.07849057244680285, -0.01336815550051205, -0.011506523430404751, 0.03493344866544999, -0.0189735905200773, -0.03651178761824877, 0.024488941143167475, 0.03287634557212861, -0.06693385166749086, 0.021187702492616107, 0.05936068219620487, -0.06367522288639745, -0.018341601311945985, 0.0025484037986671796, -0.05942796213569595, -0.03324928688033078, 0.012372340915952509, 0.053708134830790955, -0.06139866082907017, 0.02022163269807776, -0.04081791642246305, 0.022326164145878787, -0.07004586662456827, 0.06380089104294155, -0.06990702824586364, 0.014744585568597602, 0.07779329007794893, -0.052707041995505875, -0.015569688221180116, -0.08052019016087543, -0.04065169821645311, -0.02129649580235943, -0.08326609119616499, 0.08392377740138371, 0.03724361721007829, -0.07840732112373554, -0.02663688094946958, -0.028758368955601184, -0.024042587543846566, 0.05125825250489603, -0.02754143156032089, 0.0012474238702222167, -0.034558994887393675, -0.06997148688940373, 0.024331633417380972, 0.09729727641190841, -0.005226854457599096, -0.08151982737541885, -0.044866037313143106, 0.02968107224549806, 0.0011450353456914076, -0.06156683362854996, -0.0016717887261664375, 0.08403331169826962, 0.034550075352312436, 0.12497229648256923, 0.05494179409529975, 0.08426877045822848, 0.027217304718358253, -0.04970753362933464, 0.027857712611234826, 0.03888049956624081, -0.001238268445149824, 0.03489978672811858, 0.060034323178613666, 0.018543399273900193, -0.04883392563292027, -0.043867823581150316, 0.03268939753504072, -0.02646292868497881, -0.03633118557468313, -0.0011958199422244528, -0.020961433699687778, -0.07395291884002533, -0.008752365646326681, 0.03729368246211797, 0.17954542834711834, 0.033453069676040566, -0.004160762935904258, -0.03994512080147024, -0.059460811482701714, -0.0032664871719201424, -0.10494305479379672, -0.08376862287658755, 0.03784415209177588, 0.05918141903129529, -0.023860612259984013, 0.035448675234882016, -0.1062574903047566, 0.052720742557013395, -0.0019061964969652437, -0.04642861597008424, -0.0621179636725747, -0.007859618914462635, 0.0467402666313787, -0.05717072780474508, -0.152537406813847, -0.04130662115929555, -0.010315469205276316, -0.021966029537918066, -0.004314151146894624, 0.0911809062316225, 0.0031276450563621386, -0.0035805178817808737, -0.009864174892938773, 0.005676608641717941, -0.12925179643009926, -0.013038301158984942, -0.018398154901499143, 0.03467861029762477, -0.006881916450737759, 0.010680017571223612, -0.00773501693239736, 0.1321221181072771, -0.0020032006327540303, -0.013143100948477676, 0.03373464812588441, 0.058716557761180455, 0.07309205756347341, -0.012224359184747237, 0.022103450283964692, -0.04003098255527264, 0.02076858263550742, 0.03574290255305057, -0.0799328708641225, 0.018578016637401096, -0.042745812447387205, 0.02324197757501831, 0.027541612422492073, -0.029752950395900393, -0.012881236529454108, -0.02808578580609718, -0.03295623370935164, 0.01901059448857605, -0.04730233067815804, -0.08423530632662919, 0.004864811476087388, 0.0337404024906207, 0.018655553464198456, 0.010031403079169762, -0.002090551860626256, 0.039050517687005376, 0.02924463560628916, -0.04989516461820838, 0.012343070539029251, -0.0478324757019053, -0.044763725749503, 0.0018527970671567814, 0.04621594448641857, 0.05130411316436548, -0.020611127382918457, 0.0430156249551874, 0.059484223059425294, 0.044552452454432914, -0.03661701727223295, -0.03415903596305594, -0.01383216077526635, -0.02584353807111615, 0.012654370540528263, 0.06067794284031755, 0.0212854522893658, 0.058964241928969006, 0.014567388575102716, 0.0006527870668406534, 0.0004593254367736583, -0.033522260680184504, 0.058799388832443296, -0.023716308634898414, -0.049665332978841514, -0.03436648722430518, 0.041225226950547686, 0.0014186021444203846, 0.006094585605167376, -0.024716895264113168, 0.06503535499304271, -0.03392795896227074, 0.012537395527092881, -0.010777546344042748, -0.0001497244625022818, -0.015443605631234265, 0.025228053697234028, -0.040789597388492825, -0.15582483900599017, -0.029090651063571452, 0.10390996617421142, -0.08987872009187006, 0.059247869204056676, 0.033913529507079876, -0.046221750910163305, 0.021063982257539717, -0.01394886760680385, -0.018223997613483426, 0.04560908337046012, -0.08043462473498854, 0.005399510962175864, -0.02112566750851746, 0.0280530070346719, -0.016073653228828078, -0.0017901978569818287, 0.04619763497893324, -0.0682064710071182, -0.004543893128671462, -0.013883746758680615, 0.02819525325789453, 0.03635644682665811, -0.027050466024302697, -0.044546054925159874, 0.01154656104340536, -0.017497133162289583, -0.006646063397965404, -0.07768305733552305, 0.0050000099718131245, -0.01916064257220814, 0.06623778881295551, 0.028373530697384092, -0.04810794165726772, 0.032243115666780425, 0.051586677318055434, -0.013946190026949714, -0.07666038873087974, 0.08793283721183057, 0.08439626058476556, -0.0327907916832702, 0.06861666901278667, 0.03163257841552838, -0.032092512337036375, 0.007714185605299017, 0.014482412494548647, 0.014809403447016633, 0.02390432153188849, -0.03990516342821127, 0.009475640491644018, 0.06112880211763841, -0.06753617502338724, 0.04272175478138238, 0.030532969104533247, 0.01558702825123606, 0.0413874136408053, 0.05572270785017387, -0.013498259610272286, 0.021832523243583476, 0.009859870529732036, 0.009670210990139632, -0.045346902145598104, -0.012772215317533921, 0.03195180073090526, 0.009649742701169457, -0.1062478649167447, -0.026861112537456874, 0.1000402519067879, -0.06993444687844724, -0.09341491746303263, 0.03292072604458961, -0.013302529754092659, -0.08520611398957345, -0.05939960650431557, 0.023381797165271365, -0.016130350431267267, 0.013647333382934241, -0.052946634556134166, 0.019882340448218683, -0.02551898938136439, 0.07282685522736156, -0.07685662672968628, -0.059059823325402855, 0.01663314200830487, 0.03969261977019342, -0.14279717557762991, 0.08780317555558037, -0.01796506312348992, -0.04149064550936937, 0.029873831231537553, -0.03598037486024662, -0.01724087104936082, -0.015497704600234906, 0.031829064381385615, -0.033624916852403056, -0.014592853255307367, -0.05478796083970745, -0.04030703550020641, -0.03480508412492902, -0.10296240591497731, 0.06972614204306352, 0.0879299018424136, 0.0003573692636788115, -0.024876078979177433, -0.03507295295888554, -0.07364758252173073, -0.02918892235892641, -0.03665123672767297, -0.037032436485202096, -0.08025929657995004, 0.038113109346517064, 0.0294161993045221, 0.024705686897383373, 0.008339981043889519, 0.004533834993806298, 0.05977738450920798, -0.013395064212713276, -0.04598568146584114, 0.007218428748880984, 0.04599877880773037, -0.053810390102833866, -0.03251111406858336, 0.10431006385528727, -0.027479766634337176, -0.038568907516801004, 0.022957513476847536, -0.07296531290835181, 0.07355502280130101, -0.027881703727700016, 0.12538833897167392, 0.09264052851271432, -0.008658698625639788], [-0.03237105858043727, -0.057476111785394995, 0.007899263239394019, -0.037695876412126704, -0.013266110913828321, -0.0012581913456567095, -0.07741388632398755, -0.021389433984795876, 0.05076728616422821, -0.023558929378246506, 0.06874044990169413, -0.04440256812119915, 0.02238987641483216, -0.07713152104027331, -0.12123925673315812, 0.010381167496286061, 0.07110229601826788, -0.01402978391814893, -0.00512864037149485, 0.023859618670497275, -0.018364218814529838, 0.08415675536632396, -0.02037523662675535, -0.07322329732047506, 0.04967895416994758, -0.042524330334841556, -0.07128789956830865, -0.06867252942319535, -0.04811373771863641, -0.0018116229259528612, -0.0017891789379590709, -0.0019287490594562648, -0.023718042746697275, -0.03094595463541434, -0.008738745927135002, 0.056009128112256897, -0.011607613539621881, 0.00544734148755524, 0.03746813277213517, -0.07661818618761299, 0.02271207890972396, -0.08037854532913753, 0.03958722149551688, 0.05236725744072854, -0.0680994782901873, -0.04955369851157034, 0.04244017514352433, -0.013425556554906033, 0.018584280614878376, -0.007459891144701362, 0.07764359439386487, 0.005386450311257851, 0.018965617086804845, 0.006127130408970888, 0.01852665097799522, 0.01014612173799877, -0.002871410790457266, 0.021046007825714193, -0.08577387051240798, -0.008653135044954484, 0.007599724994804656, 0.06679614693294439, 0.0310779699515973, -0.05023826287983577, 0.0717899918515753, 0.00953175860646802, -0.03285083362036786, -0.03390896381580865, -0.015370049045419864, -0.12019881042607708, 0.05097887424920049, -0.012761187340717801, 0.09152677023872124, -0.06989652402558429, -0.06048216105141025, -0.0194299425338413, 0.07186562486109821, -0.08529859784205346, 0.04256267856220897, -0.05649557326536454, -0.03931070249136761, 0.033924268821064966, -0.01773286849485431, 0.0390753490089217, 0.02494871067138729, 0.0428474531604325, -0.030031532887728443, 0.020720804633663905, -0.04536698259086267, 0.029850520126337352, -0.032097302902739516, 0.007184952888694721, 0.03652976102854493, -0.007835652685756147, -0.028502088646914392, 0.037660716002036784, 0.059601168994775335, -0.02894203155846157, -0.023082062265768543, -0.07058314840882193, -0.08762859321002323, 0.021501595955589717, -0.05217835251334207, -0.08442809198374619, -0.017571028756671048, -0.07251221542351916, -0.09572168600174415, 0.020698701139548362, 0.029732964954346235, 0.045647741914438024, 0.09279473805721887, -0.05171361785889559, 0.028947740343520354, -0.11778900826797929, 0.10971896604407137, -0.04148980973139367, -0.08642804233014145, 0.002098599158244022, 0.0705099194810979, -0.03983826871654385, 0.027311788817987112, 0.052238251057613844, -0.007999801758411432, 0.011840498050160032, -0.018346182737539803, 0.023008307146308183, -0.00717444678175771, -0.015493974238577523, -0.03918807543732826, -0.03158056457799154, 0.04078978940568925, 0.03699129523407013, 0.012247984967326644, 0.037601891088754155, -0.014789172495370583, 0.0007210919066115535, 0.04833256872835826, 0.004369079474112155, -0.07919615461840718, 0.02411994387283964, -0.07768811218036514, -0.06102804320905209, -0.007128088288251335, -0.00826085255885169, -0.02787164691380506, 0.014918315881722786, 0.03291073704116884, 0.08386365512156409, -0.005724297115638444, 0.04744542246796352, 0.009866813792818384, -0.025175274951991868, 0.04169075453382695, -0.07194458598325487, -0.07412799285594392, 0.013142400855070378, -0.04483890403036155, -0.012076386061654705, -0.06976672403643436, -0.016354511056950256, 0.03713189351910338, 0.03979442776186071, -0.02831194482194268, 0.020588020342134295, -0.012380736196849174, -0.003963405095420989, 0.02403319115622213, -0.0012142155658513695, -0.10473318748643519, -0.12878605768115867, -0.07284425510805027, -0.026015160530256428, -0.009623611189542396, 0.013369548901710899, -0.09398875717582746, 0.04981803083542748, -0.009972640133852125, -0.009386754809602752, 0.006966165205936559, -0.02663211261063116, 0.02737706118606093, -0.026259599705619186, -0.004184654619779517, 0.004483537084087882, -0.06035735624876581, 0.009749906933678798, -0.021211826451560178, 0.0023604580697389, -0.013672586041781662, 0.005518006089896756, 0.0030946968015179172, -0.06696810508103257, -0.004256028830088527, 0.003445044669519293, -0.03954584578357732, 0.02573386536198857, 0.0022171107099093874, -0.07634181695011635, -0.0460062663055971, 0.04001926452143259, -0.03562821700769435, 0.04414351357691996, 0.030313259833241256, 0.02514384267725217, -0.05119247028275932, 0.043816167939006535, -0.018396722474688834, -0.05429692122243619, -0.00539213013526848, -0.10351986444108284, -0.0020094772738057467, 0.00020901164710823827, -0.04381606436036427, 0.005024482015638333, -0.018873171678870027, 0.06163842862819887, 0.028984289085395094, 0.05174364172778475, 0.11584362411803778, 0.05412100474743917, 0.12999213970979528, -0.05987254382202716, 0.003909484412532603, 0.005163823602351374, -0.04704590276369948, -0.0312609012020189, 0.027776944251279103, 0.05669536090284836, 0.05835995645146435, 0.044761677497178035, 0.006674683183814994, 0.025083180594417512, 0.0037240196002583676, 0.07241612701569658, 0.01456816327589057, -0.01723810465892369, -0.036999232473936904, 0.044327796791399865, 0.004944819467186525, -0.012906950223661286, 0.021328514315181842, -0.020733648860296935, -0.005597133867114929, 0.0006761010756005872, 0.021878216086426913, -0.013308916809743544, 0.04609242425090648, -0.03705825615381816, 0.061376833894841255, -0.039408325963336654, -0.010479448988068353, -0.0482415982391942, -0.010606560782311892, -0.04067659242348615, 0.03902361951402753, -0.05094772052282388, -0.000544587631166024, 0.05878584495857772, 0.05532829833707689, -0.07884215536547429, 0.03711609975843594, -0.025768786863861033, 0.029602172105899976, 0.04791083072458129, 0.08546841025552175, 0.007212953115316539, 0.0835869950661619, -0.07906019916056398, 0.005368754415312269, 0.0028212518648355308, -0.02064751661575945, 0.013736832873415362, -0.0380792095248319, 0.0895617558458573, 0.04884055607480304, -0.0553766700430733, -0.03199274216425975, 0.04448659744497334, -0.09662473659137832, -0.07388461810845827, 0.06612740443125115, 0.08769362144805634, -0.029156430755859837, 0.018169741051679022, 0.059279188775824096, -0.06477851651058954, 0.019880193006552627, -0.025221753051000592, 0.029867370819706817, 0.03173431313149563, 0.030767494630689056, -0.009348977634358496, 0.013892337429907305, 0.016577398844835202, -0.1219801066223812, 0.04721379385623851, -0.08394168153828949, -0.017474136260623895, 0.005612142001385898, 0.05105518659202308, -0.026035178803429967, 0.054506382407941686, -0.014536740368428907, 0.0074783758412952026, 0.01887959462821792, 0.01083069961378575, -0.02020495969836633, -0.028241352861842383, -0.015652922568356237, -0.05186724448258613, 0.00508403559246626, -0.02524578487869175, -0.06307462383781841, 0.09694345857668908, 0.0385454307262285, 0.014087377715662073, -0.023230729552972385, 0.06723562166948177, 0.0031806243842685744, -0.03220951982279442, -0.0031481297572735203, -0.04153757727158844, -0.08654792824124347, -0.11149025889014375, 0.0017151570108986818, -0.025730207290987725, -0.005444601264276545, 0.12776165257660022, 0.013132341969929597, -0.0032817795232502633, 0.04791333577662535, 0.02766129070404446, 0.026286131560913473, 0.060705992885103706, -0.06775397195141059, 0.0400044013440973, -0.05581250490303601, 0.006918903135251242, 0.1260693276953119, 0.03993424099101539, 0.03206514824703491, -0.005642647332613179, 0.028436152459690063, -0.02372706834017679, -0.049865360332147224, -0.036672323249182404, -0.03851072354440752, 0.004508396113715735, -0.07279640326725749, -0.11946818872745957, -0.024323012639792793, -0.023275614914699636, -0.04246286255428336, 0.023637482070939856, 0.03949122925855012, 0.043861578546145544, 0.010630420436205108, 0.050104822218052555, -0.020167414507170845, -0.04337757079781413, 0.0693122314131105, 0.05269034592576682, 0.014435775551093901, -0.014532695115410083, -0.010325489468875569, 0.04919121267515428, 0.05128717396604771, -0.03758015446627608, -0.012012384444399405, 0.0624098732288678, -0.004797704140696463, -0.017796889200142618, -0.06795911078659879, 0.005377790628448259, -0.027450796730560993, -0.006889238299838032, -0.010107935861032674, -0.023542361410230816, -0.0019243979116709822, -0.05326944090853029, 0.059999433496817814, 0.04220910494457689, 0.08439552753725316, 0.0657516353535032, 0.04066529445368975, 0.012874141974844603, -0.06649794223036125, -0.009159181129036072, 0.0051004441992093365, 0.0034916826263224525, 0.08332437434689327, -0.015876766717367916, -0.0027325990240310827, 0.03770373244240902, 0.026742061732190184, -0.04803119905102711, -0.043357872700942005, -0.10768209854587169, -0.14747562484901652, -0.06140332726671549, -0.04549319370711943, -0.0063798697024277425, 0.001671079278787251, -0.010522339464084946, 0.028100985718678154, 0.05941872917330145, 0.1440671640518691, 0.0701066843674552, 0.05168407712411002, 0.08635357062497655, 0.030838799534119735, -0.040354350867183954, 0.030295066223046598, -0.015356761634953664, 0.029777642561682232, 0.005355745924577834, -0.1264136809777663, -0.03878664469221556, 0.005483971860243613, 0.0297483684772124, 0.08821835854846771, 0.09900227067773334, -0.062205906902536516, -0.11005771559726438, -0.0880166145248089, 0.020145197552928734, -0.0027092925072183314, -0.0023167639658604796, -0.03111554826714934, -0.01744021179422591, -0.04493070592166773, 0.002786870984283332, 0.05354093701571557, 0.041382005381158445, 0.14133710708613764, 0.1125386518539256, 0.04769306715571263, 0.04467362516009808, -0.0016429789507935231, 0.07595206104056268, -0.03861112049136812, -0.062072410394186095, -0.05678467907098533, -0.036080329836457425, 0.016452037692897395, -0.0397068401660007, 0.006666049032781362, -0.003807208401217912, -0.016035716222470582, 0.030471784736297556, 0.023085308119795072, 0.01956881195602713, -0.03305477585737023, -0.07181141769536743, 0.0655912473059514, -0.057432763186363575, -0.057729783256237954, 0.0034601355626728155, 0.01908335441438496, -0.011220527008249775, 0.008172599448825322, 0.04599375261563721, 0.10791423732684208, 0.10578764425935983, 0.09878984317558502, 0.04293736465016322, -0.012755169254646134, 0.01625968663787839, -0.04952429140861979, -0.01598488166048878, -0.06913122035847336, -0.011808625798685425, -0.023678864458192176, 0.10069470019262625, 0.05853866540314966, -0.06841998554248833, -0.00527755273513314, -0.028508752319606007, 0.0363706662184201, 0.0587715493018585, 0.026959886299328044, 0.06450045915982373, 0.013192084314490982, -0.020092378902968448, 0.05563815696133368, -0.05343806328035747, -0.0324659916860664, -0.0010529638393246695, 0.03596603602252762, 0.11482656416390798, 0.1397779194709613, 0.035680952245806134, 0.06940731417999993, 0.03267447995381958, -0.0371039031360487, -0.05608745717202266, 0.07540060182987982, 0.009530634246606386, 0.07606059701775372, 0.031501684032966666, -0.0867061451739119, -0.10274220222240248, -0.012521232891474523, 0.01172098359047357, -0.014441244738922604, 0.0032050219730593533, 0.08712504501135655, 0.012479213531399467, 0.060932979699701205, 0.037488320655709784, -0.04853866746227625, -0.013318047519726022, 0.00939232505557364, -0.04234252038615435, -0.007523482297715721, -0.044276412367893155, 0.012311283415941971, 0.022149781363052633, 0.06795784620825465, -0.02250151719458844, 0.0816390087861033, -0.0958148843251936, 0.01576510954393455, 0.10566761301293129, -0.040594679859521615, -0.020075283641412877, -0.02116337940756337, 0.04873937447730379, -0.0048349279540035985, 0.002623196167838725, 0.03546093425400737, -0.08581697360795747, 0.04744450744867848, 0.019564669337453326, -0.04961045119955494, 0.054466925841729186, -0.05970481875860491, -0.04370074768556525, 0.005161911887198655, -0.04758456731988213, -0.07457188482106554, -0.008005256029627218, -0.06258795509267276, -0.012275094968137688, 0.01486432904477927, -0.044230487623230445, 0.027369757961712947, -0.06026476930579738, -0.04318237941416513, -0.007865986695312757, 0.03234247973696523, -0.015159115534482364, 0.061630473290180045, -0.06378621804717235, -0.016003383914564434, 0.022808971529243643, -0.0545207916780709, 3.393819182938368e-05, 0.08446535432568816, 0.050832838714240436, 0.021671675931186487, 0.06537281662089586, -0.0687313549402821, -0.058482377753691285, -0.07241945967379737, 0.002844337968357487, -0.02284485158571546, 0.07895965520983639, -0.08190483345061524, 0.02774414582907446, 0.019430714699764977, -0.047166860595928034, -0.03507459163835944, 0.046340484826053754, -0.026436281588471586, 0.04938938270461034, 0.031538830160578665, -0.042741263626018405, 0.014643464336661973, 0.007713371231188325, -0.01599609573172796, 0.04994977411423523, 0.03750425925907209, 0.03451302569821371, 0.011847308460443668, 0.1255825271453814, 0.01662303972124121, 0.045288022104244444, 0.18171864460550613, 0.016322195722227865, 0.1046104298229087, -0.031006754552050993, -0.08654918248062426, -0.01580040353927629, 0.0077649520449213786, 0.005897138209064347, -0.027461439657400978, 0.019935954503282845, -0.09272258997693592, 0.034664929014575026, -0.027122299885384102, 0.0037536603585795513, 0.06894608403208376, -0.024117163788653473, 0.045162062076053534, -0.012283631163459903, 0.00889645115438647, -0.006495122267200772, -0.00642816801993779, 0.0038247124474800323, -0.06531744141645725, 0.05684791558146147, 0.046677833094018475, 0.016779804416763865, 0.06677506811882528, -0.03755266818595686, -0.024555082309143387, 0.0006101137135503406, 0.08582062901271921, -0.006426406510284137, 0.01452645180073411, -0.0055379573572868135, -0.02190833257852465, -0.06351207474364799, -0.003247292714953357, -0.044787010765155254, -0.04507612799278461, 0.007691375422353448, 0.00700471728775821, 0.008194467203333637, -0.03790973949412647, 0.035253843903438546, -0.0839033527553535, 0.06596207889827417, 0.05726416660290203, 0.041159979430863844, 0.0699345309205455, 0.060961635127726385, -0.00500722759262053, -0.0013464785966123543, 0.04569570273273395, -0.006324999213476668, -0.045094610106161344, 0.09132501826676932, -0.04433197706057613, 0.03554250705241042, -0.04812293826888173, 0.034392329738723734, 0.032982052606245926, 0.05679867129931681, -0.12925802733969496, 0.062030074212179445, -0.030007759845335, -0.09227135602489278, -0.0039579201032965685, 0.09419917098230754, -0.021439167134310738, 0.022265121550819136, -0.08659775512249845, 0.0692516629426944, 0.03103324951845181, 0.01989708882394183, 0.07189614618226414, 0.02973354659176499, 0.0694243435743021, 0.01617852205642059, -0.024570425127284093, 0.03160255717838437, 0.05417802670704501, 0.0052961354037255465, -0.008055813426923297, -0.04090531667849866, 0.03513882118557745, -0.005291477466283296, 0.006404292921967915, -0.04932470898574781, 0.0015932817555438543, -0.07914634512887193, -0.09235174982417935, -0.054179811355095954, 0.06042652857517789, -0.049478998046289496, -0.04778458200818155, 0.06339880126014599, -0.04203896262591803, -0.03156768970417783, 0.03160507731684534, -0.009187279001838853, 0.007669333870595618, -0.04840562914102514, 0.024659276275940563, 0.08583766404372968, 0.0628277887721972, -0.013338312488703447, 0.027111012473357825, -0.01748389343051801, 0.00700580318322409, 0.010395621960013327, -0.03141812163693003, 0.04131106025431204, 0.0035789583728431064, -0.04026814124392718, -0.022774169583372268, 0.04928449243062931, -0.01836308393690681, -0.05279178381215589, -0.016555400553135327, -0.023256727608623778, -0.004730288411250162, -0.07309063027165785, -0.06544756851912754, -0.0297123185300842, -0.0028932588747802995, -0.03687057361544134, 0.0257512060087967, -0.00517890999355558, -0.03164794354755762, -0.09338472582151956, -0.09393698594333655, -0.09451044241879013, -0.04177578965758166, -0.05051867899200144, 0.02305454785989838, -0.023326084005976633, -0.024671619207089723, -0.005443865697172628, 0.061437013486025156, -0.06874472732568926, -0.0011708964534984589, -0.045464819130788085, -0.03638362981296684, 0.014406134941517941, -0.04463063323211756, 0.08820270281825816, -0.05278266394304898, 0.056719096316498865, 0.09379408510867648, 0.02928525195148174, -0.06778005307956549, 0.08500779064374091, -0.0380023693940246, 0.020286863514644315, -0.05859292420216097, -0.034881961947605414, -0.15876280557347958, -0.010098634035388007, 0.011740440044053918, 0.01793362765654229, -0.034345476009783014, -0.044150132503418336, -0.04478012432607826, 0.026268477452907463, 0.015588479697790526, -0.03703920330423924, 0.028263355632054055, 0.057084920523964376, 0.07522402082681574, 0.0003953684504726768, -0.07753553701917952, -0.053520944296498014, 0.029564329715277123, 0.03383013165614457, 0.007522586683785934, -0.01583195881082316, -0.02816963519726878, -0.09851613090960935, 0.020234727642441913, 0.05975153007603787, 0.0002050063187292191, -0.0288207243272069, -0.0031878105491811885, 0.010654749058243672, -0.09149557114799278, -0.03825454515901904, -0.0016750634600948087, -0.049242535634263125, -0.018368587335441628, 0.01392228923903923, -0.05669563811463357, 0.0022410918877444723, -0.024640732005935168, -0.0067351884561451004, 0.1395731166476047, 0.04195451550461973], [-0.05054833182137958, 0.08112876924076633, 0.013810003131743284, 0.0172524188599771, 0.0433535391143468, 0.05531816261426679, -0.024944375499071948, 0.01753515711019583, 0.026800391995649125, -0.05577570220405331, -0.04213008467768244, 0.015354657730891019, -0.04243196885533718, 0.05937385239529382, -0.031944200366517905, 0.002681812912245888, -0.05502775326692585, -0.003978032954578175, -0.09081666673043334, -0.08382359264714337, -0.06676199174738298, -0.07415468348370174, 0.01502099554584075, 0.009428451827537104, 0.01710447531339943, -0.006214862200790955, 0.08341780950040645, -0.0794625560557834, 0.003101545919860729, 0.06419874274679072, -0.015933653009007544, -0.01562819414346012, 0.031611000354864596, -0.07209851846006853, 0.018026741585122463, -0.017821584827327267, 0.0010420352531423976, -0.021976144514344532, -0.012589401895045437, 0.026529279967192048, -0.018726007227157514, -0.11602266979499794, 0.060621564266022505, 0.04072800065912566, 0.016299878873839827, -0.059655216823222945, 0.04323843837002534, 0.032411452018596326, -0.02849727236459734, -0.04868055233793834, -0.008298741046896017, 0.04117285229835011, -0.017989113527018447, -0.007237792770318952, 0.025830953514548304, -0.002772454000640894, -0.05699331460355227, 0.023183073809048767, -0.011853099419503538, 0.014591006674278586, 0.0772186633399001, 0.04609245866831475, 0.006040734447459267, -0.06563117685429123, 0.04658048302020934, 0.01817840946891597, 0.12537261503725072, 0.0427352299616585, 0.029576822415704276, 0.01844954440232587, 0.09733758977088296, 0.02908627292341383, 0.06895108011740915, -0.02751218313731489, -0.015944142953298452, 0.008160972202336188, -0.007583851614442791, 0.05144919449170286, 0.019873077346867163, 0.014922621500829158, -0.0601468942373648, -0.030888027955326837, 0.025336350920160216, 0.007405986407127897, 0.09331136194138893, -0.06464590152171498, 0.04071187280295878, 0.03219537214003107, 0.00915329841689407, -0.0687236499556403, -0.03325097482945639, -0.0009102316261209637, 0.003339939881482361, -0.016458519310216267, 0.008240587540259608, -0.03209601250105838, -0.08077507729138084, 0.015157439679346327, 0.036887644722423715, -0.028496228543832637, 0.05364984668134348, -0.07240395955568447, 0.0531010657471389, -0.002423171589596852, 0.05839323225586112, -0.11220036747173356, 0.03547526961000948, -0.007413051133752091, -0.030931895768498755, -0.030760309399589215, -0.07086382537446846, -0.0005312171593264758, -0.0012915283334591775, -0.03186018548841258, 0.041461942713026556, -0.07496422500569203, 0.028708062660470313, -0.01987619489040594, -0.001109858174011329, 0.00037536986374696085, -0.07344414380182643, -0.03217196538358879, -0.008109056606241213, -0.046660581620092526, 0.0703000694195867, -0.09300120118132875, -0.07107634791299135, -0.05045766783673224, 0.024447707381227944, -0.09523183301338992, 0.005665005740749518, 0.001750346757064802, 0.05427670966714054, -0.0765922484460776, -0.012838646375991922, -0.038358172619474114, 0.008166550932766956, -0.12865586119766526, 0.08640960749863434, -0.021476443636255345, 0.027427682935785097, -0.046155021118031166, 0.035423328964458836, -0.01167255221256132, 0.11731830792480191, 0.047362801755338184, -0.05350317162052314, 0.02985120186962423, 0.11200413302528811, -0.01959876976436102, 0.0290803703290869, -0.12344438670901549, -0.07026717706791102, -0.07223321217285343, -0.06340418706676837, -0.06339703839526618, -0.015937465200762356, -0.08195121425398379, -0.06483287563202332, -0.034171008612249046, -0.03999935902838459, -0.021426621024966203, 0.05824620247701325, 0.006088744503710093, 0.07286338587408193, 0.00020110022703195021, 0.012528868059794968, 0.00037140664633022666, 0.1083384509018221, 0.024990407891088636, 0.05669480004583464, 0.02277039816306869, 0.010174308555678021, -0.012037821168981099, 0.015048139317106475, -0.006206356481399272, -0.0031028443507293735, -0.05204877751640758, 0.006146165982270292, -0.03549817573284826, -0.00732850839160634, -0.0657350055103128, -0.06467152633791566, -0.03635362580858156, -0.10928240923717607, 0.06865733454291817, 0.021067375087156167, -0.03437088165122356, 0.023681482409561413, 0.0009903130180501224, 0.09858682222952916, -0.10484372884848633, -0.05404519591721973, 0.019321110091734265, -0.08861165801171206, -0.025393329970773933, 0.0270876563131132, -0.08479415801892684, 0.08987384617861434, -0.04270824663609932, -0.11278800271002717, 0.042646462258074044, 0.03561243730153556, 0.11300763036781811, -0.013819422689547422, 0.05886717588235014, -0.04625229951540469, 0.021783600950099447, -0.014104146715630275, -0.038286424845376116, -0.0791885301533146, -0.06143563575417213, 0.020427808717145765, -0.029490495612478657, 0.05497285749454872, -0.029207332839913155, 0.006719872845075116, -0.028189094240674003, -0.037027386945860094, 0.05442471366656704, -0.021023836848831703, -0.10026917708095523, -0.02112482686877865, 0.02729980486210289, -0.04093208239755452, -0.035327980479674025, -0.008307172702644283, 0.07540392970559351, 0.001656953734226842, -0.025024743567541766, 0.08047948593723024, 0.07078398875953353, 0.08252074250464216, 0.052223490975417494, 0.056747277249231995, 0.07046289901012545, 0.032748970535326, -0.004934432416908479, 0.02627054577385894, 0.051683915076917566, 0.0216514899042639, 0.057034828688122624, 0.01541249085802217, 0.027658278059748135, 0.017817402125782176, 0.02519915705670357, -0.017489626833900103, -0.08135427179215261, -0.025924194786883178, 0.05803748763287697, -0.07791677465784172, 0.031138769231632016, 0.10124158634635826, 0.04141646845445764, 0.03426974441526052, -0.07285155431282582, 0.11944485184827025, 0.07282927549408352, 0.06434502185514945, 0.06770289989175671, 0.09951159458610706, 0.08621266529920799, 0.017227239635081836, 0.03524375235840389, 0.061778767285594505, -0.05989545084289646, 0.09791963505441655, -0.035591411297611064, 0.04350346309319234, -0.007210657296949374, 0.04012762718480889, 0.029726404967358334, 0.028706696824079652, -0.0032994593619653416, -0.02565769133728309, 0.021980849382881334, 0.03832715292619965, -0.023968689007736316, -0.01642064915586796, 0.022742618672121757, -0.0188249558955377, 0.04960799172945157, -0.057527179817285626, -0.05144610074228613, 0.11589848976185493, 0.05167968213572157, 0.03787363433494354, -0.07308744864287418, 0.03671228133091223, 0.0557579502044329, 0.0773521792299103, 0.0541789481645186, 0.08175113399120754, 0.09585349258802993, 0.06305749309655889, 0.0010562430834152362, 0.036053354335577416, 0.09028437343486703, -0.002731124186163167, -0.008306135596735651, 0.010253947889599624, 0.03798047588209723, 0.030892768014036974, -0.04987216286031646, 0.08889801010811145, -0.006845404602098202, 0.06806694508842481, -0.022072995627470064, 0.027412618531441783, 0.007854767811337603, 0.06752952225348816, 0.1294659098916857, -0.06422789147262967, 0.002360607100775683, -0.0245071455099351, 0.10183856072156594, -0.023501512084670644, -0.007044087892024349, 0.08482260301872206, 0.07922268861162604, 0.05953516910123174, 0.01658740902044213, -0.06190642775820797, -0.007428244264281805, 0.08119617838742035, 0.014393585243717586, 0.015935520599888824, 0.0743680177913313, 0.05889736536018696, 0.02456257136938889, -0.049327351858520656, 0.04486425170524356, 0.048755233068120477, -0.07073084557315969, -0.02744651080362883, -0.032163626550717805, 0.03698928954473652, 0.04904810610813755, -0.05238982113674351, 0.06392895577148067, -0.027385909007967706, -0.0019117659569501985, 0.048396331201810854, 0.03464390757441706, 0.06922248814945398, 0.016633819249061533, 0.013625436816861215, 0.01171505932877357, -0.05005851330180506, -0.17769769908044294, -0.08883919895272137, -0.02149469029538503, -0.03641255186459305, 0.04680167318406992, -0.02712149103459751, 0.017819340548547127, -0.04573695756280419, 0.009143952930173501, 0.046431920877031685, -0.03950762790965869, 0.0015073822058590544, 0.07699051733495554, 0.06385880198438047, 0.08920538471339326, 0.06905704963770226, -0.061465495232586216, -0.007947523329887855, 0.0033982208241930554, 0.033632095581614854, -0.0009500609136165378, -0.027585415056840847, 0.0006606986661867867, -0.03403278915531746, 0.02848517548964761, -0.05579726358491683, -0.047357342059023345, -0.18074015673344557, -0.2556219270479024, -0.16245665116742267, 0.005213025531035462, -0.020038395273211725, -0.017730636251389712, -0.03773073944221264, -0.062042770740037, 0.007010710415883407, -0.10361159170741956, 0.06615372152759484, 0.02643471753478959, 0.018237066553771716, -0.09854345786948585, 0.07938037805114909, 0.04441718839951564, 0.037107355098437024, 0.0398518290433212, -0.04060435835776586, -0.0009774135018352297, -0.04185669673863081, 0.048380461207951204, 0.0499296183792687, -0.004334718679645392, -0.03708916418639424, 0.004508140348356879, -0.030975945876139874, -0.09479988373423064, -0.19220821111028358, -0.15411411420791096, -0.0477726192265522, -0.0906095986556905, -0.027996989071121626, -0.035770565689562356, -0.0182575060387104, -0.041456093490400484, -0.036348958530473395, -0.0001609283038283174, -0.009525302266719007, -0.014762137023522547, 0.0189847280980575, 0.03107119150960946, 0.026101782251452387, -0.026656477325384547, 0.08795764153326904, -0.011092296212991246, -0.01716465543450509, 0.05130206740992216, -0.040579149453254734, -0.06051459840345193, -0.05047367772116069, 0.018020943542256546, -0.041469685554663606, -0.06021500050093312, -0.01433787612608698, -0.09394555178453595, -0.16056063560180844, -0.04301947942351775, -0.060744790832388, -0.0119307759803837, -0.0470370655803444, -0.026000406056797036, -0.035362531562035206, 0.047066594907291835, -0.07558700720394838, 0.014218956671099677, 0.027128638194351046, 0.07831157900352315, -0.04077225628015863, -0.0031141296199059575, -0.024708659746716873, -0.02059512524096385, -0.015119082952106195, 0.016039516690635414, -0.10524688708254588, 6.367276656274348e-05, -0.03852400398117694, -0.059153092095759224, -0.06298578438951705, 0.030989866114783427, -0.041146037504213556, -0.03781268818433871, -0.047807083031921375, -0.1862325767328982, -0.15888166212620408, -0.07847316079860878, -0.0462831632608928, 0.01380818238997818, -0.046076154589969394, 0.03680288759862651, 0.021332221987401586, 0.060148384881447636, -0.04219961083159464, 0.10290530069975942, -0.06227958611396503, 0.07762496975465814, 0.0916518089522788, -0.040796442270965336, 0.016687756750579583, -0.006790288468855888, 0.11950118336298955, -0.04411769796668255, 0.025133542719226992, -0.012859972460572149, -0.0721309661344997, -0.0718049610024842, -0.10043234732177864, -0.042544548878988495, 0.03162339256590546, -0.09376820273754406, -0.22528399146096864, -0.03621753490086979, -0.11920825978013394, 0.03898765722140288, 0.07599294647677687, 0.05170835143262613, -0.035462473113504284, -0.0694740177972369, 0.0288321528183087, -0.02817536239193683, 0.005834862460298488, 0.08282770565643874, -0.018122050184452374, 0.030318453251306336, -0.004991794346359701, -0.04340647571025746, 0.006702725326119803, -0.04802775058096671, 0.0013774273210124485, 0.05825035150941027, 0.038457808066468764, -0.06112909797620786, -0.07162198293039297, 0.0045205843037191265, 0.014040410774316723, 0.05014955421420206, -0.10030906346351855, -0.025674144060323055, -0.06883433064428125, -0.08278239682170492, -0.024067685630425002, -0.049380732882904614, 0.07331345647810208, 0.023550019529745694, 0.004564322615184728, 0.0008668947230156123, 0.013715794208609505, 0.041550816530168275, -0.002689061556074902, -0.0026728567705225133, -0.008390053502137566, -0.02818775544007006, -0.09471934342897595, -0.05195393079495776, -0.08308714259597308, -0.014177152901788101, 0.0018450877482704235, 0.056267654377172224, 0.033290972418773684, 0.061042248649173854, -0.021531053380528856, 0.010810533229001981, 0.014623274490786582, -0.03144166295449882, -0.02559425279255688, -0.06035327927136195, -0.037545107735972055, -0.023412964064950914, -0.02951261143623374, 0.02327036549227317, 0.041840256459140295, 0.11769261367761712, -0.0420382939873678, 0.05140961846062684, 0.02291440885281692, -0.005696229682107298, 0.02235972543074833, -0.09413181524939611, -0.042937063487661506, 0.05926345024838034, 0.06670343300719667, -0.037249500802411926, -0.056065667749574985, 0.02384219458063506, -0.04352807399262105, -0.03011473538030206, -0.007946553487790487, -0.04558223709148, 0.06943862355418667, -0.07646689406765779, 0.0481831538543592, -0.04506662314582184, -0.05799283518545874, -0.053582375554242376, -0.042154457172084235, -0.04288548343372992, 0.060913586383139366, 0.06040945717288903, 0.06930648967279567, 0.035888387794229676, 0.06236088701249583, -0.09663820599690225, -0.034081313556355027, -0.06256304736529478, -0.13174299159471123, -0.12149465080184571, -0.021269401409818374, 0.0354544962350898, -0.03113332286609165, 0.0659994129504348, 0.04625777757896119, -0.008142543804163146, -0.07253752686123868, 0.04426811683470072, 0.03708384589601877, -0.02116585414436673, 0.028738387247962967, 0.015883447820734732, -0.0445362506572271, -0.07901271022372992, -0.010276296743188019, 0.04181160564400953, 0.14101312094422863, -0.030041511609435686, -0.013698421626086407, -0.0656972583594497, -0.10146841066992948, -0.02661485906196622, -0.0009670620738646472, 0.00327890718947564, -0.04372245273109527, -0.06736862975046662, -0.0541477542833702, -0.0216287251668836, -0.11110442225999749, 0.010721447153710916, -0.06904601271053908, 0.002250736722217979, -0.010522569941453341, -0.03501102828144582, -0.003086879813453652, 0.10329707041408245, 0.05021873637662256, -0.02802929824403804, 0.08148026387620967, -0.09052230224510345, -0.0017634082673261455, 0.07845164791038312, -0.03549298892195924, -0.01939832997765128, 0.018979835099999124, 