{"input_size": 784, "layers": [{"type": "Dense", "input_size": 784, "output_size": 128, "weights": [[0.02637034312216394, 0.07785711707312709, 0.0288132670166264, -0.013646969251568655, -0.0292133886769832, -0.09503185307136978, 0.07204096915706379, 0.007827548339657575, 0.10501730288365538, 0.057168837446637324, -0.023076698317753226, 0.041320318785479204, -0.009976707742007996, 0.0640576221602512, 0.029133708857227106, -0.06275271615439022, -0.05329295556513308, -0.000276945900616381, -0.0014286519432273562, -0.06333699201130077, -0.05029140417385575, 0.016978245834384346, -0.017729901850501554, 0.003660155194698592, 0.0478962078435092, 0.09149996813583561, 0.032086922005640686, 0.03376754903754675, 0.04000450112801034, -0.044764985336583976, -0.06246108960935842, 0.022365234725032584, 0.04220714710632543, -0.04099542376466853, -0.004511421938528481, 0.014034450990699231, -0.009973676724300135, 0.05272395230420976, 0.018354762049965112, 0.03410881688353569, 0.046178127710992736, -0.039605711730695735, 0.010749674749799388, 0.037467163116416874, -0.043018557362722545, 0.01515905207157625, -0.08289552706949051, 0.027759536273712367, 0.03409631964528859, 0.08510888915071549, 0.0408569479955784, 0.06515857866589266, 0.037623141548900764, -0.014643767383172537, 0.025343334527280673, -0.07756990109692875, -0.03881010183026648, 0.08429100142909438, -0.027082912828898232, 0.016773279754041342, 0.05206622297808665, -0.0016201203171871848, 0.06497674761232307, 0.03260298482990017, -0.0012676247902500889, 0.04440187105904047, 0.023172937928650352, 0.04451728906380189, 0.06318562561618817, 0.007676267360194434, -0.030500825267024537, 0.043564934892128857, 0.08638994470846738, 0.010564912846259834, 0.006662490355924434, 0.033198602716885295, 0.006919925085537449, 0.032986106930910856, 0.002127515305837837, -0.03714006302635511, -0.01745010396256322, -0.10519307300152031, -0.03889532303294232, 0.06105718776023666, 0.05051868661723424, 0.037951927956679385, -0.008065844968611336, -0.005178974536831185, -0.02386035190189305, -0.056739523572369784, 0.048398826011568814, -0.011178243495741166, 0.02864571172112654, -0.004659917424355984, 0.017869507239672424, 0.0224195282029, 0.08938228467589157, 0.029304641767443323, 0.04362744981125872, -0.04840283308390848, -0.020175413243430463, 0.05006640872550347, 0.10666297070489067, 0.026713417279915077, 0.08854998670547505, 0.034075337172681554, 0.06653404039462141, 0.027293291559110946, -0.053977555524474585, 0.06392743775581343, 0.033450661071161736, -0.01697848247945501, 0.09309622372767834, -0.013038173738353028, -0.0060551563743238175, 0.07961043014876631, -0.0459576211044671, -0.023529938824953436, 0.021681646664612867, -0.13764708579454404, 0.009577689386441147, -0.03977728724746012, -0.07443709369947904, -0.0014716945128308689, 0.027098993307362595, -0.1114081570807354, 0.05776904733950448, 0.002173125354290189, 0.02344168237915057, 0.011740420909774098, 0.05115383325087358, -0.026808464501650055, 0.0437571259554677, 0.13462469777400699, 0.08445100715015826, -0.04256877333154961, 0.004057079883343303, -0.0013188544792202912, 0.015139512143343827, 0.05776495733610359, -0.08040560244546993, -0.008738660644694867, -0.011356682786605496, -0.008481308352316355, 0.04505447301065956, 0.030171380164241986, 0.037034792166940084, -0.06865205724133261, -0.024257096212770463, 0.07853002611175176, 0.03479586045667961, 0.028018504050793112, 0.008745044196925879, -0.07726968615300077, 0.005631891568702935, -0.041682383513418894, -0.014584724641766916, -0.04274790067383374, 0.028789273838157183, 0.04349013011611237, -0.0031613412124048544, -0.0891705751747965, -0.0015206000455998355, 0.01061813614489117, -0.03091638616945297, -0.10745647992945263, -0.015823934683771863, -0.03325056482657162, 0.0057605415326099085, -0.09698507624718572, 0.009886877175932516, 0.06269483918876496, 0.023655949009309358, 0.021100524280551262, -0.025953344210421038, -0.022061853773682777, -0.0976850385382669, -0.06262296614944998, -0.0667397613710269, -0.08800017451559512, -0.023669647084824694, -0.0313459330580956, -0.06835152445039068, -0.06571140016620639, -0.03383122561579802, 0.04987253273009696, 0.03924013421449666, -0.03810122996433667, -0.0002030258681452376, -0.01484619651687701, -0.015575378659384447, -0.03639616372036157, 0.008496344161153708, 0.06786073464067455, -0.08061588644051597, -0.028643876296348774, 0.016696404700870512, -0.018315569926609904, 0.05254134805313146, 0.05127750531746526, 0.008209023415185736, -0.03974867949822903, -0.004571481942372011, 0.012064739767949738, -0.003570456921808586, -0.06298822027530376, 0.025155767655442137, -0.06104703515811361, -0.07895622660346807, -0.04447372000160409, 0.05531775626348652, 0.04502631237934712, 0.03553778793631896, -0.08067185815900078, -0.10679276645825456, 0.005603013996648826, -0.04920758024973312, -0.04245625563574256, -0.06279247042802549, 0.013780453015201468, 0.037996564516246986, -0.03410877166548508, 0.07144242785178832, -0.04860004390044172, -0.05217406075412177, 0.0031954434806497328, -0.018740639712574482, -0.01215818040658631, 0.024355149011442152, -0.03406016919486533, 0.041454688700353244, -0.028096169784576713, 0.03450093691802278, -0.04841338411730351, 0.040390778989301275, -0.022501562477111013, -0.038269712550055505, -0.022023181250254455, -0.008562945506517747, -0.0171087679893937, -0.09368448921135766, 0.005531728483551565, -0.07409287690926795, -0.024188571017596083, -0.14331387997725026, 0.025409801385133865, -0.008327830644382892, -0.047299265526236076, -0.03181395799890638, -0.009320391782873815, 0.05609537645226902, 0.008805165912886893, 0.03876441518957846, 0.04422074202019759, -0.053480656707031386, -0.11885344140716234, -0.031776769574966036, 0.02024702790750217, 0.08023885724586825, -0.039175903900238895, -0.12404214215157812, -0.054588814461811935, 0.01599302103122176, 0.030253685751446192, -0.0409512289834508, -0.04684316203028373, -0.003949242430788802, -0.025328452509288637, 0.031772546057052015, -0.1266827940787392, -0.12172140016164028, -0.07478410319516578, -0.022367692962597493, -0.04820171423881048, -0.038822474017167985, 0.029776846603190164, -0.07457791648226238, -0.09986841999551055, 0.0008475873263816596, -0.029972989080641183, 0.05823568546233136, -0.06123794227570781, -0.009607908097998497, -0.019678909885836666, -0.012483200289196004, 0.05307834114097765, -0.04354552467924574, -0.012312334764022163, 0.02248660673260917, -0.07032567802252102, -0.05992384558558068, 0.03508476153355357, -0.018339299890039035, 0.031771233497073566, 0.062180989454941396, -0.04148345440545043, -0.05163073366063954, -0.02424434288009955, -0.032318994645153185, -0.04715793773353335, -0.007963795244823078, -0.012114068424759412, -0.06908247805959078, -0.012073935113081396, -0.004864533728183013, 0.009888110855981808, -0.07419818689966907, 0.03748764444159288, -0.020129238132363628, 0.0526036243426185, 0.07323124494610248, 0.039440924045023494, 0.06648709130914017, -0.01460119059083956, 0.025499478638258546, 0.041831483955023424, -0.005939878644554105, 0.06931800699804583, -0.01747844464774331, 0.0044667725446509285, -0.03513327547187449, 0.05252018079032206, -0.02092902146255062, -0.10770379853908518, 0.05640278254842223, 0.004731890462656777, -0.00895474735654428, -0.007181965979852859, -0.03052353754574393, -0.06333928362072182, -0.03801447041632706, -0.08261305981803353, -0.004925044746035567, 0.05520178306595938, 0.02055579724133776, -0.0025871607285789656, -0.010710791644109584, -0.009176759991364103, -0.024372602343061985, 0.08102832745287618, -0.03192085740704631, -0.022158196344158873, -0.03863609921670486, 0.0816910761223867, 0.005117889976084826, 0.022951123272630145, -0.005915073759688947, 0.03186035080441755, 0.09282352058474942, -0.0364254304018219, -0.03429116911525371, -0.010655445322153486, -0.020140179093741543, 0.008774277692664771, -0.041991666755285414, -0.011804454514842095, 0.038770483700343174, -0.02823509920025813, -0.021946299986848713, -0.056467180246543174, -0.03126596320159163, -0.08099864267656279, -0.03642611276012946, 0.04872012446442932, -0.011912310732467535, -0.045734258858950175, -0.005298861338484768, 0.04114889171532589, 0.004347936855620773, 0.018173631516108315, 0.06151944563168017, -0.03264058252540014, 0.023953378341855874, -0.03716942446689744, 0.04301589962031635, 0.06239127723329431, -0.007603911711449581, 0.03031811721887717, -0.09375221771450214, 0.01451480410666558, 0.07642721543019793, -0.008156422784743237, -0.0555023409023947, 0.03765865108300697, -0.03530682502633165, 0.08398771405562959, 0.11753455137370605, -0.010712322789256998, 0.041034600046036575, 0.030973211956201663, 0.08318886879601664, -0.06687423436944422, -0.055670518164162686, 0.13650957744926692, -0.00701755581660258, 0.0315873587426842, -0.01232113150815149, -0.010132503407729311, 0.011714801309864097, -0.04783899765220068, 0.055951972596301594, 0.04933576489915874, 0.0041840999013366045, 0.09224998659865868, 0.046130812708520756, -0.0006302695202523206, 0.11138003574508933, -0.027456473251037804, -0.017722768953769903, 0.014896627889609436, -0.012483518659878493, -0.06358159578205837, -0.005028571596999665, 0.07663998127800203, -0.006656483094253707, -0.057010236597042206, 0.05414808507561699, 0.02611525124654773, 0.0516375271295545, 0.01679380804799724, -0.031689249669926936, -0.001786528020993093, 0.0765198219712947, -0.10192323931159643, 0.009925504091156882, -0.05638366469541724, 0.037771561747130054, 0.030074419385194385, -0.05021815069879383, 0.03729531749701747, 0.1240110154283132, 0.06131627826472312, 0.02151268766033249, -0.058696350927539095, 0.019987272853658828, -0.02534311978526931, -0.013144810474901349, 0.011728647029805006, -0.00420092249472164, -0.020454637647182656, 0.03101177777428418, -0.0388016329731246, 0.0946558530421443, -0.1028377623367743, 0.09115817622947184, -0.001754468102973097, 0.10173278630708393, 0.05633787795844187, -0.018350797528908967, -0.03127416663763671, -0.05907599485509968, 0.013691927808914359, 0.012819948169912856, -0.04048786253253361, -0.015205285468690573, 0.012457118755099434, -0.035552362580835474, 0.0703442331251418, 0.14667116382916504, 0.011112609574562601, 0.012098309397293453, -0.03213053216010012, 0.10208505584919911, -0.02851462324829306, -0.038536949147015755, 0.01140563367110772, 0.027704960128547455, -0.05934383451400505, 0.028468085162247275, 0.03034678869860222, -0.00920705017051517, 0.03687672785201469, -0.0569229947233334, -0.036402905341369016, -0.03987658958907284, 0.03373310453984914, -0.05370064036115637, -0.05788735038269529, -0.008602592036863359, 0.004275585601044641, -0.015438591775935704, -0.10131251644885696, 0.03014536631196545, 0.005747125041932613, 0.008593953549711516, 0.08978363651791793, 0.04286358161713205, -0.012684687108961404, 0.12155124294904585, -0.06596295607889005, -0.0028089434657335125, -0.024029301349604005, -0.05590668030176058, 0.051888571530723626, 0.053231739438746366, 0.07146438050492115, -0.009948690679351922, -0.020479916699157334, 0.025971968085228118, -0.0710320658894156, 0.026947405586400616, 0.0024972207433657198, -0.08327716062600969, 0.0662402794528815, 0.08816773896204948, 0.031385607313844543, -0.011000415865835033, -0.01631858268601076, -0.04975177085260377, -0.03644110838016196, -0.046920568497243506, -0.09131482569395373, 0.0031170950474968843, 0.11133838744446703, 0.027136027560659214, 0.05655815603409949, 0.02156660768620421, 0.06957076417331325, -0.011081770717482436, -0.006973563909402022, 0.0005951404936656779, -0.04394336725998188, -0.06570633847598659, 0.044416026152028595, -0.06888957116364687, 0.007789354274626438, -0.03354813363753415, -0.0402702713782234, 0.03859665499286336, 0.007453680408563838, 0.001759751272628985, -0.07600468599476151, -0.009289328230569984, -0.0807822759012556, 0.008812130380201465, -0.006102605301617252, -0.01803219099512902, -0.05619216410376013, -0.05254266225699651, -0.07466064428906291, -0.09103502673965554, 0.07835538594461577, 0.12075915993958347, 0.08474527242441571, -0.03987213654978616, 0.08117517522988438, -0.1030505639849375, -0.021131518721802457, 0.051619332444048635, 0.024330511919297613, -0.00939804597091323, 0.015579219277015215, 0.022994248403866387, 0.026969126688697408, 0.019442115351757713, -0.03107551074727633, 0.0008625527410333302, -0.05856804091555865, 0.021434890417951317, 0.056165794953135686, 0.008524105321041775, 0.013405982983688636, -0.03651955725999371, -0.06094379609431721, 0.029627188787438936, -0.09150935528109985, -0.01437902088319742, 0.022854853303242693, -0.08774040161781059, -0.013317622312773857, -0.03237579606565807, 0.04268534515898781, 0.09192679967535324, 0.021782369319595173, -0.06485186698002823, 0.1047485108259715, 0.07302426293039865, -0.0012038388526576498, -0.02313381543446633, 0.09191801841388977, -0.06390548917887381, -0.04806705284557543, -0.05948255911746013, -0.03574627470308541, -0.008114811789897598, -0.01700085337310133, 0.005006364562057756, -0.013093399879662569, -0.08321040867698884, -0.0006141589668980122, -0.05442468285204346, 0.0002550859655070717, -0.062238586796460306, -0.020114701249894368, 0.01842137726369149, -0.035048797338232934, -0.01705872157034694, -0.0062960402635052785, 0.04499099477322704, 0.0707866060882737, -0.02800906399355818, 0.046216445874907364, 0.06185110941745486, -0.006299422780204535, -0.01951579588679841, -0.04799229385168513, 0.037189404331360046, -0.05524477083650764, 0.028506849889549882, -0.025746446756848985, 0.0007464619379880698, 0.040762052506462566, 0.09460981050511423, 0.12203301525865187, 0.009423685726695056, 0.025750652669779606, 0.06291780781363857, 0.07681485635215768, 0.05437087422801964, 0.007730279311990653, -0.016717961995471448, -0.001350482350999992, 0.05249151649327243, 0.07245043292633169, -0.06136301915941154, -0.10536295542186774, -0.023286419724732048, -0.07223984244482316, 0.024435916211905263, -0.004658879652404188, 0.01021439677647798, 0.07040358630066366, -0.038217094328660446, 0.01690701821645828, -0.026175409740041965, 0.003986126274753563, -0.0032970738363141375, 0.05409286027040944, 0.010157968250094124, -0.03597874042898713, 0.004525555502269467, 0.03652585325640152, -0.05843023892307588, 0.05242030383935637, -0.02658750981170942, -0.015463310864331616, -0.002950966697277445, -0.018295710842905044, -0.03312875409320919, 0.008047794404656174, -0.027863582730712266, -0.00817987670239649, -0.015488389408727888, 0.0010626521670527537, -0.08170199432483871, -0.07306383455982926, -0.07496336397285155, -0.00499811276212069, -0.03230886047152565, -0.03239531318700289, -0.08251073348559776, 0.04324961985375431, 0.026278392201871607, -0.06334449252859316, -0.06013763111718036, -0.014655058663555532, -0.06645118678200118, 0.020186383520644044, -0.018156205982930138, -0.07440776883823444, 0.016760009249481893, -0.04428119094716097, -0.031796789403328175, -0.004361069407891792, -0.05928006920442765, 0.04192546295833914, -0.04065354563544787, -0.07355484824388686, -0.11621006120512489, 0.031247746710790957, 0.053325538424147424, -0.025358049854364434, -0.025740185835404054, -0.12267187944309856, 0.008834683419139112, 0.06613338652263206, -0.04975240683935628, -0.019007641053027255, -0.028175850774882084, 0.05683782356055145, -0.04821197754854786, 0.07905365248986596, -0.0198924865837866, -0.023424641490577294, -0.08192992010382294, 0.01718690022395221, 0.011434561095698357, -0.0327662564299587, -0.06237060798258178, -0.06293615571621233, -0.04633508213675396, -0.04312748912687602, -0.07639540093168957, -0.003356395243259483, 0.017092975464657958, -0.10982153392063376, -0.008575609292131515, -0.07272081236730181, -0.00538441541662681, 0.016166351697674615, -0.07426042661834484, 0.07102254906965598, 0.028880164248264742, 0.03719848067317179, -0.019464390489015986, 0.01546582390299553, -0.036985479957332486, -0.06683267458929448, 0.03312420274426901, -0.12798228312722243, -0.06633211184499727, -0.023116985936333115, -0.02915498148316465, -0.05750148767934082, 0.03243118337582899, 0.03428497774683309, -0.10265426413500248, -0.05417409766612869, -0.01589459305172254, 0.033913977241666886, -0.02891015047005943, 0.02281020724180242, -0.0139877697815651, 0.030625939099132273, -0.014063418268012096, -0.03999562268332953, -0.043175784888442245, 0.03205539873843402, 0.03431387676516444, -0.03437672496879006, 0.014626003824684897, -0.0051748736418540985, 0.058407837701615194, -0.007240495966747454, 0.012136193858265547, 0.05862176319653782, -0.05559010400449388, 0.053223455482291473, 0.015687722398382176, -0.0662772358241629, 0.03313173788590007, 0.009567254111307008, -0.06918701806396915, 0.07728518488096058, 0.004358064762980188, 0.010784473096153975, -0.013463906705804298, -0.02029058210997496, 0.05926521443237895, 0.0298262210393406, -0.0724574928074671, -0.02964246498063127, 0.010772946090545694, -0.0001217119852662141, -0.034889391493115464, 0.0031254616263632776, 0.017087946711553937, 0.0009464201592306328, 0.009202864274973629, 0.018271629686701298, -0.027348079894759184, -0.0245235947613787, -0.0199575676252724, -0.03899086246351212, -0.11342955183966814, 0.00862120761168129, -0.005519376034766302, 0.008978244530354907, -0.020750331689539967, -0.01325460156765863, 0.013079627387947141, -0.03872478292135036, -0.028200200205017158, -0.10987430601154727], [-0.09423743006133005, -0.03441601094181879, 0.025753232837623406, -0.09365178791170031, 0.07676516954473717, -0.0647199000931628, 0.043791792319509144, -0.08556944746420123, -0.01876928738780869, -0.008295424944366435, 0.04710871543613719, -0.05816485450533728, -0.03457375094964667, -0.01081403295973467, -0.021084872885508876, -0.002904766689374571, 0.032348334463303374, 0.08999637330537802, -0.13142644887252158, -0.016836505703414998, 0.04435335290290809, 0.058306513411344504, 0.04950119622881945, 0.058448869362162995, -0.050889129505012454, -0.042101308952543444, -0.1713979050200161, -0.01951764636074905, 0.023457018050250602, -0.06706644299307621, 0.03327805266101594, 0.015091751321300747, -0.04133236002988379, -0.022717081686878377, 0.04877997276332796, -0.07082260451036985, -0.060029649646583826, 0.03678600621712075, -0.025106651897913123, 0.016889808232192667, 0.014521341490693033, -0.08937915236106225, 0.02477958109022845, 0.04637574053092462, 0.0018018670549244003, -0.006046280197463189, 0.07756028762182582, 0.017079638628620466, -0.0016987246669485593, 0.023066622185495086, 0.16578912172490856, -0.08517879289766454, 0.04026530621561159, -0.04381296368547455, -0.016389497277363777, 0.009662418473149678, 0.02592631876907958, 0.00321260467785058, -0.016850995270748844, 0.09686409478048093, -0.02043938171461576, -0.10925292704286142, 0.01734171967446257, 0.003844118877120684, 0.07729953428557053, 0.026832427346596983, -0.051604957697745396, 0.032760080380700204, -0.0662906461925817, 0.03475590654472445, -0.04561979939123035, 0.023737318728208723, -0.09436061484656615, 0.04511755696983008, -0.008721505271060265, -0.01654666175732972, -0.05269696407213246, 0.09199067667523245, 0.06541757478762876, 0.04048583528298313, -0.002501425512509747, 0.01105538963368169, -0.10854622458165619, 0.05397721866405798, 0.006115624081991986, 0.015566290674080878, -0.09037113271471497, 0.009120882698193151, -0.02303047038528202, 0.0645499017685023, 0.052365178947731725, 0.002583955545709047, -0.024879848567265075, 0.040964563350774155, 0.044076013070725346, 0.040379635025432056, -0.055868485366846195, -0.015575989815465787, -0.0419624927788687, -0.026229736359465513, -0.03111742600825475, 0.014881914060157372, -0.018192210130304087, -0.005782969888741163, -0.012674155055790838, 0.013236846328949765, -0.018764056683066334, -0.05782934489724549, -0.06366096882857555, 0.006037396718235351, -0.030934792378773456, -0.014445155374811535, -0.046161371136627175, -0.02491636011085397, 0.04832626481540754, 0.05847150058626781, -0.01221304710482947, -0.01899140327444618, -0.0076608188696384374, 0.04091747413451623, -0.01013401219494249, -0.02213638116774646, -0.06473972144394431, -0.004408863170760316, -0.01779186862899339, -0.005873178575580114, 0.02731029800753651, -0.00023487450240114278, -0.02422205166595913, 0.025423887896520045, 0.06779529261729952, 0.013849586237693775, 0.045567612014814456, 0.007110712262462083, -0.12127292281547059, -0.009848245002626295, 0.05389168435969761, -0.09910448909640729, 0.026867125386728974, -0.06285900074315956, 0.011402481228539206, -0.039926183720801214, 0.12129851852054331, -0.017876044564741768, 0.04282458398994197, -0.036760808136970316, -0.04992600133674138, -0.044247591358252354, 0.030999812830393998, -0.030389145458831233, -0.05387704829531712, -0.08893543140351011, 0.008641612649013116, -0.03556553200541979, -0.004626121710765209, -0.02041430517013286, 0.044753052910443354, 0.028952848776186833, -0.07726378192345298, -0.009183667777617468, -0.01724026653955098, -0.030451371779012602, 0.0602445130298639, -0.06258078151461917, -0.008302061351980855, -0.02042908277424737, -0.05209337402895289, -0.12582052032988386, 0.01933125763375388, -0.020219423142850263, -0.020050640714303205, -0.04909365199466599, 0.010913798574367656, 0.09297949816775362, -0.028143428682367175, -0.04435627197142413, 0.04180873702771027, -0.017654846092831793, -0.031101586302201892, 0.019365370587599517, -0.019633389163976743, -0.011101769299604802, -0.024130271436278418, -0.025375935167471456, -0.08014121518045567, 0.0404950778198703, -0.06758308788862315, 0.04249882560337486, 0.051013124159087944, -0.014781679650350396, 0.04869377726761675, -0.037732252508954914, 0.031127934752305454, -0.09325992265303007, 0.129210451800622, -0.06428473286049446, -0.03803718944244111, -0.017349093847865264, 0.04150848290993021, 0.03388231493858185, -0.018310982585328463, 0.0045317644364069555, -0.030492033337992903, 0.013200562285088396, -0.02191006216249351, 0.06202808324566064, 0.08813266473954748, -0.0641324847319792, -0.08056413506402121, 0.10102974186706765, -0.001291318490818675, -0.0449552249292872, -0.026565806999434883, -0.0026854829581713538, -0.03178947671280878, 0.04956837252926697, -0.031808419701678296, 0.008045680141151344, 0.02705348517574109, -0.02788899132567556, 0.012641323433388174, 0.038119259074585625, -0.06522878732671644, 0.04763218958530987, 0.021530782818042216, 0.013893059977913364, -0.09325957169328213, 0.001490695397880843, 0.009502487913629759, -0.04824699146192561, -0.04097980432562618, 0.002878389563550541, 0.012869381192819577, -0.044726231299968576, -0.011127538289606059, -0.026898021982968857, 0.05540489216690648, 0.05753720446166811, -0.03709053681031842, -0.0035153886681000756, 0.08429906344789888, 0.035985984201283336, 0.05449985457952274, 0.05213504502097808, -0.004424759502712607, 0.04514143025684189, -0.0075184952875107436, -0.06839398240694113, 0.036114086269831994, -0.062309632588381555, -0.05990271641677633, -0.047242436221071285, -0.0902210669962801, -0.01268380092456364, 0.08444252651445601, 0.009845260386621068, 0.08423140424706611, -0.0686826418997676, -0.09234359153232526, -0.008927903044226084, 0.004041926349181317, -0.07221318430377148, 0.022964065648905192, 0.005978017666661117, 0.0096221267769519, 0.048822291970672206, -0.005632219353308811, -0.018937629698346913, 0.0012026668032924508, 0.0520544190272529, -0.010545889507694481, 0.06356997345347402, 0.016867252896700685, 0.115147004521791, 0.09153038660830343, 0.015422124974858484, -0.009382861361129619, -0.008336559779667135, -0.05820600770608486, 0.0708659338141851, 0.10980060503766496, 0.0015218462056145012, 0.044694591295436424, 0.04326276493712721, 0.06342143932272759, -0.0018666255813933792, 0.0006385557793919935, -0.009707504704869675, 0.08063311528212508, 0.03556395050635158, -0.04582518870914153, 0.04182634767176097, 0.0011188535963909116, 0.0312950323651255, 0.04619217153338592, 0.01238708697711754, -0.028468110095331088, 0.13021453531191055, 0.07864532665783945, 0.03219991303123692, 0.0011992919599140089, 0.05453376956902551, 0.009178983322185775, -0.02855265603049373, 0.08850277207532743, 0.010787829834659028, 0.016275987563748737, 0.029639675703316166, -0.06275216545278589, -0.0767699546791943, -0.02092933583660949, 0.029192323607141395, 0.017311119831315048, 0.00281347981788913, 0.008510970963314391, 0.009448159888504481, 0.019800881873553482, -0.04465917085970568, -0.0034356902046211984, -0.02136263582339455, 0.03946416155621061, 0.07398553716129913, -0.005162279849675538, 0.08450279225529424, 0.020669711144027186, -0.005141596854188355, 0.015319046298350335, 0.036333432180729965, 0.026782295176487964, -0.08417259974742011, 0.047780798684582945, -0.03471898123866943, 0.026397495196594522, -0.023675579780995645, 0.016249448032589386, -0.0502658958229993, 0.05681739951062912, -0.05189612917866978, 0.05747201290918679, 0.09030663800537195, 0.0019563001294051843, 0.05062434554047578, 0.06922703813603218, 0.013865629224375196, -0.0008924553085982904, -0.015588165441342701, -0.040289358947799295, 0.0392338983042104, -0.006642062897941028, 0.04641030650424197, -0.0016763431842172914, 0.021830212210022393, -0.04478892190205235, 0.07561060897589471, -0.04677688503314259, -0.05369108651953351, 0.03601449875596486, 0.017733820283423768, -0.032900671139506336, -0.05464054326129891, 0.019492933155040897, 0.011252759324771697, -0.008878052667926227, -0.08174961180089882, -0.021508841273689537, 0.06054962050845987, 0.013385148736867946, 0.001617733378446543, -0.04073886016684139, -0.04401239439550634, -0.022345838767062975, 0.08237801512366184, 0.045104307554278175, 0.018482485754120346, -0.0252403488311949, -0.10015501933916239, -0.04558979051497948, -0.06728369915068647, 0.04713249717846987, 0.023890211477694684, -0.020648079204361507, 0.046489659223870175, -0.014594785690157448, -0.004367395942672187, 0.018649954818168824, 0.004752498576137434, 0.13376381771935625, 0.03155966786085814, -0.01916197607945494, 0.00831176137362554, -0.004791358398182802, 0.012098232335311595, -0.026220904845001402, 0.08426441636965755, -0.042315400206307405, -0.0016705414921508698, -0.04037056805921933, 0.010067564023023617, 0.0011316621507274122, 0.041109571275740886, -0.026697483676718363, -0.0372226504392809, -0.019011282693775413, -0.0789855864122867, -0.0013172622280985071, -0.08923122093072963, 0.003298566227755536, -0.042185792749681816, 0.0058546779639143745, 0.013683441948041905, 0.06486741543542689, -0.01664946869911279, 0.07146819332524998, 0.06866896619966847, -0.06475752667903245, -0.02203930910611461, -0.06043319757161324, -0.0221204979674941, -0.04793025174789244, -0.06267295375420173, -0.01883032078579258, 0.030800665388066147, 0.02169270523268131, 0.036634133581999004, 0.008458638078750174, 0.045648919227489294, -0.00389656800639107, 0.0004683263038688637, 0.018154988305601066, -0.07606701984021379, -7.256516613287401e-05, -0.02319006660825686, -0.04931330972485715, -0.017502960765079713, -0.083452085421839, -0.03857812242405515, 0.06001785801083242, 0.0048887501552391304, -0.004959282976980768, 0.08020779430364859, 0.005938522764004811, 0.015628982784353884, 0.018754518456048693, -0.034966560244077405, 0.028127212981920086, 0.004732280426307017, -0.12071347587315309, -0.03175130656800003, -0.011515793289502122, -0.022918924666843213, -0.01505604644735897, 0.026764310202508766, 0.08337339778496455, 0.010584587364446287, -0.03383486228830167, 0.016979025862577986, -0.04641528300938204, 0.018467042277530096, 0.016254941440902653, -0.000849710417258829, -0.0038442573611796754, -0.04960750947772099, -0.035898525916522595, -0.10144610258883384, 0.020713051418138072, 0.021731931142085135, -0.013633451922552456, -0.037781120546059296, 0.04955935826519795, -0.05389396794982077, 0.02546846127913028, -0.1094285332683585, -0.05966953876375338, 0.05618635249083558, 0.0601153730201779, -0.0158537701455987, 0.0722870761126527, 0.04483276337761867, -0.06131237769318183, 0.024858808969901298, -0.11820412878105414, 0.0011866199446651606, -0.01769667844582987, 0.0015932572438251249, 0.04641974880975506, -0.020472475125147903, 0.005160548040773282, -0.06577996819785645, -0.013243939602548714, 0.0222155491359518, -0.015142582214720217, 0.012804067872783029, 0.006795426205160137, -0.010581206054705878, 0.025084279451502562, 0.025089979285447036, 0.024411500545446302, 0.019391042128707354, -0.07443846531953353, 0.012434650332272295, 0.02381758625978129, 0.06407950224631621, -0.054541091280117984, 0.06640420086699096, -0.06242297600133081, 0.0032866512274263154, 0.1374558546529983, -0.0815733675405935, 0.057540904018789876, 0.0255624305003549, 0.024109602179121933, 0.026031304634094046, -0.056758969035430915, -0.04701134647140053, -0.06996387887864478, 0.05595830784443878, -0.016274430753770493, -0.01551599735850403, 0.003710522693910948, -0.010065387252411535, 0.08394286012039844, -0.021535995470376934, -0.05962793837745273, 0.014982351010476904, 0.08646153396359, -0.0427934412054461, 0.001017768504830236, -0.004998016654972979, -0.07587966525607903, 0.024801584801586438, 0.04290063053132823, -0.08437365502092141, 0.03600197186270129, -0.02860892781802665, -0.1077332144159524, 0.06268882858254533, -0.05939029812210366, -0.02549053460869086, -0.0014911005964854303, -0.05517318524360195, -0.00808648814628269, -0.06891985559961496, 0.08801963261669225, 0.0033621433168277994, 0.036454724107506144, 0.037956936896851264, 0.02877429908921031, 0.02527113988050286, -0.08042429325806648, -0.1141386596989405, 0.025725594706483536, -0.026055273427774327, 0.005529143130981958, -0.08022625935420101, -0.05488231635710898, 0.03372679603070784, 0.009615869101770072, -0.018723711426254782, 0.027765672070141988, 0.01766633134520867, 0.06183980250811822, 0.05355021098665647, 0.05330120806702139, -0.049928796111022515, 0.03660635275586482, -0.008880723266387714, -0.052655363605919187, -0.047616099562189526, 0.05148148763476685, -0.025104718921503583, -0.08825151306952976, 0.06827940655462858, 0.09137103882445226, -0.0342216824675709, 0.08742069492933842, 0.0005045625734763654, -0.021360486065597605, -0.00200192458603014, 0.0060225937671776935, -0.046830151580562585, 0.015147006792202794, -0.006304542704734397, -0.04217405169494237, -0.06483053337305043, 0.017024531743529882, -0.008967455040385501, -0.05350448623503295, -0.07370109059085417, 0.011488436881921008, -0.005245409049667448, 0.04003542654584758, -0.10463694634993954, -0.0459672910768081, 0.029299332439615928, -0.057765096160286605, -0.026806229121296692, 0.016229554043226173, 0.13858203298233956, 0.02392156789468709, -0.039936474486139545, -0.003556795892817337, 0.029229144309283535, -0.055966823531882336, -0.0874153295258118, 0.05320644116598193, 0.025464641194510106, -0.023020583662286837, -0.0411856733220929, 0.009199500872079533, 0.05842802659230905, -0.022462523639075672, -0.009633783030269304, -0.06935742006640806, 0.00014626247105178737, -0.030784040588778257, 0.015569839817282946, -0.06514144657423304, -0.01791583787127765, -0.03391276289552118, 0.12658691604356545, 0.04005895993592246, 0.03780449454681061, -0.007638429269672837, -0.025472750375396622, -0.05574008063073548, -0.037502227604517394, -0.03185455512265691, -0.02652423909357613, 0.014937387612268387, 0.0024270052983951704, 0.010166916564850607, 0.026661281099553676, -0.08694773944433287, 0.01598200044937431, -0.023767429947821866, -0.027914850948350927, 0.01375356190063876, -0.024972802681674285, -0.048522846897215914, 0.07255651198286625, 0.03437584316851408, 0.07246360346359929, -0.033356773601651776, -0.007819030273113297, 0.05388990677299067, -0.07281683419083869, 0.03596763292110791, 0.03513005312228791, 0.06150499336539855, 0.051934275555003864, -0.027835463676594993, -0.09138821628505966, -0.05945822797249644, 0.015071875397493046, -0.05652606391373613, -0.03199147138773273, -0.040259089733874036, -0.05121819916798893, 0.010447162693031632, 0.01692248168668098, -0.07496483698379151, -0.040574532484666075, 0.00022397145249788663, 0.07620579449638998, 0.10358336683616487, -0.12740721358668836, -0.003989935617374729, 0.02140498224685303, -0.07570271313425317, 0.023495539536389484, 0.03439034327781616, -0.010086882064285091, -0.022111507966521154, 0.033282337981055767, 0.03351818407495412, 0.0815945776424341, -0.004117738121572513, 0.010993745228097514, 0.028676751056636883, -0.07655002057720747, 0.0012814239446908833, 0.0437946251883905, 0.05001493435260908, -0.07546535038910822, -0.048637876985314646, -0.003595493953676814, 0.0028747899478284264, 0.020816775861192613, 0.09351693189156371, -0.06295938995500618, -0.003169998589757605, 0.03543126093513554, -0.03146365787898583, 0.011219849366717572, 0.047530574485601496, 0.0867440159948527, 0.0040070131631884534, -0.07225593034753795, -0.004095576790744836, -0.019490990037756166, -0.0692772789907739, -0.01095641449609199, 0.0054619135848429584, 0.019900851165822506, -0.016223143812291434, -0.040407986862558164, -0.014441593982273593, 0.005484871375932252, -0.028870127142463013, 0.08945264600501675, -0.055266369659545365, 0.10330217201513212, -0.043708820194743175, 0.030838700994750213, -0.03729513355148618, 0.027141812497979114, -0.01996751726208033, 0.02313633447241597, 0.004115766470082567, -0.014310304342505522, 0.1130453481890479, -0.041976837961222924, -0.13881654698400725, 0.1483100178151025, 0.024242176812199884, -0.02225886400205888, 0.05108614204850385, 0.0580113984257651, 0.03943107039817092, 0.09724165099193471, -0.02391776497561425, -0.021545819898450724, 0.04676223631828265, -0.03800765682531204, -0.07501846926693616, 0.10120121180365475, -0.023195445675176073, 0.0018754514591984924, 0.012015635407136932, -0.001751450381368982, -0.051940457603267556, -0.04341885241536501, -0.024978396381615364, 0.012007381293100318, 0.030858174708217855, 0.003210644429745746, 0.02964644728446022, -0.0014682833001639088, -0.10663816890046858, -0.11119175215430233, 0.012934433453484898, 0.01571033827649555, 0.01528126457736651, 0.03850533850128435, -0.0209756829442551, -0.014697076417291993, -0.031745080283884085, 0.0007647720016122812, -0.031646539432812405, 0.017641653531868712, -0.02344668341509504, 0.02267141922595592, 0.034275640595255355, 0.010095637525004572, 0.03998548743004443, 0.054032802145776715, 0.038519256409070765, 0.056566785450552166, -0.011229426139578839, 0.03770961846893201, 0.03482085188881251, 0.08552104869305063, 0.12139804054038653, -0.08089672603447892, 0.035260179194555596, 0.012950939522731708, -0.05903234867767701, -0.09906843198690059, -0.01559078554517359, -0.0470663748667297, -0.04869776308951577, 0.057392976803020156, -0.030234530193603993, -0.052496503284242095], [-0.043836283276857214, 0.03044830997378675, -0.03399847132700604, -0.030603440037167414, 0.03671514145531312, -0.10086008796338508, -0.014708937662946953, 0.03732032520622791, -0.027732699397996156, -0.027113707429964856, 0.017343835661908866, -0.025707029634518857, 0.04838523366726215, 0.015961635563928264, 0.018275309752239465, 0.014731048723791704, 0.019153727006622587, -0.03555481444026232, -0.034524130443207235, 0.010993875206597952, -0.0245717755695391, -0.03814978457412374, 0.03409911918996805, -0.051203815457659556, 0.010307200562764017, 0.04888430500037455, 0.015775214154185466, -0.004943643461441551, -0.026592254033338147, 0.011011835347246089, -0.10220518997347881, -4.422301850111745e-05, -0.010879642388001735, -0.03573853980814847, 0.0029506641265978047, -0.03974385111937918, -0.006360192348659869, -0.005759546399729419, -0.05608616696494024, -0.043312704356460424, -0.056748204828609525, 0.11078774410156367, 0.10257099262660463, 0.04930600079535948, -0.00024119634050328654, 0.08378174277199882, -0.03060263288934097, -0.04494707877818175, 0.056104485714529445, -0.10741108053252102, 0.009379312256320957, 0.005882208639670646, -0.03626273363384633, 0.007433381248819785, -0.024773857774492192, -0.004696202156953001, 0.013248460479657987, -0.007779481645932443, 0.10288731593714026, 0.10390570003244583, 0.0027918181441370917, 0.012468272533906406, -0.0027253955939198216, 0.040015465132859494, 0.09000300154771224, 0.053536317907304724, 0.002972026683995352, 0.05923137077436751, -0.006402821723029606, -0.011534347309259754, -0.0025141135465318824, -0.0543866418240482, 0.02156585738408461, 0.021529038952946066, -0.018700669744690337, -0.0646738687096515, -0.01613912879035978, -0.052188810357379975, -0.012472864858233724, 0.036137632083160016, -0.018598244495883248, -0.03572877545758184, 0.07113171415777922, -0.006939621226656207, -0.04439816502777323, -0.03538965146858922, -0.02728914966493067, 0.0740411569092499, 0.033442638121285104, -0.093440283848909, -0.023264458170957337, 0.04106222362120575, -0.0157371946637709, 0.03544872361622796, 0.026570261876204617, -0.06892042816767684, -0.03936462613232072, -0.0430777597379941, 0.08257160728512644, -0.06093663671419233, 0.09092441505697531, -0.038363241420443325, 0.10227460867298777, 0.07322602775964214, 0.013764948927975298, 0.04073682966813119, -0.023629730785307383, 0.02485708013324701, -0.014497488659480619, 0.03932496471859918, -0.013658678099099767, -0.042740871721488355, 0.03421548388478946, 0.006338141250459012, -0.09238316326754399, 0.052525696790486257, -0.016768914870263763, 0.11176450721680106, -0.0226913386040421, 0.03416917440115926, -0.04383555401520471, -0.020447367967391317, -0.0700800624392726, 0.05080495399646403, -0.08219291691764986, -0.04708638594257834, 0.028961333834264254, 0.08200548147037076, -0.05649820451410769, -0.04749781695608429, -0.006430113117691341, -0.018501146553934842, 0.006086730760254161, 0.05056494223171183, -0.09199460242548775, 0.0530464950632218, 0.11531209370119114, -0.06008470209916721, -0.014868589702073168, -0.02330078828204702, 0.0069837427723078455, 0.043925692628835965, 0.00634646292513128, -0.07369175109594048, -0.04502658636457835, -0.014745692259138422, 0.03536214453855374, -0.02768037955302214, -0.025335283815792184, 0.013831247706404043, 0.061089739042589186, 0.026417174877948302, 0.026061632001590413, 0.0006740005992677769, 0.04433072985034824, 0.13302096324490847, 0.00928308131262449, 0.0017580752943421824, -0.010790343367790204, -0.016059265512674333, -0.018244424934074462, 0.03817234383936837, 0.05771416310709136, -0.11903473911972101, 0.045133110704380475, -0.07652946651985049, 0.022730632004354778, 0.08517840061926032, 0.03396819316364191, -0.0707650064662067, -0.05990309432971563, -0.028251683477616387, 0.1325024079507998, 0.035640930928083146, -0.04111109825288144, 0.035141735053992484, 0.05180969747998569, -0.07692571236383683, 0.04612939224231197, -0.01672031786883904, -0.011428559286530781, -0.07166018711428206, -0.012680543899616224, 0.05082985896457873, 0.02775341892610699, -0.052633863381313185, 0.03440212555580952, -0.05016135751917666, 0.00588978293138298, -0.043124237760619535, -0.02439868905756829, 0.03508134085208393, -0.02879634205748794, 0.08222985754776098, -0.030428706782226273, -0.03449701584780161, 0.05746905916372288, -0.03901986729699975, 0.012680547209057454, 0.017851630730321064, -0.03563497494349587, 0.058179521252384146, -0.038698689254225926, -0.031857738790199576, -0.08572364991444596, -0.043142483049069265, 0.016912471533811195, 0.011938592700281095, 0.01839494105511996, -0.0687497309958987, -0.03955990196155785, -0.006820382380604667, -0.04137195053149009, 0.00011116146488530986, -0.020297696116773827, -0.0006770455186318161, 0.007317541773820794, 0.005643777902680728, 0.08208839345528086, 0.001420601523049188, -0.01736933288327975, -0.057799957683257554, -0.05734652651088731, -0.05443662469262872, 0.057068887516751925, -0.004563693995923643, -0.05580848860421155, 0.013758920300590192, -0.028854496631771007, -0.03587833973760988, 0.04768582520539523, -0.026240410160001476, 0.0443589466913698, 0.015996345042829405, -0.0058701981240434215, 0.012962455009109381, -0.0162851351326101, 0.012470303983532185, 0.02503335615365978, 0.07489252559640998, 0.0067026487648979526, 0.017152989720589443, -0.12624628614269376, 0.01654201629067827, 0.036597369839994454, 0.0929872557161178, 0.009862370623145116, 0.03938694352157012, -0.04466543529302326, -0.046918087145074006, -0.024808979701843967, -0.020877599584895018, -0.03749076947536384, -0.07630616954925211, -0.06909583245709526, -0.0027040213463917716, -0.01606050649046145, 0.023002898971696755, -0.02303882287064489, 0.053894969991086054, -0.10582705883204271, 0.088431637294691, 0.03437960197929247, 0.037005724417219214, 0.004631446699248131, 0.060827139353768135, 0.0484786511476302, -0.07082681351703811, 0.06927219660965428, 0.05211512966713952, -0.02034172523210639, 0.048778760319657125, -0.041540368603262906, 0.0229377058878524, -0.08123329765277125, 0.06842272931186569, 0.0004768899383289604, 0.018364764037724572, 0.025779030021179743, 0.04993096929773605, 0.006007451473095053, 0.07683718106331479, 0.027033302506535642, 0.005535339478722284, 0.013004588078195099, 0.027448283664049587, 0.05295055133917747, 0.027096526583427684, 0.007675297737971694, 0.0828595989814951, 0.03676596775003364, 0.05774238595530713, -0.07733084957072714, -0.0349971542963612, -0.0067124858700676115, 0.009133369685869617, -0.02650687882269688, 0.0020013503077933735, 0.03768225367314478, 0.11758370953405368, -0.006893326899710606, -0.027244671958688203, 0.006239091537193768, 0.03407905639067227, -0.044093029802623224, 0.013289961201142878, -0.019703799449940496, -0.02860421945631985, 0.016119493114923316, 0.05757938212676947, -0.013220583821475658, 0.09873278977390536, -0.054945466655869586, 0.023179891090174935, -0.016088502885316294, 0.008515959541711282, -0.039186197998497756, -0.058021822501394676, 0.07098155726116685, -0.017221405685152926, 0.022304853021321243, 0.0012729480740572775, 0.014704372844393533, 0.0010691284176760562, 0.033142589892440115, -0.027999421490642506, 0.06505626744672076, 0.08420593250600897, 0.013791360670079763, 0.024687969690511846, 0.09230607796931803, -0.02818244272531844, 0.052812144731844764, 0.021919405248139113, -0.008616590393785536, -0.012049161617646456, -0.024406022418480743, -0.04353513875625455, 0.048708898593632956, -0.01627293898303622, -0.058579725936459416, 0.023594606176834117, -0.05364327244529141, 0.008071320434774954, -0.019505929135534866, 0.09585212040627904, 0.10124890851966634, 0.029089635432791396, -0.025157230105545443, 0.06431233309744352, -0.10777387619618045, -0.03133121597628968, -0.09411928751607042, -0.024349686728786103, -0.022974274052455487, 0.013481931659656096, 0.015904584579434587, 0.04785528726733155, 0.03552260223713705, 0.00918470928368929, -0.02497760707290897, 0.05016748927480533, -0.002261691095272198, 0.005755189476080953, 0.012445602612830276, 0.03238085443576085, 0.05132027889552514, 0.025098067440203674, -0.013974200305448886, 0.05923813041850615, -0.006074445025269934, 0.009645994809908739, 0.07672834216131204, -0.03518219935573357, 0.0308240168435328, 0.047368563074252024, 0.030966131879290117, -0.02549171392547048, -0.0952395862671756, -0.033210949523626444, -0.04403481573238226, 0.02427559686347606, -0.03287921484101923, 0.01395364853753691, -0.0030969221580447446, -0.043167278891135405, -0.018636244549881793, -0.019254873994124934, 0.08051345817413692, -0.026512824600334477, -0.08439827956112171, 0.017044472809919393, 0.005635744379688663, 0.04115192111520492, 0.015888184032200662, 0.05523728828763199, 0.11295427823788454, -0.009704842652136721, -0.006836436817843569, 0.039552415040932376, 0.03716450319465649, 0.06567338197891465, 0.03155248587054898, -0.01256886416064213, -0.036732761580076, -0.017709079743892797, 0.029509200410669574, -0.019314830591714106, -0.015581136850787328, -0.06433530484894295, 0.01701334372798665, -0.019778444389308692, -0.013809103781338053, 0.0980714640519582, 0.013206961260609712, 0.053278727445848974, -0.02675880489948323, -0.005404277295418405, 0.0690084887969307, -0.048266149601149486, -0.07066147622229874, -0.0014380352378525762, 0.09044799609784397, -0.02522741789893489, 0.01580484288531012, 0.060462251664817106, 0.11183117429936237, -0.053993145083146184, 0.03578344754470997, 0.022863936603838394, 0.06422553253448339, 0.030579820031667298, 0.0241737513011123, -0.04697080350933933, 0.009491631614166291, -0.035611945992255006, -0.041555974379589335, 0.0544070043865915, 0.048751753452771135, 0.010451111015511388, 0.05740308775383262, -0.004884012793478878, 0.039216233056217076, 0.07281259901147073, -0.0380985314681286, -0.01884606625231865, -0.0019085384044051801, -0.06005006064929219, 0.027844153032435585, -0.005801361508453282, 0.0005998890558886683, -0.07204994856945116, -0.020802963842238793, 0.0027979656576820836, -0.02353679627474817, -0.027171002513249352, 0.04187295892974512, 0.0444924136219835, 0.02933034755038498, -0.005109117686175081, 0.003367998169429571, -0.0031054848676682575, -0.03188008306865063, 0.005543781147403395, 0.07461749831068973, -0.09282495045510088, 0.010584919443217393, 0.04373988067698195, 0.06534195392480402, -0.027052352264211637, -0.08540866579665451, -0.02699606856459542, -0.09026655520878651, -0.04739375696140443, 0.020056129583571863, 0.03886617872430461, -0.011435063560102883, 0.05399721945131355, 0.023075570052350558, -0.008126049521599713, -0.020122838035932292, 0.005795695765467055, -0.06605129306456493, 0.0007623186906065702, -0.08064743905145702, 0.03065141637265597, 0.014952183314171023, -0.05923163213004233, -0.013704598700305293, -0.03915568365596775, 0.0036166387906602405, 0.005681538523636978, 0.04152553969300239, 0.0263340554497787, 0.013856103948076874, 0.007438473048094478, 0.008472725843786963, -0.1181884658664695, 0.01830608728645246, -0.04330467386442173, 0.08231072963232525, 0.03693954678331115, 0.0022312017674613162, -0.07512992493603285, -0.0332715137039687, 0.029647684995643724, 0.088567497992014, -0.044371765486089995, 0.028590296002345254, -0.045008179179749655, 0.06071396731353661, -0.010330863725161331, 0.08900156815016394, 0.04647758166932875, 0.00535907075573462, -0.02911451447249894, 0.07646223279565045, -0.0002402184095285989, 0.05440286758666319, 0.011089495077586676, 0.08037483560983616, 0.051190466759082696, 0.0038010531747516285, 0.009831374406416432, 0.05249245843645977, 0.00831432476771067, -0.030849629108427083, -0.009137146521185862, -0.045283648770486164, -0.0016048662360657225, -0.03769963270635107, 0.008606398961027889, 0.03355180421379196, -0.10312127477235669, 0.04799273436953088, -0.10693431246514234, -0.004008283738553396, -0.01263886417045725, 0.1250161483720244, -0.03579817050982978, 0.004627193387402232, 0.023315354661801558, 0.05912665667679155, 0.05797224907224886, 0.0036054814061462354, -0.1054991780717744, 0.028561921140262403, 0.01751845430818968, 0.005593531744717727, -0.01318620878672852, 0.0708961679665832, -0.06958097583690964, 0.04409191330261987, 0.038565374889878275, 0.04857757020918947, -0.04981741011154394, 0.06956120132492635, -0.024538666602146823, -0.030262563748030095, -0.012631871914861939, -0.010118394013592269, 0.0005545323125129891, 0.0338210095556269, 0.02944555808618361, 0.007959109728761345, 0.038327766000370134, 0.10412932314934333, 0.018855626749780495, 0.0062863784417503555, 0.017835383041171795, 0.018589628951905104, -0.058610007176997755, 0.088936296206003, -0.033116899616956276, 0.07554843664355108, -0.022084694705172745, -0.011217806550168009, -0.006255738657308227, 0.1251786844227204, -0.012683605129863218, 0.042596668634182204, 0.04347770058013246, 0.06213550035488075, 0.007902903960265223, -0.025490672360669424, -0.011458665874623866, 0.10171995079898338, 0.0703031193113065, -0.0651725087967744, -0.028860080412274607, 0.11402914179650056, -0.005462659261362606, 0.005867255413169137, -0.042656774437323124, 0.016743677429508576, -0.01852709467389122, 0.03900007102016163, 0.01377231076606725, 0.09108910073595429, 0.05982872259918585, 0.007997540546487313, 0.058668600106710676, 0.03812796853574567, 0.020986492828995364, 0.05071196061440421, 0.06490936183779948, 0.03096465542069957, 0.028557916688462092, 0.035069331986786106, 0.021140800819568727, -0.07024946705502148, -0.014662425826084857, 0.05118337236001732, -0.03389062983975636, -0.006006251162031241, 0.013482705008816634, -0.051663971912020275, -0.008380260221839244, 0.0556536633963509, -0.029045049032871185, -0.0019271189487223934, 0.07482090149494781, -0.07148006943074492, 0.0332891978814059, 0.036092338168187924, -0.003911876215262911, 0.04409072336463331, 0.1124169118180386, -0.011619861255288556, -0.07599259978337006, -0.038952101307989234, 0.09352430497297601, 0.06000363601035289, 0.04596580985164395, -0.06185645175359379, 0.032997941482315406, 0.014438824712104609, 0.07224144068162171, -0.010800171926265615, -0.07089895371762343, -0.11111842945184891, 0.04755881857573667, 0.02065412000208936, 0.028184959750775115, 0.10078411077479778, -0.029141919506758283, 0.018219955489876455, 0.039242345531008145, 0.06628220571247505, -0.09379136196297491, 0.1217112648705295, -0.020940363003161207, 0.08195720690630433, -0.026849036246422802, 0.06256378883897769, 0.005731259905932244, 0.013712862222544493, 0.03415887591644405, 0.03251892545517363, 0.022133455571677285, 0.06779846696986369, 0.00012026386649377372, -0.017494946730079307, 0.0003748873532144078, -6.698731507167008e-05, 0.005182294824709814, 0.020495288889057224, 0.06785976676926422, -0.07149411980023389, 0.07218443820307208, -0.08352892019404919, 0.08778338743818466, -0.0078731796278755, 0.014730801325765314, 0.018231616966346852, -0.04142602159149952, 0.02017508245173904, 0.018580034107671808, -0.07657669985869915, -0.026417267951406108, -0.013079477250837817, -0.021164656713441227, -0.027728911052864832, 0.08355173264181515, -0.06646943336401334, 0.012763580775055369, 0.011859895429562116, 0.001037249541691224, -0.03824233509063938, 0.02043911554058944, -0.06653940847382728, 0.056642768413845725, -0.07649483083192932, -0.009078828046336845, -0.05493756899057475, -0.01134706270690831, 0.05222738791033797, -0.04176714004716487, 0.008067106329258394, 0.02015099556581244, -0.0026369460003830636, 0.020073556728540963, -0.06144157767176924, -0.017807800931910464, 0.05054041926532087, 0.0009516087074132247, -0.00040561978542087896, -0.004483896524911659, -0.07629563253572541, 0.023910028189478783, -0.018297567599023224, 0.019392603265989565, 0.0014671721765723911, -0.05821804199454322, -0.004882712697828652, 0.008986286125729102, -0.054147614290003906, -0.052449075755140774, -0.0592354839453786, -0.04995526448022929, -0.028531205652280834, -0.0009021198330796538, 0.06960001995919324, -0.1406516659568055, 0.020155071776095896, -0.011725660724835803, -0.030465344250834064, -0.0018503299010727227, 0.029909858779515634, -0.08103518851244156, -0.024231783429880773, 0.022988930867689075, 0.05761337192413247, -0.00690912549544016, 0.013456382811744202, -0.09949635906701579, -0.04084946031711459, 0.08379523465083245, -0.06243198844486068, -0.053541356724894636, 0.011404572541784612, 0.08021597324018684, 0.08788196168830928, 0.07735004019005995, -0.02904208484845043, -0.12445264310531653, 0.08366850330565445, -0.07654009789005337, 0.0014059510828755175, 0.062409826051660296, -0.11230155609633445, 0.014046791336447645, 0.02145772309262516, 0.0492192349565532, 0.06730067645095654, 0.04714764083017847, 0.06737282418351899, -0.05468857993190899, -0.03958011956345695, 0.039869658260139974, -0.07399646697712071, 0.010699455158542594, 0.07631521891544422, 0.021922966308296547, -0.07549896833544952, -0.006476496250150789, 0.008859818018325425, -0.008143712542233353, -0.01638166387777598, 0.09243096488472648, -0.05078727427718859, 0.015554316913244798, -0.012284023945856174, -0.07939849022051165, 0.011931996921873553, 0.020074159288493744, 0.05826534536266818, -0.0012764021512248049, 0.08326724421462041, -0.044421407564444335, -0.0033921426723720976, 0.0644845400423603, -0.08776448292530563, -0.052307837458164426], [-0.040886020277738945, -0.07477253523782092, 0.022423021178327337, -0.049387783199850634, -0.002361802754871614, 0.05859658451156464, -0.06283099420077745, 0.0019635178211574508, 0.045647564167949885, -0.049655478680665305, 0.013229608058361424, 0.056793628811553684, 0.08337262130102362, 0.06663782502426467, -0.08767125336991201, -0.022860718513869893, 0.0038289462705819173, 0.02356632107689992, 0.040878431095800874, -0.01596367461538368, -0.09986008003438415, -0.03145923814782866, 0.04656288918833692, -0.07631417141328818, 0.059903067794722806, 0.023910038426138546, 0.03400603199962027, 0.012228870472646352, 0.019894264574782956, -0.015579048842629879, -0.025949717819539156, 0.04420790103374399, -0.06251648162038145, 0.0058551630205925746, 0.06799422890388634, 0.034712020127174004, -0.05589026854663448, -0.057777457223463315, 0.10445370097136532, 0.02482461326871632, -0.006413559796451603, -0.03471101300094028, -0.05133285609814148, -0.0007323909771097172, -0.012831292135995117, -0.060804094856815365, -0.052734207127416215, 0.08035470744716754, 0.04800295843123571, 0.0184405320118254, 0.02862044929698916, -0.003789328161414906, -0.034718488790680256, 0.01770431579289581, 0.023313639198435297, -0.02756565173444085, -0.0012477956553116618, -0.046488872616880596, 0.012515352011981645, 0.020485488291301524, 0.01322053069276264, -0.07681219539355125, -0.002437315423817193, -0.05074805982468644, 0.042904008090099546, -0.0012766580291869432, 0.036332076176594064, 0.013770225273865587, 0.09757352036885429, 0.053945462370089514, 0.045470008312566874, 0.02985230562312973, -0.04820966600990568, -0.08177816514070962, 0.011891731626705482, 0.006311757487197334, -0.10203818433354442, 0.00706035267051393, -0.044747514442435694, -0.010745168255559196, 0.09099900071872585, -0.057956603975057815, -0.07437810591953577, -0.027624451518477495, 0.030998486096404432, -0.07387002428714852, -0.12442456432188129, -0.07067313962073345, -0.01872716872995231, 0.019949114959944832, 0.0930924112577047, 0.044520657529725643, 0.06825451270655739, 0.05217361169252153, -0.06934235962475377, 0.037821839590215615, 0.025256113245832962, 0.003957493359573014, 0.01335919882735912, -0.012555693258389873, 0.050978610737960235, 0.06412767770115346, 0.05039404811363268, 0.0030627831366742022, 0.07269946930557016, 0.058938875905503216, 0.08522678670580794, -0.013821307549838348, 0.12504136062108961, -0.002236106037701903, -0.042556160687651216, 0.06512447981353686, -0.03452232817890547, 0.03965492019933813, -0.03583429207292263, -0.009043102697996927, 0.02514145837839915, 0.00465722799589244, 0.059822074487004696, 0.030524804731989316, -0.08819549434120974, 0.05220368342386559, -0.0037389769277658027, -0.03774105285543624, -0.003276260513166498, 0.050713842908853876, -0.045635309411637515, 0.0374041999156494, 0.016001260653435847, -0.0644316664632774, -0.009918585050053531, -0.024474235530217527, -0.008096040058083719, 0.020636096301203367, 0.053743048240110225, -0.0358055599333176, 0.000559938082490061, 0.07712375694093661, 0.04444043351614918, -0.013845695014745921, -0.07582157844760211, -0.0018234570341940412, -0.009110417438578678, -0.07826796856744493, 2.7389803956115563e-05, 0.015136196514592047, -0.014587067255421497, -0.09650593414913265, -0.041624096396115064, -0.03287680919187379, 0.017456034870376367, 0.012624190157605734, -0.026393416030376628, -0.03476806975085489, -0.011587582789637566, 0.02907871156719666, 0.05610785488901429, 0.02033998050579769, -0.004837569306559511, -0.053360733089518546, 0.03893690974251836, -0.045730139588379175, 0.06562625285235378, -0.05288189769554991, 0.02585712304904961, -0.02720841193408439, 0.015087487848017885, -0.0196491155717363, 0.06809094701191144, -0.05829556558970341, -0.03131106546569568, -0.0989986268427897, 0.019057416590629362, 0.06370076393268427, 0.037901968295860525, 0.10332987489516043, -0.03612148066640392, -0.02187824617206084, 0.04777527700925432, 0.037976701357069084, 0.09272248080060386, -0.06934124927919356, 0.08400367738863318, 0.024186951271204855, 0.0429384388813025, 0.014456509707091473, 0.10090860549483976, 0.07701311639632792, 0.031741731875423514, 0.06203379015970448, -0.07264502470959414, 0.053401678606296486, -0.020961636958521556, 0.08095736494048816, 0.013148979097204912, 0.06410409628387193, -0.024063184086726586, 0.014014717943228658, 0.012232373772923234, -0.076354219449335, 0.0038635894971666565, -0.01304113072616185, -0.073003190890158, -0.10021696169879063, -0.02442253755049041, 0.005069878824767281, -0.0918320977226861, -0.014041199735353366, 0.028386382372199013, -0.005612505689861687, 0.04956519595168643, 0.0029158414787346836, 0.03438398162594527, 0.014816568795595597, 0.009633821565081638, 0.06606543906852934, -0.009333500946035394, 0.03828741851531668, 0.0046193259822958814, 0.02810531872689368, 0.01235953263462202, 0.05172913878343039, -0.06946451934983813, -0.03566142582697792, -0.048235914504047704, 0.04933155731007425, 0.01234180628480726, 0.050084693300193876, 0.10100497332810317, 0.03342370409985949, -0.032488258247455395, 0.06615418437669213, 0.04609317655249484, -0.017012867919303763, -0.04038282518594001, 0.010931080414393958, 0.04372121077814955, -0.03395933222369186, -0.03338765117930902, 0.0077998720697711405, -0.06467399614679913, 0.027511773232174425, 0.018920011646027492, 0.03927813757082004, 0.06965882092207443, -0.014723914482944323, 0.012043589650898372, -0.10210260896389534, -0.1665361832904227, 0.03999161851601188, 0.014672071657254399, -0.08755293860457673, 0.05458154528585986, 0.049417747833411456, 0.02082354329710619, 0.05963809108012724, 0.02083610466335908, 0.042298220446064294, 0.04486128990764223, 0.0033139495340627715, 0.003385182666174135, 0.06205255734092272, 0.01901797473711415, 0.0695135534955345, 0.008967611148389081, 0.03916967332845922, -0.0620516029315786, 0.02435509184435391, 0.01037151230222034, 0.04555041617649096, 0.026864611405675455, 0.029047489622416826, -0.003336223136885542, 0.036398276112425104, -0.030990309217389746, -0.003913167680236421, -0.012476640033505473, -0.05244068549751264, 0.05525597448084732, 0.016374033995147075, -0.08420576757037139, 0.03331825409884633, 0.05719134200209991, -0.042276111784704896, 0.10803408231788597, 0.000856184531076448, -0.03131954847733787, -0.14241757329776283, -0.04593200042762836, -0.003266655640268924, -0.04367042258134082, -0.005555925789574869, -0.04128838351326813, -0.06897552850780728, -0.03761086542924452, 0.026797015126464853, -0.04887575972163191, -0.06095615118019398, 0.01578549151021733, 0.06913560044244729, 0.047117753128428946, 0.000349202894232524, -0.03896315148465434, -0.027763989357102198, -0.06699539610764783, 0.004793454002762595, 0.07099213451660681, -0.008310563412238448, 0.10003362298483745, 0.015268504320282837, 0.04440275909144987, -0.008775828241108622, 0.011975301360941009, 0.041538780834053886, 0.014597557037355775, -0.02306859777431151, 0.04826926813307842, 0.013679225011720579, 0.009566778573300664, -0.06512008326032258, -0.0659503084388525, -0.077147618990019, -0.11537978663444834, -0.061246995246123405, -0.0003727649073710561, 0.0025566854058956955, -0.03394655658730263, -0.037472339292087826, -0.04727061562588747, -0.08494958006096955, -0.02072887822095397, 0.027950576203595496, -0.012838659957869876, 0.026237516200729668, 0.06289479369329405, -0.03681038412496574, 0.0638548955344271, -0.02655248174445122, -0.05701745610537759, 0.08827636452122602, -0.0030939349598381404, 0.0009686401197805911, -0.05356023410572261, -0.09555125322949987, -0.11428809376633182, 0.05198707433584534, 0.01477661940696546, -0.0762193408043644, -0.030151587222674574, -0.025909988432081792, -0.0342613894370199, 0.0007406221405582766, 0.0016255323638444952, 0.13508970635859202, 0.047737697841753614, -0.024681049817370147, 0.007718934273909996, 0.011979818548859215, -0.02317437666526432, -0.03930321393682622, -0.1648594673359164, 0.008525023926205605, -0.01995159047661381, 0.028524268516416394, -0.0715935013742129, 0.11389734942551885, 0.039316404548430196, 0.015927844476105638, -0.16327478367645884, 0.030313353318311267, -0.01375805375009082, -0.05164256855586667, 0.021988114775350356, -0.03014934170238493, 0.0029705822994489754, -0.004804312724519567, -0.08305838611557181, -0.06432644342231134, -0.06837378861300397, 0.018726964574264253, -0.014761983115857712, 0.016453596915916753, 0.011600626030105463, -0.058703577049053324, 0.09229976429029423, 0.0424968858818545, -0.06469647010513226, -0.06518449529747307, -0.0071588951430384675, -0.033536798575454746, 0.08198579954764106, -0.04684599166718458, 0.0006073385030374526, -0.07883805425262005, 0.004537825441745526, -0.014909702121280509, 0.0577223599314333, -0.07104398461090727, 0.0881276405455458, 0.0016638548236899116, -0.009757341949108834, -0.04787601026669388, -0.040440600954049465, 0.05362298222773908, 0.012456016395965138, -0.07245995989725203, -0.001063381687405667, 0.08927087029237592, -0.01283844189967278, 0.06512714538983493, 0.004296915864720788, -0.013136365840982843, -0.06739268569021876, 0.007851753106798231, 0.0379062959339172, 0.04830392634477581, -0.12088060133322402, -0.05477331457419885, -0.026402468216469868, -0.016105460847751458, 0.019108876782962456, 0.0645457227038954, 0.033425529742046996, 0.02765237112965599, 0.0029986608330426164, -0.021875354861880962, 0.00925777346678875, -0.047781144251072216, 0.04994706536027343, -0.006033980971653263, 0.0452161926446663, 0.050257319310289546, -0.08395945507650289, 0.02853548500234526, 0.051027013381221696, 0.045799361115947713, -0.0027814449743605767, 0.03910820154611727, -0.008133217757101888, -0.03436176154497889, -0.009466440695969277, -0.001894593082069382, -0.003187326184540437, 0.037958350365121886, -0.018041742645430014, 0.06878449852255174, 0.03775797444933278, 0.058725499363727035, -0.0842437956016175, -0.029533195386528162, -0.017112205819147658, 0.0036138442045324814, -0.08488287570573053, 0.0005097089566447167, 0.1214872235095144, 0.0056733537340577745, -0.11157527177955175, -0.032371654370994075, -0.03721228333727939, -0.01842996270533503, -0.051689267787733785, -0.021769632648945252, 0.00659658026061832, 0.051549195596121526, 0.025798058154628493, 0.028567194585102915, 0.04832905656947282, -0.01626589291552592, -0.05529409494784086, 0.048973488241344426, -0.11692926483615967, -0.013068739472149479, 0.01477540560487563, -0.05400745479170745, -0.011498278195815129, -0.05583676641024538, 0.03270412761171545, 0.10745878040827185, 0.08331143320344721, 0.03281023451119658, 0.01374750254285863, -0.06435841436159012, -0.06437016891482016, 0.013036522332833096, -0.012092286101631496, 0.044398853220382825, 0.06083701785469385, 0.005410770905015061, -0.012572820812436264, 0.030943215090621673, 0.019555379906351686, 0.04185576312342735, 0.027212760302743843, 0.007960681139763481, -0.04592271922758857, -0.00946677758965999, -0.1068040244219444, 0.012017569050516357, 0.023783165128784055, -0.08380318343907679, 0.017773733553408704, -0.09394688834633594, -0.045802449452081534, -0.008771064053043533, -0.1266034693398541, 0.03958806045471689, -0.01421926406535414, -0.017124621434997486, 0.018904923158318432, -0.0386617198748753, 0.007907063181085857, 0.06983537059242856, -0.018899245374170634, -0.08031606704786416, 0.025932318280642255, 0.019923178223849893, 0.0031348031381361204, -0.016909919541525636, 0.01099145549894722, -0.06798398847344206, -0.007639308341080744, -0.04557334411521019, -0.05599762222599454, 0.03291381503318233, -0.03208170059690999, 0.06268276825370643, -0.02014393088271153, 0.08328269593772365, -0.03585663823464391, 0.01822196825934771, -0.012399244965231369, 0.02982583204637552, 0.020759356042176328, 0.11646605446636664, 0.025299306064715935, 0.020730080572537696, 0.0552628069722892, 0.022660304195788947, -0.04977801706661243, 0.051217237631980994, 0.07455649054283277, -0.06422315190197048, 0.09718385554894335, -0.03818737907310744, -0.060275140134510255, 0.05676537295423896, 0.0006721086917632023, 0.0954323933778888, -0.06514979952976384, -0.049076176214288794, 0.006873291478394094, -0.06041288272580606, 0.008907412577968255, 0.01076551954129906, -0.016326615945080326, -0.011139258994445912, -0.07204213295627405, 0.01336569860743037, -0.005535748350950528, 0.003351258650153945, 0.09522977962729927, 0.002462826876536608, -0.0159913288002834, -0.01924384535148079, 0.02154044776649021, -0.0020224483966520355, 0.024672245089126483, 0.005769621078355601, -0.01058155683798216, 0.03032074442612244, 0.031083458737952097, 0.034912733978251405, 0.11827028253978265, 0.004883503320398935, -0.06508926866311994, -0.010779053290373724, -0.02918469197761393, 0.024110185121386653, -0.0029018987574898677, 0.004526744140262276, 4.935604025153561e-05, 0.010442862617283897, 0.0754787800097261, 0.05552248648345808, -0.029685554151606924, -0.11726957235164369, 0.09883139833415251, 0.12362202114561342, -0.0519675090598638, -0.0360444395140103, -0.055582806058457425, 0.047045389555326354, 0.02158463311740815, 0.03527612633920221, 0.06100311305287186, -0.024633494989764894, 0.036522469571900744, 0.06388696538048656, 0.019353589499778993, 0.0024703630754966794, 0.0725291243202914, -0.053923184560218204, 0.025993192324177388, -0.10874014641297304, 0.05392112385016046, 0.01304541244308891, 0.06527882170266933, 0.04539863074336488, -0.059293957251755666, -0.06995361220839201, -0.0006690634131903385, -0.10239534060104849, 0.0640384122122469, -0.002564911108040554, -0.019471012990732138, 0.0537850656724544, -0.05982721989112042, -0.014147536372865204, 0.06323475225591524, 0.017834844878968564, -0.02897706162512031, -0.005802029963224038, -0.029120078942026544, -0.05144604203235653, 0.09281833968067112, -0.0776385273745505, 0.1638362652074682, 0.01132484231769633, -0.08333812746126396, 0.03586951871110289, -0.027717872534321168, 0.02587163012880838, -0.018907480702257024, 0.0295410638910629, -0.006053637426376828, -0.02098757960304637, -0.004327489771152269, 0.028659034977027615, -0.1103986411297941, 0.00832819800100815, -0.03392185261480589, 0.013663051645626631, 0.04998167420101778, 0.08495054539426306, 0.09617021855177928, -0.06366594036931002, 0.029098128466174652, 0.016255777315562495, 0.07733437860654467, -0.022456036986142628, 0.021045853888397185, 0.11671234135766385, -0.014476552047928387, -0.0481854312612307, -0.08477420125098838, -0.10225304726405705, -0.0192296078454512, -0.05861201501260708, -0.06218509148027359, -0.0001930004838717394, -0.07731855955626665, -0.01801747848693427, 0.03393704854222397, 0.006609285912767764, 0.020081197899743018, 0.07980391081342847, -0.019637151603354337, -0.07444726817936331, 0.09027112346157203, -0.008900079547668747, 0.08470541219142604, -0.06169501484058915, 0.029111135955965362, -0.12003290024378005, -0.05570366927336954, -0.049334120734121696, 0.05366194108024985, 0.0188920580154409, 0.050568075288979976, 0.07298987011090086, -0.09064150178908377, -0.05204745564845319, 0.03381149498324044, -0.06610880751574302, -0.01776094804425779, -0.09265795541777982, -0.01980537521427382, -0.009901293436609802, -0.06838320291168676, 0.0304032431451862, 0.02239911129059011, 0.009935976559941889, 0.042364774486261754, -0.0028351606309507823, -0.038913635791489105, -0.057606406697383025, -0.047196034363724444, 0.03986860231831833, 0.0062109540677977625, 0.07691143984452908, -0.007511166228772756, 0.06890858206859979, -0.05360669120511161, 0.03888788230630295, -0.026853748087188985, 0.055968473976922214, 0.04009833993039543, -0.07906798721721665, -0.011043528644427009, 0.05283573141302777, 0.07308066733159221, -0.06539299169255094, -0.027577805375767785, 0.014239868689987485, -0.012322317719910821, -0.03846438934232595, 0.03689919339088431, -0.013288391719619867, -0.012485902923163388, 0.03921058202901052, -0.0530714395748718, 0.041474332257020206, -0.05924370965996209, -0.015716193909382795, -0.08661284288468198, -0.09053687362954631, -0.030367046998512164, 0.03201634160889526, 0.0117675507472999, 0.008064617861002309, 0.057210995259169624, 0.04103152749669146, 0.028120639301593798, -0.003222995058647184, -0.007476963398885381, -0.11371336854806842, 0.025269579489384107, 0.06812894362788355, 0.04210973316928113, -0.04388935076238269, -0.056936782627352044, 0.050454692399053855, -0.02756145429889386, 0.0037869455758747076, -0.005468938149849394, 0.0015763937310692825, -0.044115740784186716, 0.04496227111260231, 0.054175696388397886, 0.030635796809485562, -0.06572403767994406, -0.09043494054645702, -0.06641180877836217, 0.022516582059599777, -0.0016845587999750806, 0.06659599851940572, 0.015291599732029737, 0.009080621980834837, -0.021679805519686762, 0.025094897803273137, -0.012551840675163737, -0.01626266640402319, -0.02248958585115864, 0.0003638875346401962, 0.027931248005113946, -0.014954529519542032, -0.08310853246764217, 0.05470840062955356, 0.03276063632729625, -0.03967584265177433, -0.024794362080363157, 0.044135921914698034, -0.002707695050929637, 0.02388165644329373, 0.0015489948808623444, -0.01194279132412822, 0.018519203275325795, 0.016559950288720402, -0.06633711841197486, 0.05224534078575439, 0.08326005595859912, -0.049787800944179346, 0.0029575694113420604, -0.07672410765952353], [0.06676562765757246, -0.00013096340532810124, -0.152526040602277, -0.04575605175407725, 0.00896600640649197, 0.033549393427707394, 0.05608069235916016, -0.04427674154972571, -0.036124835419160575, 0.03863357061267683, 0.0066205486463715366, -0.010317265737306378, -0.05043262893377372, -0.05103787773211902, -0.05910321432621991, -0.044499785344593396, -0.013780965744543761, 0.06316251077903275, -0.001757505183638192, -0.049525977596397944, 0.05345427732789613, -0.021639879866557896, 0.04585261092229049, 0.01752634462925377, 0.03554665850195416, -0.01823211759026336, 0.03366805710036639, 0.026989886797181187, -0.0680709213220576, -0.03825641346434374, -0.010947031358726555, -0.04418304638269616, 0.0024712941340683703, -0.016273166538034962, 0.04167752237407613, -0.007402736183032767, -0.052512545313881075, 0.04298579554862454, 0.0349178970644805, -0.059549935717853726, -0.05606345684727203, -0.012123131530188043, 0.050269548098717656, 0.0737808906217092, -0.0791331504787148, 0.0586251582353765, -0.008467147574919232, 0.01985004636245913, 0.013833313379741885, 0.025572355081094785, -0.0024619163075137304, -0.008916892145851445, 0.0036714472037043815, -0.04636711613250988, -0.039468040076776637, -0.00020543822361127582, 0.07341201635696333, 0.0760809672182293, 0.09597329975434699, 0.08452111891379767, -0.021920114742863595, 0.09131165555640175, -0.014462523333007155, 0.004928322597895084, -0.0018567802117480413, 0.009542973144419811, 0.011625407441537767, -0.008116121559582558, -0.08178357761523943, 0.08549543072681434, -0.01954714440028548, -0.0017437298817766663, 0.05378535273215632, -0.03587570986884411, 0.10695235248571996, 0.07019970164345958, 0.08129432456160841, 0.03545022599342307, -0.13356962109570986, 0.020155953820000624, -0.02358233135814579, -0.10298744782405259, 0.07113692781696093, -0.004892525797850379, -0.05198904496197082, -0.032952231063060694, 0.04458118232610124, -0.05132314510757457, -0.04640777455783235, -0.02330356677459379, -0.003362016680751409, 0.08186257263515638, -0.06504817396145134, -0.009684810504846882, 0.09520529989881701, -0.08222794573096806, 0.020842328371522733, 0.03858873262886801, 0.005532379545460643, 0.017485317126356908, 0.06139800130033356, 0.04249962332807148, -0.0359744707116651, -0.025670411676921634, -0.11294951421598191, -0.03788622931656502, -0.13597089363186005, 0.05591585503184163, -0.02460339420555708, -0.04186138488291064, -0.06666488712949015, 0.01176182583029937, -0.006078528886220359, -0.019778905640170732, -0.023516823229623837, -0.00700586512889752, -0.035306080228058145, -0.037875522180345546, 0.12033027053818166, 0.0732342136876724, -0.03415915206947179, 0.0029969929159478345, 0.056898419602133044, -0.04435508112480699, 0.03823371732187951, 0.019192292916306693, -0.053607850542306074, 0.012475844809288853, -0.01206527244122362, 0.05051392538101706, 0.042816620330939276, -0.0035485875816256597, -0.023965699514000138, -0.024777510938460885, 0.0049563120991696075, 0.06063695295840113, 0.003183999165566569, -0.05903203325790988, 0.02587843682976101, 0.015762663461789693, 0.009165580539527405, -0.03119007181547909, 0.03134993685454816, -0.05878493120096629, -0.004397977970344248, -0.027588025941894707, 0.019937242855524385, 0.04303960695007703, 0.06960930448167463, 0.07789474130402253, -0.004583268948530196, -0.028794752783213157, -0.010994357765412712, -0.04080389359312465, -0.05608802041455756, -0.021123197184815246, 0.05619948262612202, 0.008722437330701781, -0.05536070901557242, 0.10259662969770719, -0.0008625605762651878, 0.056138279992363475, 0.07176200692485075, 0.029520266912523532, -0.013867910327807351, -0.031268639574578094, -0.10981853698571391, 0.043543469126970165, -0.016289555834972536, 0.00131191971308127, 0.06674891468064259, 0.08954444164153191, -0.008143364678761717, 0.02961928034724346, -0.02004271561360135, 0.0006829571947412357, -0.0781501807161092, 0.06978827951380832, -0.06841517209241652, -0.0018742721983315519, 0.014168520496124517, -0.0867690555635086, -0.026302771285547852, 0.08790939625683636, 0.018993083219661436, -0.001119928059960585, 0.024575055103140495, 0.01173029363994029, -0.06111772173414919, 0.055931217218235046, 0.018711908855883405, -0.0784920516283281, -0.0022526984925903774, -0.014698945514349653, 0.02896474403043207, 0.017248797023095806, -0.04136688129205236, 0.060157441816513016, 0.019006083088659014, 0.10049449029647452, -0.029929994211491964, -0.04014426027187339, -0.0522046078009175, 0.02062470317174213, 0.018463609370804386, -0.06757705544409807, 0.028607608351209127, 0.13647054241061535, 0.09007827033979181, 0.11166215018701994, -0.01529932795150618, 0.07706366895904058, 0.057228370470002274, 0.03256285685861195, -0.002019885454644486, 0.053672541496312405, 0.008948117716528876, -0.0022704380546606554, -0.024129042446116862, 0.068003206629224, 0.06185345981821459, 0.05856125757505455, -0.02581186750976143, 0.040511017010031646, -0.01717605652847722, 0.06518692461492535, 0.06369765396469627, -0.035798815942008184, 0.02837164185425664, -0.0020327939080149893, -0.023344092074098984, -0.010114389277196328, 0.0065732199658734124, 0.0014594154471386724, 0.09892463861229457, -0.08891051789668643, 0.0018276678873963635, 0.004225544720096866, 0.10139894905997801, 0.04500596029724772, 0.0898599624273189, -0.049041343840188115, -0.032674942520312895, -0.05330448513406263, -0.06470087447766122, 0.013130161177035329, -0.02745992257875112, -0.02195213134830946, 0.0749227527186507, 0.08800297637003063, -0.06751550974220785, -0.01502538456362682, 0.012500380320559251, -0.06068840502490482, -0.05931442918619327, -0.0010488568317372914, 0.04984880144025673, -0.06863801505848598, 0.05025814809806016, -0.12720875452371216, 0.005360030998629841, -0.04898662343230697, -0.01729944052839821, 0.05990760388110248, -0.06051539123015955, -0.07149926980352708, -0.026363346759071225, 0.067366313412936, 0.06625722586753263, 0.00676479847890729, 0.0014356655608666045, 0.018887540876648883, 0.019356119875984616, 0.054928534394521604, -0.07730053644913705, -0.01534020113261672, -0.02320837933406112, 0.049503808419881425, 0.10196581334471952, -0.004204855350362835, -0.013082850178018031, -0.05054764353404134, 0.008634339909201563, -0.12853708255491053, 0.029228082002722172, 0.10507980107959078, -0.018333586297897036, -0.04466791730025236, 0.018892943458223975, 0.0264571782574314, 0.019124266897176057, -0.007619910559816187, -0.0008137941164721444, -0.012027601369533876, 0.02586793370383494, 0.00547777873670641, -0.04783594468490844, 0.037170861050624227, 0.024838624326036413, 0.037288749913668914, -0.041115680087810816, 0.010521968487074512, 0.09616952094539337, -0.006231174552929977, -0.06465219500969084, -0.08165983748959782, 0.11442978980341188, -0.0546416306513646, -0.03953200558199247, -0.08364756232345917, -0.13158090313189008, -0.029355968690313067, 0.0758528238279279, -0.017401044152951115, 0.06796028040827017, -0.011130147591762549, 0.0574204311504826, -0.013118895876308559, 0.05675867579885703, 0.027886413517670138, 0.03058180289189993, 0.0942215194461813, -0.05778889055466616, -0.0376410006003837, 0.01360695511009885, -0.03675693019483768, -0.014531779071795418, 0.0022793341418895947, 0.04307224803089814, 0.06642790101739736, -0.03587377549301176, 0.035106954181292185, -0.0363616540636993, 0.011637433521453041, -0.059028778641257745, -0.04223102055566624, -0.04030604186495088, -0.04505540948980969, 0.008926146547382932, -0.031843434196118806, 0.028879870839404593, 0.020543587118927138, 0.03428618669395719, 0.11026753590381964, -0.004253432139055323, 0.020953592091011268, 0.09548633380276395, -0.005190595498352936, -0.050414786996865, 0.0831159278788876, 0.04332451392480949, 0.03942592521414781, -0.048915761401069506, 0.03860594279552693, -0.008784640420309334, 0.04031756939532589, 0.012988085620811315, 0.004888760933793231, 0.14753072910919246, -0.041128949886654116, 0.022622872267214073, 0.023189256009836016, 0.024369550064756145, 0.031081241621469396, -0.007042549637978107, -0.03376922244082764, -0.030037578005386513, -0.012029929563275863, 0.03292576113847002, -0.024854598424168785, 0.08407994624329675, 0.03837837858660085, -0.0211111280301601, -0.02067270937162438, -0.1002250862537043, -0.012513715909131591, 0.028880651855432038, 0.0005853016960426258, -0.038573326734495976, 0.019686274305774357, -0.039500598636274566, -0.009206931292489793, -0.031077045504580295, 0.02407165729007785, -0.02406176610595608, 0.0764987690778753, -0.11248264698969745, 0.04735757997806815, 0.028279344780119738, -0.08082769269775238, -0.113769699860666, 0.0019631938675391362, -0.0571928981536505, 0.024503457081887826, -0.0871407240223351, -0.07059152852450024, -0.06975611168373182, -0.005386701711953635, 0.047803387055154335, 0.017997688817253343, -0.039659108858129476, -0.06357745413406837, 0.023736259872460978, 0.06175444183755044, 0.003396613743307135, 0.05816221550030336, 0.05321401991896924, 0.00858025826034814, 0.009337451007977149, -0.07380804803971772, 0.05187441374834242, -0.016097537177194136, -0.0017769795489076911, -0.024470701715263065, 0.017664986213425094, -0.07459576161545996, -0.17669066201394792, -0.005662931306801732, 0.018614915559734976, 0.012030623405274743, -0.049661397731976614, -0.08440886919206184, 0.10588062922521459, -0.04454146988576004, 0.03444608793907275, -0.025277237158417527, 0.0030312129480782996, 0.014270385333952485, -0.014308970607196696, -0.036567560656454404, 0.015855532073606283, -0.012612950873259884, -0.09010303420102068, 0.0042634562922508985, -0.027389344660255357, 0.06970611154075033, 0.0068168491622174025, -0.039813300285689135, -0.014161218712338287, -0.031846473456618264, -0.0005378864703808692, -0.060259918427866876, 0.09871667009156723, -0.019954244389195668, 0.015630054734943808, 0.009078159793029745, 0.016944525145090084, -0.10421044171948246, -0.04645845708335707, 0.060552592404674005, -0.0049560496144282285, 0.014153533600082558, 0.02895864924691316, -0.022191893625985486, -0.015223469675829639, -0.07697318410518866, 0.047166657843145804, 0.07484314940263814, 0.06964752328745603, 0.051182241372561825, 0.06759322095043252, 0.022868758588520763, -0.026097151267963695, -0.01839322203676588, 0.010630783478223493, 0.00737903651821807, 0.03112729847081602, -0.08885956681224144, -0.03653615976182801, -0.02473223519718272, -0.06935551721863381, -0.08349550862950769, 0.0144663719838719, -0.004991064385094307, 0.01619876314151547, 0.0635768751918943, 0.047780076621696047, -0.03375691328388908, -0.0343940155383578, -0.007893463306437667, -0.052165236567426526, -0.10074103778757477, 0.08488333927115688, -0.03192338740612071, -0.10152006100285715, 0.06899531810439419, -0.0024182367620416137, -0.03937603370984176, 0.041952103942844765, 0.014204189614767482, -0.06650420701902604, 0.05269732493329752, 0.06675560128215319, 0.02003812746535058, -0.027714711689271233, -0.04881273709544356, -0.010452580470505271, 0.016037901846526852, -0.06851381584115163, -0.0055936368266036865, -0.0058564997647208876, 0.02868345721963883, -0.07958957966748505, -0.06370812031507764, -0.02211430999972815, -0.04845243983157948, 0.044724514234017444, -0.04017251890758702, 0.07664154312581574, -0.053776777875830475, -0.050486519485705636, -0.02425619672815262, -0.04558141093104176, 0.0010214557258127587, 0.015043050500149893, 0.07163576483825292, 0.011055679100860744, 0.06661387093546864, 0.03618296830620778, 0.04476531861362989, -0.011333980658855491, -0.020895146566636543, -0.05163713018203628, 0.004574251224609647, 0.09414751025823771, 0.007773945368978107, 0.11654885656713891, 0.041754930191426495, 0.03673538973797651, 0.041920518529258786, -0.04884058802447268, 0.023393633941069764, -0.08423900175684665, -0.01356055486116138, -0.03535565595291102, 0.0009402848338385347, -0.048648450191449095, -0.013275854364118416, 0.03346331844022212, 0.046453064855659525, 0.014236787161032322, 0.0002946211843683599, -0.02020142361796763, 0.018440574551718956, 0.020224138269796216, -0.04387961487696123, -0.06620744241703957, -0.016325215311676102, 0.021172839651656228, 0.024720756770507925, 0.024983413769677915, -0.06740461304154512, 0.07516830115492665, -0.07538902293494544, -0.015149885016697819, -0.04554384519158263, 0.09808785389102236, -0.07503929424488291, 0.08890026665515362, 0.04664135568759526, 0.090634042995524, -0.05877022000356666, 0.01854928675613196, -0.024245616382604862, 0.0004581219484223638, -0.08390916646771282, -0.010442690013415152, 0.03490252721450713, -0.034807910625733504, -0.014160771067290445, 0.046603950504795474, 0.026936228961426428, -0.0011868167759646422, 0.01075630303769264, 0.013185654186299873, -0.0379554312846443, -0.02395449444724773, -0.04605151976420119, 0.06101962663379577, 0.03673633594048087, -0.001372729099233128, -0.05237626047500795, 0.011244634683926159, 0.03125365787383545, -0.01104269382036556, 0.026467252515491986, 0.07367481130797243, -0.1226391259861727, -0.007682207337690538, -0.02072730923509211, 0.015467386474970844, 0.022567326189865913, 0.020784855563255517, 0.0032546995664167605, -0.010291550075551385, -0.00861878540290576, 0.05541076376301857, 0.029363907710755546, 0.09078709706804933, 0.007392751889839507, -0.0038486146668212824, -0.015376263440564615, 0.034327645455880226, -0.028697215693635002, -0.03406523977712398, -0.02650116402021877, 0.03778132412412581, 0.006649939588363668, -0.0879082971739555, 0.023270676786737488, -0.0717644535412403, -0.0025210229840771647, 0.02247947247607992, -0.04125947700137364, 0.0043284701684838806, -0.05500670668857207, -0.001375466733628444, -0.019481342330315527, -0.034486684274186344, 0.11231975651801977, -0.0645903662842482, 0.015362017183054756, -0.08658524727646302, 0.021431365620207688, 0.08571240058789147, -0.01847102529221109, -0.002080675108310454, 0.031145315581124405, -0.08383087048795078, 0.022298019814773078, -0.05925492861528305, 0.07004401357791924, -0.02435311506134132, -0.04494213057982628, -0.006225483046912235, 0.004135011989100582, -0.03143170811086297, -0.025292931542383636, -0.023339545414517642, 0.02357123721700625, -0.11637774019006028, -0.02905923044840728, 0.13378519236450745, 0.05846005920792968, 0.025884520567672608, 0.07824667725901265, 0.04610403146386335, 0.013106188907458294, -0.09577372264723875, -0.01726372158302944, -0.13485534946779318, -0.0052178730412010795, -0.02081305801320214, 0.017927873307672423, -0.032205489386216694, 0.05797235611384164, 0.0689975834426326, 0.04157025778538964, 0.022835205731576966, -0.06432932896409418, -0.00815197954585364, -0.015408276066420264, 0.00416807715593147, 0.05105818864577758, 0.007577803264987274, -0.021961759097389667, 0.0016595355185411757, 0.01801025688924514, -0.018954692250369415, 0.018035876934927322, 0.04577231809920976, -0.0861198996783213, 0.04514755831676123, 0.006935398713104526, -0.04441947684711765, -0.07623208381740777, 0.11493995855748464, 0.0190234902291651, -0.031662055177139124, 0.003965964312370896, -0.06488656905004836, 0.06788934247209576, -0.008298287727245873, -0.03835758329614198, 0.048237545177657534, -0.028634729149169858, -0.04394481043638631, 0.002467626137048339, 0.010119490969259064, -0.017419685625320314, 0.017910164306667094, -0.07279016044154181, 0.006547022676062597, -0.030891840599422505, 0.08998021941690273, 0.03316147219096597, -0.009775763876278931, 0.020655649091585095, 0.0459483224876484, 0.03409798929500618, -0.029566042139615275, 0.1380315133630948, 0.02168080081195716, -0.07792398820177075, 0.017516757266427003, -0.02016125277938929, 0.010325034821296245, -0.03411806963611416, -0.11769015424674573, 0.014752305197016601, -0.03083830738169364, 0.034749161680584596, -0.0462586742344923, 0.01915978818489323, -0.010557756436441265, -0.031283022764376625, 0.02369134512451345, -0.015149260788420615, 0.04165155639785614, 0.013563536345037245, 0.029539347660988525, 0.048695821884643935, -0.011598266926557594, 0.08700121158221201, -0.04289388539006631, -0.03471863238872001, -0.04390776605285992, -0.002193701749011246, -0.0735953862444307, 0.003831459563100101, 0.04044886745077102, 0.04724547669550861, 0.040386182099430255, -0.029835507671811128, -0.02850671146772943, -0.022452586695412856, 0.08140795974558121, 0.04879815838051004, 0.09529125828815455, -0.0032479442094968743, 0.034074881710943555, -0.034910184056082094, 0.02854083148534252, 0.11140037497023307, -0.06302911046176052, 0.05758680181529624, 0.0917541360938137, -0.17565400048527788, -0.021118608034663346, 0.09467767613402911, 0.04772804545621068, 0.03315803136247464, 0.07084187686285814, 0.005197213062554302, -0.0006388956744292692, 0.06254852324728243, -0.06290148827649092, -0.008822105564689715, 0.07446945871381198, -0.01510682126363683, -0.04570589579125967, -0.07975628744734807, -0.016886776740117397, -0.04527865485680969, 0.027285770766679006, -0.00856910666983134, -0.1122485251613563, 0.04330075464328846, -0.0771528660802239, -0.08363053389148295, 0.001997055733319793, 0.03452886142656772, -0.04614052168228156, 0.02688872309570499, -0.044121472643648296, 0.019638954958332958, 0.02428655450436331, 0.004809766158864586, -0.05518283874686294, 0.04392759051202497, 0.012029187499633427, 0.03236709463910796, -0.022058897949120165, -0.0637368574940591], [-0.03921531061788353, -0.030644799858682178, -0.0720829373564041, 0.0076058177094243985, 0.06923828777109108, 0.006984744684094053, 0.12988725075675644, 0.007409476962590707, -0.08059014662312804, 0.008476519539394146, 0.049200217643765545, -0.04245022092325164, -0.00706552197371025, -0.010083654599649139, -0.0592380148262718, 0.1076306923391074, 0.014406037026825884, 0.01616704012624647, -0.035768623826436814, 0.039728228845182616, -0.01701361936838666, 0.02861021981213414, -0.1183873564884197, -0.009589699687539392, -0.014821535529980659, 0.030387654611541106, 0.007271685076349391, -0.02617844264090509, -0.06468775632440485, 0.03931403646591737, -0.005158151895465348, 0.1195588997351783, -0.025104851012027155, -0.05713682984439246, -0.09836949635525727, 0.03691837929125981, 0.060013096799762064, -0.11770187339172884, 0.015073678929217228, -0.007339075562383134, 0.012267557173261516, 0.016141713884277983, -0.033726584461583595, -0.0323819842150981, -0.057321492942311286, -0.11271555689705406, 0.006001797786474012, 0.05364580860322725, 0.09658688014077883, 0.04524000627897814, 0.03471459342024759, -0.01707343454225828, -0.13652860040834394, -0.060226677191775095, -0.045744968785804946, 0.024544273446694683, 0.04262905713970444, 0.04346901490441169, -0.038381933052635896, -0.025645217335986396, -0.0068381253131469845, -0.036979810687210915, -0.006757999372672801, -0.03621728944241861, 0.034880053396339344, 0.032252870109102105, 0.029753193117589238, -0.0465880670801012, 0.02580519145382123, -0.0816741299558143, -0.016459421384531492, -0.036432218613362086, -0.011314842715820962, -0.06140817120273733, -0.020499938772887465, 0.009572546776569631, -0.006439485653644279, 0.021846166391035416, 0.05061802150674591, -0.06659888924807018, 0.03124467825334687, 0.029817238936564208, 0.10185129742845343, -0.055274381506969686, 0.02900688994941951, -0.12425610060322168, 0.0318347006794586, 0.08414798113473214, -0.08339204485457279, -0.007170431791837832, 0.013960443447814021, 0.04571318135156238, -0.03630157688952056, 0.07659005654422232, -0.02146404153968524, 0.031310964662393824, -0.0600839661568681, 0.03203681474937452, -0.04919080039218011, 0.06380778269448809, 0.0518942018757873, -0.02996004690113042, 0.0051702842697949345, 0.03579049466151935, 0.06925919243488021, -0.03119827115044572, 0.016141336841627565, 0.06709574879294977, -0.038624675503877305, 0.034581235851778615, 0.02626038610831455, 0.022925843702050884, 0.014655248142541804, 0.02150746665153873, 0.0027442487852238117, -0.023266218647444555, 0.02566214783864442, 0.05184765724231205, 0.020927393569148606, 0.00967662834588601, 0.0021429812249767538, -0.07052756905661792, -0.08911976226316147, -0.024428106450778798, -0.011797126351596634, 0.019080572574702054, -0.005669101263969288, -0.08456419466835138, -0.030384176510025885, 0.006746668512828746, -0.00012775302977219877, 0.07284230419824651, 0.03317984462069655, -0.004226993621300303, 0.013728804304145008, -0.03093389530944121, 0.01602526313439602, -0.0023307208804489066, -0.026992591694352003, -0.02257008018071859, 0.056901561621073266, 0.03639723516689292, 0.05330490170164759, -0.040841592469064984, 0.03675168854262048, 0.035766803915498385, -0.05160007321521252, 0.019711851727281092, 0.091829812447904, -0.04196021322023894, 0.08449409039800422, -0.007403658448529754, 0.0836466510221594, -0.029902459232150545, -0.027663118906231132, 0.03117154254684216, -0.006654465339062781, 0.016181913497968336, 0.03192983508858405, 0.013207072983815944, -0.02762344954743636, -0.0008643364305732162, -0.024920529159237637, 0.009251250075916914, 0.014123070696140097, 0.06854173296749938, 0.032677094810973965, 0.015926176302543806, 0.007734460978979853, -0.00324339575237354, 0.06274870501890696, -0.03876969477306869, -0.10588660795726676, -0.014033315957393868, -0.02481469333474469, -0.007648767412951593, 0.07526779550662342, 0.09995296669902211, 0.10818923758518958, -0.006081706764846972, -0.057323829203893034, -0.005075922829893694, 0.032438905564078954, -0.03896700418360432, -0.019299936008022704, -0.010532569974537683, -0.010506645419551213, 0.024417011433427085, 0.044471149677811773, -0.031627470180785856, 0.004139331779547066, 0.007594049802665503, 0.02652823828217246, -0.014235899589043914, 0.043132333105587145, -0.05781944843195009, 0.03129769318204683, -0.027710906523033877, 0.07855455738250554, 0.027778509879023756, 0.04735552793960597, -0.027012513196614636, -0.010528431347986238, -0.07338340366696607, 0.08393978094470889, 0.02369931585385751, 0.0012468147824473428, 0.0316263720222763, 0.002591507306678878, 0.045081759058183575, -0.119157344570252, -0.008786624841152363, -0.0290536988087745, -0.04008016732585942, 0.0008400056933739722, 0.019976542691289113, 0.07271874554498063, 0.018898892510376804, -0.046544246789793804, 0.06067282604831041, -0.04542486142295161, 0.023384787539448747, 0.03875659732414559, -0.01596503031096179, -0.04870859491673218, 0.07559760374129568, -0.03261901398132239, 0.06387716557666093, -0.031422117920809275, 0.06252267029845904, 0.11296070189682195, -0.06861537527688541, -0.10879888282716486, 0.027599604830887838, 0.03519002434052844, 0.08490925006324572, 0.06466792931197952, -0.039876677551317984, -0.028408514324404353, -0.007301103656734501, 0.013759173764480768, -0.020435711743854647, 0.018552999971917193, 0.016572273820228967, -0.09734688889322224, 0.054866212934307074, -0.022238932249052053, 0.08718448297245386, -0.020649125068667708, -0.03820086316958477, -0.01895638558423776, 0.031144058216566656, -0.06292999853049837, 0.0016023515541182367, -0.0502763443510475, 0.004035400575620239, 0.07263770943398962, -0.03959516638166895, 0.06170383055338592, 0.009669859721612344, 0.024688188123737843, -0.010655476937770346, 0.030862773282077767, 0.005419451948589444, -0.03429845496003792, -0.0021521086018166306, -0.07352710258507036, -0.011441758638856695, -0.044959175692466304, -0.019288362200781842, 0.11361958344952132, 0.003516656322071063, 0.0386625268652615, -0.03297242774601443, 0.07124448271915845, 0.03477157231124684, -0.08413113354476938, 0.061844362794562485, 0.07048826061944986, -0.0839717090088074, -0.034593332701135834, 0.019601340164495516, 0.020203048035650286, 0.0031677861109350265, -0.026449131859232883, 0.0187194889186519, -0.012647842807418536, -0.06283857314380184, 0.06601266475231009, 0.031469562413766534, 0.025105439398050627, -0.0025192244499285836, -0.03839159077791016, -0.019207260964786053, -0.025087600192910318, 0.0009214366147359988, -0.04887025430499995, 0.007623337358566049, -0.023097113175639988, 0.042779000122629314, 0.03903264963224975, 0.034593956986173784, 0.0565272339200297, -0.034924588470565884, -0.03743946866922825, 0.010641094530434513, -0.008789409095421582, -0.05354304476220256, -0.02275605698976831, 0.024860145280751745, -0.06502443746480221, 0.04326314492961409, 0.024131626008876618, -0.07571418674795877, 0.012640574551079335, -0.007845714695299377, -0.04925035546728463, 0.04950075100708376, -0.06993683509580202, -0.03861595325323338, -0.003492043807580274, -0.0133139271261185, 0.006747005938488021, 0.04506191688248783, -0.016873605761729783, 0.12433986905146589, -0.03226460776433701, -0.0663614535612943, 0.02021296017168767, 0.0568704568955699, -0.004725494513127213, -0.009730023980383438, -0.02295045761257109, -0.01226708533059531, 0.043515801945160824, -0.01156634202036994, 0.012282183053586108, -0.0499880214029109, 0.03085146185853562, -0.05579284505723754, -0.02952287833571926, -0.02988644552766959, -0.037892893575363865, 0.05948796388667792, -0.187529394816032, -0.033522655904566455, -0.03800109995645959, -0.01773662113135531, -0.012030078499871493, 0.04090838609877382, -0.06213491379697668, -0.009552821315665825, 0.024282503291718115, 0.054442783685039235, -0.00409585313290959, -0.052304750480031366, -0.04207626659171304, 0.031108398494109502, -0.041475470068806274, -0.00195931009683438, 0.07032073746359352, 0.01704881957779134, 0.05760696419183436, 0.032117633971103, -0.016672804710941156, -0.011599082038337679, 0.026687025727857812, -0.07817216625899444, -0.10994947363549451, -0.0018309288735970715, 0.015033731328082155, -0.07543408682312366, -0.008326843537289486, -0.11095846732385187, -0.05548157548510059, -0.06007243733142152, 0.007941147320063362, -0.028647557836741305, 0.0010787588048536154, -0.043279838090796705, -0.004901970534661317, 0.02321600049611568, 0.08466362464617623, 0.08777705451700046, -0.02965885635576196, -0.07210183137639209, -0.0005509727703730696, 0.008839109563460764, 0.001037287646639356, 0.015339559329175925, 0.058720991069228116, 0.016524051407613566, -0.07808938704975778, -0.03764359714318445, -0.050899977801074595, -0.07678061354998919, -0.0625918516911421, -0.05981824922444571, -0.037365169696825434, 0.011033989362329702, -0.010124826236236149, -0.041229512549249205, -0.036421953962542844, 0.044478275951745826, -0.020774647475293024, -0.006995149237597992, 0.04099081306785335, 0.053884889897503556, -0.0024274536468383333, 0.019830285584514804, -0.009689498540800997, 0.032772058257142016, -0.04165553388435086, -0.048347121508590225, 0.010091461343189391, -0.010282969177998895, 0.0061532048274091245, 0.018801551614987557, 0.001459648898227579, 0.016954385230907303, -0.05178766840486851, 0.057024191091992686, -0.03495514158358418, -0.050176158755123046, 0.03803164338929159, -0.08750020763097172, -0.10157778330305933, -0.11793640251190347, -0.0641307340213457, -0.004470324237819374, 0.0008876194837217674, 0.004262339491135462, 0.06372434162908179, 0.0033233268986577157, 0.12411160116317438, -0.018812067384723827, -0.045402815681217325, -0.010661943297895762, -0.0019011481428961538, -0.05030592463803968, -0.055297642894526676, -0.04092045240230968, 0.0316244885610315, 0.030223276874449204, -0.0692959873218801, 0.06621165145603158, 0.05108501331237557, 0.053338312676843774, -0.006894242527406399, -0.04406265868960819, -0.06052325184366274, -0.05198555770523313, 0.049850408220677586, 0.08771940536200505, -0.04178321417328225, 0.027271043018791186, -0.01082098937016119, 0.0009437836728515602, 0.012185807932320407, -0.002908156594678568, 0.04376397022426704, 0.0788124486036781, -0.01584599933638079, 0.08780581961334795, 0.10567690426076679, -0.026623726836123303, 0.0448670722394578, 0.10096082207998684, 0.00042905624889876833, 0.03926711857524292, -0.03321350934748193, 0.0032046431073096773, -0.013897423846831047, 0.028383291842475507, -0.102172281336533, 0.0694536344226751, 0.02571020710613721, -0.03532730732421756, -0.0060626925238590305, -0.027696920243278408, 0.02167490672392031, -0.0075771871932623965, 0.05548734822329543, -0.01756658516998237, -0.013691872210435514, 0.022590079716728245, -0.0903382871205976, 0.06619833953661317, 0.03126971000159074, 0.04634462583461972, 0.02164514541241841, 0.031785995766801835, -0.0077984735844065225, -0.007983820518986962, -0.01898747134066482, 0.04671144897101228, -0.021456983170774945, -0.056289168072354484, -0.01821170971391973, 0.060643154671832254, 0.0514293710032355, -0.07008751680765157, -0.05277476819840915, -0.086280125073793, 0.002628997258270265, -0.026023691807508284, 0.10242885271321403, 0.0008434957392326469, -0.04620400117451277, -0.011085450262405686, 0.01562558128134145, 0.045015026938376175, -0.016416961055108738, 0.022331519108215347, 0.04935741760189269, -0.0037987917890347626, 0.06788423576061263, 0.09785920223944151, -0.006858899286912069, 0.03338898769837986, -0.0332220893004578, -0.10425328696908848, 0.03053023586926106, 0.01631763085411982, 0.10023154500525727, 0.09144573405513641, 0.04415604201178746, -0.016720276969957603, 0.021479384981725892, 0.01698639762159237, 0.037011434387698244, -0.0633053733134933, 0.036357792270356036, -0.09872843849597086, -0.03606066881642907, 0.07016086067365716, 0.020164229911294445, 0.07397408371178422, -0.010810492384233292, 0.07878055235273812, 0.0626887944807451, 0.040782107602927525, -0.030530354163853413, 0.05181063458325313, 0.04267044111363394, 0.0024223443411038126, 0.09482966712270162, 0.0621816416922993, 0.023591604668203408, -0.01748396061931324, -0.033934817951310904, -0.044462541929755406, -0.014878412429160963, -0.025365028534446325, 0.09965200831063245, -0.0486889143714159, 0.05293260022476952, -0.012027715188437779, -0.04625798401778256, 0.041440200013239385, -0.016446703581679455, -0.006610595803296043, -0.009598786631225743, -0.04142243516462803, -0.0012628017003557103, -0.12681848637584459, 0.039498869172738496, -0.033303489711705686, 0.06923737730730026, -0.009462837283488882, 0.016562057188855252, -0.013489701873207997, -0.005191182676097916, -0.06521719563241327, 0.021782116301486354, -0.0336213696077, 0.008756414866152489, -0.05593679636724208, 0.02894116551369575, -0.09100516095964746, -0.04594370444704886, 0.020298882508260917, 0.02986183450098132, 0.029410947157056996, 0.023349533279460658, 0.01036684298984292, 0.010788263048022028, 0.058802787636512005, 0.021886457552341875, 0.03573930452106428, 0.018568705868600485, -0.060914573263050664, -0.07156436506830471, -0.010469987372365477, 0.017083577194937142, 0.0825010540302003, -0.08440566916179555, 0.08928805371576694, 0.004976006451691302, 0.06125623677853675, -0.036127664137029426, -0.027770210342980158, -0.025161425064831405, -0.004399575131593398, 0.08366076455591755, -0.0008986707550418846, 0.02516982853761558, 0.06242379069747398, -0.01664145290117595, -0.057467588710171276, 0.05273681396639612, -0.026871074093867114, 0.04196562136299633, -0.008375445430496467, 0.029313476883067506, 0.11735529295255423, 0.018365732717422825, 0.04292608593459246, 0.014961638630402799, -0.00431409523503566, 0.01766282005396328, 0.007122048174179058, 0.08922583594403238, -0.061877034807082266, 0.05989416873847662, 0.037597299075971216, 0.05381690784160472, 0.022757521390343535, 