{"input_size": 784, "layers": [{"type": "Dense", "input_size": 784, "output_size": 128, "weights": [[0.035480641541454506, -0.07884097210823993, 0.003425870011341127, -0.0020253089089178325, 0.010594652023700335, 0.030025779743034532, -0.1059354254988659, -0.05532061729917999, -0.018192270467584398, 0.018164450632277823, -0.021064555787406784, -0.0434162346264923, -0.027650320232543834, 0.05229037258223862, 0.011030055734301212, -0.00183567940212692, -0.06476552575977872, 0.004974537250133211, 0.046193543050615404, -0.024532492388950965, -0.020006520977239515, 0.04792530526546883, -0.035274512531599404, -0.15391170761057685, 0.09244333222353253, 0.0019685897535269277, 0.019278387975928384, 0.08902363908542946, 0.05986447581607757, -0.03688522210783409, 0.011929936813951917, -0.05958362828015073, 0.01672010435648695, 0.06493378464246886, 0.01689441476727846, 0.04863751871583356, -0.033902607089396936, 0.05229881196672376, 0.01630555987829441, 0.047693464326878966, 0.042190481052458546, 0.009725059680529244, 0.042072774362921644, 0.003608924287402287, 0.04475332986108707, 0.004502684705647358, -0.02628683789989309, -0.09677780355010765, -0.04217346115199546, 0.08080521211910936, -0.003226244471413049, 0.08579751802529041, -0.034604568373951525, 0.05022679763438374, 0.04145646514433483, 0.0008831235976891177, -0.06326731430130335, -0.06604954585658084, 0.03462594002603568, 0.03578677792719774, 0.035843748980219865, 0.018145528832557142, -7.45369077990609e-05, 0.005757165874473383, 0.07416334521764825, 0.019116035366147678, -0.060286075589310095, 0.04684662911950609, -0.019572246078432734, 0.031654029258375495, -0.028487287111673143, -0.04827708569008326, 0.07264897523893837, -0.01582527685733607, -0.03923555176295684, 0.0276483304710843, -0.042142989376580266, 0.03429612213058737, 0.08707120759640281, 0.0446058186398396, -0.03973888894327969, 0.07230097831540777, -0.0048476619419802495, 0.061955118230780724, 0.005530316021611345, 0.01245780344071032, 0.04126230034288484, 0.07228836907478427, -0.06279614992028361, 0.0682557267179788, -0.020010098052000325, -0.04473273142911185, -0.04470961975470736, 0.03097855476955588, 0.06095573959080392, -0.01373099009025663, 0.031013604480022574, -0.08488485098954601, -0.09825124504894894, -0.051109322619144575, 0.07322826799640943, -0.03931726129815066, -0.04467508514177733, 0.04194328337997181, 0.021088659241619925, -0.07651523456196493, -0.02101635254272734, -0.01052595377777884, 0.008268925139468732, 0.0601090963393153, -0.009753566182066095, -0.02234144525255745, -0.06219239149230789, -0.006401125245920144, -0.045382022335349305, -0.02847206235905064, 0.06523400641551332, 0.026310746648823616, -0.08340438518809062, -0.004490957285671573, 0.0889385410446447, 0.023328661430845415, -0.015983400530554755, 0.028996192778985005, 0.0026174781725441377, -0.040536747855687075, -0.011204845339547676, 0.03215476864865487, 0.05172496274152737, -0.059768494786610275, -0.01852249702789059, -0.025290231733616903, -0.0829675190818382, -0.022947264497056818, -0.011971753847286175, 0.06163568580706076, -0.03384999107686452, 0.022447231063407378, 0.008820899844424083, 0.017395227920607145, -2.750495764803141e-05, -0.0008723311399698439, 0.0550581099706962, -0.0338472928398159, 0.009161363290028824, 0.07870771014840007, 0.020539359024392155, 0.023814112929204195, 0.0856243630470566, -0.036410883846004785, 0.07691474950092536, 0.03769549163337384, -0.006383399456507184, 0.013901741364439682, 0.05649866209374818, 0.02677800888452096, -0.0015871863540553594, -0.023857965587704873, 0.04124550172292737, -0.022596072185216316, -0.09973028410257935, 0.0691006272956299, -0.047261309515315306, -0.004200266303228691, 0.05788363004822033, -0.05169891314219669, -0.07122948921968274, 0.0856205772574958, -0.005176016166789752, 0.017300214601040535, 0.013371495645894956, -0.11065783880560295, 0.008697990087240296, -0.023723140210998642, 0.032868720499883076, -0.04487837101967123, 0.0357621449628228, -0.033555470841056985, 0.05133118333371404, 0.0487336142160064, -0.05690729902579859, 0.06288051314100558, 0.08399835719627405, -0.051438927784422106, 0.07837767923916768, 0.014438653778237071, -0.020389527480147895, 0.03087964362136872, -0.010824800966112956, 0.00118161272607238, -0.05212732197688892, -0.01917907866381583, -0.041361575481538945, -0.0365921937973532, -0.08002994754138285, -0.06403373371133948, 0.019111103275995384, -0.00041935144526630954, 0.06317001103195126, -0.013095748411568624, -0.004503351776505952, 0.00366422349811643, 0.009161183067708602, -0.03366916041475276, -0.04187804455895842, -0.04125177499451631, 0.08359597547647961, -0.028955105371053644, -0.0034683452043225227, -0.013089758927941104, -0.01357549294576851, 0.009765237838098155, 0.048391961119458746, -0.04195333172198291, -0.008771890951799068, 0.08836433591625874, -0.055466366592919446, 0.04401783105931189, -0.014947808329960727, 0.0347713318343742, -0.008471793241699862, 0.18407461382309012, 0.054998536345399064, 0.027770495390164414, 0.006445904138939234, 0.09621651692441907, 0.07416436318341044, 0.07720598129473492, -0.005771039733504286, 0.03545583889745981, -0.026776079053362444, -0.059678984063535695, 0.023612753058420647, 0.019340028403126288, -0.011622117256773746, 0.04044019461162371, 0.033664241755803244, -0.016259104026614634, -0.04375288879778879, 0.042650365819262674, 0.04856160741201926, 0.009595386179401958, -0.031242098096618647, 0.09910211191751267, -0.022801827839003593, 0.06234890582033467, 0.01748724281747237, -0.08472386853440529, 0.05902537088511472, -0.024139602229005786, 0.06792460280155563, 0.0011256527218641097, 0.06274623350609489, 0.11001692203708281, -0.013241513216788368, 0.006109020022821442, 0.09821373765461451, -0.07222232063740068, 0.001235327918049499, -0.011945315889876199, -0.03862296811122327, 0.017859525368410484, -0.0003561400948213541, 0.015982676606107356, 0.0673613481503241, 0.019320589872850007, -0.025200588299228503, 0.03645058659020591, -0.059487548730158345, -0.08227587323528128, -0.07513543621871088, 0.014817653793287667, -0.0501722348049535, -0.05632963014527623, 0.08019585592246616, -0.07048600665656996, 0.0008033866574561489, 0.057275379050541225, -0.03739280203296192, 0.021046833136429514, 0.05633898215522536, -0.091372367856445, 0.0006197087185749559, -0.09548549417219991, -0.058883891173819564, 0.02953067511643611, 0.012302841290637731, 0.0472229735124594, 0.035790002553188593, -0.033155278809786706, -0.010205662422041016, -0.021785612144418983, 0.03506603876036305, -0.08144959055560333, 0.024028809190887287, -0.06162765249139441, -0.06617372506154943, 0.026146747597833447, 0.02679034239104668, -5.210319039771563e-05, -0.025981370004733446, 0.0828066071333363, -0.026538099837863115, -0.04865356622928144, -0.05595162454130841, 0.0482000544637944, 0.052934463484721556, -0.04284895683425223, -0.01101848662581611, -0.006467430559894914, -0.041230813341387666, -0.005215623163790154, -0.03689738462197655, 0.0108211007514463, -0.034480124260076364, 0.05126713194724847, -0.0011870710747463888, 0.10005954333388006, 0.050839000433880906, 0.035002704110110465, -0.052766079928057805, -0.058247021027425246, -0.037146650418111105, 0.07589891451642171, 0.047304877536566634, -0.0024550189477821694, -0.00019753963457645, -0.06194552016481133, 0.031698856513626944, 0.05798374553715604, -0.0016773514794219233, -0.09719266632042776, 0.014965005095836977, 0.018384570869549963, -0.07691171918979219, 0.0005698490266281899, -0.07210076460449008, 0.016157635621028163, -0.03050898350340277, 0.0762441393824043, -0.06181832891445453, -0.06762161037049975, -0.09735401257887379, -0.00452435287224954, 0.0033185248896092476, -0.0305465475848003, 0.02485234175098929, 0.039693798153213784, 0.026899135077610152, -0.08285139225292078, -0.06514548758747674, 0.01348771798908006, 0.0075478816606315, 0.03452530419809722, 0.10798326350270872, -0.1524634404129564, -0.03735564246710468, -0.0019858118552777363, 0.035211545317933725, -0.03990531476971847, 0.026123521110144064, -0.005175831063711559, 0.10189256324310612, -0.017665614287847593, 0.006842148334996865, 0.09031298858808337, -0.030420698067673703, 0.0238439164731672, 0.0056737904532256364, -0.004951751232464355, 0.00490324653569411, 0.02719820737637705, 0.06703594036460762, -0.06289044974177599, 0.08932855896151483, -0.01450090169435058, 0.008653129953861945, 0.015899018487211748, -0.09704820185347435, -0.006190009148058778, 0.10950537086247494, 0.0005075962967162122, 0.10815628647855301, -0.051113730873946155, 0.06724569813422146, -0.08108529322014559, -0.05460966975717073, -0.07046973970835527, 0.07100949289618219, -0.1188370563312428, 0.08433385597216114, 0.031517443745919936, -0.028660083790068264, -0.05804192632383012, 0.010034794162461773, 0.07142775491623102, -0.035921055379719104, 0.014321824744811255, -0.04005993911219324, -0.03532896274577808, -0.013485849293929472, 0.023400452225189567, -0.047473926795419605, -0.017616363845127606, 0.057858977575290516, 0.07411647375202057, -0.0799020195817462, 0.04895850931080632, -0.013923243983079047, -0.047189253998302434, 0.034953866392188414, -0.13551249156475562, -0.012554780594712923, -0.02365096801330756, -0.033930948189781616, -0.0027413961199543335, 0.012526915218859786, -0.022070664745871483, 0.12314793662546017, -0.07330686116368146, 0.03484510996577121, -0.09437606139442428, -0.02700064007896087, -0.019366122596965362, 0.07338036556925943, -0.022014653664188002, -0.04474654160072639, -0.00756607239893619, 0.05718213130340718, -0.03416142621553025, -0.04365286894616884, 0.013925096710638508, 0.06393124326543195, -0.06576277941253543, 0.0463877812010987, -0.06781255759724773, 0.05677728157322903, 0.046484658306465164, -0.026161286031271887, 0.08141794269775979, 0.07099532233371965, 0.025297534697918945, -0.05909226093015696, 0.006363830501614583, 0.0748777414401666, 0.06571990764755778, -0.015387476481703907, 0.04423921116950948, -0.08630948628172617, -0.05492997414484694, 0.025609204725268137, -0.028491597200864468, 0.012263951050150266, -0.0827202732963179, 0.07096692647320403, 0.06292338979448556, 0.0012999131597777628, 0.042479966066727826, 0.07730686094114206, -0.006369139984407968, -0.015043559764349105, 0.024129895552446365, -0.03516647434103555, 0.04714372770715117, 0.01038030286743321, 0.04362162198586908, -0.026743008386842432, -0.02095257389333112, 0.042488599377275685, -0.060757780023621435, -0.06812247685737086, -0.05716016959345829, -0.0486613891048355, -0.08063326106366837, -0.024655622059800576, -0.014790197824205218, 0.003147284117038145, -0.0569111276235749, 0.03906245687632173, -0.01795269298895645, -0.013442834200701463, -0.012950417863414615, -0.04800677713251954, -0.006209061806169176, 0.010140170595911087, -0.008890678577835676, 0.034066952890290755, 0.007828423971165253, 0.07691604651534156, -0.12633089161001707, -0.0617010065417015, 0.10761835667773051, -0.061644744445496204, -0.08367203648768243, -0.05664573109309209, -0.03344686573885512, -0.03579290495401066, 0.010864189036486942, -0.019205093687726472, 0.04381446112859802, -0.06728297134747126, -0.037065949512398194, -0.15440029320701168, -0.08108754148345092, -0.04797004786368978, -0.059148120935386, -0.008179032065498236, -0.02537487653169936, -0.06435867023779364, -0.046882340420128475, -0.018572609902404193, -0.12184005381057557, 0.08379279760092473, 0.06050733568280195, -0.020150347736234638, -0.007432175803655349, -0.02948833979069707, 0.01737221667759113, 0.037964369345504595, -0.026438044056020796, -0.08797333070541527, -0.04198434088276686, 0.07446274685376471, 0.0891251524769567, -0.015915619987659873, 0.003356751743398356, 0.062150069341286265, -0.01216852158425613, 0.045668008997388015, 0.03903787079649059, 0.0470562084010187, 0.0025122328759688054, 0.03980868372061593, -0.02692583706464258, 0.06711957758790162, 0.0048363656970968226, 0.008235590109333224, 0.005741590782588154, 0.02087539922037964, -0.05246975446959408, 0.020501177195278223, -0.06093496757213086, -0.05388903138734243, 0.013072245506427533, 0.041204263988769446, -0.10119723825186536, -0.06039998886305274, -0.03050532542594055, -0.023268129437185422, -0.048297148722144974, 0.014531766356508907, 0.06634232315038249, -0.011411549419309091, 0.027621934642702364, -0.043515524011253595, -0.002089916208453201, -0.03769144460396422, 0.07958442268966212, -0.01655738976839307, -0.10446503009289375, -0.016768064458483445, 0.06576719783414747, -0.04537433423329404, -0.01328528947208084, 0.05388740954459059, -0.03968156493804436, 0.024263601716934743, -0.020520251240902756, 0.008748819824909198, 0.012251929816020168, -0.052890885340326245, 0.03945598794289672, -0.04179090594780281, -0.043119217968056636, -0.013150118771435883, 0.00970672573190031, -0.03037779530643539, 0.06701718919219657, -0.1085338582405888, -0.035844793904181604, -0.10581431959435005, 0.02857156411327835, -0.03329192554373009, -0.024903734330986686, -0.04402541058727924, 0.00011222839834012388, -0.04504546860268116, 0.007033501258941475, 0.08444737062313562, 0.010560399111127562, 0.08032232728781194, 0.0014408314543766783, -0.009533134700737533, -0.023140791089643523, 0.05315610663004261, -0.025167109492800613, -0.0058283160084805444, -0.03332466208076731, -0.046600428246657444, 0.07315987854363035, 0.06969664616425246, 0.03179840847010806, 0.007986191109691412, -0.015016946207290747, 0.01964538108913677, 0.014534474826061239, 0.045659128659742414, 0.0014464675183483745, 0.03831442972264221, -0.012253350335291135, -0.09212574328084473, -0.028534184737788192, -0.01917598423871093, 0.06594693161762359, -0.05982509901828723, 0.021233478725051415, 0.08291891946438168, -0.10704968806532228, -0.06441287653731008, 0.05012533520655986, -0.016663204457328867, 0.05032980185587011, -0.026132550171733333, -0.05177419321372758, 0.01889734902216718, -0.029216420156263967, -0.011480099141927103, -0.039002815461143786, 0.07086962541414978, -0.029210458973048106, -0.03233115296253006, -0.0345352859220028, -0.04015724019061704, 0.025718987998395306, -0.005871178602542612, 0.01782832613053492, -0.08746764971895543, -0.02690215168324878, -0.005614929056093233, -0.013076400466748569, -0.0373771845530305, -0.019689515474182028, -0.04586803065481473, 0.014310025172601172, -0.06145452641562049, 0.048580002714502295, 0.03736632020876072, -0.0006402284838691672, 0.02676850877822354, 0.026282304502657665, 0.008884812031382819, 0.008917748975665964, -0.04498529911564776, -0.015739175983747168, 0.030339603428158474, -0.10504520743448377, 0.031702928953792286, 0.014136736053172717, -0.06184589019820196, -0.0290298049425597, -0.010008317468679244, 0.0008585342506643327, 0.05489700164445617, -0.07923815493232028, -0.04837145040152123, 0.05189288744547737, -0.01690764748378045, 0.014013392665926354, -0.052582564997986574, -0.013588148259503394, -0.06506344212980045, 0.007574884769449575, 0.004288980801347949, -0.013458980348139976, 0.0036189244066488152, 0.12157307741129464, 0.05797458579207932, -0.04256622215762158, -0.005700086389869517, 0.011699461789573472, 0.035329182165531076, -0.10366619068572502, 0.07204724841790726, 0.037314104139806285, -0.05219329207136203, 0.005123162283744873, 0.026616770864060044, -0.009082073478402555, -0.06533642429273176, 0.03728807406357554, 0.05857148237672728, -0.04424965129221764, 0.022660408745218113, 0.018331578229037648, -0.019637166092541895, 0.09073481055636053, 0.0001163746812475051, 0.018092132348690098, -0.019494664976256088, 0.03238058334310772, 0.05512032153414393, 0.1330750851580135, -0.012186372094792763, 0.09772688913285373, 0.05305550256895076, 0.056575496311941274, -0.014089248853738214, -0.0900532649747625, -0.07640604791846711, 0.029544985973384674, -0.026933318641745346, -0.026836579085268063, -0.018745699684558133, -0.04715857083471463, 0.03840629874797771, 0.005346124523547706, -0.003504253994189514, 0.03635110343422937, 0.07494142701342436, 0.020688757485087247, 0.059216979020640194, -0.04352313242428828, -0.038386528921262056, 0.01753986475936479, -0.01113198240635696, 0.01253766299434837, -0.04142784072825927, -0.0018532239398423706, -0.00012250967998577797, -0.014794514635119719, -0.01595895439615209, -0.003301394630535427, -0.04402832255214432, 0.007832200720695019, 0.011223226064997304, -0.02871307215735704, -0.028509878120414667, -0.0683266486814855, 0.08336138665170438, -0.002292390680346255, 0.06113480757883907, 0.005320196189830495, -0.038238479183455985, -0.06485551640210863, -0.03412711198255704, 0.04470016996025476, 0.04810850908883282, 0.03002295427008224, -0.0631571551094631, 0.005829579794345827, -0.08262951002115064, 0.11834917382294727, -0.03457125735495117, -0.020892588427821702, -0.01398886772252089, -8.208348059564571e-05, -0.017797371640294, 0.013201031116779898, -0.047414158113322336, 0.07468308503312117, 0.013889618803573719, -0.043898437808797264, -0.02116974011927263, -0.062114742997373094, -0.031149892706756745, 0.14102598371564892, -0.004781936385941795, -0.009790941139215525, -0.010613799000190122, 0.043280900899640165, -0.07976426108064597, -0.09508586543580266, 0.02868279790074808, 0.016507921898146396, -0.00044981170530774785, 0.02507047651444665, 0.07498231872135384, 0.012486519386441719, 0.04241621952078406, 0.029344817313830398, 0.010534390477945797, -0.00800814445517637, 0.05806786413606235, 0.023701224369693373], [0.004360880479682408, -0.06631907827218678, -0.02841902533399087, 0.12202099163284831, -0.045242952027516874, -0.04702330466916458, 0.09693987925706168, -0.014613151980915048, -0.044473205516577755, 0.034230303983326334, -0.05762591669548636, -0.0036335602457563997, 0.033027292985793426, -0.13196496878201058, -0.06501327004337465, -0.0653175924723654, -0.02187336591131353, 0.1146378127020576, 0.007094013784985874, 0.043740304707293634, 0.016873298435300138, -0.030341116036299676, -0.09218277104376019, 0.013824127520194148, 0.005311579583743334, -0.055410540471738726, 0.0007632562289071926, -0.083088841278858, 0.06374331943045057, -0.09609141482976674, -0.07172169205711638, -0.04891456250553646, -0.01243906822497852, -0.021534016052809506, 0.07917344840192167, 0.08311412854083887, -0.013275870839874632, -0.039300937789860706, -0.05572067368292238, 0.015905340259996004, -0.00254348853471716, -0.03118626297520738, 0.1202979780328477, -0.08563687934294713, -0.0006652834717239425, 0.01291298534294937, 0.05618103585844525, 0.043950560648047914, 0.014840834760719757, 0.01479413000303345, 0.046670878996149454, 0.02553110284346669, -0.12693219081137783, 0.02330907738649995, -0.007162260415133445, 0.07314104816915414, 0.061885927307596705, 0.06204331553060089, -0.00632407725669032, -0.06325984169749699, 0.04107961943881786, -0.06758234661380294, -0.08521017157042611, 0.02498726523673171, 0.1133786744261975, -0.008053171336799142, -0.09949285151794346, 0.012850865274945705, 0.08009420687438969, -0.041735287297201794, 0.010374049452067956, 0.0809960759480897, -0.05034231559627876, -0.029447609814004874, 0.047772574664841826, -0.02090424749479813, 0.0168458182296158, 0.05904806692985169, -0.002690934703886167, 0.0373379381677298, -0.020719192636206973, 0.041811315979783166, -0.009975556408323472, 0.02382884696167161, -0.01593626988931633, 0.00711871632275907, 0.04114849933598542, -0.009946356773383486, -0.03589385090680709, 0.05659545400354814, 0.04057372099558946, -0.05479561454003604, 0.10759555158640778, 0.05253697866821411, 0.01049982294417852, 0.06960646795947567, -0.03545717399822465, -0.013029070687498647, 0.020099105183412208, -0.03621192308867176, 0.04787499095696501, 0.0035238411730927283, -0.025912433360922967, 0.007036564539733, -0.025078814153781714, 0.0340816445986728, 0.06777078983034271, 0.03823893296818986, -0.05658925707993042, -0.09056068215472744, -0.024135024593661465, 0.03291621483762715, 0.08074710939520639, 0.011496160774877976, -0.049321697386655906, 0.06289889450779824, 0.03490006705221332, 0.029654792525667148, 0.0368912200231408, 0.04396845874769169, -0.05398048766854988, 0.020354768406777583, 0.10282532119928135, 0.036713386314000555, 0.05367672915355393, 0.08270330948919763, -0.06970226407710006, -0.10542793552269966, 0.039820151129454605, -0.048730404798867664, 0.028111576386055576, 0.001149512024914551, -0.0626213392553131, -0.06538714038930585, 0.056129554502115764, 0.0293878619906028, -0.01571301981241446, -0.04192157298229553, 0.04496623778141808, -0.034280419205880035, -0.016758642313160262, -0.05148342644033041, -0.040718832474097556, 0.0050554600849327305, -0.00557278961363725, 0.0868527214609319, -0.08914535773048847, 0.060682925107743306, 0.0005333612357087115, 0.026835103753142162, 0.003921192578323025, 0.045032784172112296, -0.015116682893263235, 0.007830992813664993, 0.035282952323345516, -0.09088173921698911, -0.03520412843604312, 0.03372822744219088, -0.03232110789476267, 0.06060464917293584, 0.015053827675433975, 0.0475209815340869, 0.0003622363125734112, -0.06540922497205205, -0.0018043640053130602, 0.06790854849552524, -0.05557296440497405, 0.0816353788955738, 0.023929320920922995, -0.0786092359593512, -0.0047890506753341475, 0.059916980434887336, -0.03250561264604982, 0.056876434603919, 0.01307598895708512, -0.021781105065610682, -0.10810904935585246, -0.00039903679335151287, 0.06040414584053421, 0.02405727636295276, -0.03403111421211259, 0.014318085622674614, 0.001927474743646975, -0.05844616812404403, 0.01719742977274822, -0.08552004248159109, -0.014293600554241967, 0.034578540884023734, 0.012348621695475345, 0.026530557863823405, -0.050400397480889966, -0.01978642133581762, 0.04313102677829088, -0.04088506453287539, -0.014342656510537509, -0.025741757879461504, -0.07235494986514009, -0.05537605277875686, -0.043657597382529424, -0.027019573503200372, 0.05154454086516617, 0.0022897589941703756, -0.011405130035493736, 0.006717694871979146, -0.018169299527646083, -0.0066228874653234595, 0.019288004380943257, 0.04478782403176851, -0.015574091700791055, -0.0598770668429291, -0.024358530610220395, -0.0022322258517735866, 0.0013760005171111795, -0.023408434903336328, 0.06250972439086287, 0.021294440534837922, -0.06536897636824916, -0.021698982031407847, 0.06134987022210641, -0.05807826533821823, -0.002302841281718557, 0.06707515857017307, -0.0022635499906794804, 0.014675589438907555, -0.03765783852627471, 0.021609953318690187, -0.004109511218720677, -0.01684432783668365, 0.012814429053822456, 0.08489461411489992, -0.04323047951894813, -0.04160172163803247, -0.05111996494861571, 0.04476644696939457, -0.05480870574393926, 0.08139692128954551, -0.008102532790077294, 0.0034811558042797085, -0.006598258370621956, 0.030347928813862616, -0.01806362698167544, -0.11892225760688321, 0.023371082810569637, 0.004978116220060876, 0.07877058498995061, 0.053599087224886, -0.07950775303442625, 0.023425067810080233, 0.03602903687785956, -0.07806312820047956, -0.02246882785908658, -0.12210070961470788, 0.04953953307665237, -0.09948474590382371, 0.10972888748073206, 0.003100908656642664, 0.02660395802865613, -0.030328903477281552, 0.004641948325114684, 0.024012500260119096, 0.01855252339889975, -0.0661140337411437, 0.08075528844532123, 0.013620795782672664, -0.07398221061463751, 0.027803344439812683, 0.0948818974655029, -0.05177742520671678, -0.022341142791990835, 0.00537427845648627, 0.04667678261612948, -0.01600833450329896, -0.1059340257221988, -0.009164560945355407, -0.0023361184435653705, -0.05782048395466926, -0.060876808609909044, -0.026240791012993647, 0.035065380222091234, 0.012349233046614672, 0.013107335426489944, 0.03884521072339404, -0.034678131073505244, -0.028998010346608108, -0.024822393083190973, 0.002719745913398568, -0.05694642436079028, -0.007971530399209201, 0.009062449512847895, 0.030800743358168216, -0.03362836671494393, 0.028691480516102284, -0.06195897121937744, 0.028700183482149352, 0.07249706630049371, 0.030111973973303584, 0.07455834924156057, -0.10597321349426406, 0.06300196706288749, 0.04439346561985142, -0.04934552698530306, 0.00884675558982294, 0.031116667997979495, -0.0495899340298216, -0.038298275810816684, -0.025188156215170926, -0.056878908078693606, 0.01625641626306415, -0.033259827399049806, 0.009516477647153004, -0.005379027020006981, 0.10267271322805786, 0.08801713995872942, -0.005809015277468004, -0.03613507284689823, -0.045916427423270095, -0.08167677985631587, 0.04297726211583888, 0.08112638348368299, 0.018125109359764233, -0.021463171393404267, 0.05519727598173089, -0.019203896396260696, -0.0197205580945085, -0.05299167843138269, -0.0037613213856140335, -0.013849298191272438, -0.05857488722840291, 0.008835830521653678, -0.03674361761124769, -0.0478445843403209, -0.0016633030976357778, 0.006821992253498901, -0.010394672577247608, -0.057181754497327354, 0.014305828272791778, -0.03309541371922363, -0.009175808951725106, -0.049947153095585166, 0.05121130005234564, -0.05885882577737177, 0.030406793552543384, 0.015116666008509475, -0.10451368560086248, 0.011587096068799043, -0.01640802234541456, -0.04601819457469412, -0.014651957043386284, 0.0020716496257439927, 0.00951295867740946, -0.061577963148736446, 0.006378320247971038, -0.011490716398088867, 0.03936800843034122, 0.06397424414807963, -0.013669045166294237, -0.011469015692360803, 0.07695195020596038, 0.03513056951065235, 0.03830863828099941, 0.021551374940677295, -0.07566202011373642, -0.04269673935876135, 0.029694361403958546, -0.03611193924859132, 0.03746699750023186, 0.11120196837642499, -0.038859867779086635, -0.03592796656610333, 0.12078688216944404, 0.03314147883048361, 0.09949068244664197, 0.08638591862177437, -0.021984562121966353, -0.0385965837944807, 0.06254657741190675, -0.0018734845241425797, 0.01605401499382877, -0.019114410644408626, -0.06406203317134482, -0.020145218180272383, -0.03928689673236773, 0.03611455861819013, 0.06918402350524609, -0.04475161920864804, -0.007553991495700429, 0.010194358160374162, -0.022792795142796876, 0.07755369303726035, -0.039380613769664896, -0.013719347900534142, 0.0436764117498034, 0.059771243025108396, 0.07711827392754396, 0.09514473495318927, 0.022117136252689157, -0.00034104562831346446, -0.01623556136785286, -0.04412291376558451, -0.07191990103564859, -0.06251884057120732, 0.0066747798134623604, -0.00770000291568669, 0.033850521151153126, 0.05793154801850874, -0.07959387329767363, -0.034556294569086196, -0.023973503500366554, -0.04249227228878451, 0.03074665581592424, 0.039746141752327456, -0.005176613559926996, -0.01035334744948463, 0.009146760052484543, 0.07975724463005553, 0.004793505653830027, 0.01888676255276616, 0.021231793033491486, 0.05518975856126362, -0.012124657681271472, 0.0803133304718988, -0.006676864831660351, 0.02642612762740476, -0.04544113899798263, 0.02303340963629857, -0.03340512740255393, 0.054391619204536834, -0.005612841464033811, 0.0008902326437055846, -0.005978579839991661, -0.05127502723865258, -0.056559538034315814, 0.074745232353009, -0.06535824729406456, -0.05887010955911425, -0.027456253741727856, -0.0018379600576558016, 0.030603953958337576, 0.08822893890346863, 0.0755041681712759, 0.04624192951143495, 0.06576729488521631, -0.014803498513304593, 0.020861781974082574, -0.04001885912768952, -0.004040175708078239, -0.05715738037320995, 0.005529889088503878, -0.10762205954432146, 0.013419516142310378, 0.08855638510780837, 0.05509061180586312, -0.08259907370698621, -0.02834949501930555, 0.010209055918724516, 0.020138939589514696, 0.025734009515420216, 0.0007562803547762684, 0.019147236980442347, -0.02042995304663143, -0.08496397763975745, -0.0053340376228504785, -0.058564070061822064, -0.01185027089068103, 0.009020016753168821, -0.049316146727651416, -0.04295946470928115, -0.12012893040987757, 0.00012103221663368827, -0.0782977362111432, 0.040738142162291525, -0.08987743904009182, 0.009797534261180862, -0.010156983996218142, -0.0036209832441251913, -0.08144121679364479, 0.07415612434945393, -0.027401025708419634, 0.016181970790717606, 0.016947324810095962, 0.001629884250095685, 0.1259242763453765, -0.0026242121576325506, 0.06323114590353726, 0.012860115328372217, 0.04268472173267767, -0.038266313408590664, 0.09228133736024356, 0.04528650697543955, 0.07359793978406604, -0.09993144630644084, 0.01644909331821164, 0.033090262983149106, -6.830475217329379e-05, -0.07384387733687624, 0.0013937295822261176, -0.10800389231683563, -0.04104541526494047, 0.09545511221429144, 0.024200966720996996, 0.0288838214425338, -0.04506698519126505, 0.06977002845816307, 0.022392485321466454, 0.024026217228957487, -0.016864690147974228, -0.01891543602642516, 0.049362492971542875, 0.014799272639987, -0.03108844194947121, -0.014581226549312334, -0.005764218717385188, 0.04352845154419966, -0.04666987979167944, -0.049223261347474415, 0.10944161926359329, -0.11293435373025026, 0.07471024333129031, -0.0008345205438921381, 0.0027763786021682154, 0.009210512863605767, -0.08136606119706134, 0.07844479994453234, 0.045364806749194984, -0.003977060964722393, 0.00919215374699245, 0.048984138232418734, 0.006606958396849488, -0.010820118367962376, -0.030539641299644545, -0.03980362815295282, 0.025283790030312985, -0.049531520783230365, -0.034110664133122685, 0.010819205631657582, 0.048852857166660595, 0.05672618744785321, 0.01574014715763203, -0.0051993872247006, -0.08812633547669564, 0.011554440555866883, -0.043467917112056886, -0.07557786642272993, -0.07503892018254082, 0.0896109900122956, 0.02046655318961807, -0.018686819539117796, 0.0027213480207624596, -0.043812207627494444, -0.025806597882792617, -0.03780555449165905, 0.02576440724306971, 0.03653133741998924, 0.050828156078355856, 0.027568194838804093, 0.025199868656603387, -0.07742807635534597, -0.02485513064614064, -0.09377796226501235, 0.003173642910453209, 0.0022969612602443887, -0.03591169292773866, 0.004211761069293047, 0.09972478149785755, 0.017317924890028518, 0.0013077095575184466, -0.07003614408022349, -0.026239950603120735, -0.06584059688086756, -0.009949946385995905, 0.04594044450796166, -0.039194761248609614, 0.03737302897521879, -0.02644503405879789, -0.05180915631055356, 0.059019920004152356, 0.0072648140972102265, -0.008956193003530831, 0.06681511772699052, -0.027329201671380185, 0.044410943894645595, 0.06583576076400806, -0.014232447296291332, -0.07930902095342088, -0.035382992535371194, -0.01956131709353814, 0.0008286337550094608, -0.00997779627253354, -0.031704302491111974, 0.015265533315938256, -0.05506429744053463, 0.02559882984315947, 0.0004647400703392134, 0.034194241797391896, 0.04120967047306762, -0.00484092907981588, 0.01154000085497248, -0.12402916161064027, -0.021643451367370548, -0.06866810917250296, -0.08121795015349452, -0.023751534975218317, -0.11226526628635643, -0.026743730910916322, 0.00952360829064717, 0.013210483208048743, 0.03946221196473523, 0.008289227749178892, -0.11835026598109541, -0.009657689457201937, -0.04798778979821592, -0.059165989489097875, 0.017822901917327022, 0.00043525469803125724, 0.023914711917797038, 0.05685270851181004, -0.03428410173704579, -0.04408286825440948, -0.09190685186681423, -0.02343739069353173, 0.019600675775519116, -0.06506149227392258, -0.024412837255896394, 0.0023523182584771997, 0.03595532589584491, 0.017416760757467856, -0.06922127488828876, 0.0008299384485566494, 0.019136942629752848, -0.016924397066585967, 0.06485930044374018, 0.06546758121784395, 0.005979748465568645, 0.040015956420367815, -0.004829236835051227, -0.03136704128095112, -0.059031390085918206, -0.06266127352797023, -0.0011102078302799086, 0.06258146359472, -0.04879713114935038, 0.029279698119552902, 0.06686124066636297, 0.00806768649355193, -0.015384087057361617, 0.019516797027620752, 0.026963544185638236, 0.02781156836355254, -0.01836584977535153, -0.01644697903887946, -0.022295221165560583, -0.0010565465061054494, -0.04403542773773092, -0.06896689017082253, 0.026746640889641824, 0.04789212201152846, 0.0005964336914341906, -0.03153765167183095, -0.004937263344925851, 0.01773099444139412, 0.1113884160026169, -0.03728215729150867, -0.047798740842534125, -0.01635520288972437, -0.030736779511444965, 0.010590398891455704, 0.027422047135376288, 0.020058876036755716, -0.02328724842886, 0.017702376210698454, 0.048100210775966525, 0.051703222451816334, -0.038017783343409474, -0.08327572876691595, -0.020700941222347675, 0.030624275792354723, 0.07099239920876944, -0.04894074794028048, 0.014633802006602073, 0.06621882486850462, 0.06355088986944257, -0.07459191854337166, -0.029675389714526962, 0.02342264273579893, -0.11199735900961157, -0.05642199258898786, -0.007885862830762478, -0.0419973338852123, -0.03424630425926527, -0.07141226519478602, -0.04182494415146439, -0.033145295325160334, 0.020294959044418612, -0.057742061908367996, 0.04893876364523435, 0.08728006869137162, -0.02580034248271797, -0.04815609589970512, -0.019062495317344448, 0.09353016379638397, -0.02704431118060231, 0.002267971753878189, 0.02551696227171584, -0.007134636308855463, -0.014856121449646775, 0.03787663770102272, -0.0016941225192026689, -0.01901346360180991, 0.0038967229160050097, 0.043443659970052166, 0.02178343382539198, -0.0725079775983764, -0.044983456074994, -0.03260174855047754, 0.029255250616531624, -0.008690480745685226, -0.020259433857277083, 0.01091370429722248, 0.009992265201023766, 0.058522245588953435, -0.03803327272250228, 0.07514568740756641, 0.029156345444355372, 0.01426515289014484, -0.017925416009204134, -0.06276293469303551, -0.042578609568328075, 0.019113334809273123, 0.05458317838633103, 0.02746330443680551, 0.015971293054254824, -0.08840846890162152, 0.0018093967241857253, -0.06703311520926011, -0.03479363736285551, 0.10729077310140318, 0.020679380694530902, -0.0504398313525629, 0.00442763308686556, 0.047187294487222725, 0.06072301658357671, -0.016638355955665346, -0.07381700629220446, 0.021265253488077496, -0.06230759725236124, 0.021602734483757456, -0.01668173247982865, 0.047992108319465404, -0.037365572837483846, 0.030091538348894737, 0.010586654941644645, -0.05812151823120019, 0.03262655425418745, 0.05418321790483537, -0.06997439153167363, 0.0002437658560024337, -0.06134273807571772, 0.10416127812746782, -0.0027189439326057584, -0.03830033171825734, -0.027098176514812097, -0.017860638355778436, -0.0814182528141442, -0.03677756185950308, 0.04368129424390604, -0.0189209716577486, -0.014401472546256192, 0.02599853558961358, 0.06399457534719218, 0.012891538534675243, 0.028475923275983042, -0.08903113847690561, -0.027381941386831626, 0.01998871806827674, -0.03166880101266858, -0.051797565432597635, 0.050012262205441214, 0.011326934049973746, 0.025403054778954014, 0.04946795897340856, 0.06471194952595853, -0.09917755903957877, -0.03241129971569802, -0.06573137402592387], [-0.05752867670828008, 0.05920928679451674, -0.01815555691131838, 0.019556171615554965, 0.07810352911620276, 0.009603161257773473, -0.08380981382928779, 0.02500765244159563, -0.05303132328646645, -0.034134288591993876, 0.08194217414456505, -0.04056051783477613, -0.0987321944212623, -0.12534516024600897, -0.04011798878600837, -0.06236261631536362, -0.020378155093309765, 0.057905327530138946, -0.06798858959912593, -0.024551905213775312, -0.013082621320075432, 0.014274047040737568, 0.011583651651599131, 0.056719528952369654, 0.009481918476368456, -0.10207073318872106, -0.06289175763691553, 0.025733163251762444, 0.07100667798492792, -0.049733285578018906, 0.03616392102430356, -0.027649442231638142, 0.046768532660542775, -0.04023931468973678, -0.08919089836918963, 0.04120893107168292, 0.06856763444256597, -0.02695383571463944, 0.00443067745347149, -0.10245779661817628, -0.027638588544558265, -0.0216750722802026, -0.010228415667771738, 0.0772343995291499, 0.05727341553660234, 0.08299994821739876, 0.006927686873088126, 0.03317633307184671, 0.06767094708547165, -0.01718948329002119, -0.09019049621810545, -0.07229900280287199, -0.002688527602264558, -0.031811450645700616, -0.005367504746831048, -0.0897251711980678, -0.04833436713142996, 0.0009335481466125518, 0.06856919110936108, -0.04543040059176788, 0.03020301971898493, -0.0076311643877629304, 0.0637339840717561, -0.052137027404029083, 0.08494495741218622, -0.07179609273254361, 0.04875491025373781, -0.02644183092416817, -0.03250282814120325, 0.05620731994100272, -0.014836308633364544, -0.05825994693671083, 0.028665720307947506, -0.036797124858276284, 0.05278610309838261, 0.031356351297113484, -0.031431924586141205, 0.04830674853501987, -0.01680607193180615, -0.03884971245094284, 0.025936488171072587, -0.05781235530316574, -0.07966869633670395, -0.04872416871168901, -0.004356836852087417, -0.019657289836872104, 0.01602804444510034, 0.05325252158472876, -0.008304185537674907, 0.01207772207196792, -0.025951387520339087, -0.08058258733856793, -0.056547177749330824, -0.07966938733943067, 0.017753048208475522, 0.053917982468860974, -0.08641241234209592, -0.056006041092665944, -0.04245536945297513, -0.022694573098175005, -0.0016679015594460605, -0.03096072208026525, -0.09011725592625773, 0.026159320095771994, 0.04994908880311089, -0.009790231408793693, -0.020779966279314097, -0.0219020291047041, 0.027390097989845937, 0.02631535190632948, 0.029351848590338108, -0.024485867523935508, -0.005801864658944452, 0.02269097565205069, 0.08947994781818851, 0.008436576394979522, -0.01815123719979001, 0.0026093727958543035, -0.03359226359394563, 0.023621318122500064, 0.024056986005049658, -0.04157834161364092, 0.07137695063202035, -0.0006309056302718479, 0.10872538363771932, 0.01478766243898888, -0.008828777369120026, 0.051031965595590104, -0.006421520434445775, -0.03680601342983332, -0.02370391593246598, 0.03617667260492687, 0.0566795729202656, -0.016671572757643388, -0.08910840050059117, 0.034664851595666256, 0.05590106757860798, -0.10782666278717652, 0.06164573665619248, 0.023311969492317994, -0.010504927946496578, -0.08283672429921199, -0.037178518684476365, -0.012480335541193632, -0.02016772036068865, 0.11359877984110381, -0.11171907667599029, 0.06817875199050902, -0.1076373622763275, -0.03202010947184629, -0.0009258943499576255, -0.05035338411766666, 0.010947944585927105, 0.04062370667423337, 0.050949655310665524, 0.03500464376525558, 0.0389316671745032, 0.06235502800598409, 0.056405110928265244, -0.04013300210446779, -0.07547202803219105, -0.0227313182841657, -0.03529980432704088, 0.04887530645219079, 0.01041873254499897, 0.0764225287014273, -0.07131594457778533, -0.014132471032309808, -0.002884713631678058, -0.021117239255014495, -0.03803919517887155, 0.004265468221299877, -0.0061880362476570755, 0.025242741011914076, -0.02618059417888701, 0.002924313228781677, -0.023007897726708353, -0.03559637878645539, 0.12341520668619559, 0.0065306700118198165, -0.01057201739891215, 0.01754234597949237, -0.03175633410769729, 0.03457017295141808, -0.07759106714688162, 0.017440316975117613, -0.030928330987642416, -0.07203917066102551, -0.016795231388876068, 0.0008133626746545371, 0.056871095722978084, 0.02254400157340477, -0.06626454226274184, 0.0407304603840731, -0.014683941851054233, 0.029367718388840405, 0.02124748581107916, 0.018940078520759962, -0.10225167200226924, 0.06546859174171477, -0.050796643025338845, -0.012350446379539373, 0.07152293196772284, 0.11344912233157756, 0.06089852654181732, 0.028461380031923687, 0.016255457377352067, -0.0619929195548963, 0.023825758293244337, 0.009686532568311132, 0.01736418983919178, -0.0226884441353772, 0.04308028050871315, -0.026235560141077613, 0.01915752529593309, -0.03671556743086669, -0.021116002313921415, 0.023248150028643656, -0.04328056419016384, 0.02569963228195155, 0.03276072340972615, -0.08352836877306936, 0.006592471544466037, -0.07026558214124122, 0.029131207303304946, -0.01363837617717159, 0.012416635983820716, -0.002695977318098468, 0.025491818530900184, 0.08967197011995266, 0.01595427110518357, -0.07662258611964015, 0.05561604494017586, -0.024141588309875454, -0.030464966290511472, 0.06667326619551066, 0.024402825829270974, 0.010443966269434604, -0.05644962841391283, 0.002069258316549458, -0.018806231562143828, -0.019637068607988428, -0.03292868876178556, -0.007239686597976472, 0.02616158104562035, -0.06791300878400484, 0.09364873488397053, -0.051899405993596666, -0.027453029708769, -0.003737394148981548, 0.11115168469360615, -0.07843144157275138, 0.006980133711071862, -0.11001148665852233, 0.0837129860242568, 0.06469922223241986, -0.0602388512945454, 0.0073885615131968055, -0.049673851823111445, -0.024238799540902453, -0.0009898997289732704, -0.004538098345484988, -0.050539748360972046, -0.07703069679757667, 0.01216375092901491, -0.11599535486205094, -0.060555214660711544, 0.03224623011387066, -0.060518358378525955, -0.02949296701071832, 0.05436830224337005, -0.055202598818099156, 0.01739595337365593, -0.017017791596139295, -0.022757443945388686, -0.1051326986425768, 0.06678090045629542, -0.03597149681133152, -0.02680349860399722, 0.02446499985273073, -0.08749083096321415, -0.07378095519290015, -0.008952250819156233, 0.04312940438916953, -0.07523127833968629, 0.06573854100914407, -0.05622254343629366, -0.04182707854755546, 0.05136744992467437, 0.09053667482047889, -0.07152081791057469, -0.04693032973041702, -0.0453162002912529, -0.03271534192977452, -0.003909706075936287, 0.07358973181583682, 0.03907623124635552, -0.01529097682704406, 0.028139889964893732, -0.06564821184405074, 0.035293815560783114, 0.04418417389626638, -0.013423010000911631, -0.029103132101049752, 0.028159495143738385, -0.005054992054332395, 0.0037139511203391393, 0.055046745845029846, -0.044861487477498456, 0.02302479848256276, 0.03744789201356266, -0.03786549819344416, -0.06848217519994201, -0.02894092851773494, 0.0993277706382761, 0.0695457710042112, -0.002696416443029681, -0.08451730703677729, 0.0015457692618988895, -0.08614984320843155, 0.008011617359650721, 0.02366475333472559, -0.01637995948657638, 0.003686141459532426, 0.06103750871055927, 0.00625475657965804, 0.0278563221893698, -0.01849371053900411, -0.03399700783743456, -0.14630262115685233, -0.010168098548647508, 0.0484622716309306, 0.08444555445354816, -0.00040609793279315675, 0.06139401402683058, 0.04920711820359743, 0.04012392875451684, 0.029278438989677785, 0.0715821756631294, -0.046508700723449245, 0.017845967977358088, 0.01724458275698877, -0.09778944294542999, -0.03477288817564043, 0.044146068903648424, -0.06467214224698224, 0.05317314494384053, -0.07064810219451484, 0.0010656943867487258, 0.08741210702725648, -0.025037699980149795, -0.04187458571147461, 0.058658000819048525, 0.053956584941601174, -0.004528742743903268, 0.06571006697937387, 0.03258964663654481, 0.01748682409499772, -0.010377987829175612, 0.027159642631560076, -0.006371712824426684, -0.030112971519036427, 0.0349115182601497, -0.006315426702020034, 0.01443448035837634, 0.030941382532854497, 0.02901414359072182, 0.019260969326872032, -0.11419718820007942, 0.05081254125548834, -0.042680926907617676, 0.09271193912726149, 0.020982770265019265, -0.04153430581373121, -0.025341665577093487, -0.0005307126651464885, 0.01856089723110594, -0.05031630548112653, 0.07892653153181767, -0.0745988657650873, -0.0201782022084656, 0.022822157930781465, -0.06659618289291704, 0.005883687032658905, -0.0022314170282653895, -0.020042955335602335, -0.003624462506307016, -0.04048844685796579, 0.011890429133568997, -0.009980968482384642, -0.012406357439367265, 0.005522654066922883, -0.03422801860509459, -0.009086809749151131, -0.009816271341522164, -0.016344021676648595, -0.08646292378437719, 0.014676331317885458, -0.007149710723054306, 0.027406404097134525, -0.039198726003401047, -0.012628018739099548, 0.012889804968785898, 0.028283036342796518, -0.013767366095620804, 0.031240052226540017, -0.04733320422094139, 0.028418223393145998, -0.022672780610988114, -0.06462883649356077, -0.04292110774633117, 0.024767565696358747, -0.05732658449538463, 0.00414944100272694, 0.03774406396078786, -0.026660550448181605, -0.05672236897513794, 0.06355819594298025, 0.03576073685190658, -0.0020052945530191738, -0.06140015354434771, 0.06165062756693695, 0.001184208153939154, -0.012657494039664416, 0.06108081728839456, -0.039533642188962895, -0.06256847848679624, 0.0563148477648865, -0.09814210976915133, -0.07557149730964136, 0.05477398913382154, -0.05825419411983984, 0.06313879716012452, -0.049027767986271474, 0.0014428326599988674, 0.07039117369302178, 0.008839047457648836, -0.06193664674358317, 0.007314164292353465, 0.08594955178478011, -0.0031544512615286095, 0.03032727112087604, -0.017248591276364803, -0.025758958227075864, -0.02223081808706971, 0.015647064395136627, -0.04152033234037802, 0.06082365405572233, 0.08792651106336485, 0.09228325728483536, 0.06445902281983751, -0.016390972114116, 0.05384525577492248, -0.041109269746446075, -0.07051778696477633, -0.07069765190092069, -0.08001693212767397, -0.0819628260079962, 0.026211050982909562, 0.03606109327327045, 0.04119004945940195, 0.07244482855502565, 0.016574520243687038, 0.015020890273992997, 0.06405275444707635, -0.02908695312446163, -0.005429602421104309, 0.011228375446359361, 0.05087365092946655, -0.09134755184511857, -0.10168014321035407, -0.016028194153557152, 0.12038669858472312, -0.03544744237373681, -0.056088745176344934, -0.10952324651977507, 0.04473574910358263, 0.0478584330024193, 0.019404722148021237, 0.06323591090420236, -0.025448488490727377, 0.03617733665192086, 0.0767131379491338, -0.002527844773323885, 0.05314600137969847, 0.020567589680833834, -0.01910712219659193, 0.009746996563106226, 0.025261005706702613, 0.06795419568204981, -0.004177429545892718, -0.009801252354260085, 0.04588102694394496, 0.023014387007364735, -0.011906280411790508, 0.07472308997895269, -0.047345296414908186, 0.08993629140823112, 0.002209898240328608, 0.06920367065167794, 0.07474237412292213, -0.057026134933594486, 0.07129078342335497, -0.06831207124334596, 0.05911697469236352, -0.02550903786537633, -0.008974505738482352, -0.023056173533407692, 0.0447569702099625, -0.003854339933551908, 0.10018218306283398, -0.011916556217078256, 0.008610833594134653, -0.025126568495084208, -0.08528103944171361, 0.08331589357360371, 0.04595989318047636, 0.0033673194976147286, 0.0216852333298353, -0.05620390749692807, -0.03332890011441187, -0.00927324465199314, 0.04653984913611154, -0.023246476970239873, -0.014248928869441091, -0.0035758694138838536, 0.05699813086393744, -0.004712812117673717, 0.03696858560449854, -0.010054473827603065, 0.031918192394003106, -0.023279519398608985, -0.02722215393928414, -0.02458374440037098, -0.03744715217595231, 0.11235901916049874, 0.05694589726583676, 0.00333360666398335, -0.00944251515649643, 0.019504144953186604, -0.0157723106261284, 0.10644204064228477, -0.021881182946409793, -0.0063728165020549826, -0.02465340134536242, 0.06389216753694077, 0.054573794702180614, -0.030870871608247297, 0.030691926021820956, -0.0785541419214276, -0.03805084206860622, -0.027261313193536994, -0.03710180094405939, 0.018240479801199142, -0.05987604187973122, 0.019868738848117178, -0.008270030168067499, 0.07707575049164052, -0.014697147489532129, -0.004346445177946335, -0.024333801732864282, -0.034459393884688896, 0.11940056133765109, 0.026399293946066105, 0.004822182135845702, -0.005626268292735619, 0.020481142296416427, -0.02934665178281088, 0.028561536382467934, -0.04656107267341197, 0.008638242656873537, -0.01351839272953481, 0.004594767767625448, 0.03578462696607379, 0.04758798107043557, 0.033090966244225695, 0.06611375815925243, 0.0038651087794560096, -0.003467612193832158, -0.04078880371503815, -0.002548841071895642, -0.01690794894404844, 0.0044032199900045765, 0.02251865164718808, 0.012526006827038805, -0.01746554764853181, 0.03370907664023897, 0.011691967991499679, -0.06673248032285461, -0.038378176821396166, -0.024439219923192233, 0.011237182481146631, -0.017211500835556018, -0.041319532009661444, -0.08117657298350545, 0.043811987467192476, 0.03356600073840299, -0.032346262274043754, -0.03591029130470637, 0.043552426753046165, -0.08376295750274, 0.00875423263310182, -0.02254342805726233, 0.13131954490688566, 0.09971701604758115, 0.022734211200428706, -0.017345154533316715, 0.013544859298026365, -0.0026605489149593574, 0.005013015903405576, -0.009506157401440623, 0.07578188092168614, 0.023329119046992128, 0.10164921207723569, -0.044671249307211884, -0.04593822382071033, 0.020707793735083753, 0.027935856374560326, -0.05650611539863454, -0.029864866646494417, 0.014723008611206834, -0.06294097878138565, 0.0053617780653215175, -0.07714486738116326, -0.07426044616328092, 0.07108526203244313, -0.002241886146088135, -0.009441900259955284, 0.01588559276374873, 0.04746174394997009, 0.018232759810141264, 0.07504470917305422, 0.0393743305397969, -0.04985547509909005, -0.03235510793171376, 0.011979494520043661, 0.03355946841873237, -0.01172998855114643, -0.030870468107632196, -0.09125365110030123, -0.018830616857832737, -0.07004927446710471, 0.07202998554124398, -0.017494601268159358, 0.049698471462936475, 0.0794578634572817, -0.007879711549806894, -0.040705918278213724, 0.0489265799915735, -0.0013625715875377753, 0.008192435265839371, 0.07924727926383769, 0.06374641879028277, 0.10051827092212974, -0.07229362513130012, -0.0460440862740499, 0.06844583418418376, 0.013687177274280309, -0.039308841774200166, 0.06531129136453181, -0.025613434191382917, -0.015781982860207596, 0.017549839539676714, -0.03467425001321988, -0.08172262251576036, -0.011742033437898508, 0.04799038637152137, -0.0009215127288762674, -0.03371961868078372, -0.050584357235094475, -0.06831025774114927, -0.0025576030174591495, 0.13694206046273721, -0.03523032492239828, 0.011906811179026155, -0.08896580817476751, -0.03260697592358083, -0.014779569130783127, -0.14436937431974678, 0.09881440850591258, -0.09804913922666954, -0.0722235319872777, 0.056359244328578695, -0.1191866848792564, 0.03310791685045807, 0.056001158116468074, -0.006127374999650891, -0.09375863105158948, -0.07189500179345959, 0.016754367907357688, 0.01892767335424339, 0.023730064260031245, -0.08509098953798785, 0.00316029162305384, -0.020418886575302542, -0.00843084547014053, 0.014530780820553249, -0.019875960039259594, -0.04084983087411869, -0.05560752051548145, 0.04075501382454288, -0.06399860156147755, -0.05450896649135704, 0.009462722952267692, 0.035798373386086976, -0.10467564660680444, -0.023035473709069425, 0.07639923678677915, 0.038170294234529015, 0.013352761771517108, -0.04124366998647864, 0.040690407490803646, 0.07272318829900004, 0.013321152373286356, -0.03382454968022446, -0.05636718330133011, -0.056387730366038516, 0.013243365415538616, -0.01274271614844283, 0.07944258658508072, -0.08738147605917798, -0.01586122126244275, 0.017200102437310825, -0.0007040816322495619, 0.05200409059199176, 0.013955746691680492, -0.05067904475087132, -0.04321024518788358, -0.014871708553077869, -0.032958105870402155, -0.028327927903734184, 0.04524724192050383, -0.09478657604810313, -0.027287662640538383, -0.011031198891037914, -0.0037673735533238547, -0.004461170907272013, 0.016234030394786627, -0.025511942164697415, -0.0028764991655042087, -0.04264168175795067, 0.054097433394949046, -0.05057397427615, -0.020976421892224196, 0.00975196694440507, 0.02100120907625093, -0.034436119447575984, 0.08115078982780967, -0.06769551518783419, 0.06338244992482786, 0.02291399149207331, -0.038018789949589786, 0.043964166403907864, -0.03332724257395495, 0.05167835245924508, -0.041562427866768545, 0.013412899416779863, 0.028703469145069493, -0.05912991745444302, 0.041276206314204374, -0.08008102753594898, -0.06994690753157527, -0.055200898618340793, -0.006711448348416259, -0.014412246296202724, -0.03202839796238558, 0.029877627939176338, 0.02732298487056655, 0.015338222899838754, -0.0031375148941452996, -0.013160604016337495, 0.019112248345817682, -0.0016626717386680513, 0.09720761645920557, -0.0799751801152486, 0.03301191190324041, 0.029833908715792803, -0.012544933349942895, 0.04713258005884675, -0.03742958250356761, -0.017363799132544898, -0.053840736989379474, 0.019632029471823114, 0.03823525216660941], [-0.08890497172708858, 0.03829645551905357, 0.018903427285246292, -0.07973683791896687, 0.004967162605536883, 0.07830280434087433, 0.034952471837478453, 0.036048032845952774, 0.057817309731149354, -0.05321318103004673, 0.025792166702490623, 0.06606505403971616, 0.041041640535447066, -0.0321422791331009, 0.05077101477225542, -0.0075143664855669085, -0.06300080745912959, 0.0642204431247444, -0.05003223706102798, -0.02099893439269122, 0.05474716431744143, 0.047698586627154406, 0.034328584350576674, -0.03609332920194307, 0.03586465873850203, 0.001588545274945745, -0.0031310845673864, -0.04367313045492143, 0.10983622734802048, 0.016096908564484525, 0.04014583287705934, -0.05382970969748057, 0.044060691634353534, 0.08260991606970448, -0.04323845105573319, -0.02523162975935968, 0.007142342858351244, -0.06792407820058916, 0.02467858170478212, 0.051555554768179204, 0.02940604495018713, -0.05424953018485988, -0.02114055486734592, 0.020368055227861413, -0.0723792878329763, 0.07124972893865253, 0.0570685473830675, 0.030901209255492144, -0.015292814190230052, 0.03488334796752012, -0.03741943424274127, 0.06591655927082338, -0.015840796766971626, 0.01300746183491632, 0.03985389459315695, 0.061125949269613414, -0.10045915832843257, 0.005966785733493062, 0.050681971105144726, -0.02185410550368421, 0.04575996784249288, -0.010681093760292448, -0.04153432274261494, 0.06490382278641199, -0.058132246991230235, 0.11266176889320971, -0.06515595857911906, 0.0021236018248806257, 0.01291324822699551, 0.027217521239093323, 0.02531370158451653, 0.02561459758665145, -0.127419509391017, -0.02047010532396617, 0.03791785704796622, 0.03590963846991618, 0.022997509581539184, 0.009702634134206252, -0.08022620653361764, -0.03293581798591252, 0.010066409354102664, 0.03085472837133859, -0.0005039404130802452, 0.021093053191697107, -0.03488984489371235, 0.013389747306423404, 0.02671391564721414, 0.012473221009427923, 0.0209794136283782, 0.004753733857485082, 0.05085856651801747, -0.044447083475681666, 0.007000008361010974, -0.05802146667187846, 0.021144700662413394, -0.006016475192306624, -0.018187427195470368, 0.03519892477463945, -0.032227934577201196, 0.042138503855917935, 0.04001530353531666, 0.07795310101451035, 0.011396603830500257, -0.016058989223537184, -0.006454184544243523, 0.006366563400474132, 0.006602904403749217, -0.05410154989866989, -0.029685779389855806, -0.08347680566240952, 0.0031227296351971573, 0.01242100801455204, -0.008249154070750664, 0.031230238797161837, -0.09090297878836093, -0.02530846872892764, -0.12038428471221074, 0.05737182141519569, 0.057922926196935676, 0.13711933993563047, 0.012687837632836294, 0.09985109148230499, 0.0016347455790595147, 0.03266988455783623, 0.026741439823997085, 0.02234665084001791, 0.06667256323225548, 0.01908441377828977, -0.03298580786205317, -0.030684859386124298, -0.07192378184794446, 0.04841035454244884, 0.0394030819385823, -0.007645218698442307, 0.07804779287322823, 0.004494198554560075, 0.054466535438003054, 0.03731587891297564, -0.03765798056174778, 0.04346302246395809, 0.0331621111380496, -0.0748931830994262, -0.0135592409191277, 0.03243092928450701, -0.06081704248701338, 0.019617183184857515, -0.09276545540787369, -0.020140904525482728, 0.08569256388859288, -0.04455244381402681, -0.004378670983561827, 0.053121293581000595, 0.026183482787201548, 0.0035931049594855958, 0.07726659282732615, 0.08487601876257973, -0.0875220137150831, 0.02018970653340481, -0.03758960601853294, 0.02893497496629096, -0.04231745762094195, -0.01475957680679958, -0.0511274818177431, -0.10314885922927619, -0.02401736677596271, -0.052710547683671435, 0.046410638950332345, 0.14953077985178762, -0.10769368743229778, -0.050210262902868494, -0.029744244370946735, 0.016913395574813413, 0.054132173046681116, 0.006438004101602006, 0.0039128088504329205, -0.009998411552836796, 0.0036479621505517215, -0.001799240712463367, -0.019691935227997268, 0.011454514110521983, 0.020742498037058372, -0.1471296942441124, 0.06524429470036029, 0.08316515636992311, 0.04169369099470142, 0.06434788485662596, -0.046434887836311375, -0.052224127572496525, -0.04554468038024917, 0.03627675186910131, 0.07902402241639264, -0.016267633444467692, -0.018783110387480505, 0.13414200128732542, 0.017993898310991484, -0.0601771331198031, 0.032589155704032105, -0.041566186822188364, -0.052652166403091304, 0.01526371380994652, 0.04826267515885461, -0.05520184857215085, 0.0008866017834553987, -0.034250475336244326, -0.06942417107486715, -0.03488231329735948, 0.035939677920535554, -0.01995233813001108, 0.06301252009255442, -0.060403494968972904, 0.01865968888813344, 0.011368538831541014, 0.09438011669224428, 0.050759976328985594, 0.039652951331692984, -0.019458179514571756, 0.02100611917129018, -0.01010436985275995, 0.07934972161038235, -0.009069866024578368, -0.013273170553328936, -0.07927730820884969, -0.028478496997677974, 0.024000679178858765, 0.05308619726360681, -0.09343800142810149, 0.07552020465804206, 0.02220404297007168, -0.06808254033837298, -0.03438783404814715, -0.013088274818950961, 0.07015087372323515, 0.04653712038998875, 0.15308641808523712, -0.07992592976322457, -0.10375558207936801, -0.00868313415885651, -0.0623729195198444, 0.07103057127247334, 0.005654320993021303, -0.07672195470107165, 0.03743274123462189, 0.010691516310650193, -0.04989930659047395, 0.023348241815112993, -0.03871155483786048, -0.01656025467894328, 0.043235250851603825, 0.023000031455022073, -0.07730523401377205, 0.05923720659777109, -0.039303434420509625, -0.11540356238380048, -0.0939300413160536, 0.07751749540462798, -0.07367844129489524, -0.046225170071589945, -0.15402556747127036, 0.03812900148187366, -0.06232240459062742, 0.016682504236844378, 0.03623666418598022, -0.0044250725340041945, 0.06315561919505283, -0.06361659777159577, 0.02779993463112164, -0.04765720244222044, -0.015129613227804897, -0.005231103000855952, -0.10095811615348683, 0.008819876737500202, -0.007168274884096524, 0.01811894943034472, -0.09024601731032712, 0.021796276426449167, -0.011323568735181764, 0.005090276292665661, -0.02136446599805886, -0.05617369454172562, 0.016988807511666284, 0.018633707294167978, 0.005166341097709233, 0.014486590865191816, -0.006444614105450859, -0.015673915794008328, 0.008128500503550507, 0.006605861198137322, -0.0009338651225598963, 0.10969811928363438, -0.0770720691073459, -0.025630538652129487, 0.10457642946682708, 0.0055291028743554545, 0.004778924721599737, 0.04720718225355507, -0.01504595760425401, -0.030035010819568022, 0.07371080398976, 0.05329272698844985, 0.03576194937971726, 0.004497560259742457, 0.1118090817826568, 0.08424654690015336, -0.036343120492884726, -0.011608788847860312, 0.021372830616903628, -0.00455241781557425, 0.017572170614352706, 0.03212782511820847, 0.05537022581241974, 0.008616660492630912, -0.03114628538755766, 0.010267284268042383, 0.011774740175986455, -0.017868391244420478, 0.027028102905629663, 0.06412678494495334, 0.04357381704109222, -0.04510975755341855, -0.052371356961020285, 0.0381520987293724, -0.009157522690144073, 0.06701570056209635, 0.011691123054949548, 0.02063026566594524, 0.10158490443034549, 0.02191030781929831, -0.003560221067353847, 0.016602662758697227, 0.025948338205228783, 0.03598366368192219, 0.04823639115872675, 0.07758414536831083, 0.026567610087866296, 0.0198470885398016, 0.12408513257022427, 0.06414301157153474, 0.0009370224936635609, 0.030528598626608113, -0.06706652985470767, -0.012681094915790544, -0.09733815783695457, 0.0410550312852769, 0.07770308614222185, 0.006572393038621073, 0.010886474071188292, 0.00825063327298546, -0.061912554330347626, -0.0022834442460761507, 0.09445974157218039, -0.012045922676494332, 0.026982305763310045, -0.0070197446459476474, 0.1021800023896073, 0.03971575758608049, -0.008169288406837559, -0.060628844254802514, -0.062218314204684266, 0.018946592876341418, 0.018176488367599403, -0.0018826177148477505, 0.006050264108023592, 0.05745101974279333, 0.07017877857560674, 0.004462300590925646, -0.06380833636796478, -0.011414484004390275, 0.01986223437681881, -0.05646197081000954, -0.11830123521675902, -0.15170563187068922, 0.014265864632437463, 0.05031575957891392, 0.04827902255068127, -0.0029685525886669457, -0.04877787115921961, -0.10358897519150916, -0.0159086084581113, -0.06515793065083195, -0.005655109658775176, -0.01938855560642939, -0.043972801418975443, 0.0471426628410813, 0.08525376270840358, 0.06668848180823879, 0.0411201510294863, -0.12600345284700834, 0.03521312035585549, -0.00230547118906946, 0.0663563880657462, 0.0642508230950979, 0.04674964034212207, 0.014718961863457976, 0.026014293255636055, 0.04715813635261129, -0.04457975341930724, -0.006405497594366531, 0.020324671823534243, -0.02026102935458816, 0.0022433939926284623, 0.02321765580799523, -0.012017822990370254, -0.040802149652825755, -0.04902211854804555, 0.02263617099088984, -0.008329027676678138, 0.06797942640942654, -0.036660113769540606, -0.034852182415509116, -0.047299393026408336, -0.11071239392246159, -0.11504721886115185, 0.06671072226327522, 0.003979437701685078, 0.07529734072719975, -0.007919660476045254, 0.026958320348555904, 0.08384490091237443, -0.019926447161345996, -0.03405199569119382, -0.08956265970617056, -0.010694096021412755, -0.011989091433027179, 0.07012358719875272, 0.03480255205150027, 0.008086885321709817, -0.06296225319098075, -0.06391724225756155, 0.059988568320428565, 0.006326329506255903, 0.03656466731923239, -0.06583506735344838, 0.003095874124999712, -0.0340803650537755, 0.1223710291478398, -0.10424144330433385, -0.026627984434445962, -0.05634912713346393, 0.05260959097370816, -0.043106889185039236, 0.011700226692056432, -0.07354583441551638, 0.016236850333068417, 0.059501351353095214, -0.003665522076579675, -0.027886869266169234, -0.030328946533431038, -0.0010777018801543738, 0.03859148003440659, 0.04044412858559493, 0.02858348559948246, 0.04320442076241748, -0.02802236286743262, 0.0018918560057978055, 0.0087682183371575, 0.10785834770753158, -0.04525599555707205, 0.040905064740579734, -0.07476883738723224, -0.013362924467253902, 0.08663302782466496, -0.009823117063607285, -0.07768915772112613, -0.04921916102802912, -0.02111383244619218, -0.028731975811076733, -0.038364545479550136, -0.013871171231753075, -0.009498739805308656, -0.025284621517174526, 0.05240554659732428, -0.01179220235830892, -0.0125867301378645, 0.07770189801513298, 0.060622771780094786, 0.007727074572457227, 0.086088308673377, 0.04844279588575701, -0.053695906037259725, -0.07602624896533502, -0.00823695232753522, -0.040288938257015586, -0.04164539528423835, -0.071998768896581, -0.012799572847355563, 0.010151748731096071, -0.029518262580398413, 0.122480891601183, -0.04372929307066614, 0.019897431533167153, 0.027493656789129413, 0.02468483765655701, 0.057281981470759656, 0.008515123819619818, -0.09917508197701619, -0.01911173093979779, 0.016340853243943358, -0.014913775922519643, -0.10202398165372871, 0.038418416320840344, 0.07427889889918986, -0.02302649122165883, 0.020198989223124506, 0.06676518464356831, 0.0025555656735494923, -0.011466048165516985, 0.03721935573052558, -0.010333780004720574, 0.049074897196414446, 0.07975463844558722, -3.213479177063913e-05, 0.02325907507948458, 0.013699656723327265, 0.06734988054505905, -0.07636657267199637, 0.07705456619395153, 0.01705718963479293, 0.004906298656483611, -0.01570560362801138, -0.0681704376779792, 0.023909995360793784, 0.009092933860344323, 0.017106429668948122, 0.05172597311132529, -0.05466210734845556, -0.023805482617512055, -0.02002485743315815, -0.010636560963618324, 0.006260025598269846, -0.08935994915841035, 0.038081684169882404, -0.034726518249628385, 0.015491982105459072, 0.04812300907494114, -0.00021998473511909992, -0.05607760079215913, -0.06670932435621313, 0.01667954037154924, -0.03407247191181058, -0.04972841657696488, 0.013082254469983193, 0.03575418635576647, -0.03418675004729179, -0.02390753313752338, -0.03295415615780637, -0.003339768219121067, 0.021766114303041074, 0.05121622012476767, 0.014634090213963736, 0.07012573081715003, 0.07843723701317457, -0.02745363859311811, 0.02408722940776837, -0.009342267149554445, -0.05426499212292275, -0.06642419905083558, -0.03631511841397099, -0.04232213987598672, 0.0417308770026732, -0.07843183432123736, 0.024220718464321576, 0.07657072507792242, 0.07822511113392425, 0.017608836772458256, -0.02794957208041266, -0.01866865369580891, -0.012356039434799694, 0.0034797059001419966, -0.16233560856189355, -0.07174058402993214, 0.025250919057714143, -0.026440307153835305, -0.025718908589008938, -0.03774273179199728, -0.02373895398764924, -0.03562628123780849, 0.04939334699938379, -0.057669288925667944, 0.07714198796254591, -0.046191675796265264, -0.029143116518382486, 0.07201968500758006, -0.023323737956577092, -0.0338482682922786, 0.013999908812380061, 0.06710203234411977, -0.07044988068050446, -0.023709390037672962, 0.022326732692992627, 0.005022729789582133, 0.01156492242439045, 0.011078599361519672, -0.0029259342830042245, 0.05157571047409301, 0.0019554691123236643, 0.04574119340202839, 0.004555296007074546, -0.0013367357021430218, 0.05058878505088184, -0.003853366123303377, -0.013345410336073702, -0.010785943426751278, -0.007134999210093852, -0.03528483404518055, 0.018523508179616524, -0.04351902313576878, -0.025067012610012714, 0.07888606768629804, -0.08217411742628973, 0.016416868474227124, -0.04002626436372128, 0.035418863625266486, -0.01948127488214488, 0.008040061422882315, -0.021519972412739032, 0.02935050852413567, 0.025683531485410502, -0.07450579178523499, -0.004542833007292087, -0.07979275822609179, -0.047018236674489435, 0.022159039571575535, 0.00908297889424195, 0.030877850965825623, -0.07440890644331895, 0.017825306403660143, -0.011983368325202921, -0.1287936842353613, -0.08079873694897897, -0.008237826741589257, 0.051456978584426945, 0.00985898456956105, -0.09237107288733742, -0.09792730871333721, 0.002043597993460125, -0.012132363381104462, -0.07778171931533165, 0.018396501751456858, 0.04504891304898402, -0.021132869582943917, 0.03466229940607052, 0.001757228553643208, 0.030489538645616286, 0.006810979031360193, -0.07751482676990176, 0.0233816023516677, -0.004591546714165759, 0.009244933034363067, 0.06793420124744795, 0.025119545369940564, 0.04853194436568972, -0.023870867820219674, -0.0350539461581619, 0.10416405854335851, -0.07521784552474071, -0.10993602327668499, -0.01851075092668861, 0.025552548639049228, -0.02065463251374066, -0.10476803541454395, 0.010831883173443656, 0.007291451682566958, 0.06295821441732678, -0.11338437006248754, 0.07406006044294655, -0.04218183220139743, -0.003298536792276254, -0.045102263893410544, -0.05544724085788249, -0.0012515807929827738, 0.06816313393815791, 0.05956359885512974, 0.008737429289128315, 0.02845452385658291, 0.043120238772329726, 0.02073069341689795, -0.009888301902441913, -0.0455280862105944, -0.11973765335395108, -0.09344835408101206, -9.86392561787181e-05, -0.02146536175415908, -0.10001496171169115, -0.07758661243330589, 0.0063997081131206045, 0.10075805471158693, -0.06691162547110925, 0.09319385254214282, -0.05444093449388491, 0.02492232922796258, 0.023511180503366518, 0.011317046264140047, -0.07175693110346643, -0.05510740120682353, 0.005388995170944142, 0.028488121771432905, -0.025669447122950755, -0.04067545116380099, -0.009100245396002352, 0.012148969246778812, 0.02794809679717229, -0.0709279769774599, 0.008240991686586546, -0.024647908598528858, -0.06758691704988283, -0.09345196350662112, 0.04421527090426429, 0.050962073163557296, 0.03782644352302117, -0.03520321246328099, -0.021953743025069247, -0.05211077329435239, -0.010872510479207497, -0.011732420527067865, -0.0275878500238674, -0.06968916771290648, -0.0025205089560157053, 0.03569466490678744, 0.031556298913691945, -0.03577567970549273, -0.014932634173693237, 0.03362841384779591, -0.026592921113631745, 0.0016198159174476664, 0.013976183835996723, 0.02392600356126082, 0.04017047537034396, -0.029178954103134626, -0.03756634665964, 0.0169738340549964, -0.10831983807248478, -0.05348570933568572, -0.0296335057875071, -0.030466239532254247, 0.01472740304284935, -0.014261423668546344, -0.00732582852410784, 0.09570450810773164, -0.10359476603046534, 0.05732845897338592, -0.008553518794898197, -0.014944612638362595, 0.1611284560000912, -0.06385776148926676, 0.09861268083169504, 0.09481261962617975, -0.05788495451763452, 0.0001700674647655131, 0.02143518394700092, -0.04216909750031985, -0.005582628416096662, 0.0014097208187960554, 0.047042081715616184, -0.0017108873422247805, -0.0017830550962911914, 0.0347535434174824, 0.005567124531054929, 0.006854594798478883, 0.07170246089237078, -0.05056113615349439, 0.05536073349060314, 0.004822627720872734, -0.08573491653820921, 0.08233045161922738, -0.0036342977167817393, -0.016446391346534948, -0.05845151027114338, -0.09138279370193143, 0.06407618098821755, 0.028300268370619053, -0.02458310249850697, 0.0175713563332519, -0.02127530946863957, -0.007969784730593376, -0.03543236532026084, 0.04321960156837944, -0.002641637647481392, 0.003287358763495381, 0.0413952811797468, 0.08161208258199731, -0.0071775434779177754, 0.015338287009306917, -0.0060286175176697335, 0.012369876861969161], [-0.05309438812595101, -0.06263568365618744, -0.024924445239426985, -0.059134838273925926, 0.09529937186882269, -0.005477598607036922, 0.004935735543783574, 0.02297456408530224, 0.02083839390770153, 0.002776986065754913, 0.07194984541992257, -0.010704867695538951, 0.003047251271684594, 0.034552479491440656, 0.020485752455384566, -0.05183115085117767, -0.04433329922834796, 0.08511972042673777, -0.04892662886557157, 0.0029130809772904107, 0.029614653291550518, -0.10499303749329052, -0.018377164289461748, 0.020414369850176743, -0.043569621356892414, 0.0829954381048363, -0.014163006118368515, 0.011769941742232832, 0.023097551421456804, 0.05106473468547353, -0.009892680902882894, -0.024872040726433127, 0.04404496220797204, 0.05727269872860122, 0.07555451686137532, -0.003126500472334426, -0.04598118408095927, 0.027891443957414212, -0.07836268655651023, 0.04324520758306143, -0.019419518915638527, -0.02373580129522747, 0.03841442613695555, 0.004686385582671464, 0.10685835325591729, 0.09933378169239405, 0.08729471398346557, -0.0816197796902135, 0.023923031605942082, 0.006843874169965419, -0.04874107060740518, 0.034640641503694274, 0.021512372656772315, -0.0006356581780641601, 0.01956988896024216, 0.034043102040303544, -0.013014640752796161, -0.04602540043350129, -0.03132124049408133, -0.0919665957287815, -0.094275132487993, -0.04616045278845795, 0.03562013441597467, 0.0508553140328297, -0.020627670189328488, -0.010220729416317053, -0.026589716908298266, -0.01223253517169754, -0.05723834672009442, -0.08170270445932594, 0.04030921223338256, 0.04235209900723518, 0.12115968722404932, -0.008928651628329398, 0.12578513973195682, -0.10804811419284333, 0.02065252863320078, 0.0016900304285461258, 0.08058245427108755, -0.056391757353532086, -0.061013054618505175, 0.016336901526966145, -0.03913849206747509, -0.057954521277499255, -0.00143587046619503, 0.06537528696005955, -0.007909288440172059, -0.045680436648219774, 0.01237481868211265, -0.005922677530475367, 0.046437272910876196, 0.004076270555276048, -0.01182451710573914, 0.001463039245513573, -0.05637137324341772, -0.03308785741348718, -0.04798110334216084, -0.08454182669622978, 0.026891787834938383, -0.06753344068019602, 0.04539873317537522, 0.010535245043463336, 0.042567081393528515, 0.057726682836394184, -0.006325965315122777, -0.047153140329492395, -0.0757457010244933, 0.05393478625594557, -0.04148089157975753, -0.005116415205982135, -0.05596569176505232, 0.02439104208496477, -0.015666072532381406, -0.01751377648965005, 0.01568621157241383, 0.029815250609158947, 0.025410458297255217, -0.02012257405478967, -0.02579796457177954, 0.009489767902757067, -0.07407071936761501, 0.022898531293283876, 0.11730211646374004, -0.10828410321167162, 0.09499267753041814, -0.03249176722018633, 0.015849938226589574, 0.047818396591724224, 0.02897845150713194, -0.04806910899680217, -0.0430349725163182, -0.005605229443332962, 0.09979246496293746, 0.03248626677536263, 0.012075518826268838, -0.03346400905142867, -0.05380993716830849, -0.006475395532237387, 0.00869705194875746, -0.007820745680784138, 0.010375382666484165, -0.0377773917354351, 0.05617793689919987, -0.00440920322190038, 0.07335790038862317, 0.054325014402743274, 0.013134214075034708, -0.11350961708667182, -0.060474400989660275, -0.023627713689783, -0.04850594744518466, 0.05541447125445878, -0.016470118021590076, -0.026754903382765035, -0.03615008031308914, 0.07899770092847087, 0.044375948517796054, -0.07196426908989284, -0.05804792165048305, 0.025922331376964133, 0.08627946525576365, -0.08165092168877676, 0.024972600104163592, -0.013666491445876566, -0.016082769470753253, 0.0692496950775424, 0.08213217398573086, 0.017246978552144483, 0.08310083434590168, -0.018119398401325402, 0.0057510639337687635, -0.03789547597045266, 0.035431144031651624, -0.061105809576145455, 0.009036574413893446, 0.03862001102798081, -0.03914134048251912, -0.05326296427519585, -0.04470549144345791, 0.0058999387670270785, -0.01238370512967613, -0.015958731011126968, -0.022818727237913273, -0.01598153816438301, -0.0900336535941208, 0.052991815436360966, 0.002675009643455953, 0.13258675806124337, 0.04471933263177431, 0.010461135078018392, 0.04023204542115119, 0.06897936035820744, -0.05851538559452878, -0.015467763658817102, -0.00018290079543620158, -0.0018916710860468033, 0.030519376911227764, 0.008956123279172275, 0.02991527278647514, 0.06776950481751794, -0.03144229043519376, 0.006029422313346288, 0.038434709184946854, 0.03039889004619715, -0.050169252385439206, 0.040901004101646286, 0.06390736397533564, 0.0023806837740009456, -0.06718750535894355, 0.04247937755097796, -0.029554392373947264, -0.03447801826847017, 0.07066171282910283, -0.018393892832836035, 0.008115834257105008, 0.01235780156964179, 0.01726747920048676, -0.027560443002480547, -0.05724568709124965, 0.0016048798520924216, 0.016551272581017174, 0.02428295420566506, 0.01624034456047863, -0.005540829840544882, 0.03743826065129473, -0.0500421881396244, 0.036779936029836105, -0.028373409620712074, 0.03154831974729331, -0.030776295346727132, -0.08697609406726822, 0.0296613828171644, 0.008029709063907894, 0.02121990040380358, 0.05389446913441582, 0.03625141497903806, 0.05634141218637274, 0.041420893606980716, -0.018351050477966726, 0.05581954738958013, -0.034746649377767225, 0.1116762640930643, -0.02239837100172841, 0.056501554489210515, -0.046191622151447016, 0.02849676562580786, -0.030625797021915122, -0.004108648603830042, 0.06767353159502872, 0.006308935929055235, 0.08632111154724668, -0.02755157680731981, -0.005550549698680071, 0.030736187844447704, 0.053149933240546586, 0.06323688128734467, 0.007006104964195749, -0.009052007693761601, -0.08894402958917105, 0.017525508344685234, -0.05153848291688061, 0.037118023880333306, 0.03735400958839983, -0.03988577102971505, 0.07694862854296929, 0.00014959286851093368, -0.05166967984229581, 0.07619714104951751, 0.023959314951055265, 0.0517680136278657, 0.03310539970353977, -0.02653374363692064, -0.019986821310802483, -0.05931269263821505, 0.06133348644001233, -0.005955712501693858, -0.02210784566047196, 0.0740258127781568, -0.044194445113225254, 0.0919044816324496, 0.06960057128113313, 0.09615881026194455, -0.053401067385924275, 0.0005447742761825646, 0.0386011072291926, -0.0251108828686645, 0.030821481024445947, 0.08408382427304996, 0.08117002679361159, 0.08222160679915766, 0.011399109208123813, 0.012345017640234887, -0.053634980978148235, 6.4157538451520736e-06, 0.02762012345164043, 0.08798938871299508, -0.03808272027829531, -0.11480441988107051, -0.06656413785871892, 0.0769614050280814, 0.06714402338411454, -0.008293839539303901, -0.038848725863120145, -0.08193630393512664, -0.12557907550360217, -0.013408781511165662, -0.05913892005743235, -0.03487359224877073, -0.06558182724520215, 0.0437239938290925, -0.04672361021576654, 0.09147139724258832, -0.05575456832804889, -0.02351815159568327, -0.009396846690199814, -0.017679519584275254, 0.044559563282820853, -0.055921462220348564, 0.1247985836799883, 0.06210491752811865, 0.04808481683147474, 0.051061969141279195, -0.008546667742524269, 0.06614300018575676, 0.019476882289040987, 0.022999114629259004, 0.03563900046058449, 0.03292587744236005, 0.022153282104870234, -0.008092950333485454, -0.009260249057056861, -0.007874856182627567, 0.005363224207443272, 0.07346462360528797, 0.04709412583316793, -0.10919978969991609, 0.05530216149871937, -0.05397223562262012, 0.11292544303195955, 0.053663345065891016, -0.006678861145608132, -0.07605032984521665, -0.008845975107857548, 0.029225042590613905, -0.027660657879729506, -0.023770976499997626, -0.05476205962045756, 0.007339949477738756, -0.0640391614136177, 0.07155406094947717, 0.06127950378616959, -0.03817280156314567, 0.031443127692601124, 0.06439003678799365, 0.06945641953060722, -0.04392191180858955, -0.002471196125811626, -0.027176701059831148, 0.034346940146184654, -0.015629729412350295, -0.020726089628615926, -0.021279147922543398, 0.04974966382851148, -0.013696208899112022, -0.07107541075941307, 0.08956792858601131, -0.04453920372039123, 0.08591415950648655, -0.04223020832998798, 0.036031885501177974, 0.05376194871164301, 0.0023874106645127126, -0.005637163592563282, -0.009098535081709337, 0.06603248356567498, 0.0846746062009661, 0.02620883348022271, -0.0015828947019873572, -0.013961806436761513, 0.005031366239377394, 0.0955054646830638, -0.0006681274850670489, 0.04318005955185736, -0.09326106209712474, -0.00794934641718464, -0.0404209815143004, 0.0056303085216013035, -0.01759597539451503, 0.09773458362112815, 0.01939738250134985, 0.003181571898861255, -0.08916694896555218, 0.028191214318304503, -0.07446825666381199, -0.05426110981660054, -0.06472963117814402, -0.03606707460626071, -0.08650282497164619, -0.04520151417098519, -0.010287183197701435, 0.05914311885574197, 0.01953957022877535, 0.02208587865459936, 0.016844428160467776, 0.039680193689397715, 0.0197594252858615, -0.057052824066500384, 0.08038063976586142, -0.027770162972299735, 0.10495547056319068, 0.07762307305775262, 0.033953444733283725, -0.03466708035648155, -0.04428928314470965, -0.0013689804053561882, 0.016140331312790777, 0.012891126728881302, 0.022118706075791788, -0.056741299820195476, -0.04055228932542935, 0.069482552919399, -0.07736293697513315, 0.09245308965061476, -0.059221341908266646, -0.08804820769619076, -0.04906629798854051, -0.06991885756636992, 0.04184996701207822, -0.08007644274330923, 0.06671744579639438, -0.06385639606037027, -0.05887039346322354, 0.01701496067749976, -0.05784999417353079, 0.018275244190515762, 0.08957240717527057, 0.010274874445237782, 0.012093734255570636, 0.05372079736540758, 0.016875951003181604, -0.003597951740903093, -0.07983031915308338, 0.04026913978386801, -0.014236645100712937, -0.01627553965175735, -0.02431695744671263, 0.007560613614830379, -0.03442914660034535, -0.02312872041328429, 0.05403506566779482, 0.02195612652942031, -0.04337412697341035, 0.013930433878965413, -0.013284532776757016, -0.010890055350020928, -0.011720551623464725, 0.0027865319872716066, 0.009323469907786559, 0.03787474381258188, 0.014566193004066955, -0.024154408454340748, -0.005199935026829357, -0.005948801671928659, -0.04849323212601921, 0.017605525301954437, -0.004977179055166096, -0.037388925504086686, 0.035229698395960504, -0.027342512902225433, -0.05139509391697924, 0.01439510281072365, -0.003540394671027193, -0.006810445008218257, -0.06099304606429752, 0.024956217701057576, -0.02887895524916391, -0.005392743766670985, -0.05362415596172697, -0.005319825239317736, -0.015746130620379307, 0.02889160482300981, 0.0017641617346128475, -0.011005822344270689, -0.09560410481564788, 0.05762649952099031, 0.10146137847776175, -0.006436745616803763, 0.05370732512396483, 0.08397913385672898, 0.008213239649842155, 0.054728620595050445, -0.0021625862787117063, -0.02520885089333419, 0.05158315285752219, -0.011127794057572062, 0.02720835866954363, -0.08708066749641916, -0.024733414267511755, 0.04154083917358421, 0.021812046796969527, -0.03197936301833381, 0.043962334702678046, 0.05848072895709509, 0.013441026795309003, 0.10678672517017128, -0.05935606082111803, 0.016153128619158, -0.11266485317013779, 0.03037750871693889, 0.0011982721026250654, -0.005100797814889733, -0.01857025883008329, -0.014122582451438374, -0.0021240092799606042, -0.0326725042991587, 0.016597420888474324, -0.012050880301067777, 0.0076317790062081885, 0.024266026043562424, 0.13233550464568097, 0.020787477805305946, -0.0824390336098322, -0.022262168674280984, 0.01834082081979668, 0.02805810079366483, 0.04456153256431394, 0.08656977713824676, 0.06726720366887243, -0.040153582590021004, 0.023332005437029187, 0.03126149774618325, 0.017550415598493033, 0.06389581180966718, 0.0061711679280768445, 0.021518149332385796, 0.02995925460283962, -0.038861661357949266, -0.03591608623992836, 0.007875924156158107, 0.04076800374963605, -0.002259922531280256, 0.005384182245297561, 0.008552876683498216, 0.04467324241575898, 0.08255260361256858, 0.012368346039784315, -0.04808171490569675, -0.012404209657798454, 0.030086018909038396, 0.006778881158476458, -0.05834699656402116, 0.025236118746668555, -0.06083441406924003, -0.061814387951672156, 0.03492951975556117, 0.06257627360475145, -0.004832882375745977, -0.0042698212610281375, -0.027986644556932783, -0.11206294837685987, -0.025594583472576198, 0.01279565561178479, 0.039419094395096124, -0.007504955001788113, -0.04606794072943135, 0.024281143901876547, 0.05229149709973267, 0.06270400673107933, -0.02936699698952488, -0.05605931972290112, -0.013774894610999537, 0.10136949421086477, 0.0023913166935932376, 0.03437269082074015, -0.03056279857227432, 0.011131735497595123, -0.1425158918162538, -0.08220398652313535, -0.008560456849929714, 0.09419013041573174, 0.03593900799075618, 0.039629138169997295, 0.04455314449082229, 0.039906400466154214, -0.050877278733654864, -0.0026836441953307665, -0.04705501534620027, -0.0677736052383861, 0.020987420327531304, -0.008733707085195854, 0.015693340540751628, -0.004310124756248334, 0.06467713194316035, 0.03285989504073885, -0.07776225490024877, -0.017878500540935524, -0.032688667994336576, 0.06498501809014401, -0.12666822216203888, 0.030594311614063664, 0.01659694998809969, 0.08334201694020395, -0.0279072838342563, -0.03299341800152863, -0.05019168082019151, 0.01997381617302896, -0.04422775768370466, 0.03697247586595135, 0.07178139657181905, 0.09051308681454952, -0.02671676974575155, 0.07308668262172284, 0.05647071908765902, -0.0006623540282323522, -0.05436695614870082, 0.028229227541451032, -0.06240714752434987, -0.12302693721533121, -0.05107183333731537, 0.03430945249597288, 0.03505373408860133, -0.02479415085251638, -0.07979302866950372, 0.013592317595124534, -0.1820195830445808, 0.02964097782114634, 0.024930531389666423, -0.03273402565913993, -0.08102398016669221, -0.019072722448095658, -0.04872051233037445, -0.10036643554412948, -0.037270629298814056, 0.0029805359107340544, -0.05236165492842457, 0.06169689397162026, 0.05646312369979166, 0.02934737773952135, 0.030615781222735467, 0.029164506359341494, 0.09843537342687184, -0.02007036093057028, 0.0005717082039994502, -0.003329933178275653, -0.010312404980229839, 0.07261425634353905, -0.03136953911734761, -0.029864570862253744, 0.003976905523472595, -0.019368933674105297, 0.018573193602041745, 0.09973954318548224, -0.012203935603522764, -0.07802177700474508, -0.00826782846385838, 0.06932695816035846, -0.13813919336020988, -0.07601228696548099, 0.07867183497295543, -0.006172363058618838, -0.08450829042850343, 0.03195054489956866, -0.036860733070093375, -0.02381676125080018, 0.02128216573646357, -0.012735341853391119, -0.0075395124646090075, 0.005263443481333619, -0.01930153692790621, 0.12989827851323976, -0.009777290543337766, -0.020323348820030476, 0.025934109487672056, 0.00014783684243940555, 0.02244441471811376, -0.006123839293547904, 0.031265074806688484, -0.012047756117795553, 0.07176021198615445, -0.04048485831549796, -0.0871894083354353, 0.03816013390650022, -0.06793898492855506, 0.03927108387500694, -0.11071799567816515, -0.07444373702149602, -0.01633441146282992, 0.024391845130270404, -0.10566062834772239, 0.027567125047903034, 0.08380930346648013, -0.04883686729380007, 0.05021192225377291, 0.07099686583919616, -0.0275986224738964, -0.0357581868413158, 0.09960530993982439, 0.09922788400927317, -0.00970855794433611, 0.056208998479154115, -0.009314322451523499, -0.07768897117484828, -0.0009478761338425104, -0.0632626146023176, 0.009428787268289326, -0.10324457519254715, 0.02622022437764576, -0.04108755491883265, -0.028999896240674904, -0.07011075856142425, 0.07854982268080268, -0.035380289492186474, 0.03842700850761281, -0.01642648169141092, -0.04964771562168517, -0.007816608086498433, -0.03648458100621291, -0.050298174130282834, -0.0021558988938996256, 0.036580288906471845, 0.06895242215379477, 0.06410015020994023, 0.027247598012665887, -0.059246092918684094, -0.035539008160660406, 0.03336707389911832, -0.012245992344593335, -0.05338370291305418, 0.07172284380045987, 0.030324073614178257, -0.017110072235694523, -0.01977454553867189, -0.012167414799464654, -0.02715490103634855, 0.06536092803398867, -0.009503368193202426, 0.056120114725907874, 0.0517888285387253, 0.07055896634199785, -0.06554488649093339, 0.001908222405158014, 0.012228218340565197, -0.0010213986852687898, 0.12368327349129012, -0.011023339473808562, -0.024971995911003724, 0.059750159089813785, 0.036839243887439505, -0.057298864232798674, 0.06058473449659171, 0.06879958325689882, 0.009717474749572992, -0.019869775049607546, 0.0097418462762606, 0.06861651763667366, -0.013662763739570975, -0.0009723937513780046, 0.0751966462021037, -0.015262435377801102, 0.1062786626312506, 0.06902319384466007, -0.11291079081511397, 0.01540112410398667, -0.03755670330661742, 0.06452578392087865, 0.02730510969755994, 0.013982614682690101, -0.03951950990358864, -0.018829601391024468, -0.054451845569375885, -0.0055922659210665875, -0.08631231855148838, -0.014431676846790625, -0.09165218382407975, 0.125402717456952, -0.005662925542121123, 0.04720004495077816, -0.02191894096464405, -0.02328296909085607, 0.03024463421021209, 0.0185586305280457, -0.012749670082849801, -0.042791647713018924, -0.019839208872932456], [0.011062098962657259, -0.06656909175580103, -0.09712546238037999, -0.00847303089613747, -0.003338916358615348, -0.019951062044193207, -0.03386102112915162, 0.03860931012948024, 0.06637075784510817, 0.05126151199243763, 0.07903706137827557, -0.09806541659874099, 0.038481770191953084, 0.009084055138089764, -0.06116897442163068, 0.008482430767967184, -0.044646909721905846, 0.01747224411460216, 0.08995437916783709, -0.07842888203278539, 0.1036747829630213, -0.11338554285005478, 0.04271504760318149, -0.023912669002369404, 0.0643832808802948, -0.030945164452973756, -0.00038395192307061544, -0.019917655553248096, 0.03574338616363852, -0.020478597298201954, -0.07294535482008856, -0.053482978390460574, -0.029682868464058827, 0.03296777595962798, 0.035190663706695276, -0.003794723024579671, 0.01708879593999011, 0.024230543401196663, -0.07900037248577463, -0.049182440317926436, 0.002887114656325807, -0.026917043749028976, -0.07809853844216791, 0.04653541750337119, 0.003989961309024229, 0.041718531586845374, 0.0668475362904549, -0.03705395316462834, -0.04094944433080007, 0.014796434097657525, -0.016561714743876046, -0.0025492385389696013, -0.08409766983604718, -0.011561577452929309, 0.07395813638958966, -0.05090303219602244, -0.1591153685729179, -0.06104479751694269, 0.06728148018052445, 0.07315096304212984, 0.06804939003439148, 0.005816134803841625, 0.016947566905611472, 0.005096177104962574, 0.013441839824271669, 0.0064238852197511485, 0.02183595608665548, 0.04000770209849687, -0.010753067297331775, 0.0982521266480488, -0.029654885234487328, 0.054207932035051455, -0.038281495750061525, -0.014662644649241231, 0.04781188882822213, 0.17309014963762617, 0.11105029157944665, 0.013321691517906195, -0.09091531882678902, -0.07139888393567229, -0.0017313690424907529, -0.019722924933838867, -0.04078367391156425, 0.05992821165993595, 0.03752533617464041, 0.0048465577811190545, 0.009644025543917812, -0.029452420541824627, -0.0736864510410163, 0.034084775015184095, -0.04192173362515042, -0.03379213229270694, 0.12668668143398645, 0.006802858876132748, -0.012784670880431137, 0.017754080366582114, 0.055467539960845934, 0.011142258034541512, 0.0824910456952027, -0.06035370117134406, 0.07670368868685803, -0.09227325209918175, 0.03891354981060647, -0.01200886446994985, -0.10200082691706097, 0.034188726542547794, -0.023863928319719608, -0.03108274143301217, 0.04609921625931287, 0.06043647679630878, 0.026352248580148705, -0.07066664011674502, 0.046067771356532505, -0.04377063472939548, -0.03525798636118615, -0.0731985122802725, -0.11491033912719162, 0.027738097101300808, -0.007958953514961389, 0.0402893348936192, -0.048051204561864645, -0.08497527423331055, -0.031927103724923134, 0.028130270035027855, 0.0424493680400507, 0.05616695473334645, 0.06346495779895898, -0.030580514860659574, -0.064729927227555, 0.0676058274401563, 0.016176622582871725, 0.06345522598030379, 0.07616160575725614, 0.04140399182522443, 0.016427466230090847, 0.04848222518447466, -0.023942972970735214, -0.0368875733165591, 0.038162703129264015, 0.06258959044611355, 0.040531794595310325, -0.06667233313503619, -0.034111727503027045, 0.14139483605910158, 0.014544981008728525, 0.08954484042638616, 0.0364923438696205, 0.07197616938457153, -0.04437459817031655, 0.07236565723654581, 0.03930555012146851, 0.005914635579998607, -0.02329385989532214, 0.027383036692389486, 0.07769027527786104, -0.12369357254510885, 0.02925053079903835, 0.06673068527942404, -0.0753687175777529, 0.04995517936095975, -0.028952022654895614, -0.05607383931824896, -0.021543128687365562, -0.018852050380962125, 0.0768027060154382, 0.06544866856207981, 0.013468967222922583, 0.028289058676834913, -0.03251198427828593, -0.00146905073611362, -0.0024279049428020953, -0.021945682595147904, 0.017215381968962398, -0.000738190478174733, 0.06151896850190358, 0.055563037437629546, -0.03845685790295109, 0.16182945801951715, -0.00634387591773312, -0.0712855536820706, -0.07020370011282036, 0.01269612624197922, -0.04945923828143512, 0.0499657445294307, 0.08559640415646563, -0.035338460390984386, 0.030002695404784462, 0.06400848959732036, 0.006804236493069074, -0.024113451218402186, 0.017884253368789908, -0.051729754144007586, -0.006335342575173709, 0.03161474225192484, -0.06204456490281718, -0.05445748704323754, -0.07095722976162565, -0.005224138970854941, -0.03890823255153487, 0.030534274968718262, -0.007804390201626465, 0.0351588148534802, 0.050798620926946314, -0.0326357184046895, -0.0566740766607528, -0.05900146295822574, 0.04410251343169225, -0.058601128468928745, 0.07125381886423851, -0.0064086975886491005, 0.0615862544616139, -0.02646989901119376, 0.049355764176208856, -0.07890144899743845, -0.029087278928092868, 0.05928764350718994, -0.010408813977825417, 0.010237468583519212, -0.06776826864107728, -0.03299154413513343, 0.015111268062001705, -0.00021291695139985701, -0.10158172573353885, -0.06808292721073636, 0.038878407107324035, 0.058359733629521654, 0.077644060188266, 0.0036684351999513513, -0.026444339132155308, 0.021069398840928448, -0.0021417662625697184, 0.06814159042120678, 0.05091750250396378, 0.040893251927562387, 0.02839251372953031, -0.0554648166608466, -0.012748797884714875, 0.009763645721308865, -0.014751435796803327, 0.033865389053979365, -0.020311257896227803, 0.05522022127860723, -0.006343028551306678, 0.02019164342721318, 0.023029838289415842, -0.05337764758142726, -0.03038664363984885, 0.01905748169186721, -0.012890213221600022, -0.009886345366251537, -0.0195778707591326, 0.11123101740782264, -0.0018893273267895816, 0.032106835908230644, 0.008349053768193788, 0.0602479524928614, 0.005491135953778214, -0.0027582930278667555, 0.00025002418091311403, 0.030573300583314453, -0.004397203661005613, -0.013235583391325514, 0.07987553106465448, 0.06645982840004165, -0.01869413388711854, -0.06322593221257441, 0.03331947732339752, 0.01126809844079633, 0.10875340208095274, -0.019363990233063642, -0.0460245373839432, 0.012762611313896503, -0.005719791285930682, -0.002390243807421905, -0.029316405171998215, 0.05372147877545845, -0.010255330922794643, 0.07896407425696472, 0.04439312817089652, -0.029756472337207063, -0.07491305005580771, -0.00854618067491148, 0.046756137663021204, -0.028593056183556606, -0.008576820201064156, -0.03179642354149563, -0.037515338435836036, 0.03850601771825242, 0.06108888640934643, 0.022165198375355404, -0.028091459850222666, -0.02635660518616498, -0.015794403273790857, -0.020215808830153774, 0.08621894837274025, 0.04228079886096719, -0.03312891510956824, -0.061295807443769335, 0.06642076445004438, 0.007020945770646884, -0.017926395362425494, 0.044257586201572836, -0.03828315865138558, -0.05023433282119797, -0.010882345102825194, 0.06448647555186185, 0.04940486416870033, -0.0009982381958874424, 0.0008502992450633042, 0.006214387882811034, -0.02005043202106102, 0.056999478723955624, -0.007827574758070324, -0.01918991055574102, 0.025674125225663275, 0.07463456647606848, 0.09135431105054344, -0.03281835190306566, 0.032967023631099865, -0.05465208429430979, 0.12223148445870118, -0.02510904420184869, -0.029979649007077974, 0.04232331300037148, -0.008656935461558333, 0.061897717966143774, 0.03234130593156142, 0.014939214273193781, 0.09105440546080905, 0.0031095877779037475, 0.013250164164946529, -0.02728168868526014, 0.05150780704513251, 0.030718521870574295, 0.043301231357529925, 0.007182867416181999, 0.04282672402332864, 0.010491418861166071, -0.11970320480065619, 0.002365846585977476, 0.03359636296295913, -0.03990059916379132, 0.028344338678873406, 0.052639651890557894, -0.002928341165683497, 0.015676551115655694, 0.0860271291132246, -0.01736909654094427, -0.01831366992922905, -0.013484783922718572, -0.03096763269138647, -0.033937938160856884, 0.046345497609270245, -0.010005928109630422, -0.029680894824164455, -0.09226427889731276, -0.05514187843063861, -0.024980065466676287, 0.033566395755165755, -0.015247020604433316, -0.01752504949469899, 0.008657297211875234, 0.03527503923535801, 0.03178098300940626, 0.06326829063775888, -0.06762882770789878, -0.0034126253346330043, 0.017721903334805403, 0.004885605693673416, 0.027332274703390672, 0.01560998021503645, 0.047640384134906184, 0.031214615030801564, -0.006385938578041239, -0.04605792129941081, -0.004413380116714934, 0.08914529829607636, -0.03521741590447778, -0.12167030508676582, 0.020307240641634444, -0.04161814451826093, -0.02509794148671492, 0.007051025413122521, -0.03388347498276522, 0.027305844065381318, 0.10599866920718023, 0.03056046846454997, -0.02037344938482616, 0.0581249576875954, 0.025892172039285066, 0.03432058863930953, -0.03224685475733103, 0.04947698196222516, 0.16076671546657303, -0.057373096000387855, 0.00944849554367905, -0.0037597002907668355, 0.005125936057502522, 0.018734051452558704, -7.480580505596966e-05, 0.027395800406935764, -0.07615042597004544, -0.05624690833801445, -0.02959589868032099, -0.034342659408464066, 0.07408347201091665, -0.01624287782130181, -0.10009985256364304, 0.015591985090384002, 0.05665622164168359, -0.03404157471005068, -0.03854392863355377, 0.0490833104635859, 0.012737099988509687, -0.05331359370563698, 0.07785199256187168, 0.016241808619960062, 0.061297530451472154, -0.08487669434521963, 0.04439186587196179, 0.021016729529498613, 0.0021676025129458145, -0.05568085710160254, -0.07438318772083254, 0.08127858717452306, -0.018080486339492385, -0.006144301135300982, 0.052135677979784675, -0.05669392346931294, -0.050645357846390085, 0.0457274920664241, 0.057167973185251235, -0.05674370658601938, 0.05529700177404201, -0.004630181402279787, -0.027460331966945008, -0.09811920060214498, -0.006959464927408233, -0.009128088321759313, 0.003861240221749855, 0.014589904300339757, -0.019244215468846946, 0.01012732183353841, -0.005810563506931942, 0.025522620241525226, -0.05894102425373859, -0.02979258454432037, -0.03043159386984158, 0.014886028340033759, 0.028144320436714595, -0.09383756915831747, 0.02895536332421028, 0.08912819364998041, -0.06901780051571574, 0.055384896476634436, 0.10692695368851797, -0.022392977916723695, 0.03726085523093798, 0.04126886348771433, -0.023531232990340954, -0.021718689943693827, -0.04642269936621677, 0.009364750331352912, -0.04336845499769801, 0.07278814804486035, -0.057863435191534196, 0.029775888924980634, -0.06470986526406175, -0.07059491264469749, -0.08046931002939237, -0.01926739885960381, -0.11561570114789349, -0.03764499799805607, -0.005075057543984685, -0.06968064907377576, 0.04061887044742121, 0.06457127265778069, -0.061306138756355294, 0.014568797823683028, 0.02364164485895282, 0.020667828426575913, -0.02029742956129649, 0.03643567676427479, -0.01560357923166206, 0.027623528454427428, 0.02298011885973305, 0.058976798012782675, 0.007476488337738876, 0.04610829881427856, 0.07132820722594993, -0.011037180601150587, 0.06889312900414704, 0.030399587575871342, 0.10516479339813244, 0.011731478650003995, 0.0008598222272277873, 0.1029058549845134, -0.05525490749045035, 0.006114802774316335, 0.012247759242841895, 0.006240929452682922, 0.03845415649619328, 0.012295716879728285, -0.06169384833334178, 0.0020673803608160955, -0.02977790197215079, 0.05437899315880119, 0.009915806616223172, -0.02259740450592774, -0.030117866104387516, 0.0195307439730693, 0.023586631521909943, -0.07343686264270591, 0.009685928540049227, 0.015921926260621427, 0.05318748737822708, -0.04440759937863089, -0.016547295484279675, -0.04492511015262562, 0.09228061672005392, 0.011261818275662687, -0.004675561586408764, -0.036206940108180465, 0.036647697713970515, 0.0009907262809597658, -0.05318926781454247, 0.011664401168431322, 0.06489835343177586, 0.029103833255388605, -0.021066833929208554, -0.07742620168391773, -0.021641497263188026, 4.9776451623140434e-05, -0.04829314018607798, -0.08237512861883332, 0.0746401758345638, -0.005895076929206115, 0.04799606492765316, 0.024796961214904857, 0.06661260040048407, 0.017911671504072378, -0.0366773699798878, -0.06817688075865992, 0.12063729729358369, -0.03234058482456521, 0.07886099980213526, 0.004263194326903306, 0.0828891701728959, 0.033516655972816466, 0.041673059451177025, -0.03997299036708096, 0.06956527884119992, -0.06564986294100972, 0.043179316310148846, 0.0873499838920686, -0.13166373003924778, -0.018279487897529215, 0.11018586731393053, 0.021735891567323647, 0.017914855509457213, -0.011430993313302733, 0.024268820554087352, 0.055390643131459645, -0.018234469239374537, 0.02572701385961661, -0.0453930449139463, 0.031159248809431956, -0.03990009647764817, 0.03498704312425665, 0.0731368976071999, -0.005001906973008762, 0.05649906636651195, -0.09728614036201308, -0.019405276342884803, -0.004972859111820092, -0.06041893392746079, 0.046005531879105346, 0.013619338904519374, -0.0018518982973345648, 0.06985966563026345, -0.014543776266686835, 0.009374356672768449, 0.011743470944562058, -0.03292138710394109, 0.06699427815644464, 0.018361133896234203, 0.12841122285691667, 0.09257306751054939, 0.042067745126189264, 0.008251671451696805, 0.0661013557526359, -0.011133839351855171, -0.032319525195335624, -0.026131914158296233, 0.04362497608460273, 0.0013747476912565851, -0.018832290120621892, -0.01281102133129204, 0.03285608736012709, -0.015478072820232754, 0.015057676686989438, -0.06744875174836862, -0.006872669268648264, -0.003056774235507757, 0.0010102336482397639, 0.0022475558038595298, -0.034749666884201634, 0.023337216013914565, 0.10819022676818209, 0.06701653655284197, 0.0837973584959136, 0.0013695935703269162, 0.0008992800622457863, 0.02245971842554406, 0.007531709662108946, -0.0024605602445090463, 0.03257525208833673, 0.03502055295228357, -0.059259938307554924, -0.06408572180162334, 0.0490503765836794, 0.027035772520008862, -0.0010365589075602435, 0.05598414712620659, 0.014256477637996642, 0.009951981564188686, 0.03126868393534156, -0.0643529079287907, -0.02789185473622934, 0.10887030446406447, 0.024091426611964988, 0.06588527003870763, 