{"input_size": 784, "layers": [{"type": "Dense", "input_size": 784, "output_size": 128, "weights": [[0.021671117451129783, -0.051864890414581595, 0.010386659028517514, -0.09528393543241831, 0.09193308967296905, -0.014533914026924374, -0.0388730663537566, -0.13391679304710793, -0.043162472381776326, 0.08893596293837876, -0.02528329222773422, 0.10007410905889222, 0.01413002666237742, -0.008144786850120643, -0.01945076702040096, 0.08935171136953858, -0.06991963954315893, 0.02065326819792368, 0.05900006602230884, -0.03940657612055721, 0.040070865663176615, -0.0068814121863408646, -0.02356218697033079, 0.03614879798520554, -0.0014603661946207477, 0.01127164354042808, -0.0012841853683242018, -0.04855869808840713, -0.007845308014672885, -0.019792812777027644, -0.002940014776497128, 0.03508954855209445, 0.04469687139873096, 0.02419862257010527, 0.003958715778214737, -0.07475119004837519, -0.02220225165039351, -0.030107439397245778, -0.03128697836665426, -0.02363294762485831, 0.052930070913456057, -0.038801919142105734, -0.02022018235339586, -0.08567166627679931, 0.031241913960006317, -0.048933297287900225, 0.0032313172282006798, -0.001596827262211022, -0.04908440573688576, -0.028913175733952048, 0.09743129059150882, 0.0414975883958199, 0.05581553873951947, 0.05358454802731373, -0.035372030638323344, 0.062338628785031124, 0.017906149511734915, -0.02821075601009129, -0.020028649027491453, -0.09732903809788337, -0.029244509238258068, -0.023789931969894634, -0.13762294822494456, -0.02521258945813637, -0.005657364664653333, 0.07302290296325994, -0.005185778026089814, -0.049705615570507705, -0.01791963879758124, 0.004417241841802564, -0.11868340637650725, 0.07447968782839429, -0.05238147668843589, 0.04629443603349572, -0.00038168157183425533, 0.018885234481662377, 0.0007885734748524029, 0.05730438861579359, -0.05131661537082028, -0.11819234765220742, -0.005648595813367792, 0.09177142426460502, 0.025641693921914697, 0.05195835000066573, 0.11709150336746722, -0.010809104714625387, -0.007671887571507726, -0.10480671032742551, 0.01640213367650245, -0.10369207601918803, -0.01344292313142796, -0.008990646040716858, -0.015573352828771043, 0.055045569378126186, 0.0353306770377522, -0.07622031956234708, -0.028351605719594924, -0.01358981340537523, 0.0272587326265563, -0.03068253936915612, 0.041188216724988076, -0.0411483135135327, -0.007621734255223695, -0.008662513280721344, -0.0798531081322131, 0.013125227915625039, -0.040008612698932695, 0.08874588442474982, -0.07307286818882913, -0.021785020345262255, 0.0013269048403095774, 0.11910298727755012, -0.018162315299247805, -0.010144641645925507, -0.0466741010488442, -0.020357667884261747, -0.01233214852300305, -0.031103667549163633, -0.02408408454040662, -0.005505220454145573, 0.01841595527462501, -0.010832633529059136, 0.08982338933033425, -0.11269689578817771, -0.07382970718042435, -0.07342495388906801, -0.004167827201904967, -0.05770983547360213, 0.01047318132279938, 0.007243241410721419, -0.023374800330678836, -0.006989674023040533, -0.025208096713926414, 0.04898989171949219, -0.046819011979561814, -0.00852226891845754, -0.11342115692990185, 0.03992442774416813, -0.024408511638757145, -0.013569874574855966, -0.003483512861234425, -0.10499824084739104, -0.029302439666927426, 0.005927883566153831, 0.007621190528038465, 0.022380890043159435, 0.06853528718356916, -0.10780135797498286, -0.04596981147275243, -0.011812090637995295, -0.06047238584829847, -0.0360641751608788, -0.08987076928076183, 0.02579167891475713, 0.012681142547264858, 0.014937256475658833, -0.0535348849356943, 0.008924987266348808, -0.048163521323571525, -0.04689994284036564, -0.06687507943232301, -0.03695337866810927, 0.00589469159814112, 0.09698546802327933, 0.012995030159458356, -0.04349442561059693, 0.05349263897078313, 0.027169373001860335, 0.05113799417110938, 0.03507107803242471, 0.01277364464071908, 0.018494903303345463, 0.01684480447736354, -0.00025360245579774895, 0.06965734235005143, 0.051120111815330674, -0.05017834896382737, 0.02703377618170667, -0.02669140154122916, -0.03471024294844039, -0.0075058334197249995, 0.05378152663375186, 0.05282336089050628, -0.005519945138636773, 0.09433032844600148, -0.039150199789082685, 0.066086754875659, -0.009044390613573148, 0.021588253184479482, 0.021154706668983534, 0.06972114416896573, -0.05538833811280319, -0.04937676129060997, 0.011478881022477124, -0.03652248745878287, 0.08479667052759415, 0.05021955610894802, -0.014551527820426536, -0.000433105688000939, -0.09600255364371972, 0.03641429076980124, 0.05916401681591783, -0.027686890358934502, -0.02578475006582143, -0.010500180039232159, 0.02868891215946912, 0.023906189381131256, 0.08765276131935394, -0.05183884143322435, 0.02210253051451342, -0.08231352780256228, -0.029700634771570405, -0.01628023939970316, 0.06504948479741385, -0.048042446275656854, -0.00045643189218455327, 0.008422809361619495, 0.06177893488066937, 0.029958696585028678, -0.035652624476722725, 0.0689547045381751, -0.03173931479839173, 0.08883852909510095, -0.0191378969619542, -0.031558059170063005, 0.03798081277939472, 0.020085067563588455, -0.0324811151058906, -0.006881955197876627, -0.04167198718457484, -0.011787315856561219, 0.05207368813799787, -0.024275587615225514, -0.002303887964168946, 0.06201192604414444, -0.013974422967085884, -0.008461538303603872, 0.12723360583748114, 0.04166967755357387, -0.10182745275499605, -0.009068602444932015, 0.014681143040188173, -0.005197185628284141, 0.04725045039161652, -0.06017004557718841, 0.023162982735128453, 0.056521468246021625, -0.02847174524336625, -0.07324715491017564, -0.03795331437919186, -0.05608342887928836, -0.004668752583636637, 0.01323109821172281, 0.05777657395364751, 0.012323283076892856, 0.036775332596338625, 0.03862625861713274, -0.057567927220232365, 0.024403575180807692, -0.038635675653452155, -0.014919309830144521, -0.018001691868370664, -0.01844496076958146, 0.023830649795209866, -0.04019746754662303, -0.05047918459995594, -0.023549519497431882, -0.06678570250784907, 0.02169281199436633, -0.08481579706612248, -0.017602797302172284, -0.04296440578850619, -0.008567144029032353, -0.0028707173166211924, 0.08958788870484861, 0.1173789191074343, -0.020845765047346795, -0.04735130765970291, 0.00998249486134665, 0.030435718589573224, -0.021658847066480698, -0.037836130787038326, -0.05114688093503225, -0.03867204656065185, 0.019112280755963162, 0.01733840444008795, 0.07441450710552225, 0.07186575611349558, -0.04815926312134471, -0.061555130452648175, 0.0034137446301342423, 0.02385372309686152, 0.008899358348842562, -0.059307190443512015, -0.014633193085373338, -0.07607345741815068, 0.04307612226923268, -0.01967070427764211, -0.05691039741327478, 0.0022991180691945335, 0.03218697832421769, 0.016144262900531482, 0.02122464482633173, -0.008622185793232368, -0.04638547602802118, 0.017292076998989287, -0.09049132825873167, 0.015855522793688417, 0.006090166843008667, -0.047445068846426006, 0.019280953367944897, -0.021570391757692427, 0.14554744502886696, 0.03580872165831471, -0.040874746886810386, -0.007721670281270059, -0.010676392299566333, 0.06742883144994226, -0.05650912785007021, 0.0053241981078722, -0.07912167058966445, -0.08296754669930029, 0.03205225884602518, -0.06477428595280547, -0.005170761643026331, -0.09835760884515135, 0.00515166553932658, -0.01455047483764379, -0.056301366906950846, -0.050335806472328236, 0.010465643256233281, -0.07568739019245105, 0.013027804495776155, -0.03273964681190264, -0.029436230404187958, 0.012319711235088723, -0.11331269263357505, -0.016535589285948848, 0.11117392776783099, 0.006536995354324562, 0.005129143715114739, -0.03273267057237658, -0.051804491103541024, -0.07122071613675793, 0.034437182546756234, 0.03063652577126406, -0.03693020717486521, -0.07359867394750315, 0.05571819653970958, 0.026425662801084826, -0.0298219665157003, -0.13411817783221477, 0.026940986526711196, 0.055660100222474335, -0.014459385171663147, -0.029606900009332787, -0.02379392988474879, 0.023907718052397883, -0.03769010048546851, -0.10823607337558375, -0.015020744532698554, 0.04451638163826872, -0.015261507720896742, 0.06299263425879337, -0.012182309555499033, 0.04033958542766399, 0.02497459590932115, 0.02822716982840367, -0.009230505746848215, -0.04953223931561289, 0.08964282421921699, 0.004162777587938331, 0.0022997721949377208, -0.03347198474154251, 0.0004913380703140181, 0.012056893785404988, -0.04858909124263006, -0.012620155869727723, -0.031802692093906106, 0.01927679258095544, -0.056266488308113295, -0.061385929396627285, 0.04458406616064408, -0.01805305450473353, -0.008449813508816338, 0.05481018918383473, -0.027696618545861664, -0.07155857295749862, -0.005716900272003836, 0.03937649127130516, -0.03315680118196619, 0.022425269920667873, 0.08062681575915663, 0.034674470120060134, 0.07347280648254041, -0.05052554903371634, 0.035073996106180276, 0.009097863054047205, 0.031275159883725964, -0.07396228085285242, -0.07836034978339315, -0.04932387900742289, 0.004481356001189802, -0.024199909022911595, 0.08828767194909715, -0.011648256362886546, -0.11920684959043308, 0.07184449389705226, -0.07017825169842687, -0.0172649043544099, 0.05489863331774365, -0.07226779217755341, -0.018455935649330287, -0.03617938879975736, -0.04348745133870147, 0.042683400436614075, 0.039874571793283756, 0.010773145828475703, -0.013393803025022232, -0.07923028345427036, 0.052484897033782556, 0.0517034527934938, 0.024758209860839164, 0.023955615131923333, -0.052361581582826854, 0.010272176442648029, -0.08120079106118645, 0.002315539977091483, -0.06526991439741349, 0.06715724598192237, 0.006782014924422366, -0.025603298516190823, 0.016275446928307874, 0.07070908614190925, -0.04390521291019641, -0.030145374845290927, -0.02674471345873536, 0.03744396309788172, 0.10366822472046512, -0.0022702629576359964, 0.007997986120212219, 0.0078513242032243, -0.015918155025984714, 0.03618919301972584, 0.0573983842935286, -0.018159700526681238, 0.007677411963020939, -0.022761210311813156, 0.01668183872381863, -0.006736749103455263, -0.03969879443677892, -0.08504576361068666, -0.1120465762488539, -0.037855725378239155, -0.009361649411289055, 0.02382353717737359, 0.06371230802699418, -0.09477992050356958, 0.10862104491841149, 7.43146389612891e-05, 0.0351144292147163, -0.038686122793642856, 0.02135165935241888, -0.00504201268198924, 0.10267265140321351, 0.04033415990270301, -0.01621189919390438, -0.09315350200266691, 0.07531553911979136, -0.01217056137913556, 0.00476445467466028, 0.030034253089113963, 0.019848427672577964, 0.0054600285243218164, 0.02208514792057517, -0.004574960151392738, 0.02444299368246387, -0.05580851904548017, -0.005497000497273248, 0.030614831300505917, -0.05088537762070106, -0.04491521538551399, -0.03208684955964501, 0.029203798812691074, 0.005880894544961612, -0.012709144420947565, -0.07202226329494549, 0.09921184381033672, -0.02969234854873304, -0.05587670717838679, 0.05515857266882464, -0.05015517112861774, -0.09556210667886908, -0.04961840297639145, -0.08332501920495608, -0.010058580718939388, 0.07492439333001555, 0.07125886465366274, 0.0010241789475741404, 0.0682713104870239, 0.017037282616985526, -0.02408474670514914, -0.06338396630116029, -0.047570522926401806, -0.0941250462074332, -0.001553382317853898, -0.03152903202037432, 0.054824987672957834, 0.03969770600103083, 0.12526470054195882, 0.02499811059728412, -0.06653136662054465, -0.015594249309324305, 0.023652218553588962, -0.013818882052752304, -0.00897296945335871, 0.021272148988071962, 0.021896551987354754, 0.009932150269848814, 0.06523749997399948, -0.0890783259541305, -0.0664235669321935, 0.05947737390091987, 0.00046388870216998283, -0.05465603484550936, -0.00030927590775157695, 0.03038947930256552, 0.08603252027043523, 0.009729343596049086, -0.07921156810068951, 0.01837013209904231, -0.0033656809522660037, -0.03896151633262422, 0.009137210904787463, -0.07246295259032254, 0.01619931736906897, 0.06891454941091281, 0.0886724884843329, 0.02856861318638818, 0.008890827540126423, -0.03235883352712112, -0.11388859248984218, -0.030185713965888837, -0.12494856143864767, -0.02218556344362623, 0.03405001134384285, 0.0037257102247424366, -0.004628691370182968, -0.10738516334100644, 0.045828262374303055, -0.02177556968443907, 0.03902020477928886, -0.017522384904583285, -0.08487535452489511, 0.041889649461598, 0.038254770489535996, 0.0684232861924911, 0.06563917533550966, -0.02783150742422217, -0.0505926163878632, -0.013696262026611852, 0.0011136151044648169, 0.07464093276020764, -0.01479527627338929, -0.06573817419506241, -0.01419645344719239, -0.02076379904799543, -0.008349441947306179, 0.023669014023708294, 0.05949705077443168, 0.023467328796714912, 0.05959199988788487, -0.09670440549024967, 0.014191270691009516, -0.1279273041556324, -0.029340932130871435, 0.06746755814557384, 0.05611419775285407, -0.059928385631350736, -0.022504082660791614, -0.09503770243086193, -0.027461057933761513, -0.05018480277753221, -0.011601679894661304, -0.021938925968185464, -0.0367925924455011, -0.01210633220110514, 0.09599621902275927, -0.021942594711251595, -0.05017654775908765, -0.03178382018544914, 0.052839236900655805, 0.014983920800163758, 0.07695475030710704, -0.006209554258738906, 3.53955051827031e-05, -0.0017085473877880726, 0.024642867685968725, 0.029662189445457347, 0.03171302396392229, -0.03735456908298717, 0.0761747911994268, 0.014390688996541069, 0.09995314820521975, -0.009869596229929223, -0.010970688810706876, -0.02893059592674619, 0.0433714061233235, 0.0011354895945984837, -0.00430854091769365, 0.0064880550112718875, -0.023241660809926564, 0.007473594426686023, 0.02246037047211296, -0.013369693901824254, 0.03175234249452281, -0.01686284170751046, -0.04006266661240576, -0.028535039594234746, 0.003733466497685005, -0.03469733394314207, -0.05770947966660925, 0.04264943356885795, -0.046594623377739675, -0.06714463624633112, 0.015715259169534285, 0.004403617390444032, -0.004595593733275011, -0.07581958929355324, -0.06801558662323584, 0.03501642643193061, -0.09464072676274761, 0.06980355288638475, 0.04326403285200716, 0.0292782963634859, 0.030137108285905607, -0.07561241774336992, 0.027521303069146855, -0.08136419720292606, -0.08162639422234869, 0.02342735732043625, 0.09866526493121666, -0.005814490596571544, -0.011450688605146293, -0.008711062642351558, 0.03506327277524386, 0.022536699834895847, 0.08534002632076665, 0.03935539628729941, 0.011653405434692503, 0.03644716103711116, 0.10475893992625086, 0.027881302288694565, 0.05300073992628727, 0.012745716778033449, 0.041379223263587776, 0.07694092112767383, -0.029109685847715724, 0.0836126373814249, -0.0015071565782146998, 0.04472909791061811, -0.07923744538469367, 0.003107130436537936, -0.05050963800676819, -0.06171619904519265, -0.06841394289821352, -0.02350676359917791, 0.04525146007546251, 0.037973394240935064, 0.05833805555622201, -0.04508657605231806, 0.12814625224532541, 0.015756043081676368, 0.03399559193165942, -0.02951198162403539, 0.03655981134270477, -0.10487552667604669, -0.0015682829323668257, 0.0578019174880377, -0.09337558881182235, -0.03575210754771436, -0.02119704070035403, -0.0072371918219055874, -0.08625348163793153, -0.007758354773412387, 0.09194874022652784, -0.07119744499422145, -0.07402987314751384, -0.01330046473751654, 0.023359502253389442, -0.04618466942793107, 0.017912809438924628, 0.023546587133245565, 0.08965932196098693, 0.027999049550927576, 0.04846930220178687, -0.012953361313273674, 0.03658853771432377, -0.024738011970729164, 0.024798131389488744, 0.010902240658074044, 0.016741597537960663, 0.008383683219182625, 0.06184086125861638, 0.018158459851910846, 0.002975253845110934, -0.04046318036487985, 0.060672221642225556, 0.01513300362776354, -0.09156228939285566, -0.003944842061827666, 0.01760637600497459, 0.015479271151677305, 0.03530743166113797, -0.09954433015592362, 0.015204489100271456, -0.08003205315577691, 0.04188500122693888, 0.07107247166703438, -0.0035319348791379625, 0.0065877489174423366, -0.018010904498926086, 0.049892216875443436, 0.026902891232354342, 0.09718945285182277, -0.049497597119352005, -0.06598084730131568, -0.020179152484235352, 0.04690479180688139, 0.12324738572355919, -0.039744812522427085, -0.0401519705037011, -0.027051052694942186, -0.006248974203408963, 0.031517022460456706, -0.04723128108661669, -0.01187861538834825, 0.026377175497188703, -0.07037564622869615, -0.09002654266189783, -0.021534014421277774, -0.02973383051372153, 0.01686720695488924, 0.10708642360940387, -0.02619730555528481, 0.031048885958390192, 0.0438269510561401, -0.04926203585862959, -0.05718782248560941, 0.023700392438831375, 0.007969946184179533, -0.03603891203922273, -0.08162899829978314, 0.029541118279770497, 0.11851550575259517, -0.043940954368160985, -0.06125835041339752, -0.04387522385390867, 0.03050886689165585, 0.011002560449027551, -0.053104717510589684, -0.039295605954388725, 0.077549761131101, -0.06007485528959707, 0.04344193132610694, -0.12743935049513833, -0.07711081277920054, -0.03550406359375743, 0.030098977329131166, 0.0228626094957704, 0.009266374090088974, -0.04074400490740361, 0.06844466461604842, 0.03883789551087079, -0.03255196025588388, 0.007032692375499395, 0.12861729780113337, -0.10092126526627926, 0.06718309825489029, 0.06207391614974993, -0.026670357489566077, -0.012101879302870207, 0.06153185935325254, -0.0023721403650040717], [-0.1609672067951203, 0.09432096679364653, -0.007118073079495497, -0.07825040450512563, 0.0012185966710636425, -0.028941191425395592, -0.02130376481133474, -0.04927000538731365, 0.06818377632309512, -0.035648180816641235, 0.02894513017047307, -0.014079949284290356, -0.06496214133069235, -0.10069384246028569, 0.006536900547274366, -0.006091787077438568, 0.09217496566849057, -0.011803039573995599, 0.01689660154912858, 0.05760255002043518, 0.037994732915558445, 0.05549608632106844, 0.00046821281208360037, -0.016229322328605952, 0.12791007782124766, -0.00029500752597970707, -0.05203468756732273, -0.03716233632673131, -0.023081988222522883, -0.06932591768179851, 0.07705118050136381, 0.04780036692117092, -0.043530554228847856, -0.008505904148107233, 0.03348404529421915, 0.05198527300585571, 0.017093601539177133, -0.044302592760084455, -0.020938933734070103, -0.03974908090459171, -0.0108226040240069, -0.07924555300663438, -0.04455416139634593, 0.06765754927941328, -0.0026240840177488255, -0.0014873571290781908, 0.05657660723054745, 0.01874724288349953, -0.08729024951062023, 0.017060297440490268, 0.019166534401331814, 0.13716330205041824, -0.04196187731317215, -0.019595273727339903, -0.031530309817876356, -0.06859298219254072, 0.07810999146192966, -0.07057675602724159, -0.058857784996237006, -0.029319479425944893, 0.0036085614411164417, -0.01919780764807737, -0.053186385021506875, 0.010852253869648252, -0.012116583544528773, 0.07384024184208883, -0.0006120726564964187, 0.004708501283438748, 0.0025159242079274154, -0.05812219129713521, 0.09536269136924685, -0.021239200342949814, -0.011619461258352526, -0.10781926994086197, -0.0046290527975478436, -0.0049949462607369825, 0.002507907858177149, -0.017142349559603857, -0.09355202619586098, -0.0229524050504724, -0.06962225929956442, -0.08012673755242344, 0.031033387135819348, 0.046756914248196384, -0.037572958918985884, -0.021659974272955657, 0.001482079326980291, -0.040874277564464025, 0.04235009385238495, 0.07554589787981837, 0.025784830591982805, 0.04739373512954905, -0.051858022389762545, -0.026917946636951257, -0.030965159229534276, 0.05101720827264891, 0.018869374356285037, 0.048523732129415985, -0.040129135428101675, -0.05382432378985266, -0.08320631100205411, -0.02703517397222352, -0.005136340918758348, -0.02753067688994389, -0.041919958190377075, -0.01982117300643697, -0.04023248701739865, 0.07195025633085705, 0.0045538784771247546, 0.10032057946924358, 0.06654964211393152, -0.08714230446005077, -0.009656519495383183, 0.02591818420209473, 0.028045121395050398, -0.004065377578139762, 0.08300036932244216, 0.04381953850395158, 0.041302873080492325, 0.05245706802162537, -0.0785315204962922, -0.031431417824175675, 0.04545362359905803, -0.07891372945408641, 0.0611307760545695, -0.03947136948623862, 0.03935602340667527, -0.10763379995249532, -0.03457419778703357, -0.05380807565695899, 0.014274684530254381, -0.06799869470238949, -0.14204971340104644, 0.06654450701444233, -0.016954834950549873, -0.01677185473047997, -0.05589444007854265, 0.016335190714814776, -0.08122812089419873, -0.05586540261282385, 0.02600192974483356, 0.06863130177541807, -0.00037659153199160573, 0.008525256145555367, -0.0041833581548908726, 0.04810245573739866, -0.02391580426592836, 0.021854640378235157, 0.04322982427062496, 0.04325402840531712, 0.02318435892906187, -0.035825975839875034, 0.01798025009203773, -0.022538680610557943, -0.02471325070016866, -0.02374003720005719, 0.09381921568678789, 0.0008920499711316282, -0.057242694764470865, -0.0166964725907343, -0.08732083733446569, 0.02723253590091205, -0.03603684709512464, -0.010822786203320731, 0.09954332477118293, -0.028835659383713998, -0.00527934822815531, -0.037194086922511, 0.006175822164465018, 0.011061116879275947, -0.08022412251338551, 0.005063585687724389, -0.05058758244322157, 0.005737783282046786, -0.11876307506278216, -0.04388942271058945, 0.01966018621126048, -0.019739269648553315, -0.007599026617234449, 0.03654877120488516, -0.030430766464686475, -0.038430201362429466, 0.06562565575714496, 0.023332974013162918, -0.05546558242525414, -0.021828921541784518, -0.040202810893332906, -0.028378839328129915, -0.019177295714921726, -0.02643505218122848, -0.049201586675284535, -0.017272877918072697, 0.0007341450457805272, -0.00939820273687182, 0.08318608921540324, -0.05507405411196562, -0.1077368519240845, 0.14234191997257237, 0.07086913995692638, -0.10622311976446172, 0.013634929959588784, 0.055728606316848166, -0.03950602869225039, 0.03916696105641094, -0.06923786855276423, -0.034560819018996734, -0.06563516606422559, -0.0459241582382464, -0.013251006314579726, -0.023980888782019736, 0.042796147355375555, 0.14007330834371415, -0.03220181486113663, -0.0065117075927522035, 0.03828407527995717, 0.004056614771081073, 0.08760283676143499, 0.015799700491066198, 0.054818221503334846, 0.08141425409110103, 0.04820367116941177, 0.010328513617054289, 0.043399860013090145, 0.15611522060436117, 0.042771269925365896, -0.07478320111176034, -0.022497153424699073, 0.034839232526313275, -0.09530889440185662, 0.07186381147001535, 0.1101933500527601, -0.11477674265169827, -0.03291224559321761, 0.0632263457328073, -0.07438422271555459, 0.05628132790450406, -0.05281718575626089, 0.020401669294418116, 0.004146788998569512, 0.08187508158915663, 0.011051180294263985, -0.02044556824585188, -0.007669198262598211, 0.05221666269940596, -0.019896039581622033, -0.056229464622354106, -0.17868033958442722, -0.04537656827714147, 0.04380600527820461, -0.0750724843088474, 0.04533317187672586, -0.013627391641941412, 0.03246788012025002, -0.02185906950476275, -0.046904838956322324, 0.02406497091632377, -0.013812613725330113, -0.06609936646365286, 0.02113442251361448, -0.0014595562196421214, -0.003584689101311135, -0.014086235789023705, -0.10963396361502169, 0.01828268393494916, -0.03304507414709818, -0.06750501359199669, -0.05422274038983575, -0.08723988422177553, -0.020038164466812027, 0.033233788555902435, 0.01414780894864856, 0.019749349243980766, 0.09233850924952945, 0.0076054969888879834, -0.07949189908074676, 0.0663353168815226, -0.03725911015791178, -0.09333399805376452, 0.04050450044715361, 0.018194307998646006, -0.07763857533815231, 0.06835783352901602, 0.09175609373863124, 0.05545783792186218, 0.05610159320015874, -0.06686704488033515, -0.060478098759724354, -0.00730114059220549, 0.015965789570024865, 0.0015259882410151658, -0.010444368776285098, -0.0025526714608267572, -0.002575726710683153, 0.0968513467597879, 0.06976475306069127, -0.05813222606016801, 0.023524481306024327, -0.02967502481104921, -0.01991913795226141, 0.007618460988158541, -0.13407742621552793, -0.0005903472093599995, -0.039261827780929515, -0.09059909017298771, -0.03944326312603066, -0.04864523305397227, 0.00678262074783285, 0.06874346074585447, -0.03208937523500871, -0.054683512117057374, -0.016117577856367117, -0.0012822073682926696, 0.0630323300400831, -0.08495663838674244, -0.010127307434538727, -0.05819646535406231, 0.05938888470728063, 0.006407000278440497, 0.0027429888484968236, -0.08813518832456924, 0.09933770343823363, -0.0028584654030619767, -0.04278881995994636, 0.010610706569280483, 0.07589879484621802, 0.04607652493501028, 0.07227659218414834, -0.006353272919890583, 0.04979184663775759, -0.03148648600176659, -0.029157205116444405, -0.04458702101771416, 0.000824805273191744, -0.03153593057944624, 0.0361112824967181, 0.093990609504944, -0.013219428637314382, 0.03416393610430971, 0.05682604212760253, 0.014674992615904587, -0.008783860059985169, -0.019804159589828285, -0.02681882842295006, 0.003779614723471407, -0.028939230721345372, -0.029895921280168433, -0.018343741325778446, -0.06892880488015883, -0.026494044633016408, -0.02338880844448958, -0.004932382128354922, 0.013556240155473728, -0.023825176301069916, 0.01356972898668929, 0.016637348132090387, 0.013985385860805872, -0.023120481410937685, -0.0326163979267071, -0.01344040380070333, 0.048414854786678514, 0.07924386610635621, 0.0964971345422636, 0.04940219707251058, 0.03759042085777933, -0.06673266851909966, 0.06074587908693574, -0.031186045269587723, -0.08527711372937888, 0.027781274558306496, 0.014113862735879456, -0.022052156615369314, -0.022376417806842686, -0.07754464076532867, -0.10373055181580172, 0.016620155869381745, -0.06613200537084415, 0.018005582686122627, 0.003978932780813992, 0.011123816335002985, 0.0039583698654284015, -0.022364543679900303, 0.008731844285403354, 0.013383217274904631, -0.017686889521606925, 0.0006387272616357271, -0.005338661018618491, 0.07165789184268048, 0.09660708404427637, -0.040869374559235894, -0.040666328183201074, -0.02071822978654085, 0.04925098958405578, -0.07362933680693867, -0.02490194011752223, -0.05544806014699568, 0.03912445594224919, 0.0517093702992365, -0.007670093002768738, 0.002921532060863977, -0.0007635892253001179, -0.08740924498192564, 0.009862877284468498, -0.04258333801674092, 0.00535763544816134, -0.05622923788980758, 0.050245968197226674, -0.06857262994957927, -0.03131310900637367, 0.02592431607293793, -0.05888616994652714, 0.006853932310628174, -0.14244517386353472, 0.03617049253784554, -0.05935099698991623, -0.029211354364748386, -0.03078550271713807, 0.0075604424898392305, 0.003023449722020401, -0.035642506902672254, 0.038966811829139344, -0.003305557907296833, 0.09318496588965872, -0.07507349717341122, -0.032752022302128286, -0.1521181069488436, 0.03950973511861016, -0.06463218127963555, -0.028502068932712395, -0.0026618981289325615, -0.08173013800514199, 0.01640430948606551, -0.16294317576214246, -0.03355626223455356, -0.05435160964837053, -0.03424485641306777, -0.013837931257770313, 0.17728792570525556, -0.09933297787714121, -0.05502858360551668, -0.04039207354461575, -0.02214373478221887, 0.06292768646579792, 0.016761781844045053, 0.10316852100955247, -0.05046607623249676, 0.04289355057612506, 0.03792297454063667, -0.059464283199981614, -0.028327048123189695, 0.013249261912262243, -0.029316804475438187, 0.03614348555810376, -0.11261524818881231, 0.008196994152511268, -0.007018710909575345, -0.1074519209745815, 0.002733739061266199, -0.029516078031842412, 0.03619435348771916, 0.050200265280069406, 0.04667157842055283, 0.028047609246642215, -0.041024795869855656, -0.004778220043634092, 0.03326243416436797, 0.02196696040698272, 0.07426382629422351, -0.0005259615396957791, 0.02356961653025354, -0.009988928998237482, 0.008465092426917432, -0.022524775697660624, -0.07917744411214475, -0.029067244066536768, -0.009226285691127883, -0.12860613641081992, -0.04685710603426558, -0.06314964622068607, -0.006532454124601086, -0.020425746379184682, 0.059922107305462935, -0.011374352340750404, -0.007021631970295892, 0.07073436008673256, -0.00623106241614767, -0.0043722507873359745, 0.03914965253869544, -0.06932763144606323, -0.0856914331499327, -0.059697377307053455, 0.03956641419989363, 0.011549280150486545, 0.1001275660846882, -0.07322044127458341, 0.06903954823947984, -0.08908278815499067, 0.0282845120834268, 0.06354422299106473, -0.013772577807458476, 0.01702986240183874, 0.012789327425873851, -0.02370961603269698, -0.01755004906946028, -0.0038927790851211942, -0.0789313563408461, 0.01536084235738315, 0.009252455942522574, -0.036713065681875094, 0.02430105666888187, -0.03641097553265607, 0.015469116625041614, 0.019729670181385116, -0.10757240245519682, -0.028298826369842107, 0.00871777302308692, 0.09824141635123841, -0.029683403493087946, 0.08813628308938407, -0.03252743752004179, -0.055888404319888556, -0.014672511775332053, 0.01726583305558071, -0.043578939131191846, 0.04721335118694296, 0.031388248265722306, 0.00440668370227925, 0.06416163742015253, -0.033908388316510524, 0.07198689872691857, -0.03736196658967124, 0.04480520714830759, 0.000180201050255952, 0.06700933395186877, 0.019146268580194886, -0.08688570173764545, 0.011114019205910384, 0.014595672997184521, 0.016125334901393867, -0.012345238490827817, 0.009726272282544454, 0.022538188764561103, 0.04174837443816672, 0.05608627628966346, -0.049074242755959806, 0.01612282685205289, 0.043915368154248305, -0.04073675172506916, -0.01486701259406506, -0.019310450844331778, 0.03129556826912473, -0.1027962142763651, 0.024423844335300683, 0.048329574145774025, 0.07875852888294842, -0.008048804731817174, -0.03285252248450217, -0.02000543535288635, 0.027483532903659985, -0.01895712791021563, 0.015624376045031115, 0.03595310156161868, -0.09027261361337298, 0.04434851433383362, -0.012397186593779133, 0.002636506452741943, -0.04878662480406818, -0.04133778907950676, 0.04566505656015479, 0.0748102222255555, -0.06565846357626268, -0.023833613407116525, -0.02924015373191755, -0.024629500685349505, -0.12592818091260832, 0.007578859296068026, -0.01100102033615599, 0.017511801216466703, 0.026538515284059816, 0.0592794571943269, 0.0013193340597929648, -0.010902156948317547, -0.01584896336426562, -0.03976233657324759, 0.07964356038744827, -0.045648434623638955, 0.06337112330947785, -0.0016832954379897018, -0.01591492927199983, -0.024918614997254084, 0.04420945916110715, -0.018966476548379473, 0.057392181707286605, -0.04602387950463773, -0.042007390878790477, 0.0647991920074383, 0.026053016480279745, -0.05581470927393451, 0.06876484266540137, -0.027232698102219066, -0.04268874047474976, -0.036945809747347104, -0.004763485240960541, 0.051507894635276795, 0.021436229878684515, -0.02560868887219415, -0.03129503778274452, -0.03762011016148539, -0.05703180683788312, 0.07756815573038435, 0.03835039206621335, 0.05461004064744604, -0.0635861439385991, -0.046723334014343455, 0.01825704512908197, 0.010440957411654702, -0.02962517543354521, -0.05523894896055767, -0.028128665941417413, 0.00924657641520014, 0.02636102685026716, 0.008844701180228377, -0.018022202401996743, 0.04722220853774141, 0.06330379701324579, -0.029934064431874078, -0.02679916095101962, -0.031776353127876404, -0.004598363342521154, 0.006129696967481157, -0.007131888420834009, -0.06791027655497699, 0.02948477885737661, -0.021631021623401504, 0.0777935646623654, 0.007099431312733538, 0.009510176788777564, -0.037110306594852344, 0.05774452114774197, -0.09492451550661095, 0.039095818218362534, -0.01807238678015861, -0.0644035667844809, 0.01285378644021931, 0.11797197221957113, -0.09891638048914106, -0.06597087844457658, -0.043417124463130126, 0.023027091546577252, 0.05391331508555312, 0.019908813702651813, -0.0027884706943692213, 0.005430962190859143, -0.02306531386165702, -0.04447674572497983, -0.10592615904508786, -0.0964154486288147, -0.05532633232914043, 0.0003485885552916979, 0.008122324979512496, -0.003401134652173508, -0.007926049998353559, -0.04646529779590671, 0.010167459559859449, -0.05823830134997996, -0.053974085521086956, -0.04387506493215179, 0.030173827586675056, -0.007209353778050444, 0.05445296910022421, -0.004744617825632836, 0.0048658262333383506, 0.06413774620555357, -0.029036807152629473, 0.023588789110881542, -0.07880989623166818, -0.021499824034707377, 0.04124378402169055, 0.07395943560096119, 0.03880336610298596, -0.03209770475207748, 0.012773649028687167, -0.07163690526520429, 0.07757316535474466, 0.04976152109670986, -0.01857298640391553, -0.06699999818858626, 0.031016126374863756, 0.05595823714079154, 0.0009122371045521198, -0.02460375194680762, 0.09530825807324105, -0.099715213535232, -0.005138557827209973, -0.036130995957182006, -0.04445898466356395, 0.028570527095169676, 0.009576634965303657, -0.017079188617625037, -0.05431490915305981, -0.05061317914156954, -0.10387695700691604, -0.0088635189510574, -0.00581316039297286, 0.04957015558536419, 0.01390137155115645, -0.08215085825404968, -0.01404219024057609, 0.005344797415241901, 0.04528816745845574, -0.07298431120494932, 0.05266565611331268, 0.07767334019152485, -0.014811511533005995, 0.013746660650659014, -0.0006673424227840975, -0.0287478679559235, 0.03926956352866291, 0.0009562650767839034, 0.0537040626467534, 0.01742953539375527, 0.05000183818548423, -0.014282245177892595, -0.00595088631796648, 0.08577031214160115, 0.024503262554802372, 0.018166861629310745, 0.026457637240314205, 0.07722808878561224, 0.007306579440676555, 0.0038874753318143113, 0.046014673899540656, -0.03737806330378841, 0.00020421854034136986, 0.006668856139599904, -0.05587202648835717, -0.0426535941326528, -0.03211879727015629, 0.12414342867689246, 0.03525144671314376, 0.012726087169068584, -0.040923084269069245, -0.08716768856783182, 0.03271829963482802, 0.06053215957830595, 0.050924899443272977, -0.005224972096067375, 0.10375795730953914, 0.051855058496453076, 0.023101281468109067, -0.017001014149591324, -0.011754111897041881, -0.022829752394938355, 0.017303238188921575, 0.010448997614622165, -0.0125273126138768, 0.027894286599464104, -0.03148978135257328, 0.043079559284973444, 0.0018378993636927823, -0.05302155098884798, 0.07347220327779568, 0.014400281420893142, -0.01879221293244807, -0.0020173496602834047, -0.04421669238547221, 0.0494502959992795, 0.05827805719304491, -0.012792645357943552, -0.03400286503791901, -0.00576687253488537, 0.02312850501565376, -0.01535889621962896, 0.0019310885761265174, -0.018428519325159078, -0.06621548630259508, 0.03503577945100339, -0.03693287268836291, -0.03511864637092136, 0.05834629382275687, 0.03742715122058689, -0.007302489377993622, -0.07472091330466725, 0.07648783822354627, 0.011134924329155426], [0.0608656485342093, -0.037535153560195024, -0.08773517948560637, 0.02437177369271735, 0.015611950828902538, -0.09200811002859087, -0.0032427069742239777, 0.027762769201933196, 0.040931624885857845, 0.029033800726410774, -0.06199362305995374, 0.08743567937760349, -0.024483886057280004, -0.08900315480191641, 0.003121169694722437, 0.0019968142001889704, -0.02018310223239281, 0.04976800472360013, -0.06899385809755794, -0.02463671192344202, 0.06246924637855419, -0.019171041894081132, 0.0008970884367067814, -0.03311523179515599, 0.08760178016190424, 0.08871817572541167, -0.0154952528266179, -0.08412606378386439, -0.03379891401872891, -0.012821907529760824, 0.03048914553254066, 0.049982648037565934, 0.020193805336942015, 0.06046789585178862, 0.0847376392031278, -0.03182664547751465, -0.053159128932271205, -0.008615762748342142, -0.01538510360297416, 0.033334919441171694, 0.020821710408254226, 0.007477673902125254, -0.016426291280265768, -0.03158770950544056, 0.08453324679539743, -0.03999815717345189, 0.044949797457050675, 0.09828261742530739, -0.03187017989973679, -0.0160021789729813, -0.08999034604109046, -0.07172486336527929, 0.04877109633818487, 0.018559239731188826, 0.07270678310161448, 0.029362172519952278, -0.032014957865742995, -0.0895399128978661, -0.049020494060965175, 0.05052422253904867, 0.008108442912619598, -0.04314201771423557, 0.06263245100851703, 0.04463680473072301, 0.04720201289655737, -0.06915289890260466, 0.13553800382754413, -0.005107786420097185, -0.08191739952753897, 0.00920971843347694, 0.013431790262511721, -0.054764563013628365, 0.02867048580222072, -0.02222739493918207, -0.0038023915408677156, 0.050059852131447924, 0.05987166140020107, 0.08400304978461383, 0.016112318811373202, 0.018300743736808744, -0.016424001066222382, -0.04104565753202373, -0.007589670002891638, -0.06891260346076376, -0.05945467999229314, -0.04027001902374123, -0.027034329242823472, 0.045979178528707976, 0.053328072884173607, 0.023993150557219914, 0.011674735198709627, -0.025981055301831875, 0.009202148168005473, -0.06542836156411996, -0.036858679956302265, 0.03444936758851734, -0.07539207594249818, -0.09307315709320642, 0.005388121251917376, -0.019056537616567382, -0.033935000740206216, -0.02455730640983944, 0.08085907489162465, 0.02762899757826938, 0.01921651687759407, 0.0074836316799032285, 0.018857695873527237, 0.07072103374331155, 0.12748388865948412, -0.0500050838557372, 0.010622863819456617, -0.11377393187223904, -0.02588871398288643, -0.03935800357569541, -0.0173546522167981, 0.07604526504044996, -0.05517796907789947, 0.05440450676377277, -0.021913175389842297, -0.002134349716058641, 0.04160616047065466, -0.03599811476626267, 0.01495959551536312, 0.04374501179480704, 0.06931808354757894, -0.03388034060226251, 0.04987972736312493, 0.07489070128324622, 0.012255162968687226, 0.07337797904781741, -0.02417133607211578, -0.04530918127460614, -0.035223208241940585, -0.04423436229999721, 0.025540439240627853, -0.011110005298203452, -0.07316728529553913, -0.05023926964199639, 0.053193738453344463, 0.03479538707184242, 0.040227319058551265, -0.06460317481718286, -0.003389288005118968, 0.018404705316782285, 0.08533234656763987, -0.03217575166877569, 0.014910631278722712, 0.08215065348165498, 0.00031888337938146066, -0.00358228357729605, 0.023553779478625057, 0.03304028375519024, 0.003430667322411093, -0.0017064707043093319, 0.04877258483039537, -0.00841491209668711, 0.054691582088322414, -0.04371180664055937, -0.03967745361588007, 0.02886363084632593, 0.006539786818751414, 0.012926350992589056, 0.009973083400396082, 0.03617771492516013, -0.002661781124300402, 0.02201174429489833, -0.02224742566643897, 0.006036312975691932, -0.07062168618140557, 0.02238589608312053, 0.022380049061466695, -0.03408293583941679, -0.003631235553014829, -0.003854772139357962, 0.018258927169989746, 0.0012172607349048602, 0.00995673025361262, -0.04304157150313403, 0.04117288728323401, -0.13220664611639962, -0.03564112210241538, 0.07400409314259052, 0.027162930424643673, 0.11289923627549775, -0.055880275011379446, -0.09383210096652798, 0.007248216654986809, 0.03948221537464742, -0.08677083130934228, 0.12456369355933951, -0.06597007549426487, 0.029239415205531128, -0.04560213697001557, 0.01734209196278004, 0.09484792611133892, -0.023089462688532708, -0.03610119992563254, -0.023577396955024286, 0.05221593008620448, 0.08508385323581415, -0.03340861395637009, -0.008172779755007102, 0.07956899751407796, 0.01443529177124354, 0.08879636256375757, -0.08664407866018825, -0.006988568034813709, -0.06378481690652042, -0.02624229381590684, 0.060398593376203666, 0.001030430734751947, -0.04255127082444822, -0.05499226467302007, 0.006385334345716645, 0.022377591908568754, 0.10107685667752189, -0.019668031967649307, -0.008676936278325297, 0.0805972962188195, 0.05835601316019095, -0.04429544865295195, -0.03784481252463747, 0.00230272149351745, -0.0473853627819391, 0.029364109065093926, -0.11967799872816955, 0.0010910477166346062, -0.09014741695820522, -0.007929952006753335, 0.02083960172866792, -0.008999754024926835, 0.07934693543456144, 0.02982992632413066, 0.02778615137782054, -0.024680796691682397, 0.08595478016515397, -0.02992340040755459, -0.02274555347259784, 0.02579072783041872, 0.04905312233501635, -0.028469870929403347, -0.16537792846031912, -0.09622185368994383, 0.05506939309549559, -0.034237408034670555, -0.025970285536927613, -0.06729647570650103, -0.031188757516141613, -0.035559252255237345, -0.07205498241692058, -0.006948092789620581, -0.03875035905323532, 0.04425051907441332, 0.07565734611698013, 0.05650984510251779, 0.06866318610093766, 0.000870969333751602, 0.007216056433153695, 0.009029668941868395, -0.03517060370736824, 0.007968459822794866, -0.008677012737252696, -0.016230957819249082, -0.05604209156496145, 0.053633610953419536, 0.006014080162217713, 0.09469774125086866, 0.009690590351465155, 0.07993798793363095, -0.047686745749766786, -0.07013376703433474, -0.06875711345313856, -0.08326361405630131, -0.025231260885235807, 0.03764236440534915, -0.01942513053230094, 0.02069854536899277, 0.022410742440784732, -0.025652492234962864, -0.07399743048315045, -0.07215944162567962, -0.05351616172152204, -0.028409023798543924, -0.011460450330532949, 0.09345227422449963, -0.04357138864593348, -0.07708803585073687, -0.00540929237495653, -0.07392592394767752, -0.06527562822186744, -0.004412517399821169, -0.03485430308816981, -0.0031811282973925586, 0.025245486935252057, 0.004767258931567808, 0.04225080759606435, 0.046839482885557726, -0.07066214591996879, 0.010437383898597474, -0.11471428125968548, 0.06894916472085641, 0.0037821201742859927, -0.04483395033355155, -0.06522548508855011, -0.0638947164322965, 0.026240081302244787, -0.045073695238422445, -0.015145272752601508, 0.022754976164787322, 0.01613855620085805, -0.012431698829486639, -0.03534026943050782, -0.0934320069236272, 0.07302004825377026, 0.066405468894286, 0.013595395943525712, -0.06420667456348886, -0.07119337727122947, -0.0089206033680038, 0.012591020956359628, 0.005583218536716316, 0.031449160695270574, 0.015532415133340052, -0.016192744872963537, 0.085640532191183, -0.06271755866281448, 0.029662636438452145, -0.03412356441115916, -0.005549409178737311, -0.022815230674641876, -0.013595428724787419, 0.04181747278492261, 0.07604725233369578, -0.07604228338883007, -0.04646019900876282, 0.027117662300118542, -0.07401627989121413, 0.09578461873394221, -0.041768288771965326, 0.05485971418995862, -0.036839879956769524, 0.05076796499196747, 0.02790955585795423, -0.08205915541476025, -0.0770108930275586, -0.031645824608951885, 0.004855467924592926, 0.14832269204501827, -0.07513876463217675, -0.08051729151613146, 0.040133802227428315, -7.990245691323583e-05, 0.049826429250789984, -0.01393438814477377, 0.0021590162775289735, -0.10069497640368913, -0.050681663223954454, -0.12542031102089324, 0.07431689901162201, 0.03228793518103705, -0.05279448281484738, 0.04241123071069369, -0.014810482359502875, 0.019583070437483096, 0.023136077858006428, -0.07279425804763542, 0.008132528621884901, 0.031168508206878207, -0.05691902385885528, -0.014055555215125618, 0.02834256881632483, -0.019890930638550894, 0.02105424213633945, -0.021467913781073607, 0.03420227422152746, -0.04733472341788842, -0.014229252710751435, -0.014261467083575272, -0.018341851914957477, 0.059319961663768454, 0.12265055499682516, 0.07724430845422287, 0.09996690846246571, -0.08340683418628873, 0.005649778402175654, -0.017714672364202773, -0.02117553447489833, 0.0005468244650155718, -0.006368367008309156, -0.03733368184786997, -0.002461078800030646, -0.0033179758320686197, 0.060330849126982104, 0.08383122603087755, -0.048657293570597115, -0.07747436748647048, -0.05987411351648677, -0.19482721525114302, -0.010430478532612489, -0.01291493270248785, 0.01585503531931022, -0.09754992134561315, 0.036521172466382285, 0.09194345833023669, 0.017652298752290716, -0.026056327654416747, -0.01263783690750203, 0.01651619786985805, -0.09544037130744878, 0.0540870685727594, -0.05514141649908088, -0.016006659831590917, -0.009889792753934147, 0.012987827645738264, 0.001274698364965605, 0.02574639276854146, 0.040473698506198884, -0.0630766436594602, 0.008876240740089202, -0.007678149204322344, -0.024640476119109526, -0.07757736653214496, 0.023254748182329383, -0.012743331102049643, -0.1392507724152728, 0.06763289327830287, 0.0591836152937496, 0.016453653142288385, 0.11790962235474228, -0.02868297347956118, 0.08694420249730894, -0.05684604883442118, -0.0046086074098358725, 0.08549755688855676, -0.0030657262030010482, 0.11423312616919146, 0.034500242175497284, 0.0026040126050121755, -0.009290684194958017, 0.026827855730673793, 0.027529511295585164, 0.02336466088379369, 0.06938043265719966, -0.06776389056542309, -0.012427159985345784, -0.05368349684372064, 0.028447338030344896, -0.09771659856338677, -0.025807820106035793, -0.02292103572791672, 0.06964923739217947, 0.06136434874843166, 0.015018473643089107, 0.015716425258236712, 0.09999104413361959, 0.033760135566676536, 0.011934222246961305, 0.025458668688701253, 0.04884982968724254, 0.02421181563641136, 0.05758235076126866, -0.028474214208284904, 0.02877048745319879, -0.0659850666963337, -0.1397822543135424, -0.04541539576310047, 0.06942640524018479, 0.017191794817587182, -0.049778761965380745, 0.015533217471649886, 0.0142712394467005, 0.010655394460129903, 0.06389995938369095, -0.01031893111485869, -0.058314669360388295, -0.036327091357735805, -0.1186559762324846, 0.03816654708227196, 0.007888899316157234, -0.004093286735295652, -0.024021107795646278, -0.015363198691764921, -0.04345498993152501, 0.03948002029905173, -0.0251058098425796, -0.012086658465813341, -0.037135178906197414, -0.06396595642972717, -0.06592175900590672, -0.012905653844775836, 0.02379259011263935, 0.06333369140000877, -0.03131503225970589, -0.019019133589039852, -0.016724007416291837, 0.031220112414935414, -0.03898151410343822, 0.05700686004397675, 0.01629746681081232, -0.007791252108396109, -0.009307798063097733, -0.07667194487924663, -0.038794180478923856, 0.08593686670313637, 0.11582969456964759, 0.049442649530407605, 0.03966645443190445, -0.06418612128588146, -0.024336743587119895, 0.0070590040248229525, 0.009034126090810805, 0.05490859137321354, -0.023087117298918127, 0.04924142953002605, 0.10391974882739467, 0.06294539307255388, 0.0690791948801489, 0.04102202992867833, 0.007208401777429776, 0.02921632985562701, 0.036069642110975235, 0.03308808494401398, -0.04802359962628902, 0.0025120124112687427, 0.017367483177388846, 0.0507379098767004, -0.02308712104919994, 0.006070697138075322, 0.008355735446607867, 0.053218407147020544, -0.03300693974293945, -0.005821006899088608, 0.04611056982040376, -0.07262842878277301, -0.07028935879571704, -0.003098594413324742, 0.0207397498059906, -0.011800795845430407, 0.035243728161138826, -0.009088308197797408, -0.08557207549204962, 0.09280717657701212, -0.046463087547959074, 0.06905836951235073, 0.016033551351765932, 0.007766092014997863, -0.021797856001771847, -0.0017372647282482606, -0.034903844130039954, -0.060630858724117054, 0.018953715752643853, -0.04518859550626946, 0.07944257333182403, -0.04533979400430926, 0.08776388642199537, 0.049143736823766555, -0.07104478895078722, -0.014056915469625512, 0.014699938486136913, 0.004858831947766845, -0.01741517375955924, -0.08526884647914898, 0.04500225255602195, 0.03458113872307797, 0.04742326884770784, 0.11984192030989095, -0.07222632182164643, -0.03942035456439549, 0.07109393289192117, -0.0658491752100674, 0.008888659107157764, -0.026219820668063245, 0.07204180913387587, 0.06513785743812991, -0.01881743977729817, 0.016610039223754057, 0.04106377739362884, 0.06167853769619942, 0.02364826869778825, 0.04407194534827136, 0.022573142266882, 0.021224348974524656, -0.009351257802227802, -0.03185904689136869, -0.061529863405137386, 0.01761047178290425, 0.028545041352151752, -0.019622940356532306, 0.05595241947295427, 0.07070674630557403, -0.028354832365723868, -0.03174189128212719, -0.001147675000194482, -0.08460148731195621, -0.024817960698734143, 0.03177061521519741, -0.10742850978628889, 0.09747093283700792, -0.017396217883964168, -0.05014163906409726, 0.004527887441721731, 0.006858579549743243, -0.0475529820857521, 0.13792190001084936, -0.10660450144060712, -0.03420729631990205, 0.02927908437641913, -0.08066609785040642, -0.002053990923861166, -0.08477308058258917, -0.10533329610220625, 0.015015771078594998, 0.02149490984124691, 0.0977478280472676, -0.04490190280588483, -0.06269305425715775, 0.024039494769584994, -0.03767792462046229, 0.04588779756519766, 0.008952124946767911, 0.05753713400036521, 0.04458534347483382, 0.03841392339002905, -0.06702439332766484, -0.0023412871363813225, -0.013766732949510526, -0.0252728045368904, 0.013298221290585867, -0.027606195585900023, -0.02180836355118375, -0.005837045242394621, 0.08646433025810403, -0.09122093417687498, -0.04999763499646826, -0.0558326370829282, -0.04381109282344206, -0.05470888616279656, 0.00805450134991898, -0.08867988424206132, 0.03407062785179769, -0.00033008397860563154, 0.038265177990778956, -0.0242496788816353, 0.007929798449070732, -0.019829942791030352, -0.031079861564330128, 0.06511353761089876, -0.09797600557932246, 0.009543095053075715, 0.11076365420545452, 0.020281609262375284, -0.04893025600458581, -0.062432272070027356, 0.051190093195287376, -0.07959409968427623, -0.04558391319814518, 0.04721085204388021, 0.004478806072820885, -0.025585002450021287, -0.03159221764948837, -0.017458297918399993, -0.11886738686111167, -0.05412259901518065, 0.0768358093318256, 0.07619823333915411, 0.01675017278333752, 0.02762644911747856, -0.015331064133163659, -0.02592015264064685, 0.10550583553860444, -0.043760880089701026, -0.108454718349101, 0.004106346009049573, -0.05209191780350422, 0.027917866838602153, 0.09220893489739086, -0.11748374451588721, -0.062080601533904683, -0.05789314697051653, -0.05384518715542155, 0.0756272929637214, 0.039327628463332695, -0.019008093024706595, 0.010452003846027694, -0.03754374898337699, -0.0946705887588108, 0.07026801696854612, -0.006889489438462331, -0.010991302136578498, -0.019391254744209586, -0.03922924756270942, -0.01656566761106687, -0.012230319130561766, 0.027208484899915394, 0.002254531642269965, 0.059549118541381264, -0.07603075350678277, 0.058813259760273795, 0.10253081838147428, 0.06967158750132232, 0.01683633687477487, -0.020316737422255846, 0.02130291715328386, 0.024496359618657454, 0.04881058718623065, 0.06049037393882426, -0.00536725185480634, -0.03099015500470835, 0.012263396902471899, -0.012040296587494823, -0.023167017558909757, -0.0017330880432677896, 0.06242109010640551, -0.03814665793234028, 0.02130417990665934, -0.07043550040067567, -0.04423956196004392, 0.01861798589438996, -0.02192885491927772, 0.006150661516450953, -0.005977246174277744, 0.05117750467067075, 0.01435401518295345, -0.026285523004883213, -0.022998356395315066, -0.05694327601686829, -0.04949369029052715, -0.007585371807799301, 0.032857324095414336, -0.06563539150644965, -0.029120733844100903, 0.007155901407225246, -0.11593919752420752, -0.014259145822177577, 0.011855013300864825, 0.03583537676990559, -0.005328181684100216, -0.025839178392395256, 0.019572149159112474, 0.02679494533795575, 0.0006539310677294588, 0.03725121105729625, -0.055324500394906814, -0.01664894971820472, -0.00283133208406383, -0.058659041117591716, -0.05184492187829448, -0.050547500408706716, -0.0028113006342491307, 0.09548842464097444, -0.03869310980956512, 0.11350705630319761, 0.07077054213592758, 0.0012010194231072341, 0.07411502030119134, -0.04913213192126273, -0.004022513945739906, 0.0670902542508847, -0.05631926700980802, 0.0682233328707196, -0.03119749392418175, -0.02529171129528271, -0.016330167204301003, -0.02594209964849951, 0.029636700950764906, 0.02463998022386909, 0.05678240618462282, 0.030588444898237054, -0.08462973777210345, 0.04477880779659733, -0.08546603492214283, -0.028619147805026238, 0.09987444889102648, 0.012341229304590853, -0.013575906239722673, 0.014183224419922497, -0.048023838564416034, 0.07263669765740734, -0.00894497774155851, -0.08316485717835473, 0.05653447156544547, -0.014942423181494921, 0.0736135901281234, -0.0416086342253747], [-0.02996729890192166, -0.02601766450523605, -0.11330180536250867, 0.03431696279319986, -0.022181320591523227, 0.07655907249270685, -0.0005228314953591131, -0.08275693041906988, -0.005517623679107636, -0.04600908985476374, -0.05724829167515417, 0.09837159378200898, 0.04432780385484219, 0.05947919727387083, 0.016509729857986453, -0.040835248698135346, -0.06417228477450616, 0.01884388767918804, -0.02338349979928831, 0.020860747971737172, 0.017029934746227743, 0.016685270968217418, 0.026469646000489046, -0.02565604958841394, 0.05757942977031662, 0.017707616829865196, -0.02588480479783407, -0.014625071942486275, -0.03993259765449785, 0.002567350623121026, 0.002340304570081761, -0.04718572191124196, -0.060390884033057216, 0.09797545451990831, 0.001866401702225251, 0.011853683893131831, 0.007388786938614243, -0.05458881781982676, 0.08008868478939744, -0.011314711754763392, -0.021011014530889292, -0.042314699233204314, 0.08147367275953105, -0.07163479261803828, 0.05938649923705313, -0.0828787604683226, 0.014352837826886101, 0.023091054636875278, 0.07363506451362162, 0.00913456903546255, -0.035591704161090434, -0.019048088503924115, -0.053040311034974426, -0.038523136178988636, -0.06021210529082726, -0.00717548643066331, 0.11017281338742135, -0.05463042799753625, -0.049382909599911894, 0.004240493329886641, -0.03493187459556384, 0.03499697055941013, 0.0016865251490144064, 0.027064052603158698, 0.03429432754779495, -0.08220052097072213, -0.03618841566304618, -0.029144142652739964, 0.052942213822141135, 0.0045531657222007684, -0.05885055199484768, -0.08059403159697316, -0.08254494021655052, -0.005658697422188812, -0.010330851318070306, -0.021340722207590906, -0.0655781817015764, 0.031246521815566905, -0.11181584394147392, 0.021218201061205356, 0.0021337940508350892, -0.09117546974214163, 0.03065370926771839, -0.06812702135475171, -0.012004737721870253, -0.03818040115603391, -0.08347573131774233, 0.0003482288604685254, 0.05764020985341719, -0.01705644889862603, -0.06458624503539306, 0.011336189960118991, 0.15470687742028272, -0.03916552760281737, -0.033546694718808834, -0.017410623361645332, -0.04988862749082076, 0.027001334097462568, 0.007675495948102865, -0.00877562130773263, 0.08110085197068978, -0.045705035026581714, -0.010740384147590262, 0.045201825789467256, -0.01416403327071639, -0.03308950495455128, -0.02041464737499711, 0.04590043031716575, 0.033979764651526786, -0.03108426966043495, 0.027905545991808854, -0.02985975532840322, -0.0047907054660625, -0.00020574216683280294, 0.03102917488736114, 0.028367887252202836, 0.05254668683318854, -0.011018731675139323, -0.023754286849186578, 0.035379113780763374, 0.023541297913218275, -0.03177691104987258, -0.05353063453309433, 0.08199888867172243, -0.03825172232766272, 0.09596469589304253, -0.07950459542883233, 0.018636482145914277, 0.0018429484334933591, 0.026072294883880236, -0.00934406280185442, -0.04392172663835027, 0.0024390552442509136, 0.009757331118397322, -0.06994403898867291, -0.015229359290814723, 0.019204017477982893, -0.04946672421235437, -0.12830793668571974, 0.1377344546488563, 0.02645903527968649, 0.01438393984268891, 0.046679556198175313, -0.08088511756458529, -0.11398072391553145, -0.061246232822344045, -0.04832451881033612, 0.07393068724082762, -0.10505398626210796, -0.01991394108411178, -0.0381869244396714, -0.05113862103292474, -0.017497680728778272, -0.04535574963581427, -0.06710989583003502, -0.008820306917112107, 0.06428775432080355, 0.06820190871447875, 0.018358302866866377, 0.005479601870653974, -0.004811834578257647, 0.010889002138126795, -0.028717640003471493, -0.004363738065542399, 0.011282608936988939, -0.09956430062961157, 0.052167786176144315, 0.023190518440509348, 0.02492462175780257, -0.01449351724881844, 0.08678044357798773, -0.07405742407607836, -0.043574258539932124, 0.0463352342209931, 0.07302168405335566, -0.06634707596390228, -0.0773195158564456, 0.016236704598778615, -0.04680891333181586, -0.1313313826017282, -0.013277932202762289, 0.0975270429300007, 0.032730522122347644, -0.043315714980214075, -0.010619991320481819, 0.032020580813575464, -0.042470583402922805, 0.029247070207773666, -0.010993912899278898, -0.03704021949626797, -0.0010211059083049857, 0.10829764637435607, 0.01873154042324862, 0.019253348310705166, 0.00038143962095801886, 0.03402827711441846, 0.058779345849799915, -0.022633343149678603, -0.02204191533033595, 0.059811300966360344, -0.016660024158176086, -0.03343100296277786, -0.0003998770330723849, 0.024468327477772552, -0.01189374610070355, -0.02988394029689127, 0.05946627899748137, -0.032451591365378195, -0.004378565233928172, -0.002292754208329024, -0.024621751065092505, 0.04015291709692131, -0.09932329703567433, 0.09546366687502521, -0.0036413690127211624, -0.01782680095395299, -0.009034947271092999, 0.020922196669543192, 0.0022777708772971504, 0.018581226466266376, 0.0043046314172640095, -0.029828409368293164, -0.05022722460028722, -0.037151627384497406, 0.049625622960587916, 0.03223913079935316, 0.030079966876821792, 0.020831059208246072, 0.020501784553024704, 0.05263528251172909, 0.0018274127207243004, -0.03694550103079185, -0.05888227279952423, 0.017846225079937127, -0.027813546817238317, 0.04392800028246263, 0.08475207921035965, -0.07032662172073985, -0.07883324572145269, 0.09577257223186468, -0.039889514320760225, 0.038595471597546324, 0.05912198196540257, 0.013257319588727364, 0.017411485064190314, 0.07343335366527332, 0.01926807778338377, -0.044935321303896346, -0.04794530636517917, 0.05533848874806036, 0.07934772709580398, 0.07269524665956993, -0.027436066776157706, 0.005705688908890678, -0.010960452721475708, -0.008396856210448224, 0.04935890454307596, -0.0445547540688997, -0.033343068769581624, 0.0009048290144744135, -0.07604413243978037, -0.020322268296642916, -0.0022053543549001697, -0.0007702864388817007, -0.03627777893399911, -0.0032743499975122266, 0.004035989030367362, -0.06783400748345289, 0.08917483279275681, 0.04277231657446954, 0.022693981227225084, 0.07338878320868554, 0.07924807098714577, 0.07908799510683973, -0.0632385837457091, -0.022555113610344162, -0.12971358782121908, -0.026411545429771865, -0.0772653067148861, 0.04417215387556547, -0.06915628941259486, -0.05510472654532198, -0.13837162204257691, 0.043308720671613295, -0.09952419068237528, -0.017895018053134898, 0.08610456339986472, 0.05612193545621411, -0.06137692225704878, 0.07297776494069122, -0.03712791092770196, 0.056078919956309335, 0.016635149143981152, 0.05842382724725092, -0.018740951193125237, -0.09164053310682796, 0.08739565224482235, 0.054960374965560554, 0.07908238572759678, 0.045365587518281195, 0.12913853738037906, 0.026324738022199735, 0.06417720918288183, -0.05556995066253789, 0.06940009489995458, -0.01843524001263954, 0.04379793900108042, -0.00434213957668025, 0.014233511270179468, 0.003113038140214977, 0.05037148750083801, 0.05047952849549506, 0.02755584666308475, 0.024684737407100067, -0.022289704300156095, 0.053112639275240695, -0.006297865294543905, -0.042708507118831895, -0.05167721039174386, 0.028940642779743123, -0.02492638055446852, -0.017727267624370664, 0.04735003295715323, 0.03880049701052628, -0.02251464985559996, 0.060476481326341, -0.03405551198717408, 0.0566234510570811, 0.03982211247547046, 0.029002562749913873, -0.05015177399822084, -0.0031754426978717115, 0.005477238313520299, -0.018472931186726278, 0.0029808523306260343, 0.0056669830297081765, 0.0063487307089873145, 0.0011116264941129785, 0.09253013289563801, -0.042258676623925566, -0.06879956836408314, 0.01953526238271416, -0.08397652068302114, -0.07767460530815493, 0.02216547849419432, 0.059027544302078495, 0.02096189685425065, 0.05327315417080451, -0.017094990228754818, -0.03717523134449175, 0.05128691551221613, 0.02790942201479491, 0.08532469085385753, 0.014619761612762983, 0.043522524023869275, 0.057883526316764855, 0.0755417790714914, -0.0291096681364496, 0.027853293171004538, -0.025189876071067246, 0.02904572709843899, 0.024471686674318434, -0.018542055650679314, 0.03385608950992717, -0.026835894641049848, -0.028377211136986418, 0.020815173850435374, -0.021034466807193782, 0.005144264988703663, 0.018210849274263467, -0.04113898537520599, -0.0386087747573509, 0.0029671419905616353, -0.04173508607670275, 0.042831011091045125, -0.011986353216353609, -0.0373625343277507, 0.04246823642179789, -0.06470153106296295, -0.022734318851976788, 0.03252045348792021, 0.14690998179716516, 0.018977955479548406, 0.00313356872162177, 0.04784805492948575, 0.05298666351117185, -0.038336802466544015, -0.01200884739616775, -0.046597814329760096, -0.033337975991868794, -0.018475363254385424, -0.13639522286351224, 0.004112010041993569, 0.008057310961113307, -0.03562274779352367, -0.03713545567042043, 0.12859841564165128, -0.06222418290775953, 0.05091116278154597, -0.05003259128182333, -0.08005792848696763, 0.016122560895812953, -0.08946943710936694, 0.0644041490250106, 0.04200018316626549, -0.04105380064316872, -0.02468613855442517, 0.05131188271772195, -0.042937433140722334, 0.021613653083246816, 0.06093829123128398, 0.0816674609868314, 0.0075715625696086385, 0.042535848833771546, 0.05058116275568869, -0.015867192264713368, -0.0316915887209107, -0.0018930627966854004, 0.035527631780840715, 0.0792576872005308, 0.08621638067279656, -0.08276261512180753, 0.027351125631785485, -0.009108121972247522, 0.04950736190588527, -0.05657593010039052, -0.08835433539782538, 0.006641241056205888, -0.008014933652746286, -0.009466813907457912, 0.030237634195979593, -0.02765996152377041, -0.013289480319414243, 0.003499512293722104, 0.013575025309250102, -0.027198972504364476, 0.02192762659212875, -0.050847887644970335, 0.047695611050618085, 0.029456144634639955, 0.03060102494169586, -0.05413877560521934, -0.030483439367999486, 0.06083334646109349, -0.045959013155369426, 0.013254577633665497, -0.04698106493873027, -0.08069741511701614, 0.0319504351646553, -0.026681351522950484, -0.013693944803730353, -0.05363380367238224, 0.10925621427003117, 0.10778252062232611, -0.01525970186170801, -0.0041895103797190145, 0.076949499773428, -0.01968301649927949, -0.010915452395540915, 0.030075322142441737, 0.08724970916152062, 0.07988229433602792, -0.03965533343536893, -0.008345617418163679, -0.028520296532639555, 0.029314803318209577, -0.025566100460659484, 0.0762108264350427, -0.09819095276501678, 0.0624093064152981, 0.08319504012115439, -0.035501376016272845, 0.010581786590452271, -0.07175537821776956, 0.008124695180590932, -0.029426463815642817, -0.03848404360335112, 0.08270538872181926, -0.01534267728545388, 0.11178812444248522, 0.049934042783693955, 0.014977962806779979, -0.00500488448697626, -0.02855649647880491, -0.020033977946981262, -0.0006066149683210453, -0.011320706858608058, 0.02828711670790761, -0.024214448181127075, 0.01779799447788167, -0.014679483622637567, 0.003156945052518665, 0.04211207540633172, 0.015873901698793148, -0.015494569608259309, 0.10293768907240616, 0.013981790365257884, -0.025996071580425134, -0.0812095803426853, 0.046370520717908134, -0.022877196955341093, 0.04736992924210896, -0.030854559509026623, -0.0020064963981526606, -0.054653971288384735, -0.01857609132434477, -0.017235615411344753, 0.029613947483143162, -0.0178233340861003, -0.017430499764392295, 0.0020151843715405446, -0.12248521918694465, 0.08205192576495172, 0.038479567169901585, 0.02411804655566379, 0.03640724952768601, 0.024783726651055236, -0.04206068628005765, 0.028750832257167385, 0.040142500081640685, -0.02418743319048517, -0.014763870712657898, 0.03913860770104735, -0.004602376921044331, -0.03273538776022691, -0.03301061681567411, 0.0429469278707043, 0.03310114418295477, -0.01278600234122749, -0.09680019171141753, -0.0026547888418637046, 0.002103874824556695, -0.07464855632692798, -0.07207635050774008, 0.0028435030304617775, -0.05969153154333386, 0.007133277365763875, -0.03790940989331244, 0.011381993379429543, 0.09441322024526055, 0.02576078150845793, -0.005809299635950608, -0.06981690776530818, -0.012858261907409166, 0.008906706981702657, 0.02959293281359299, 0.03164355766186406, -0.03436180846495144, -0.026828174275000772, 0.009602214005271326, -0.026250698203017446, 0.026886748196214873, 0.03492100910458065, -0.011622268527628463, -0.005303178658092276, 0.032211254574756515, -0.023715688419254012, 0.051894236460332845, 0.01185491938418126, -0.08427530338820645, 0.018129805124905654, -0.06570798374669937, 0.030422640427264953, -0.009904802997718986, -0.0073249073463101935, -0.016741651203617616, -0.01705232107890541, -0.06121392448096336, -0.06443381243207386, -0.013382072648321267, -0.058522285829804566, 0.055212596369420816, -0.08150467202844495, 0.032483508682847745, -0.00741815832407565, 0.008076300050996563, -0.010151916173511083, 0.0010605022940969868, -0.09084647468228546, 0.020074860725544496, 0.01821013937916379, -0.003207980100849378, 0.009552127526958634, 0.0650342510715594, 0.028207841729319796, -0.0582029108391824, 0.010476309162955036, 0.057979106989586096, -0.04960327863794516, -0.011156770693217691, 0.035023198949965514, 0.00014685244366609385, -0.02856139095561055, -0.011312287385963316, -0.01647133058460376, 0.030024960690081023, 0.02496897844908791, -0.04017949493486761, -0.08045529507942543, -0.04575037478668302, -0.055699418018810204, 0.033950388287934966, 0.062301285498144815, 0.11000147377152832, 0.03579173162196265, -0.021805768375809255, 0.07293884617570326, -0.0022140813510923524, -0.026915156257872077, -0.0008137691167340886, -0.07679498670131199, -0.04439420994260622, -0.07159983525652873, -0.0792792004832011, -0.025562815556919954, 0.010878687982150246, 0.043257881926005465, -0.032469199266561055, 0.0324140139125352, 0.09061184206844639, 0.0021476507207880773, -0.02033487467490487, -0.001719534963695805, 0.04781735553337331, 0.012116901770311949, -0.021018262835690298, -0.025113231829381404, 0.06062515513303001, -0.05884521664571593, -0.0766842499911421, -0.02916644576263629, -0.10079976218981387, -0.053065139286496706, 0.1056228320773155, -0.03630217543738897, 0.014642830230792018, 0.0332885477879784, -0.04011784498444343, -0.0031387023954736913, -0.005740088735472206, 0.027574035876499443, 0.05709531405401135, -0.04353338014465652, 0.0060221393229602065, -0.04122625627997796, -0.05925967102124008, -0.04322838480479882, -0.015669278337459493, -0.06630020457472868, 0.07420444112262645, -0.0680375291365015, -0.08802122068138261, 0.06016012083523664, -0.07528274171754809, -0.08341353294753827, 0.028982064750572488, 0.013646024905396018, -0.0072665891574777595, 0.017855113487022102, -0.06529195955135074, 0.06565886236651133, -0.02660727500987948, -0.012975385690739612, -0.02007687959450216, 0.012261914631769757, -0.034657856230922914, -0.020381439936429383, 0.02852374558809825, -0.12271222885741452, 0.011218483030830558, 0.005010375882124104, 0.04901198652056354, 0.013674106680390005, -0.012730930941938537, 0.013150310543250977, -0.001985272335743489, 0.022587470646297292, -0.004246001886715545, 0.014044696481033818, -0.06292118230873028, -0.09646534494984173, -0.00420405599407175, -0.10754667637382842, -0.13803399679543182, 0.08021378409837138, 0.0588660096169237, 0.07020867546547521, -0.030590443875453024, -0.09169896396858418, -0.009600815195675997, -0.04509352113320398, -0.04862793814004009, -0.002735208727508386, -0.07024488933151507, 0.02022719474179684, 0.10277666393261349, 0.07912343161954963, -0.06671424604616735, 0.0009522318634802416, 0.03423551731609526, -0.04841748731027511, -0.021640423506661392, 0.05331516927858011, 0.09071640529042642, 0.025280222982931547, -0.0817001175985572, 0.08300235208043177, 0.04632676435496958, 0.08884501578523421, 0.022492823894617976, -0.023550199712524356, -0.027622620505818887, 0.060800066793936375, 0.07735930491718401, 0.019119981256133293, 0.07741299651728321, -0.03415137735182467, 0.028904988551814906, -0.011046860234242558, -0.007030208303774223, -0.051608568598959154, -0.053894998961946175, 0.04454522308033321, 0.010493971876553626, -0.02064047506644317, 0.005644751876270232, -0.051244478385885375, -0.007325026411194923, 0.04344644718242819, -0.0863540612920341, 0.036894142723273536, 0.008066259220556052, -0.03896401440838531, 0.09527687653102355, 0.019730428846740342, 0.04120853660267107, -0.05090845786554492, 0.032353708618554744, 0.04166475671125424, 0.03713980586163916, -0.0017480802348940436, 0.06314759181997433, -0.10141441776596814, 0.0654473882677818, -0.05856175023154713, 0.011672041458576518, 0.04916493207083537, 0.01109957520033654, 0.005384185685696205, -0.025352360831590585, 0.0003116599646289095, -0.006489424230781135, 0.02432185997546285, -0.03856637730000377, -0.011551735045668426, -0.04377897383558367, -0.03057001569776153, -0.02218125480025415, -0.10306247516119539, -0.01273943762389142, 0.026495191230302424, 0.04772056303909356, 0.08726380845545803, 0.029731482755104958, 0.008626180334391853, -0.018681931097620185, -0.04987684270813262, -0.0020587599239999805, -0.011267723926846317, -0.08466709686460928, 0.019852908984160065, 0.06200636511643956, 0.04108211839033615, 0.07913408999418164, -0.019821761418832465, 0.03542949364494261, -0.03474145811057947, 0.05582854080041638, 0.03556992568152133, -0.04855552540693881, 0.0030287668988846963, 0.012121955192742373, -0.004638398783357447, -0.018189130893705358], [-0.048635870541890634, 0.01915930500041274, 0.010250957080748914, 0.042997082652922305, 0.003913640759149794, 0.04975666234260908, -0.006294666571694512, -0.018894405871406946, -0.11776817232583592, -0.03224939018665309, 0.032571726201595055, -0.09550995668756274, -0.052362595126024376, 0.0027922622514679122, -0.014316473333248056, -0.07282820737389954, 0.016304871482479496, -0.029754838778597185, -0.04979916842707325, -0.024811156977545462, -0.08078764953560752, -0.023514740961082126, 0.048847931180411135, -0.010527755234697383, 0.01918797094847479, -0.03712045423871005, -0.05459547423650811, 0.019800312556054023, 0.005947643981775819, -0.03182624093969816, -0.06640847001841976, -0.06260059617664324, 0.022433592381417324, -0.07003523415775735, 0.004148633546077451, 0.009280184380398746, -0.05239404067149785, 0.021471453663121025, 0.01220845261009382, -0.011907138522566458, -0.010724678796327115, 0.07370767164711847, -0.06083891143033692, 0.014334434874151836, 0.027517219176383733, 0.07826223332031096, 0.026408097327460033, 0.010153823344420589, 0.0098985939294776, -0.00724823841059013, -0.01350335131964118, -0.028102691058429642, -0.035129365919404625, 0.061541092340636164, 0.04159517370476245, -0.00044335506792893997, -0.029635292215575756, -0.007801447369103476, 0.013976189196361299, -0.045703415301562945, -0.016115652110614137, -0.042975531283407704, -0.09644373702858551, -0.04530176638261487, 0.015990208814643185, 0.021141335010623243, 0.023592190101345806, 0.0014161835524860067, -0.04129101785406597, -0.049386363065357194, 0.04175629338222192, 0.04520502974468129, -0.05196579669799127, -0.0036166775830992768, -0.05682267146786532, 0.09940194921463648, 0.038523773873954004, -0.01239939384326655, 0.043157251384915774, 0.007592352002958309, 0.022326337783990343, -0.014085726441844592, 0.028269641051318278, -0.11669027247699246, 0.06511767714052209, -0.0860876414920586, 0.025177495349141307, -0.04409649552263502, -0.020422663023825272, 0.04186481761723591, 0.03848329907037664, 0.009674318744524096, 0.013349666016426322, -0.020185567995755202, -0.03173379884420887, 0.005037412244753999, 0.024682010061357423, -0.013190632956353416, -0.095869947825954, -0.018328513999940368, 0.014717187254146075, -0.03675353993796338, 0.02015275971226082, 0.009296948620623002, 0.05751094156909671, 0.07469779153797534, 0.00797895716926056, 0.05675501857677115, 0.02536500558572799, 0.02485937677617212, 0.06664148211977328, -0.048766154255372715, -0.09894560077205436, 0.020487065015982978, 0.012962680164495397, -0.055088738978733086, -0.08886210137662899, 0.005462691257168121, 0.013421662925364132, -0.0402478461507703, -0.08316665515485704, -0.03061843332219504, -0.03918457088705837, 0.004007867938193078, -0.04249562089613145, -0.039814320910040266, 0.010168894712709969, -0.01581293345119271, 0.0286927580900994, 0.06943344205392209, -0.11761308705692962, -0.06421934410727279, 0.014249067554884629, 0.06090117914914971, -0.03970323813831496, -0.05862709466091977, -0.022255272760131953, -0.00594079162752964, 0.055155924486298705, -0.03500527468098773, -0.031113694948060284, -0.0040156720300967745, -0.018339733618415434, -0.03042347444013345, 0.02433556169068294, -0.0062435682346348555, -0.007644362382295252, 0.034103678716191584, -0.05203080560708704, 0.08695736245471572, 0.038109779962263335, -0.019617838325564442, -0.12900516396449058, 0.08784431512018466, -0.01910614405534813, -0.03419065226553094, 0.06465265760037842, 0.05790987726013947, 0.04170921050862734, -0.024997481735481778, -0.04061742106571528, 0.044711737190530405, -0.016515575012270245, -0.005971738662046777, 0.045593078722704454, 0.00807184847585304, 0.04624138639799302, -0.02207493569837311, -0.021011449043765965, -0.05090570667128089, -0.038329478942085146, 0.04875220137846612, -0.03983133724580867, 0.04720590219354481, 0.04210307471185934, 0.03706586554907231, 0.06508856498565194, -0.06107453365525496, -0.032933627752023735, -0.03996152377495125, 0.07166417781177307, 0.06878242427769611, 0.03620930776526136, -0.05319566612911947, -0.027177939518736947, 0.035717861485484316, 0.1244355457921745, -0.005330113984306543, 0.021582192830767337, -0.02870371796158773, -0.08211023717099596, -0.0413028111546396, 0.013364114838693611, -0.015201302726124294, -0.0448117247720574, -0.03385352265215202, -0.013712546898415714, 0.0019775472603531193, -0.007953997183377212, 0.04069515169055685, -0.004547746173524207, -0.043205993877756456, -0.024757990779092895, -0.006188263697078181, 0.00017474763217164332, -0.05805002268660136, -0.11712770599022117, -0.04398726185866465, 0.06583174048135622, -0.01830128954952894, -0.03404199035195065, 0.09183126507075046, 0.054428019927131456, -0.0558992665457648, 0.03398033741776754, 0.015522903248559462, 0.015671863203056923, -0.019009108455016067, 0.02052778912738199, -0.014113253613434792, 0.016503173307411075, 0.04267711074350187, 0.0335572555186485, 0.0009266365444420739, -0.03930439101049626, -0.002450303455508584, 0.07935822154434585, 0.05224125958367786, 0.11442720723778133, -0.050957441901643204, -0.04815339734170254, 0.0020411106451413198, -0.021080280689259615, -0.10425017775478794, 0.04281274584446392, 0.1161843809235449, 0.033948308796596, 0.01916951979319728, 0.04217112161716943, 0.04473192108999061, 0.08095598991585364, -0.034089219616556116, 0.06701241147693295, 0.028735903804030124, 0.029210011235014044, 0.049920278882429885, 0.021579574974213787, -0.05048182361614177, -0.08766756240822801, -0.03956141867504168, 0.017681695763785803, 0.11567571514876936, -0.104867888327962, 0.04058650334172587, 0.022106430299344015, -0.0028411000674059476, -0.019925186450200274, 0.11985662115060912, 0.020279120035174073, -0.07726578463857905, -0.018005776238966136, -0.04477145942679461, -0.008489837027773912, -0.013295418762229266, 0.065713691549709, 0.07958549808021524, -0.09007175331613741, 0.046863634414279105, -0.043772820926983085, -0.013709772766218868, 0.018001453872100587, -0.10293553879925514, 0.02015902666234773, -0.07181326607753419, -0.007878960104002802, 0.08153164343475008, 0.04260534398937824, -0.02788541024123474, 0.050602302853197764, -0.0069051677221327636, 0.06674418815689893, 0.021001302376616578, 0.07800154371817315, -0.08655617292118478, 0.024494972930007228, -0.062488144182538535, -0.0403821233170723, -0.08218411255611204, -0.04210407614254183, -0.03912521409592506, -0.005828735790558282, 0.05509563780345273, 0.05748918469124066, -0.011463411886629242, 0.09900619057180546, -0.028467797081782112, -0.06035334228397356, -0.007967963597080631, -0.08381608857057017, 0.0492115475292962, -0.012832960808140436, -0.0125815425659887, 0.0370962474949341, 0.005537489953969002, -0.028295628902512627, -0.08370375835676495, 0.09653192993383264, -0.04272233778234523, 0.060420093815417755, -0.05774828221956176, 0.10599144235465975, -0.025254792125155644, -0.006785404120332416, 0.06742340867636393, 0.011858868531836935, 0.07685335701576045, 0.0044966219026895335, -0.027785028200311545, 0.01931671998830134, -0.03419318411937742, 0.005474968943276824, 0.008793633310636595, -0.03304831681361335, -0.013554186343471442, 0.042014486592449524, -0.0031175669549807295, -0.017443074974056644, -0.026919962599324717, -0.09087592362564618, 0.031572789905322085, 0.05033895123897938, -0.028980176050856916, -0.00578812839567949, -0.07967983259059606, 0.10713428621585268, 6.88937334413325e-05, 0.02279409568781329, -0.05228626870481018, -0.06201254894446916, -0.05550230630555317, -0.0363534289746398, 0.03552889953980788, 0.04077484903132345, 0.007953087795248654, 0.08060874024290841, 0.036369010168775556, 0.06459882600531372, -0.04618512711746037, 0.08297639543557866, 0.0009458554301165299, -0.04181412499196071, -0.0181723362023808, -0.048218658353109844, -0.005456600515921515, -0.04337894269110726, -0.010483913523779781, 0.03504377228688893, 0.03199618706149124, 0.02313031700386029, 0.013074257045806593, 0.002065376870845512, -0.029637343621150246, 0.07213691464200757, 0.01799874258221587, 0.014932168773198886, 0.09753929824727084, 0.03864176266255288, -0.07453381829311716, 0.016115958183303077, 0.020784306467529465, 0.031087534682434633, 0.07881858976736872, 0.06160113495479086, -0.09846195361745037, 0.0621755375648668, -0.024540107820051275, -0.021108187766066214, -0.04106917881489456, -0.0014150636644495922, 0.02995031089706653, 0.0924639512809877, -0.0026769473771654983, 0.014873691762843635, 0.051920295013888736, 0.10129435901089298, -0.028867865852207315, 0.08266278392526442, 0.0704783506026258, -0.045021963440681115, -0.07030686534555694, -0.05180504378682706, -0.0658709920551721, -0.03768031747716218, -0.050917043949614584, 0.005106925174666476, -0.09805916202806568, 0.031477802399918826, -0.04019082053693428, -0.026358189181573545, 0.027638279132145345, -0.040553201226780376, 0.044016293478414376, -0.024350863122822915, 0.0049455650835476764, -0.02069503922148757, -0.04537713068332393, 0.04369666212795392, 0.0302398530215429, -0.03736005276266571, 0.018536265443198655, 0.04379695608013741, -0.07189117058755645, -0.10134698685639265, -0.0274398178120624, 0.04491441381478677, 0.04110289053555211, 0.0716803842548182, 0.06386695271639768, -0.0007230243273265663, -0.01578732639775334, -0.021944013467572663, -0.012243142483057618, -0.003181924434925438, 0.047898119162503444, 0.08765896578968625, -0.06390665906196172, 0.10074431020573932, 0.0737255564208517, -0.01048255863589534, -0.010451068899890878, 0.02170485163025663, -0.040039710125481826, -0.07320080226974518, 0.020970891728398316, -0.02875098230360712, 0.029324516958885424, 0.048939232791309406, 0.07198656447778738, -0.0041361545292254885, -0.04952815422141662, 0.05811036817647302, 0.06319063776293689, 0.012834076132176917, 0.0044876594358458435, 0.05778952611876965, -0.0168413183804039, -0.007035361990320968, -0.07166368639979973, -0.0034077547851842846, -0.02832315844793288, -0.07965393611241496, 0.08744440455615321, 0.046560355827093274, 0.06262707374177946, -0.02958212300221633, -0.003445945184339698, 0.08367031118553389, -0.038887176483575446, 0.07343378168720767, -0.037134147634957024, -0.011578730196721388, 0.009700940999100247, -0.02433887611880985, -0.0022625446954865655, -0.03835368530541719, -0.016494880130841084, -0.05021013914579554, 0.018497266350726346, 0.027224007889354713, -0.0766627091261845, 0.07561683178903816, 0.0521676708833819, -0.020022272335645328, -0.015295578706490143, -0.04730736374512059, 0.03282928638298413, -0.019455933710397267, 0.11079141987759343, -0.0961925983333918, 0.1273236637165897, -0.034941512088988984, 0.04737587624315124, 0.0995857134119994, 0.05568073410064403, -0.045740782543642555, -0.056723890386241566, 0.043134626542400585, -0.0059308509334599305, -0.018023374144605864, 0.017367480733705764, 0.032982509281847476, 0.10121813374692779, 0.06422538998787361, 0.012575307889240857, 0.07322119111167157, -0.005266577980475557, 0.030710796820986135, 0.037682116627574286, 0.005706938296487818, -0.009442755446955256, 0.02596344549687998, 0.03850242173589668, -0.000686857713299699, -0.049784402397420595, -0.05003296524862941, -0.05757438600212319, 0.07773010996496535, -0.017908771577368567, -0.06677864065041089, 0.019030859555772214, -0.001629754964091641, 0.16881620185863508, -0.036236428664807765, 0.03532863595060104, -0.011015266519039845, -0.025768854561155578, 0.031906520339436084, -0.07338239792284647, 0.04177817599913187, -0.019922389614833103, -0.06280760683012514, 0.05042530876320386, 0.00981734052272009, 0.028154789542714855, 0.05063513361334668, 0.011039735941842169, -0.08575023494479608, 0.0681024390849434, 0.005478722482613704, 0.043627894352664204, -0.08220036229210527, -0.022735618962019057, -0.028932256025824665, 0.10361950510544138, 0.1479659436563239, -0.10431171254480757, 0.003003277403856176, 0.027504035413077933, -0.03991531931624522, -0.08736780529312599, -0.02511993202377272, -0.059840627358911984, -0.0030756194823217432, -0.04589384216579538, -0.027405653361280456, 0.04349767139201583, 0.07092879057539006, -0.036810981660565366, 0.03139373806865525, 0.00352925916237339, -0.028777014526745085, -0.023067940179634473, -0.03200096624327611, 0.09842329874891514, -0.02180215383760703, -0.03541916305396115, -0.052387570576498725, 0.008400742736864678, 0.11912360452299754, -4.0323504589838933e-05, -0.04856967339192154, -0.10752329178214579, 0.05669179964121707, -0.0627620534325615, 0.0352977905885844, -0.13902694305021665, 0.007251366915658713, 0.0872853614732958, 0.03708008222213941, 0.029792971559715217, 0.05351812604164967, 0.010174227356161957, 0.04631664655206818, 0.09485627160595454, 0.06457850698485314, -0.037431653272765236, -0.00685494813348877, 0.04262140705386417, 0.07368397670492993, -0.03352530486493627, 0.04116349351761792, 0.06543771900380381, -0.008026441819626603, 0.00375404786476138, -0.023815364842309134, -0.019417382539072336, -0.06359286122319431, -0.005625981867557811, -0.004483928178191275, 0.06710540186520805, 0.02072460265363212, -0.018557146940232243, -0.04346062427189625, -0.10192901673712403, 0.044479329626671914, -0.06095384682062305, 0.009204361402548017, -0.07540796627719977, 0.0007074453175152807, 0.034545770542666644, -0.013072762348934562, 0.027318485445973706, -0.1263266759517623, 0.0058128581871623765, -0.007675325117810317, 0.06528222725952351, -0.033881249900547354, -0.050386757066831954, 0.014531211067661018, 0.034946245764196526, -0.015725601748922253, -0.02484918262415985, 0.0972849856261036, 0.009800430843595801, -0.031243340155809474, 0.012756983180556757, 0.016737919459570875, -0.022551961163694876, -0.06055177161840699, -0.08966750683983456, -0.030017575615503566, 0.003370756633391108, 0.058827108408837994, -0.0457078890911411, 0.03718215157088827, 0.03150862833678748, -0.06372182245085266, -0.046448565756502455, -0.025809289228585393, -0.017736905792056005, 0.00947715747839566, -0.011581056885372332, -0.0423289487309164, -0.058505208276919456, 0.018205655843652812, 0.06526642930053968, 0.008982829124103281, 0.07217801647086768, 0.03177111383717867, 0.02484707961283144, 0.07674447836962985, -0.06337033200442918, -0.024085713158548346, 0.009044648285280543, 0.061030136050915854, 0.04991759349991002, 0.02401140686790735, -0.06883004463551819, -0.06414180085468095, -0.04970348558335837, 0.05687401428912401, 0.030215065768787082, -0.11346173529327674, -0.09331606283745478, -0.011368073875375166, -0.015019473167445646, 0.0876074131544321, 0.048900641897340634, 0.02737991534214368, 0.07192189406736449, 0.009013781780436164, 0.02112322299532258, -0.026738828294221462, 0.008966368468020736, 0.13012429565564937, 0.03472163818738543, -0.058246979405217024, -0.03805958938368932, -0.006408488902208739, -0.015546642988906087, -0.04537411728734315, 0.07495546978065833, -0.0206089044802511, 0.02423649386571889, -0.015041194462763382, 0.045000251357853016, -0.01708166630384943, -0.018634181410956026, 0.048014520275920125, 0.001286484702860434, -0.04752825759069147, -0.006398348179973543, -0.04244570012927583, 0.008333364459726876, -0.042894430824345596, -0.00851781046284011, -0.046080159358316136, 0.02395646362148216, -0.006254115681135352, -0.014821845914960677, -0.0747041365198625, -0.039721564804625686, -0.10887701320231863, -0.0055288661527173495, -0.05324089507849563, 0.08888220372384921, 0.05466148793562239, 0.022116901599130257, -0.0338978212319935, 0.0840175769841257, 0.011890567093717998, 0.04719197405213378, -0.05134964541877572, 0.008152388826756285, 0.12493687098133206, 0.05775816055842098, -0.07552388427278915, -0.04098590002786425, 0.02017969308699599, 0.012399269609526883, 0.037519951317619094, -0.07282223481419683, 0.04369959686935746, -0.0022739585470076687, -0.05373545296746602, -0.03872993105089539, 0.12907834796930273, -0.0012657777882767358, 0.07498110119161124, -0.06448643003503716, 0.07208119146105592, -0.07546147235456709, 0.012882588285849244, -0.0767861214679162, 0.03308164445922378, 0.015040516780949838, -0.07920632033750119, -0.05347205977766685, -0.058380260526133355, 0.11942060844159533, -0.08441254053042256, -0.019488083537714484, -0.08967843848394955, -0.07090722850802911, -0.048541689415058736, 0.011284773519827271, -0.019491650819485288, -0.012089013077087249, -0.03882334151451702, -0.010216106201464483, 0.006753631375516124, 0.018890991580072864, -0.07700148293642484, 0.06458171391731692, -0.06330279227334351, -0.0017723426670016341, -0.03872419361637263, 0.012783198632820948, -0.0305135627173514, 0.06654617454629669, -0.03145148369914186, 0.07209801603786221, -0.06795091398569852, -0.015309806103054302, -0.031042191141593237, -0.054949343251771095, -0.00375692748696455, 0.004389620451920754, 0.054355985025088704, 0.04045356521908079, 0.013053336093709837, -0.026495912606942455, 0.012957976973249276, 0.12866711318240653, 0.0553521172751873, 0.024748235842234283, -0.015901042475024135, 0.028559721424243005, -0.004244725350591252, 0.006246737629223282, 0.01958936003090299, 0.01034375261582251, 0.10302400998705477, -0.06287279968156126, 0.0031584982665163372, -0.04469364132701034, -0.05563413409372557, 0.0036048737665596462, 0.00288032913847169, 0.014676807726167976, -0.08435798797090417, 0.013786357647673164, -0.0054018569953692116, -0.027721511552462674], [0.03673592761112638, -0.06310756439650325, -0.04436825468950495, 0.044543639511024836, -0.0469903584675167, -0.04570349781025002, 0.053886959428386755, -0.05036231296276598, 0.07575568874442683, 0.0068782357550091, -0.052468996017679, -0.008138747967599955, 0.05028323357802631, 0.061249642826955254, 0.008558462613541202, 0.1040202435268802, 0.03729876261863468, -0.033554582770909766, 0.0278717869808514, 0.01259633138685894, 0.0529833713796548, -0.03738497730715268, 0.05964073440876042, 0.06712467968355552, -0.015297660617854283, -0.04010986995139221, -0.00027055398838256696, 0.02755780467258739, 0.003754455628252173, 0.019655871024025988, -0.08541495645122944, -0.04241934076921758, -0.000863938928047308, -0.06148069326023504, -0.020225417280829463, 0.01867791973323374, -0.02638428359582687, -0.005676504550094286, -0.06831454348814754, 0.08060131646786582, 0.05748005198166037, -0.06827956218064075, -0.038094258115421706, -0.027072633929338657, -0.07364082923669846, 0.04244657145293251, 0.0011226172745545369, 0.04589534896628457, 0.12816698006039146, 0.011054084623823903, 0.054915342482724346, 0.013115052421312145, 0.010133049182858268, -0.027084545740174052, -0.021927240417108522, 0.0485189584801651, -0.01782007524619092, -0.013480578096333816, 0.0008491586168326748, -0.006738640531431172, -0.028888320766326418, -0.045570420669390904, 0.007675875682797716, -0.1472628814772114, -0.026573729143778577, 0.06824991719327163, -0.037403363702284295, -0.018867096102131407, 0.0627118169218229, 0.0626820031462824, 0.012402271437466906, -0.11070066942477115, -0.036323009687757, -0.08281086421139593, -0.09033541865735349, 0.01636123262974187, 0.03800607388784031, 0.037502012105068504, 0.05349178825595521, 0.043748783887473865, 0.018082181450253986, 0.033361085822663235, 0.021156652154984006, -0.02905727512621019, 0.04546341968292721, -0.01970278234383822, 0.02127132682063265, 0.0705077394910855, -0.042320423735717094, 0.02867021800943919, -0.025966117273603442, 0.05439424355086186, 0.0962430041025648, 0.03497414554845694, 0.05197754341263443, -0.08332872695939796, 0.08315898515981636, 0.051373244558224535, -0.03379154908387929, 0.011548976291855426, -0.04716436377931654, 0.05941849029049075, 0.01698908454257499, 0.01636838055528234, -0.04095026991747543, -0.00515812228822953, 0.005541420159644373, 0.09009800792200574, -0.043291521456735836, 0.0715988466463051, -0.011249072131786837, 0.1285612808927533, 0.05845181564660932, 0.10923149905930461, 0.034584331605576966, -0.019305181766718187, 0.06160878132164771, 0.0011072055785270728, 0.08266212927140669, -0.027744995943365585, -0.01856722142697324, -0.09205515468299728, 0.004500915688313283, -0.020643852186187885, -0.000716698065588313, 0.058923651563473865, 0.012721863254260375, 0.026859573665270003, 0.07990222498023607, -0.021534162050950687, -0.03903392695587593, 0.039104076120752625, -0.1403099295325984, 0.016875012981360453, -0.01828635139159409, 0.020692716171468225, -0.12778163788044847, -0.02007251163334195, -0.005039999097912767, -0.07444965320247893, -0.025069934237103655, 0.02765686551853441, -0.011969787663101115, 0.1305554491876921, -0.0723725637595933, 0.06044609378117487, 0.04267251261203763, -0.017320418862851062, -0.07172273721338351, 0.017249222777857634, -0.012063900377890386, -0.030489086647833733, -0.06398658731840651, -0.09079222513797516, -0.01439780430734006, -0.013977256733135712, 0.014218009006226811, -0.056615468013976177, 0.08581893105749001, -0.006628333773514199, -0.013890815231782887, -0.007862362170127077, -0.022551839282986694, -0.005766840823429655, 0.05590738203560526, -0.08888742040765957, -0.04306541343397883, 0.038977945054437746, -0.07370319544488362, 0.03289678730190909, 0.031393744771798494, -0.018904130825832043, 0.06549025611271915, 0.03872719814832342, 0.07294191107248887, -0.005714718058518462, -0.01263199138653156, 0.022035515122998388, 0.09057694064285751, -0.047277147514986455, -0.04650682438709407, 0.05213502810993868, 0.11134405614242703, -0.08933723625565283, -0.018370355592400113, 0.03370120473452884, -0.041091408841775125, 0.0835209568266552, -0.004988769364303504, 0.012140679711439919, 0.025121776021693014, -0.030225551231797786, 0.005119651394089771, -0.02659849215346384, -0.037903913493252936, -0.06679129859391054, 0.06227154158831113, -0.05882165557715893, 0.03966358172645183, 0.08111936725307525, 0.026385954067178474, -0.0005688800238461925, -0.0019749255166232457, 0.029986570730936066, 0.03348744754310644, 0.029996921134118483, -0.0003118580866441443, 0.10003471018833938, -0.04517660782631881, 0.03544189788656918, -0.015154247014482043, 0.02349771289188969, 0.03240393197177936, -0.0660791584045987, 0.012718949114637265, -0.10593222762380558, -0.05024243281935091, 0.04747851618965692, 0.03681723399028363, -0.0508936936210455, -0.029530164813851668, -0.03477521849713173, 0.013259811752393715, 0.047060278761362956, 0.06353391627536989, -0.07141870076696073, 0.06461994980418229, -0.01598336632854466, 0.029523622335096863, 0.052919790759373274, -0.019842912029590713, -0.0388858120040631, 0.0395415035950077, -0.0392499177532341, -0.025646449556131292, 0.0108639999098067, -0.0630413970961544, -0.16276028096788803, 0.03265453198218252, 0.051003606768609884, -0.06415893490887425, -0.008887535402606922, -0.028208722183440033, -0.014481293226288027, 0.06313138567184713, 0.04344768502656493, 0.025884795815937372, 0.013509337165319362, -0.11273487765194759, 0.0794478314899416, 0.0022631313036639363, 0.012179104222435542, -0.020338064198876404, 0.004083010438286565, -0.0011012920922562558, -0.008307136806068868, -0.03140688706109606, -0.0856400777010628, 0.0025517933170248206, -0.012622985491854588, 0.0776566595107265, -0.024488488498455797, 0.07317712534776506, 0.08846397319711438, -0.05365307358202184, 0.08184450932593645, -0.029452840948805188, -0.07336167632936144, -0.02222510814878029, -0.03758936585134872, 0.019390732242393537, 0.02392571196545151, 0.02533269731188147, 0.015409844501075328, 0.000959060063875518, -0.02774295291819488, -0.010352876959604377, -0.04992694859690318, -0.010811985054455386, 0.04010515141813174, -0.012845185243213753, 0.0017998021766706888, -0.0021857418834027396, 0.06512664477667503, -0.07599711054141603, -0.017681293726964396, -0.09139719613583047, -0.009115596222611886, -0.025347783605913377, -0.004462699801844792, 0.018902159652330868, 0.024653437122836228, 0.012164978774652436, -0.0851340437215702, -0.039748632906918435, -0.019474920166727003, -0.013115637237940762, 0.018127807247084883, 0.05544291970104514, 0.035491726251476695, -0.056002937902150614, 0.08297046886126873, -0.022574590464215893, -0.07957069890155291, 0.08560766291083423, 0.03783321170133136, -0.010654737595403288, 0.028647537616402156, -0.03863162323534654, -0.06278980021342855, 0.009335303099525663, -0.048290944682545016, -0.022724620657693956, 0.00873196628127942, -0.020198667272973987, -0.08742193177257168, 0.002542815399833544, -0.01798909978352765, 0.02805883540979634, 0.021919491293671992, 0.0027997167353698625, 0.07040042970541541, 0.08198171349475968, 0.05800761319774397, 0.0716348563755108, 0.009415758766019437, -0.032400978011508555, -0.09717586324153539, 0.08617616752009945, 0.04050285384871133, -0.1368856380485821, -0.03522529743322897, -0.02258499889312471, -0.09639899090079497, -0.06273839102537587, 0.029852210767900275, -0.05084419773563993, -0.02660404566311356, 0.09035477995010074, -0.011450591206922553, -0.006059703438540867, 0.037562872389485503, -0.07322515208861553, -0.020294488818848714, 0.012963100732810677, -0.09920024202687452, -0.0737782931744851, 0.019034129642018855, -0.01222716690457148, 0.012644783697799186, -0.13277259946658468, -0.016609906114002877, 0.024889229941047794, -0.013755641804023498, -0.05597263856675838, -0.018167831510787637, 0.02914952544003059, 0.06600820544401753, -0.058638845155297124, -0.042047574244283306, 0.024430255356827253, -0.07236924416419935, 0.09673589197992367, 0.04985172672959931, 0.019536798306588565, -0.06542007426990888, 0.03755834532843825, 0.02596499957006093, 0.03402563764070933, -0.041777758013757035, 0.0514382782023192, -0.038324508979830474, 0.03377113711722333, -0.08822580950634205, -0.04466953752844359, -0.022127454699966898, -0.00978364163057505, 0.02625917400773318, 0.027167557396940514, -0.0004191131878237454, -0.023893492317343237, -0.08164623329098031, 0.06085752503024377, -0.09179160357116578, -0.05547814225026733, 0.03985313845668662, 0.0016403192961591344, -0.05953344294923535, 0.009242076317667509, 0.007336288640456091, -0.012263039825679289, 0.027214988037359434, -0.03073028059618361, -0.08424693890087076, -0.006077740141486197, -0.028823673293923272, 0.022437167892385042, -0.08816680932021488, -0.01442454999641221, -0.0017012886103380447, 0.04290194937519466, -0.08385145743068285, 0.018617323460461924, -0.0246089756904683, -0.02512037501418697, 0.054272880205917404, 0.02996968013994889, 0.024622148759062303, 0.0037451831769491563, -0.010858029337295634, -0.0032613007166400307, 0.06436403477242852, -0.03823259650671288, -0.12871569934048704, -0.08395815490360801, 0.060988685645675784, -0.017254409615109254, -0.03211312273553605, -0.08110152692158122, 0.029489221810299747, 0.006780332873971818, 0.08602402107308889, -0.01707010908952239, 0.024012127788207435, -0.06956919991823099, 0.05326042774336158, -0.0366235520289056, -0.018244928328452426, -0.013591546798525072, 0.02589364638952306, -0.09238316340291813, -0.134810083886269, 0.03995819376914198, 0.07340120397672771, 0.12138146829205478, 0.0002300014178139396, 0.054411500959780354, 0.005578719208215873, 0.11396514585576376, 0.04046104496480423, 0.030566649579441395, 0.013096742528283708, -0.012923086576379583, 0.031857762128494796, -0.04636782307053879, -0.12860086632405265, 0.0356037796693088, 0.010007265056456043, -0.04486430465306857, -0.007337373976859685, -0.14065641084587122, -0.013861338321407946, -0.03097100932636152, -0.08077544588344396, 0.08679701388685063, 0.07676768274951751, 0.16085416539198483, -0.015160292654249632, -0.04748032423950032, -0.06600602122766594, -0.009128014838542628, -0.06580318954491554, 0.007264023330311118, 0.02166671288732124, 0.020527977275358076, -0.006666842072904235, -0.08719004681667127, -0.036661258961732814, 0.028952547148742975, -0.06312473395453135, -0.0808279927665186, 0.0427913919368525, -0.07982678575411749, -0.005337716285457283, 0.01070295432642259, 0.026485408993046536, -0.07226364011103169, -0.03647999678222929, 0.025361329767545116, 0.009312804866908834, 0.03339391955279265, 0.055409628917017874, -0.018378448370578917, 0.10181462271107894, -0.008492767431639228, -0.04797956051787558, -0.04856255486309156, 0.007784246247478624, -0.1114476504034725, 0.02118763910016653, 0.06848775901658989, -0.0004445445700106189, -0.029815104020398046, -0.04284793393987592, 0.006491965560464888, -0.03652236367654006, -0.04642538195473819, 0.00036170216412206445, -0.03469864500100797, 0.012887352415217627, 0.004600764623812785, -0.030205168192091653, -0.015127385477335458, -0.05016432796556863, 0.11070904764397232, 0.11263801045445312, 0.01157127746044846, -0.1271006194476114, 0.04984556215070813, -0.06141841019657268, 0.09120749366820313, 0.008654739207936721, -0.07503530260862847, -0.0418929924729913, -0.03310599889042713, 0.007247291846378481, 0.04486589443407368, 0.06268564151498375, -0.0646236458725845, 0.04043500667535223, 0.05344416703144239, -0.028727386855466525, 0.04072607928527597, 0.06014802563586077, 0.04563205325080424, -0.008784055718388842, -0.009413561816869444, 0.053370216937733646, -0.022244987769452492, -0.04933598224413368, -0.0020613538478279217, 0.015462739984819548, 0.04693774868510581, -0.011610606401716215, -0.024192929966626427, 0.006246353668706391, 0.026986363255979105, -0.04841926960002365, -0.018647788596918107, -0.07714833177965365, -0.09076403849550871, -0.01839482171332183, 0.009545780124987763, -0.10042898645854498, 0.006887988003686012, -0.020742051085079434, 0.004793357801632849, -0.006651890985323878, -0.05639614523399575, 0.049345093872874606, -0.05859104874764014, 0.13243076997799605, -0.0029137820876125554, 0.12389029815316913, 0.03645416207485413, -0.02932323005069102, 0.07177608184803135, 0.04287292248965545, 0.09235924596310598, -0.0017312037133820027, -0.002803006499088137, 0.03930187642488575, 0.09488872594779867, -0.05315006010486207, -0.030368304203008935, -0.026199231943009865, 0.043533302008611, -0.028966373627086553, -0.030651268380774137, -0.11766321455927047, -0.03738031955715157, -0.004235256841865924, -0.012649024100481236, -0.0491193358097802, -0.00258763187076516, -0.11473926640522879, -0.03759418221057867, -0.05756774646425638, -0.10414165936062032, 0.006066049561297254, -0.09300998128957, 0.07805074792331401, -0.04974397266480364, -0.07011571513290474, -0.12631708099106162, -0.08178986020809659, -0.017094391910122443, 0.015851476398540367, 0.042008302301702494, 0.010988259583202039, 0.1192432423771804, -0.011563279660260528, -0.06416380853087776, 0.01778153720510689, -0.026155639412650946, 0.04991300396935388, 0.019695524103134757, -0.06286075681797348, 0.0007657137615990462, -0.04466426264676466, -0.07140190011276451, -0.09502846616273712, 0.06141169537996395, -0.01271365334180499, 0.006738045024401534, -0.050401660323289056, -0.021312942836416212, 0.007810849444254007, -0.06203730426407051, 0.045398303595902224, 0.0353715626272695, 0.0037557766603449963, 0.0668527483023391, 0.03351310461566827, 0.053578899494859514, 0.004829084629712482, 0.0030819253589428955, 0.010533008822328981, 0.006096114565206365, -0.02697194651519762, 0.046606846328023706, -0.0012522302922422922, -0.06327660868102755, 0.02582061981295092, 0.0025558055875118347, 0.10295227707057954, -0.11845600511640181, 0.009155158828600775, -0.022583087712314768, 